svm_type c_svc
kernel_type linear
nr_class 2
total_sv 369
rho 0.11958637361888895
label 2 1
probA -3.2807979907461799
probB -0.20385877815669745
nr_sv 184 185
SV
0.0021544350000000001 1:0.95746818 2:-0.87202861 3:-0.48201404 4:-0.51182904 5:-0.24770291 6:-0.1933536 7:-0.28506568 8:-1.0520669 9:-0.35129127 10:-0.2967574 11:-0.56588444 12:0.14238949 13:-0.29289579 14:-0.26478731 15:-0.48257941 16:-0.062197158 17:-0.062197158 18:-0.21534843 19:-0.55748656 20:-0.55748656 21:-0.5306915 
0.0021544350000000001 1:0.95746818 2:1.1445376 3:-0.29185161 4:-0.28352128 5:-0.24770291 6:-0.056449723 7:-0.28506568 8:-0.67282218 9:-0.35129127 10:-0.2967574 11:0.44824382 12:-0.3516608 13:-0.29289579 14:-0.26478731 15:-0.48257941 16:-0.062197158 17:-0.062197158 18:-0.21534843 19:-0.55748656 20:-0.55748656 21:-0.5306915 
0.0021544350000000001 1:0.95746818 2:-0.87202861 3:-0.48201404 4:-0.27051641 5:-0.24770291 6:-0.1933536 7:-0.28506568 8:-0.68559674 9:2.8411452 10:-0.2967574 11:-0.45320352 12:1.1304901 13:-0.29289579 14:-0.26478731 15:2.0681975 16:-0.062197158 17:-0.062197158 18:-0.21534843 19:-0.55748656 20:-0.55748656 21:-0.5306915 
0.0021544350000000001 1:0.95746818 2:1.1445376 3:-0.29185161 4:-0.24739663 5:-0.24770291 6:1.4837189 7:-0.28506568 8:-0.79258367 9:-0.35129127 10:-0.2967574 11:-0.56588444 12:0.53762972 13:-0.29289579 14:-0.26478731 15:-0.48257941 16:-0.062197158 17:-0.062197158 18:-0.21534843 19:-0.55748656 20:-0.55748656 21:-0.5306915 
0.0021544350000000001 1:0.95746818 2:-0.87202861 3:-0.48201404 4:0.066165287 5:-0.24770291 6:-0.1933536 7:-0.28506568 8:1.0437591 9:-0.35129127 10:-0.2967574 11:-1.0166081 12:-0.94452114 13:-0.29289579 14:-0.26478731 15:-0.48257941 16:-0.062197158 17:-0.062197158 18:-0.21534843 19:-0.55748656 20:-0.55748656 21:1.8806962 
0.0021544350000000001 1:0.95746818 2:1.1445376 3:-0.29185161 4:0.86090748 5:-0.24770291 6:-0.1933536 7:-0.28506568 8:-0.36623278 9:-0.35129127 10:-0.2967574 11:0.17217557 12:-0.40897063 13:-0.29289579 14:3.7693253 15:-0.48257941 16:-0.062197158 17:-0.062197158 18:-0.21534843 19:1.7903024 20:1.7903024 21:-0.5306915 
0.0021544350000000001 1:0.95746818 2:1.1445376 3:0.27863568 4:0.49966103 5:-0.24770291 6:-0.17641174 7:-0.28506568 8:2.3683211 9:-0.35129127 10:-0.2967574 11:-1.0166081 12:0.043579432 13:-0.29289579 14:-0.26478731 15:-0.48257941 16:-0.062197158 17:-0.062197158 18:-0.21534843 19:-0.55748656 20:-0.55748656 21:-0.5306915 
0.0021544350000000001 1:-1.0424049 2:-0.87202861 3:-0.48201404 4:-0.60864309 5:-0.24770291 6:-0.1933536 7:-0.28506568 8:-0.5857955 9:-0.35129127 10:-0.2967574 11:-0.45320352 12:-0.81310377 13:-0.29289579 14:-0.26478731 15:-0.48257941 16:-0.062197158 17:-0.062197158 18:-0.21534843 19:-0.55748656 20:-0.55748656 21:1.8806962 
0.0021544350000000001 1:0.95746818 2:-0.87202861 3:-0.48201404 4:0.78865819 5:-0.24770291 6:-0.1933536 7:-0.28506568 8:1.0437591 9:-0.35129127 10:-0.2967574 11:0.78628658 12:-0.84571109 13:3.4075925 14:-0.26478731 15:2.0681975 16:-0.062197158 17:-0.062197158 18:-0.21534843 19:-0.55748656 20:-0.55748656 21:-0.5306915 
0.0021544350000000001 1:0.95746818 2:1.1445376 3:0.65896054 4:0.23522863 5:-0.24770291 6:-0.1933536 7:-0.28506568 8:-0.68559674 9:-0.35129127 10:-0.2967574 11:-0.56588444 12:-0.63129326 13:-0.29289579 14:-0.26478731 15:-0.48257941 16:-0.062197158 17:-0.062197158 18:-0.21534843 19:1.7903024 20:1.7903024 21:-0.5306915 
0.0021544350000000001 1:0.95746818 2:1.1445376 3:0.088473254 4:1.0892152 5:-0.24770291 6:-0.14201464 7:-0.28506568 8:0.052932419 9:-0.35129127 10:-0.2967574 11:0.73558016 12:-0.06313543 13:-0.29289579 14:3.7693253 15:2.0681975 16:-0.062197158 17:-0.062197158 18:-0.21534843 19:-0.55748656 20:-0.55748656 21:-0.5306915 
0.0021544350000000001 1:0.95746818 2:1.1445376 3:0.27863568 4:-0.29508117 5:-0.24770291 6:-0.1933536 7:-0.28506568 8:2.0353842 9:-0.35129127 10:-0.2967574 11:0.11020107 12:1.4763253 13:-0.29289579 14:-0.26478731 15:-0.48257941 16:-0.062197158 17:-0.062197158 18:-0.21534843 19:-0.55748656 20:-0.55748656 21:-0.5306915 
0.0021544350000000001 1:-1.0424049 2:-0.87202861 3:-0.48201404 4:-0.64476773 5:-0.24770291 6:0.26698568 7:-0.28506568 8:1.3431628 9:-0.35129127 10:-0.2967574 11:-1.0166081 12:0.24910435 13:-0.29289579 14:-0.26478731 15:-0.48257941 16:-0.062197158 17:-0.062197158 18:-0.21534843 19:-0.55748656 20:-0.55748656 21:-0.5306915 
0.0021544350000000001 1:0.95746818 2:-0.87202861 3:-0.48201404 4:-0.65632762 5:-0.24770291 6:-0.029068948 7:-0.28506568 8:1.1770936 9:-0.35129127 10:-0.2967574 11:-0.45320352 12:-0.15404068 13:-0.29289579 14:-0.26478731 15:-0.48257941 16:-0.062197158 17:-0.062197158 18:-0.21534843 19:-0.55748656 20:-0.55748656 21:-0.5306915 
0.0021544350000000001 1:-1.0424049 2:-0.87202861 3:-0.48201404 4:-0.65632762 5:-0.24770291 6:-0.1933536 7:-0.28506568 8:3.2194261 9:-0.35129127 10:-0.2967574 11:-1.0166081 12:-0.94452114 13:-0.29289579 14:-0.26478731 15:-0.48257941 16:-0.062197158 17:-0.062197158 18:-0.21534843 19:-0.55748656 20:-0.55748656 21:-0.5306915 
0.0021544350000000001 1:0.95746818 2:-0.87202861 3:-0.48201404 4:1.2221539 5:4.0293007 6:-0.1933536 7:-0.28506568 8:-2.495592 9:-0.35129127 10:-0.2967574 11:-1.0166081 12:1.1304901 13:-0.29289579 14:-0.26478731 15:-0.48257941 16:-0.062197158 17:-0.062197158 18:-0.21534843 19:-0.55748656 20:-0.55748656 21:-0.5306915 
0.0021544350000000001 1:0.95746818 2:-0.87202861 3:-0.48201404 4:-0.36733046 5:-0.24770291 6:-0.12490166 7:-0.28506568 8:-0.95226565 9:2.8411452 10:-0.2967574 11:-0.67856536 12:0.93286995 13:-0.29289579 14:-0.26478731 15:-0.48257941 16:-0.062197158 17:-0.062197158 18:-0.21534843 19:-0.55748656 20:-0.55748656 21:-0.5306915 
0.0021544350000000001 1:0.95746818 2:-0.87202861 3:-0.48201404 4:-0.29508117 5:4.0293007 6:0.71329231 7:-0.28506568 8:-0.3598455 9:-0.35129127 10:-0.2967574 11:-1.0166081 12:-0.72219851 13:-0.29289579 14:-0.26478731 15:2.0681975 16:-0.062197158 17:-0.062197158 18:-0.21534843 19:-0.55748656 20:-0.55748656 21:-0.5306915 
0.0021544350000000001 1:0.95746818 2:1.1445376 3:0.27863568 4:-0.50026915 5:-0.24770291 6:-0.10778868 7:-0.28506568 8:-0.14028278 9:-0.35129127 10:-0.2967574 11:1.1243293 12:-0.85361589 13:-0.29289579 14:-0.26478731 15:-0.48257941 16:-0.062197158 17:-0.062197158 18:-0.21534843 19:-0.55748656 20:-0.55748656 21:-0.5306915 
0.0019868618155555831 1:0.95746818 2:1.1445376 3:1.6097727 4:-0.5363938 5:-0.24770291 6:-0.19232682 7:-0.28506568 8:1.230587 9:-0.35129127 10:-0.2967574 11:1.4623721 12:-0.85361589 13:-0.29289579 14:3.7693253 15:2.0681975 16:-0.062197158 17:-0.062197158 18:-0.21534843 19:-0.55748656 20:-0.55748656 21:-0.5306915 
0.0021544350000000001 1:0.95746818 2:-0.87202861 3:-0.48201404 4:3.0283862 5:-0.24770291 6:-0.1933536 7:-0.28506568 8:0.87130257 9:2.8411452 10:-0.2967574 11:-0.49827589 12:0.051484237 13:-0.29289579 14:-0.26478731 15:2.0681975 16:-0.062197158 17:-0.062197158 18:-0.21534843 19:-0.55748656 20:-0.55748656 21:-0.5306915 
0.0021544350000000001 1:0.95746818 2:1.1445376 3:-0.29185161 4:-0.29508117 5:-0.24770291 6:-0.077327564 7:-0.28506568 8:-0.57302094 9:2.8411452 10:-0.2967574 11:-1.0166081 12:-0.84571109 13:-0.29289579 14:-0.26478731 15:2.0681975 16:-0.062197158 17:-0.062197158 18:-0.21534843 19:-0.55748656 20:-0.55748656 21:-0.5306915 
0.0021544350000000001 1:0.95746818 2:1.1445376 3:1.6097727 4:-0.15058259 5:-0.24770291 6:-0.10094348 7:-0.28506568 8:-0.086789314 9:-0.35129127 10:-0.2967574 11:-0.83631865 12:-0.84571109 13:-0.29289579 14:-0.26478731 15:-0.48257941 16:-0.062197158 17:-0.062197158 18:-0.21534843 19:-0.55748656 20:-0.55748656 21:1.8806962 
0.0021544350000000001 1:0.95746818 2:1.1445376 3:0.088473254 4:-0.51182904 5:-0.24770291 6:-0.1933536 7:-0.28506568 8:0.79146158 9:2.8411452 10:-0.2967574 11:-0.19967146 12:0.3400096 13:-0.29289579 14:-0.26478731 15:-0.48257941 16:-0.062197158 17:-0.062197158 18:-0.21534843 19:-0.55748656 20:-0.55748656 21:-0.5306915 
0.0021544350000000001 1:0.95746818 2:1.1445376 3:0.088473254 4:0.0054758825 5:-0.24770291 6:-0.1933536 7:-0.28506568 8:1.5028448 9:-0.35129127 10:-0.2967574 11:-0.13769695 12:1.5336351 13:-0.29289579 14:-0.26478731 15:-0.48257941 16:-0.062197158 17:-0.062197158 18:-0.21534843 19:-0.55748656 20:-0.55748656 21:-0.5306915 
0.0021544350000000001 1:0.95746818 2:1.1445376 3:1.2294478 4:-0.47570439 5:-0.24770291 6:-0.1933536 7:-0.28506568 8:-0.0005610448 9:-0.35129127 10:-0.2967574 11:0.0031541956 12:-0.20344571 13:-0.29289579 14:3.7693253 15:2.0681975 16:-0.062197158 17:-0.062197158 18:-0.21534843 19:-0.55748656 20:-0.55748656 21:-0.5306915 
0.0021544350000000001 1:0.95746818 2:1.1445376 3:-0.29185161 4:-0.55951357 5:-0.24770291 6:-0.18479711 7:-0.28506568 8:-0.83889144 9:-0.35129127 10:-0.2967574 11:-0.56588444 12:1.0978827 13:-0.29289579 14:3.7693253 15:2.0681975 16:-0.062197158 17:-0.062197158 18:-0.21534843 19:-0.55748656 20:-0.55748656 21:-0.5306915 
0.0021544350000000001 1:0.95746818 2:-0.87202861 3:-0.48201404 4:1.4865863 5:-0.24770291 6:-0.1933536 7:-0.28506568 8:0.23896193 9:-0.35129127 10:-0.2967574 11:-1.0166081 12:-0.3516608 13:-0.29289579 14:3.7693253 15:2.0681975 16:-0.062197158 17:-0.062197158 18:-0.21534843 19:-0.55748656 20:-0.55748656 21:-0.5306915 
0.0021544350000000001 1:0.95746818 2:1.1445376 3:0.84912297 4:0.090730045 5:-0.24770291 6:0.3640163 7:-0.28506568 8:-0.70555699 9:2.8411452 10:-0.2967574 11:-0.28981619 12:0.17499681 13:-0.29289579 14:-0.26478731 15:-0.48257941 16:-0.062197158 17:-0.062197158 18:-0.21534843 19:-0.55748656 20:-0.55748656 21:-0.5306915 
0.0021544350000000001 1:0.95746818 2:1.1445376 3:0.84912297 4:0.0054758825 5:-0.24770291 6:0.21461995 7:-0.28506568 8:-0.67282218 9:2.8411452 10:-0.2967574 11:-0.22784169 12:-0.49197108 13:-0.29289579 14:-0.26478731 15:2.0681975 16:-0.062197158 17:-0.062197158 18:-0.21534843 19:-0.55748656 20:-0.55748656 21:-0.5306915 
0.0021544350000000001 1:0.95746818 2:1.1445376 3:-0.10168918 4:-0.58407833 5:-0.24770291 6:-0.10778868 7:-0.28506568 8:-0.28000451 9:-0.35129127 10:-0.2967574 11:0.44824382 12:-0.82891338 13:-0.29289579 14:3.7693253 15:-0.48257941 16:-0.062197158 17:-0.062197158 18:-0.21534843 19:1.7903024 20:1.7903024 21:-0.5306915 
0.0021544350000000001 1:0.95746818 2:-0.87202861 3:-0.48201404 4:-0.15058259 5:-0.24770291 6:-0.050117919 7:-0.28506568 8:0.76431564 9:2.8411452 10:-0.2967574 11:-0.85322078 12:1.03168 13:-0.29289579 14:-0.26478731 15:2.0681975 16:-0.062197158 17:-0.062197158 18:-0.21534843 19:-0.55748656 20:-0.55748656 21:-0.5306915 
0.0021544350000000001 1:0.95746818 2:1.1445376 3:2.5605848 4:-0.3427657 5:-0.24770291 6:0.16242535 7:-0.28506568 8:0.072892666 9:-0.35129127 10:-0.2967574 11:-0.34052261 12:-0.65599578 13:-0.29289579 14:-0.26478731 15:-0.48257941 16:-0.062197158 17:-0.062197158 18:-0.21534843 19:-0.55748656 20:-0.55748656 21:-0.5306915 
0.0021544350000000001 1:0.95746818 2:-0.87202861 3:-0.48201404 4:0.21066387 5:-0.24770291 6:-0.1933536 7:-0.28506568 8:-0.99218614 9:-0.35129127 10:-0.2967574 11:0.3355629 12:-0.072028335 13:-0.29289579 14:-0.26478731 15:2.0681975 16:-0.062197158 17:-0.062197158 18:-0.21534843 19:1.7903024 20:1.7903024 21:1.8806962 
0.0021544350000000001 1:0.95746818 2:-0.87202861 3:-0.48201404 4:1.2221539 5:-0.24770291 6:5.1604436 7:-0.28506568 8:0.15273366 9:-0.35129127 10:-0.2967574 11:-0.092624585 12:-0.73899622 13:-0.29289579 14:-0.26478731 15:2.0681975 16:-0.062197158 17:-0.062197158 18:-0.21534843 19:-0.55748656 20:-0.55748656 21:-0.5306915 
0.0021544350000000001 1:0.95746818 2:1.1445376 3:1.6097727 4:-0.58407833 5:-0.24770291 6:0.27417314 7:-0.28506568 8:1.3830833 9:-0.35129127 10:-0.2967574 11:1.1243293 12:-0.90400902 13:-0.29289579 14:-0.26478731 15:-0.48257941 16:-0.062197158 17:-0.062197158 18:-0.21534843 19:1.7903024 20:1.7903024 21:-0.5306915 
0.0021544350000000001 1:0.95746818 2:1.1445376 3:0.088473254 4:0.066165287 5:-0.24770291 6:-0.036256401 7:-0.28506568 8:-0.7790107 9:-0.35129127 10:-0.2967574 11:-0.56588444 12:0.24119955 13:-0.29289579 14:-0.26478731 15:-0.48257941 16:-0.062197158 17:-0.062197158 18:-0.21534843 19:-0.55748656 20:-0.55748656 21:-0.5306915 
0.0021544350000000001 1:0.95746818 2:-0.87202861 3:-0.48201404 4:-0.22283188 5:-0.24770291 6:0.18415884 7:-0.28506568 8:-0.96504021 9:-0.35129127 10:-0.2967574 11:-0.34052261 12:0.93286995 13:-0.29289579 14:-0.26478731 15:-0.48257941 16:-0.062197158 17:-0.062197158 18:-0.21534843 19:-0.55748656 20:-0.55748656 21:-0.5306915 
0.0021544350000000001 1:0.95746818 2:-0.87202861 3:-0.48201404 4:-0.41501499 5:-0.24770291 6:-0.1933536 7:-0.28506568 8:-0.63928897 9:-0.35129127 10:-0.2967574 11:0.67360566 12:-0.74690103 13:-0.29289579 14:-0.26478731 15:-0.48257941 16:-0.062197158 17:-0.062197158 18:-0.21534843 19:-0.55748656 20:-0.55748656 21:1.8806962 
0.0021544350000000001 1:0.95746818 2:-0.87202861 3:-0.48201404 4:-0.4034551 5:-0.24770291 6:-0.1933536 7:-0.28506568 8:-0.43968649 9:-0.35129127 10:-0.2967574 11:1.7497084 12:-0.84571109 13:-0.29289579 14:-0.26478731 15:2.0681975 16:-0.062197158 17:-0.062197158 18:-0.21534843 19:-0.55748656 20:-0.55748656 21:1.8806962 
0.0021544350000000001 1:0.95746818 2:1.1445376 3:0.46879811 4:-0.15058259 5:-0.24770291 6:-0.18342807 7:-0.28506568 8:2.2549469 9:-0.35129127 10:-0.2967574 11:-0.67856536 12:-0.40106583 13:-0.29289579 14:-0.26478731 15:-0.48257941 16:-0.062197158 17:-0.062197158 18:-0.21534843 19:-0.55748656 20:-0.55748656 21:-0.5306915 
0.0021544350000000001 1:0.95746818 2:-0.87202861 3:-0.48201404 4:1.0776554 5:-0.24770291 6:-0.1933536 7:-0.28506568 8:1.3830833 9:2.8411452 10:-0.2967574 11:0.95530795 12:0.3400096 13:-0.29289579 14:-0.26478731 15:2.0681975 16:-0.062197158 17:-0.062197158 18:-0.21534843 19:-0.55748656 20:-0.55748656 21:-0.5306915 
0.0021544350000000001 1:0.95746818 2:-0.87202861 3:-0.48201404 4:-0.36733046 5:-0.24770291 6:-0.1933536 7:-0.28506568 8:0.55832589 9:-0.35129127 10:-0.2967574 11:-1.0166081 12:0.24119955 13:-0.29289579 14:-0.26478731 15:-0.48257941 16:-0.062197158 17:-0.062197158 18:-0.21534843 19:-0.55748656 20:-0.55748656 21:-0.5306915 
0.0021544350000000001 1:0.95746818 2:-0.87202861 3:-0.48201404 4:3.6786298 5:-0.24770291 6:-0.1933536 7:-0.28506568 8:0.80423614 9:-0.35129127 10:-0.2967574 11:-1.0166081 12:-0.94452114 13:-0.29289579 14:-0.26478731 15:-0.48257941 16:-0.062197158 17:-0.062197158 18:-0.21534843 19:-0.55748656 20:-0.55748656 21:1.8806962 
0.0021544350000000001 1:0.95746818 2:1.1445376 3:-0.29185161 4:-0.3427657 5:-0.24770291 6:-0.1933536 7:-0.28506568 8:-0.20016352 9:-0.35129127 10:-0.2967574 11:1.0736229 12:-0.20344571 13:-0.29289579 14:-0.26478731 15:-0.48257941 16:-0.062197158 17:-0.062197158 18:-0.21534843 19:-0.55748656 20:-0.55748656 21:1.8806962 
0.0021544350000000001 1:0.95746818 2:1.1445376 3:0.46879811 4:-0.23439176 5:-0.24770291 6:-0.1933536 7:-0.28506568 8:-0.43968649 9:-0.35129127 10:-0.2967574 11:0.74121421 12:-0.84571109 13:-0.29289579 14:-0.26478731 15:-0.48257941 16:-0.062197158 17:-0.062197158 18:-0.21534843 19:-0.55748656 20:-0.55748656 21:1.8806962 
0.0021544350000000001 1:0.95746818 2:-0.87202861 3:-0.48201404 4:-0.65632762 5:-0.24770291 6:-0.15912763 7:-0.28506568 8:0.29245539 9:-0.35129127 10:-0.2967574 11:0.32992886 12:-0.45047086 13:-0.29289579 14:-0.26478731 15:-0.48257941 16:-0.062197158 17:-0.062197158 18:-0.21534843 19:-0.55748656 20:-0.55748656 21:-0.5306915 
0.0021544350000000001 1:0.95746818 2:-0.87202861 3:-0.48201404 4:0.35516245 5:-0.24770291 6:-0.1933536 7:-0.28506568 8:1.3503485 9:-0.35129127 10:-0.2967574 11:0.27922245 12:-0.25285074 13:-0.29289579 14:-0.26478731 15:-0.48257941 16:-0.062197158 17:-0.062197158 18:-0.21534843 19:-0.55748656 20:-0.55748656 21:-0.5306915 
0.0021544350000000001 1:0.95746818 2:1.1445376 3:1.2294478 4:0.83634272 5:-0.24770291 6:-0.1933536 7:-0.28506568 8:1.2569346 9:-0.35129127 10:-0.2967574 11:-1.0166081 12:1.6245404 13:3.4075925 14:-0.26478731 15:-0.48257941 16:-0.062197158 17:-0.062197158 18:-0.21534843 19:-0.55748656 20:-0.55748656 21:-0.5306915 
0.0021544350000000001 1:0.95746818 2:-0.87202861 3:-0.48201404 4:1.6556497 5:-0.24770291 6:0.15369773 7:-0.28506568 8:1.9755035 9:-0.35129127 10:-0.2967574 11:-0.88139101 12:1.5257303 13:-0.29289579 14:-0.26478731 15:2.0681975 16:-0.062197158 17:-0.062197158 18:-0.21534843 19:-0.55748656 20:-0.55748656 21:-0.5306915 
0.0021544350000000001 1:0.95746818 2:-0.87202861 3:-0.48201404 4:0.86090748 5:-0.24770291 6:-0.1933536 7:-0.28506568 8:0.11281316 9:-0.35129127 10:-0.2967574 11:-0.14896504 12:0.83405989 13:-0.29289579 14:-0.26478731 15:2.0681975 16:-0.062197158 17:-0.062197158 18:-0.21534843 19:1.7903024 20:1.7903024 21:-0.5306915 
0.0021544350000000001 1:0.95746818 2:1.1445376 3:1.7999351 4:-0.12601783 5:-0.24770291 6:-0.071338019 7:-0.28506568 8:-0.31992501 9:-0.35129127 10:-0.2967574 11:2.2680407 12:-0.63129326 13:-0.29289579 14:3.7693253 15:2.0681975 16:-0.062197158 17:-0.062197158 18:-0.21534843 19:-0.55748656 20:-0.55748656 21:-0.5306915 
0.0021544350000000001 1:0.95746818 2:-0.87202861 3:-0.48201404 4:-0.62020297 5:-0.24770291 6:-0.1933536 7:-0.28506568 8:1.376696 9:-0.35129127 10:-0.2967574 11:0.25105222 12:-0.10463565 13:-0.29289579 14:-0.26478731 15:-0.48257941 16:-0.062197158 17:-0.062197158 18:-0.21534843 19:-0.55748656 20:-0.55748656 21:-0.5306915 
0.0021544350000000001 1:0.95746818 2:1.1445376 3:0.088473254 4:-0.18670723 5:-0.24770291 6:0.044688015 7:-0.28506568 8:-0.86523897 9:-0.35129127 10:-0.2967574 11:0.11020107 12:0.43881966 13:-0.29289579 14:-0.26478731 15:-0.48257941 16:-0.062197158 17:-0.062197158 18:-0.21534843 19:-0.55748656 20:-0.55748656 21:1.8806962 
0.0021544350000000001 1:0.95746818 2:-0.87202861 3:-0.48201404 4:-0.65632762 5:-0.24770291 6:-0.1933536 7:-0.28506568 8:-0.40615328 9:-0.35129127 10:-0.2967574 11:-1.0166081 12:-0.89511611 13:3.4075925 14:-0.26478731 15:-0.48257941 16:-0.062197158 17:-0.062197158 18:-0.21534843 19:-0.55748656 20:-0.55748656 21:-0.5306915 
0.0021544350000000001 1:0.95746818 2:-0.87202861 3:-0.48201404 4:3.967627 5:-0.24770291 6:-0.1933536 7:-0.28506568 8:1.3631231 9:-0.35129127 10:-0.2967574 11:-0.39686306 12:1.4269202 13:-0.29289579 14:-0.26478731 15:-0.48257941 16:-0.062197158 17:-0.062197158 18:-0.21534843 19:-0.55748656 20:-0.55748656 21:-0.5306915 
0.0021544350000000001 1:0.95746818 2:1.1445376 3:0.65896054 4:-0.18670723 5:-0.24770291 6:-0.090675692 7:-0.28506568 8:-0.99218614 9:-0.35129127 10:-0.2967574 11:-0.79124628 12:0.93286995 13:-0.29289579 14:-0.26478731 15:-0.48257941 16:-0.062197158 17:-0.062197158 18:-0.21534843 19:-0.55748656 20:-0.55748656 21:-0.5306915 
0.0021544350000000001 1:0.95746818 2:1.1445376 3:-0.10168918 4:-0.18670723 5:-0.24770291 6:-0.1933536 7:-0.28506568 8:0.14554797 9:2.8411452 10:-0.2967574 11:-1.0166081 12:-0.030528111 13:-0.29289579 14:-0.26478731 15:2.0681975 16:-0.062197158 17:-0.062197158 18:-0.21534843 19:-0.55748656 20:-0.55748656 21:-0.5306915 
0.0021544350000000001 1:0.95746818 2:1.1445376 3:-0.29185161 4:0.13841458 5:-0.24770291 6:-0.040705777 7:-0.28506568 8:1.2768948 9:2.8411452 10:-0.2967574 11:0.85952917 12:-0.79630606 13:-0.29289579 14:-0.26478731 15:2.0681975 16:-0.062197158 17:-0.062197158 18:-0.21534843 19:-0.55748656 20:-0.55748656 21:-0.5306915 
0.0021544350000000001 1:0.95746818 2:1.1445376 3:1.6097727 4:-0.65632762 5:-0.24770291 6:-0.1933536 7:-0.28506568 8:-0.76543773 9:-0.35129127 10:-0.2967574 11:-1.0166081 12:1.3281102 13:-0.29289579 14:-0.26478731 15:-0.48257941 16:-0.062197158 17:-0.062197158 18:-0.21534843 19:1.7903024 20:1.7903024 21:-0.5306915 
0.0021544350000000001 1:0.95746818 2:1.1445376 3:-0.29185161 4:-0.066773408 5:-0.24770291 6:2.8916041 7:-0.28506568 8:0.15273366 9:-0.35129127 10:-0.2967574 11:-0.0024798503 12:-0.34375599 13:-0.29289579 14:-0.26478731 15:2.0681975 16:-0.062197158 17:-0.062197158 18:-0.21534843 19:1.7903024 20:1.7903024 21:1.8806962 
0.0021544350000000001 1:0.95746818 2:-0.87202861 3:-0.48201404 4:0.066165287 5:-0.24770291 6:-0.1933536 7:-0.28506568 8:0.065706977 9:-0.35129127 10:-0.2967574 11:1.0116484 12:-0.15404068 13:-0.29289579 14:-0.26478731 15:-0.48257941 16:-0.062197158 17:-0.062197158 18:-0.21534843 19:-0.55748656 20:-0.55748656 21:-0.5306915 
0.0021544350000000001 1:-1.0424049 2:1.1445376 3:-0.29185161 4:-0.36733046 5:-0.24770291 6:-0.061925878 7:-0.28506568 8:-0.89238491 9:2.8411452 10:-0.2967574 11:0.3355629 12:-0.91981863 13:-0.29289579 14:-0.26478731 15:-0.48257941 16:-0.062197158 17:-0.062197158 18:-0.21534843 19:-0.55748656 20:-0.55748656 21:-0.5306915 
0.0021544350000000001 1:0.95746818 2:1.1445376 3:0.088473254 4:-0.17514734 5:-0.24770291 6:-0.18856196 7:-0.28506568 8:-0.88519922 9:-0.35129127 10:-0.2967574 11:-0.79124628 12:0.88346492 13:-0.29289579 14:-0.26478731 15:-0.48257941 16:-0.062197158 17:-0.062197158 18:-0.21534843 19:-0.55748656 20:-0.55748656 21:1.8806962 
0.0021544350000000001 1:0.95746818 2:1.1445376 3:2.18026 4:-0.089893181 5:-0.24770291 6:-0.16631508 7:-0.28506568 8:-0.88519922 9:-0.35129127 10:-0.2967574 11:-0.67856536 12:0.6700352 13:-0.29289579 14:-0.26478731 15:-0.48257941 16:-0.062197158 17:-0.062197158 18:-0.21534843 19:-0.55748656 20:-0.55748656 21:-0.5306915 
0.0021544350000000001 1:-1.0424049 2:-0.87202861 3:-0.48201404 4:-0.65632762 5:-0.24770291 6:-0.1933536 7:-0.28506568 8:-0.45325946 9:-0.35129127 10:-0.2967574 11:-1.0166081 12:-0.94452114 13:-0.29289579 14:-0.26478731 15:-0.48257941 16:-0.062197158 17:-0.062197158 18:-0.21534843 19:-0.55748656 20:-0.55748656 21:-0.5306915 
0.0021544350000000001 1:0.95746818 2:1.1445376 3:0.27863568 4:-0.36733046 5:-0.24770291 6:-0.10778868 7:-0.28506568 8:-0.98500045 9:-0.35129127 10:-0.2967574 11:-0.56588444 12:0.88346492 13:-0.29289579 14:-0.26478731 15:-0.48257941 16:-0.062197158 17:-0.062197158 18:-0.21534843 19:1.7903024 20:1.7903024 21:1.8806962 
0.0021544350000000001 1:-1.0424049 2:-0.87202861 3:-0.48201404 4:-0.65632762 5:-0.24770291 6:-0.1933536 7:-0.28506568 8:0.50483242 9:-0.35129127 10:-0.2967574 11:-1.0166081 12:-0.94452114 13:-0.29289579 14:-0.26478731 15:-0.48257941 16:-0.062197158 17:-0.062197158 18:-0.21534843 19:-0.55748656 20:-0.55748656 21:-0.5306915 
0.0021544350000000001 1:0.95746818 2:1.1445376 3:0.84912297 4:-0.47570439 5:-0.24770291 6:1.014652 7:-0.28506568 8:-0.48599427 9:-0.35129127 10:-0.2967574 11:-1.0166081 12:-0.25285074 13:-0.29289579 14:3.7693253 15:-0.48257941 16:-0.062197158 17:-0.062197158 18:-0.21534843 19:-0.55748656 20:-0.55748656 21:-0.5306915 
0.0021544350000000001 1:0.95746818 2:1.1445376 3:0.27863568 4:-0.43957975 5:4.0293007 6:-0.13842092 7:-0.28506568 8:-0.70555699 9:-0.35129127 10:-0.2967574 11:-1.0166081 12:1.2787052 13:-0.29289579 14:-0.26478731 15:2.0681975 16:-0.062197158 17:-0.062197158 18:-0.21534843 19:1.7903024 20:1.7903024 21:-0.5306915 
0.0021544350000000001 1:0.95746818 2:1.1445376 3:0.46879811 4:-0.28352128 5:-0.24770291 6:-0.0056241592 7:-0.28506568 8:0.62459391 9:-0.35129127 10:-0.2967574 11:-0.40813116 12:0.24119955 13:-0.29289579 14:-0.26478731 15:-0.48257941 16:-0.062197158 17:-0.062197158 18:-0.21534843 19:-0.55748656 20:-0.55748656 21:-0.5306915 
0.0021544350000000001 1:0.95746818 2:1.1445376 3:-0.29185161 4:-0.17514734 5:4.0293007 6:-0.189931 7:-0.28506568 8:-0.49317995 9:-0.35129127 10:-0.2967574 11:1.20884 12:-0.60659075 13:-0.29289579 14:-0.26478731 15:-0.48257941 16:-0.062197158 17:-0.062197158 18:-0.21534843 19:-0.55748656 20:-0.55748656 21:-0.5306915 
0.0021544350000000001 1:0.95746818 2:-0.87202861 3:-0.48201404 4:2.5226412 5:-0.24770291 6:-0.1933536 7:-0.28506568 8:-0.23369674 9:-0.35129127 10:-0.2967574 11:-0.6222249 12:0.043579432 13:-0.29289579 14:-0.26478731 15:-0.48257941 16:-0.062197158 17:-0.062197158 18:-0.21534843 19:-0.55748656 20:-0.55748656 21:-0.5306915 
0.0021544350000000001 1:0.95746818 2:1.1445376 3:-0.29185161 4:-0.078333295 5:-0.24770291 6:-0.19010213 7:-0.28506568 8:-0.046868819 9:-0.35129127 10:-0.2967574 11:0.22288199 12:1.4269202 13:-0.29289579 14:-0.26478731 15:-0.48257941 16:-0.062197158 17:-0.062197158 18:-0.21534843 19:-0.55748656 20:-0.55748656 21:1.8806962 
0.0021544350000000001 1:0.95746818 2:-0.87202861 3:-0.48201404 4:-0.64476773 5:-0.24770291 6:1.7193647 7:-0.28506568 8:0.085667225 9:-0.35129127 10:-0.2967574 11:1.4623721 12:-0.83780628 13:-0.29289579 14:3.7693253 15:-0.48257941 16:-0.062197158 17:-0.062197158 18:-0.21534843 19:-0.55748656 20:-0.55748656 21:-0.5306915 
0.0021544350000000001 1:0.95746818 2:1.1445376 3:0.46879811 4:-0.36733046 5:-0.24770291 6:0.79526351 7:-0.28506568 8:-0.36623278 9:-0.35129127 10:-0.2967574 11:-0.11516077 12:-0.59868594 13:-0.29289579 14:-0.26478731 15:-0.48257941 16:-0.062197158 17:-0.062197158 18:-0.21534843 19:1.7903024 20:1.7903024 21:1.8806962 
0.0021544350000000001 1:0.95746818 2:1.1445376 3:1.0392854 4:0.030040641 5:-0.24770291 6:0.51837542 7:-0.28506568 8:1.1834808 9:-0.35129127 10:-0.2967574 11:1.2144741 12:-0.3516608 13:-0.29289579 14:-0.26478731 15:-0.48257941 16:-0.062197158 17:-0.062197158 18:-0.21534843 19:-0.55748656 20:-0.55748656 21:1.8806962 
0.0021544350000000001 1:0.95746818 2:1.1445376 3:0.84912297 4:0.64415961 5:-0.24770291 6:0.023981304 7:-0.28506568 8:0.31241564 9:-0.35129127 10:-0.2967574 11:-0.17150123 12:-0.45047086 13:-0.29289579 14:-0.26478731 15:-0.48257941 16:-0.062197158 17:-0.062197158 18:-0.21534843 19:-0.55748656 20:-0.55748656 21:-0.5306915 
0.0021544350000000001 1:0.95746818 2:1.1445376 3:-0.29185161 4:-0.19826712 5:-0.24770291 6:-0.1933536 7:-0.28506568 8:-0.86523897 9:2.8411452 10:-0.2967574 11:-1.0166081 12:-0.77950835 13:-0.29289579 14:-0.26478731 15:-0.48257941 16:-0.062197158 17:-0.062197158 18:-0.21534843 19:-0.55748656 20:-0.55748656 21:-0.5306915 
0.0021544350000000001 1:0.95746818 2:1.1445376 3:1.6097727 4:-0.042208649 5:-0.24770291 6:-0.14475272 7:-0.28506568 8:-0.65286193 9:-0.35129127 10:-0.2967574 11:0.6172652 12:1.3281102 13:-0.29289579 14:-0.26478731 15:2.0681975 16:-0.062197158 17:-0.062197158 18:-0.21534843 19:-0.55748656 20:-0.55748656 21:-0.5306915 
0.0021544350000000001 1:0.95746818 2:-0.87202861 3:-0.48201404 4:-0.24739663 5:-0.24770291 6:-0.16768412 7:-0.28506568 8:-0.41333896 9:-0.35129127 10:-0.2967574 11:-0.11516077 12:0.76785715 13:-0.29289579 14:-0.26478731 15:-0.48257941 16:-0.062197158 17:-0.062197158 18:-0.21534843 19:-0.55748656 20:-0.55748656 21:-0.5306915 
0.0021544350000000001 1:0.95746818 2:-0.87202861 3:-0.48201404 4:0.82478284 5:-0.24770291 6:-0.1933536 7:-0.28506568 8:0.8577296 9:-0.35129127 10:-0.2967574 11:1.2370103 12:-0.90400902 13:3.4075925 14:-0.26478731 15:2.0681975 16:-0.062197158 17:-0.062197158 18:-0.21534843 19:-0.55748656 20:-0.55748656 21:-0.5306915 
0.0021544350000000001 1:0.95746818 2:-0.87202861 3:-0.48201404 4:-0.35577057 5:4.0293007 6:0.80946729 7:-0.28506568 8:-0.49956723 9:-0.35129127 10:-0.2967574 11:-0.11516077 12:-0.77160354 13:-0.29289579 14:-0.26478731 15:2.0681975 16:-0.062197158 17:-0.062197158 18:-0.21534843 19:-0.55748656 20:-0.55748656 21:-0.5306915 
0.0021544350000000001 1:0.95746818 2:1.1445376 3:1.0392854 4:-0.15058259 5:-0.24770291 6:-0.12917991 7:-0.28506568 8:0.93757059 9:-0.35129127 10:-0.2967574 11:-0.45320352 12:-0.88721131 13:-0.29289579 14:3.7693253 15:2.0681975 16:-0.062197158 17:-0.062197158 18:-0.21534843 19:1.7903024 20:1.7903024 21:-0.5306915 
0.0021544350000000001 1:0.95746818 2:1.1445376 3:0.46879811 4:0.80021808 5:-0.24770291 6:-0.1933536 7:-0.28506568 8:-0.16024303 9:-0.35129127 10:-0.2967574 11:-0.070088401 12:1.9782804 13:-0.29289579 14:-0.26478731 15:-0.48257941 16:-0.062197158 17:-0.062197158 18:-0.21534843 19:-0.55748656 20:-0.55748656 21:-0.5306915 
0.0021544350000000001 1:-1.0424049 2:-0.87202861 3:-0.48201404 4:-0.22283188 5:-0.24770291 6:-0.1933536 7:-0.28506568 8:0.49844514 9:-0.35129127 10:-0.2967574 11:1.4116657 12:-0.72219851 13:-0.29289579 14:-0.26478731 15:-0.48257941 16:-0.062197158 17:-0.062197158 18:4.6346727 19:1.7903024 20:1.7903024 21:-0.5306915 
0.0021544350000000001 1:0.95746818 2:-0.87202861 3:-0.48201404 4:-0.62020297 5:-0.24770291 6:-0.1933536 7:-0.28506568 8:2.2685199 9:2.8411452 10:-0.2967574 11:0.44824382 12:-0.64018617 13:-0.29289579 14:-0.26478731 15:-0.48257941 16:-0.062197158 17:-0.062197158 18:-0.21534843 19:-0.55748656 20:-0.55748656 21:-0.5306915 
0.0021544350000000001 1:0.95746818 2:-0.87202861 3:-0.48201404 4:-0.63176286 5:-0.24770291 6:-0.1933536 7:-0.28506568 8:0.5918591 9:-0.35129127 10:-0.2967574 11:0.56092474 12:-0.90302092 13:-0.29289579 14:-0.26478731 15:-0.48257941 16:-0.062197158 17:-0.062197158 18:-0.21534843 19:-0.55748656 20:-0.55748656 21:-0.5306915 
0.0021544350000000001 1:-1.0424049 2:-0.87202861 3:-0.48201404 4:2.233644 5:-0.24770291 6:-0.1933536 7:-0.28506568 8:-1.0520669 9:-0.35129127 10:3.3632506 11:0.67360566 12:-0.8704136 13:-0.29289579 14:3.7693253 15:-0.48257941 16:16.046867 17:16.046867 18:-0.21534843 19:-0.55748656 20:-0.55748656 21:-0.5306915 
0.0021544350000000001 1:0.95746818 2:-0.87202861 3:-0.48201404 4:-0.16214247 5:-0.24770291 6:-0.1933536 7:-0.28506568 8:-0.88519922 9:-0.35129127 10:-0.2967574 11:-0.34052261 12:0.167092 13:-0.29289579 14:-0.26478731 15:-0.48257941 16:-0.062197158 17:-0.062197158 18:-0.21534843 19:-0.55748656 20:-0.55748656 21:-0.5306915 
0.0021544350000000001 1:0.95746818 2:-0.87202861 3:-0.48201404 4:-0.58407833 5:-0.24770291 6:-0.18941761 7:-0.28506568 8:-0.43968649 9:-0.35129127 10:-0.2967574 11:0.94967391 12:-0.79630606 13:-0.29289579 14:-0.26478731 15:-0.48257941 16:-0.062197158 17:-0.062197158 18:-0.21534843 19:-0.55748656 20:-0.55748656 21:1.8806962 
0.0021544350000000001 1:0.95746818 2:-0.87202861 3:-0.48201404 4:-0.64476773 5:-0.24770291 6:-0.1933536 7:-0.28506568 8:-0.83250416 9:-0.35129127 10:-0.2967574 11:-0.45320352 12:-0.3516608 13:-0.29289579 14:-0.26478731 15:-0.48257941 16:-0.062197158 17:-0.062197158 18:-0.21534843 19:-0.55748656 20:-0.55748656 21:-0.5306915 
0.0021544350000000001 1:0.95746818 2:1.1445376 3:1.6097727 4:3.5095665 5:-0.24770291 6:-0.14201464 7:3.5011913 8:1.8621293 9:-0.35129127 10:3.3632506 11:-0.84758674 12:0.91607224 13:-0.29289579 14:-0.26478731 15:-0.48257941 16:-0.062197158 17:-0.062197158 18:-0.21534843 19:-0.55748656 20:-0.55748656 21:-0.5306915 
0.0021544350000000001 1:0.95746818 2:1.1445376 3:0.46879811 4:-0.053768536 5:-0.24770291 6:0.2349844 7:-0.28506568 8:-0.84527872 9:2.8411452 10:-0.2967574 11:0.22288199 12:-0.58188823 13:-0.29289579 14:-0.26478731 15:-0.48257941 16:-0.062197158 17:-0.062197158 18:-0.21534843 19:-0.55748656 20:-0.55748656 21:-0.5306915 
0.0021544350000000001 1:0.95746818 2:1.1445376 3:-0.29185161 4:-0.006084004 5:-0.24770291 6:-0.16768412 7:-0.28506568 8:-0.86523897 9:-0.35129127 10:-0.2967574 11:-0.45320352 12:-0.58188823 13:-0.29289579 14:-0.26478731 15:-0.48257941 16:-0.062197158 17:-0.062197158 18:-0.21534843 19:-0.55748656 20:-0.55748656 21:1.8806962 
0.0021544350000000001 1:0.95746818 2:1.1445376 3:0.088473254 4:-0.60864309 5:-0.24770291 6:-0.19232682 7:-0.28506568 8:-0.84527872 9:2.8411452 10:-0.2967574 11:-0.45320352 12:-0.3516608 13:-0.29289579 14:-0.26478731 15:-0.48257941 16:-0.062197158 17:-0.062197158 18:-0.21534843 19:-0.55748656 20:-0.55748656 21:-0.5306915 
0.0021544350000000001 1:0.95746818 2:-0.87202861 3:-0.48201404 4:0.48810114 5:-0.24770291 6:-0.13961883 7:-0.28506568 8:1.8493547 9:-0.35129127 10:-0.2967574 11:-0.0024798503 12:-0.84571109 13:-0.29289579 14:-0.26478731 15:2.0681975 16:-0.062197158 17:-0.062197158 18:-0.21534843 19:1.7903024 20:1.7903024 21:-0.5306915 
0.0021544350000000001 1:0.95746818 2:1.1445376 3:1.0392854 4:0.24678851 5:-0.24770291 6:0.012002215 7:-0.28506568 8:-0.086789314 9:-0.35129127 10:-0.2967574 11:0.84262704 12:0.3400096 13:-0.29289579 14:3.7693253 15:-0.48257941 16:-0.062197158 17:-0.062197158 18:-0.21534843 19:-0.55748656 20:-0.55748656 21:-0.5306915 
0.0021544350000000001 1:0.95746818 2:1.1445376 3:0.84912297 4:0.066165287 5:-0.24770291 6:-0.054909554 7:-0.28506568 8:-0.67920946 9:2.8411452 10:-0.2967574 11:-0.45320352 12:1.2293001 13:-0.29289579 14:-0.26478731 15:-0.48257941 16:-0.062197158 17:-0.062197158 18:-0.21534843 19:-0.55748656 20:-0.55748656 21:-0.5306915 
0.0021544350000000001 1:0.95746818 2:-0.87202861 3:-0.48201404 4:-0.63176286 5:-0.24770291 6:-0.1933536 7:-0.28506568 8:-0.64567625 9:-0.35129127 10:-0.2967574 11:-1.0166081 12:-0.94452114 13:-0.29289579 14:3.7693253 15:-0.48257941 16:-0.062197158 17:-0.062197158 18:-0.21534843 19:-0.55748656 20:-0.55748656 21:-0.5306915 
0.0021544350000000001 1:-1.0424049 2:-0.87202861 3:-0.48201404 4:0.0546054 5:4.0293007 6:-0.1933536 7:-0.28506568 8:-0.69916971 9:-0.35129127 10:-0.2967574 11:-0.092624585 12:0.72734503 13:-0.29289579 14:-0.26478731 15:-0.48257941 16:-0.062197158 17:-0.062197158 18:-0.21534843 19:1.7903024 20:1.7903024 21:-0.5306915 
0.0021544350000000001 1:0.95746818 2:1.1445376 3:0.46879811 4:-0.5363938 5:-0.24770291 6:-0.097520885 7:-0.28506568 8:-0.69278243 9:2.8411452 10:-0.2967574 11:-1.0166081 12:1.1798951 13:-0.29289579 14:-0.26478731 15:-0.48257941 16:-0.062197158 17:-0.062197158 18:-0.21534843 19:-0.55748656 20:-0.55748656 21:-0.5306915 
0.0021544350000000001 1:0.95746818 2:1.1445376 3:0.84912297 4:-0.57251844 5:-0.24770291 6:0.68351572 7:-0.28506568 8:-0.47321971 9:-0.35129127 10:-0.2967574 11:-0.47573971 12:-0.82990148 13:-0.29289579 14:-0.26478731 15:-0.48257941 16:-0.062197158 17:-0.062197158 18:-0.21534843 19:-0.55748656 20:-0.55748656 21:1.8806962 
0.0021544350000000001 1:0.95746818 2:1.1445376 3:1.2294478 4:0.35516245 5:-0.24770291 6:-0.066375254 7:-0.28506568 8:-0.65286193 9:-0.35129127 10:-0.2967574 11:-0.70110154 12:1.3281102 13:3.4075925 14:-0.26478731 15:-0.48257941 16:-0.062197158 17:-0.062197158 18:-0.21534843 19:-0.55748656 20:-0.55748656 21:-0.5306915 
0.0021544350000000001 1:-1.0424049 2:-0.87202861 3:-0.48201404 4:-0.59563821 5:-0.24770291 6:-0.1865084 7:-0.28506568 8:-1.0584542 9:2.8411452 10:-0.2967574 11:0.11020107 12:-0.91191382 13:-0.29289579 14:-0.26478731 15:-0.48257941 16:-0.062197158 17:-0.062197158 18:-0.21534843 19:-0.55748656 20:-0.55748656 21:-0.5306915 
0.0021544350000000001 1:0.95746818 2:1.1445376 3:2.3704224 4:-0.65632762 5:-0.24770291 6:-0.15108453 7:-0.28506568 8:2.015424 9:-0.35129127 10:3.3632506 11:-1.0166081 12:2.2174007 13:-0.29289579 14:-0.26478731 15:-0.48257941 16:-0.062197158 17:-0.062197158 18:-0.21534843 19:-0.55748656 20:-0.55748656 21:-0.5306915 
0.0021544350000000001 1:0.95746818 2:-0.87202861 3:-0.48201404 4:-0.24739663 5:-0.24770291 6:-0.15912763 7:-0.28506568 8:-0.63290169 9:-0.35129127 10:-0.2967574 11:1.3609593 12:-0.64809097 13:-0.29289579 14:-0.26478731 15:2.0681975 16:-0.062197158 17:-0.062197158 18:-0.21534843 19:-0.55748656 20:-0.55748656 21:1.8806962 
0.0021544350000000001 1:0.95746818 2:-0.87202861 3:-0.48201404 4:-0.65632762 5:-0.24770291 6:-0.1933536 7:-0.28506568 8:-0.87881194 9:-0.35129127 10:-0.2967574 11:-1.0166081 12:1.0237752 13:-0.29289579 14:-0.26478731 15:-0.48257941 16:-0.062197158 17:-0.062197158 18:-0.21534843 19:-0.55748656 20:-0.55748656 21:-0.5306915 
0.0021544350000000001 1:0.95746818 2:1.1445376 3:0.65896054 4:-0.006084004 5:-0.24770291 6:-0.090675692 7:-0.28506568 8:-0.5131402 9:-0.35129127 10:-0.2967574 11:-1.0166081 12:-0.40106583 13:-0.29289579 14:-0.26478731 15:-0.48257941 16:-0.062197158 17:-0.062197158 18:-0.21534843 19:-0.55748656 20:-0.55748656 21:1.8806962 
0.0021544350000000001 1:0.95746818 2:1.1445376 3:1.6097727 4:-0.078333295 5:-0.24770291 6:-0.11531839 7:-0.28506568 8:0.37868366 9:-0.35129127 10:-0.2967574 11:-1.0166081 12:-0.74690103 13:-0.29289579 14:-0.26478731 15:-0.48257941 16:-0.062197158 17:-0.062197158 18:-0.21534843 19:-0.55748656 20:-0.55748656 21:1.8806962 
0.0021544350000000001 1:0.95746818 2:1.1445376 3:1.0392854 4:-0.54795368 5:-0.24770291 6:-0.16563056 7:-0.28506568 8:0.94395787 9:-0.35129127 10:-0.2967574 11:0.67360566 12:-0.8704136 13:-0.29289579 14:-0.26478731 15:-0.48257941 16:-0.062197158 17:-0.062197158 18:-0.21534843 19:1.7903024 20:1.7903024 21:1.8806962 
0.0021544350000000001 1:0.95746818 2:1.1445376 3:-0.29185161 4:0.35516245 5:-0.24770291 6:-0.10778868 7:-0.28506568 8:0.69804762 9:-0.35129127 10:-0.2967574 11:-1.0166081 12:0.3400096 13:-0.29289579 14:-0.26478731 15:-0.48257941 16:-0.062197158 17:-0.062197158 18:-0.21534843 19:-0.55748656 20:-0.55748656 21:-0.5306915 
0.0021544350000000001 1:0.95746818 2:-0.87202861 3:-0.48201404 4:-0.65632762 5:-0.24770291 6:2.0676139 7:-0.28506568 8:-0.25365698 9:-0.35129127 10:-0.2967574 11:-1.0166081 12:2.0197806 13:-0.29289579 14:-0.26478731 15:-0.48257941 16:-0.062197158 17:-0.062197158 18:-0.21534843 19:1.7903024 20:1.7903024 21:-0.5306915 
0.0021544350000000001 1:0.95746818 2:-0.87202861 3:-0.48201404 4:1.0054061 5:-0.24770291 6:-0.10778868 7:-0.28506568 8:-0.28639179 9:-0.35129127 10:-0.2967574 11:1.7271722 12:1.7727554 13:-0.29289579 14:-0.26478731 15:-0.48257941 16:-0.062197158 17:-0.062197158 18:-0.21534843 19:-0.55748656 20:-0.55748656 21:-0.5306915 
0.0021544350000000001 1:0.95746818 2:-0.87202861 3:-0.48201404 4:-0.64476773 5:-0.24770291 6:0.7991995 7:-0.28506568 8:0.49205786 9:-0.35129127 10:-0.2967574 11:1.2370103 12:-0.54137611 13:-0.29289579 14:-0.26478731 15:-0.48257941 16:-0.062197158 17:-0.062197158 18:-0.21534843 19:-0.55748656 20:-0.55748656 21:-0.5306915 
0.0021544350000000001 1:0.95746818 2:1.1445376 3:0.46879811 4:0.42741174 5:-0.24770291 6:-0.19284021 7:-0.28506568 8:-0.27361723 9:-0.35129127 10:-0.2967574 11:-0.45320352 12:-0.64018617 13:-0.29289579 14:-0.26478731 15:-0.48257941 16:-0.062197158 17:-0.062197158 18:-0.21534843 19:-0.55748656 20:-0.55748656 21:-0.5306915 
0.0021544350000000001 1:-1.0424049 2:-0.87202861 3:-0.48201404 4:-0.54795368 5:-0.24770291 6:-0.18582388 7:-0.28506568 8:0.19265415 9:-0.35129127 10:-0.2967574 11:0.67360566 12:-0.8704136 13:-0.29289579 14:3.7693253 15:-0.48257941 16:-0.062197158 17:-0.062197158 18:-0.21534843 19:-0.55748656 20:-0.55748656 21:-0.5306915 
0.0021544350000000001 1:0.95746818 2:1.1445376 3:-0.10168918 4:1.5111511 5:-0.24770291 6:-0.1933536 7:-0.28506568 8:-0.1338955 9:-0.35129127 10:-0.2967574 11:0.84262704 12:-0.055230626 13:-0.29289579 14:-0.26478731 15:-0.48257941 16:-0.062197158 17:-0.062197158 18:-0.21534843 19:-0.55748656 20:-0.55748656 21:-0.5306915 
0.0021544350000000001 1:0.95746818 2:1.1445376 3:-0.29185161 4:0.28291316 5:-0.24770291 6:1.1756852 7:-0.28506568 8:0.079279945 9:-0.35129127 10:-0.2967574 11:1.4172997 12:-0.91191382 13:-0.29289579 14:-0.26478731 15:2.0681975 16:-0.062197158 17:-0.062197158 18:-0.21534843 19:1.7903024 20:1.7903024 21:1.8806962 
0.0021544350000000001 1:0.95746818 2:-0.87202861 3:-0.48201404 4:-0.25895652 5:-0.24770291 6:-0.1933536 7:-0.28506568 8:-1.0919874 9:-0.35129127 10:-0.2967574 11:-1.0166081 12:0.83405989 13:-0.29289579 14:-0.26478731 15:-0.48257941 16:-0.062197158 17:-0.062197158 18:-0.21534843 19:-0.55748656 20:-0.55748656 21:-0.5306915 
0.0021544350000000001 1:0.95746818 2:1.1445376 3:-0.29185161 4:-0.64476773 5:-0.24770291 6:-0.14201464 7:-0.28506568 8:0.69166034 9:2.8411452 10:-0.2967574 11:0.11020107 12:0.28269977 13:-0.29289579 14:-0.26478731 15:-0.48257941 16:-0.062197158 17:-0.062197158 18:-0.21534843 19:-0.55748656 20:-0.55748656 21:-0.5306915 
0.0021544350000000001 1:0.95746818 2:1.1445376 3:0.46879811 4:-0.006084004 5:-0.24770291 6:-0.10778868 7:-0.28506568 8:-0.10036228 9:-0.35129127 10:-0.2967574 11:-0.45883757 12:0.10088927 13:-0.29289579 14:-0.26478731 15:-0.48257941 16:-0.062197158 17:-0.062197158 18:-0.21534843 19:-0.55748656 20:-0.55748656 21:-0.5306915 
0.0021544350000000001 1:0.95746818 2:1.1445376 3:0.088473254 4:-0.51182904 5:-0.24770291 6:-0.022223754 7:-0.28506568 8:0.69166034 9:-0.35129127 10:-0.2967574 11:0.11020107 12:-0.83780628 13:-0.29289579 14:-0.26478731 15:-0.48257941 16:-0.062197158 17:-0.062197158 18:-0.21534843 19:1.7903024 20:1.7903024 21:-0.5306915 
0.0021544350000000001 1:0.95746818 2:1.1445376 3:0.84912297 4:-0.23439176 5:-0.24770291 6:0.31216396 7:-0.28506568 8:-0.94507996 9:-0.35129127 10:-0.2967574 11:-0.56588444 12:0.3400096 13:-0.29289579 14:-0.26478731 15:2.0681975 16:-0.062197158 17:-0.062197158 18:-0.21534843 19:-0.55748656 20:-0.55748656 21:-0.5306915 
0.0021544350000000001 1:0.95746818 2:1.1445376 3:0.088473254 4:-0.15058259 5:-0.24770291 6:-0.19095778 7:-0.28506568 8:1.3567358 9:-0.35129127 10:-0.2967574 11:-0.34052261 12:4.0127794 13:-0.29289579 14:-0.26478731 15:-0.48257941 16:-0.062197158 17:-0.062197158 18:-0.21534843 19:-0.55748656 20:-0.55748656 21:-0.5306915 
0.0021544350000000001 1:0.95746818 2:-0.87202861 3:-0.48201404 4:0.21066387 5:-0.24770291 6:-0.1933536 7:-0.28506568 8:-0.49956723 9:-0.35129127 10:-0.2967574 11:-0.9039272 12:1.5257303 13:-0.29289579 14:-0.26478731 15:-0.48257941 16:-0.062197158 17:-0.062197158 18:-0.21534843 19:-0.55748656 20:-0.55748656 21:-0.5306915 
0.0021544350000000001 1:0.95746818 2:-0.87202861 3:-0.48201404 4:-0.62020297 5:-0.24770291 6:-0.1933536 7:-0.28506568 8:0.51840539 9:2.8411452 10:-0.2967574 11:0.26795435 12:0.14238949 13:-0.29289579 14:-0.26478731 15:-0.48257941 16:-0.062197158 17:-0.062197158 18:-0.21534843 19:-0.55748656 20:-0.55748656 21:-0.5306915 
0.0021544350000000001 1:0.95746818 2:-0.87202861 3:-0.48201404 4:0.090730045 5:-0.24770291 6:-0.1933536 7:-0.28506568 8:-0.68559674 9:-0.35129127 10:-0.2967574 11:-1.0166081 12:-0.44256605 13:-0.29289579 14:-0.26478731 15:2.0681975 16:-0.062197158 17:-0.062197158 18:-0.21534843 19:1.7903024 20:1.7903024 21:1.8806962 
0.0021544350000000001 1:0.95746818 2:1.1445376 3:0.84912297 4:0.49966103 5:-0.24770291 6:0.33115937 7:-0.28506568 8:-0.060441787 9:-0.35129127 10:-0.2967574 11:-1.0166081 12:0.3400096 13:-0.29289579 14:-0.26478731 15:-0.48257941 16:-0.062197158 17:-0.062197158 18:-0.21534843 19:-0.55748656 20:-0.55748656 21:1.8806962 
0.0021544350000000001 1:0.95746818 2:1.1445376 3:1.6097727 4:-0.65632762 5:-0.24770291 6:0.046228183 7:3.5011913 8:2.7076453 9:-0.35129127 10:3.3632506 11:-1.0166081 12:1.8221605 13:-0.29289579 14:-0.26478731 15:-0.48257941 16:-0.062197158 17:-0.062197158 18:-0.21534843 19:-0.55748656 20:-0.55748656 21:-0.5306915 
0.0021544350000000001 1:-1.0424049 2:-0.87202861 3:-0.48201404 4:-0.65632762 5:-0.24770291 6:-0.1933536 7:-0.28506568 8:-0.64567625 9:-0.35129127 10:-0.2967574 11:-1.0166081 12:-0.94452114 13:-0.29289579 14:-0.26478731 15:-0.48257941 16:-0.062197158 17:-0.062197158 18:-0.21534843 19:-0.55748656 20:-0.55748656 21:-0.5306915 
0.0021544350000000001 1:0.95746818 2:-0.87202861 3:-0.48201404 4:0.78865819 5:-0.24770291 6:0.49116578 7:-0.28506568 8:0.4385644 9:-0.35129127 10:-0.2967574 11:-1.0166081 12:0.068281946 13:-0.29289579 14:-0.26478731 15:-0.48257941 16:-0.062197158 17:-0.062197158 18:-0.21534843 19:-0.55748656 20:-0.55748656 21:-0.5306915 
0.0021544350000000001 1:0.95746818 2:1.1445376 3:0.088473254 4:0.78865819 5:4.0293007 6:0.19665132 7:-0.28506568 8:-2.495592 9:-0.35129127 10:-0.2967574 11:0.6172652 12:-0.15404068 13:-0.29289579 14:-0.26478731 15:-0.48257941 16:-0.062197158 17:-0.062197158 18:-0.21534843 19:-0.55748656 20:-0.55748656 21:-0.5306915 
0.0021544350000000001 1:0.95746818 2:-0.87202861 3:-0.48201404 4:-0.4034551 5:4.0293007 6:-0.1933536 7:-0.28506568 8:-0.48599427 9:-0.35129127 10:-0.2967574 11:1.0116484 12:-0.37636331 13:-0.29289579 14:-0.26478731 15:2.0681975 16:-0.062197158 17:-0.062197158 18:-0.21534843 19:-0.55748656 20:-0.55748656 21:-0.5306915 
0.0021544350000000001 1:-1.0424049 2:1.1445376 3:-0.29185161 4:-0.64476773 5:-0.24770291 6:-0.1933536 7:-0.28506568 8:0.77788861 9:-0.35129127 10:-0.2967574 11:2.1384576 12:-0.93661634 13:-0.29289579 14:-0.26478731 15:-0.48257941 16:-0.062197158 17:-0.062197158 18:-0.21534843 19:-0.55748656 20:-0.55748656 21:-0.5306915 
0.0021544350000000001 1:0.95746818 2:-0.87202861 3:-0.48201404 4:-0.65632762 5:-0.24770291 6:-0.1933536 7:3.5011913 8:3.3663335 9:-0.35129127 10:3.3632506 11:-1.0166081 12:2.5632359 13:-0.29289579 14:-0.26478731 15:-0.48257941 16:-0.062197158 17:-0.062197158 18:-0.21534843 19:-0.55748656 20:-0.55748656 21:-0.5306915 
0.0021544350000000001 1:0.95746818 2:1.1445376 3:-0.10168918 4:-0.15058259 5:-0.24770291 6:-0.19078665 7:-0.28506568 8:1.0174116 9:-0.35129127 10:-0.2967574 11:-1.0166081 12:-0.54928091 13:-0.29289579 14:-0.26478731 15:-0.48257941 16:-0.062197158 17:-0.062197158 18:-0.21534843 19:-0.55748656 20:-0.55748656 21:-0.5306915 
0.0021544350000000001 1:0.95746818 2:1.1445376 3:1.7999351 4:0.64415961 5:-0.24770291 6:-0.1555339 7:-0.28506568 8:0.23257465 9:-0.35129127 10:-0.2967574 11:-1.0166081 12:0.86765531 13:-0.29289579 14:-0.26478731 15:-0.48257941 16:-0.062197158 17:-0.062197158 18:-0.21534843 19:-0.55748656 20:-0.55748656 21:1.8806962 
0.0021544350000000001 1:0.95746818 2:1.1445376 3:1.0392854 4:-0.3427657 5:-0.24770291 6:-0.19318247 7:-0.28506568 8:-0.81893119 9:-0.35129127 10:-0.2967574 11:-0.11516077 12:-0.3516608 13:-0.29289579 14:-0.26478731 15:-0.48257941 16:-0.062197158 17:-0.062197158 18:4.6346727 19:1.7903024 20:1.7903024 21:-0.5306915 
0.0021544350000000001 1:0.95746818 2:1.1445376 3:0.27863568 4:-0.51182904 5:-0.24770291 6:-0.1933536 7:-0.28506568 8:-0.79897095 9:-0.35129127 10:-0.2967574 11:-0.56588444 12:-0.48307817 13:3.4075925 14:-0.26478731 15:-0.48257941 16:-0.062197158 17:-0.062197158 18:-0.21534843 19:-0.55748656 20:-0.55748656 21:-0.5306915 
0.0021544350000000001 1:0.95746818 2:-0.87202861 3:-0.48201404 4:-0.19826712 5:-0.24770291 6:-0.1933536 7:-0.28506568 8:-0.54587501 9:2.8411452 10:-0.2967574 11:-0.34052261 12:1.493123 13:-0.29289579 14:-0.26478731 15:2.0681975 16:-0.062197158 17:-0.062197158 18:-0.21534843 19:-0.55748656 20:-0.55748656 21:-0.5306915 
0.0021544350000000001 1:0.95746818 2:1.1445376 3:1.6097727 4:-0.65632762 5:-0.24770291 6:0.020387577 7:-0.28506568 8:1.602646 9:-0.35129127 10:-0.2967574 11:-1.0166081 12:1.03168 13:3.4075925 14:-0.26478731 15:-0.48257941 16:-0.062197158 17:-0.062197158 18:-0.21534843 19:-0.55748656 20:-0.55748656 21:-0.5306915 
0.0021544350000000001 1:0.95746818 2:-0.87202861 3:-0.48201404 4:2.5226412 5:-0.24770291 6:1.6139487 7:-0.28506568 8:2.3411752 9:2.8411452 10:-0.2967574 11:-0.89829315 12:2.3162108 13:-0.29289579 14:-0.26478731 15:-0.48257941 16:-0.062197158 17:-0.062197158 18:-0.21534843 19:-0.55748656 20:-0.55748656 21:-0.5306915 
0.0021544350000000001 1:0.95746818 2:-0.87202861 3:-0.48201404 4:-0.15058259 5:-0.24770291 6:-0.1933536 7:-0.28506568 8:-0.41972624 9:2.8411452 10:-0.2967574 11:0.56092474 12:-0.74690103 13:-0.29289579 14:-0.26478731 15:-0.48257941 16:-0.062197158 17:-0.062197158 18:-0.21534843 19:-0.55748656 20:-0.55748656 21:-0.5306915 
0.0021544350000000001 1:0.95746818 2:-0.87202861 3:-0.48201404 4:0.66727938 5:-0.24770291 6:-0.1933536 7:-0.28506568 8:0.92399762 9:2.8411452 10:-0.2967574 11:-1.0166081 12:-0.030528111 13:-0.29289579 14:-0.26478731 15:-0.48257941 16:-0.062197158 17:-0.062197158 18:-0.21534843 19:-0.55748656 20:-0.55748656 21:-0.5306915 
0.0021544350000000001 1:0.95746818 2:-0.87202861 3:-0.48201404 4:0.066165287 5:4.0293007 6:-0.090675692 7:-0.28506568 8:0.83776935 9:-0.35129127 10:-0.2967574 11:1.8567553 12:-0.75480583 13:-0.29289579 14:-0.26478731 15:-0.48257941 16:-0.062197158 17:-0.062197158 18:-0.21534843 19:-0.55748656 20:-0.55748656 21:-0.5306915 
0.0021544350000000001 1:-1.0424049 2:-0.87202861 3:-0.48201404 4:-0.006084004 5:-0.24770291 6:-0.1933536 7:-0.28506568 8:-0.68559674 9:-0.35129127 10:-0.2967574 11:-1.0166081 12:-0.91191382 13:-0.29289579 14:-0.26478731 15:-0.48257941 16:-0.062197158 17:-0.062197158 18:-0.21534843 19:-0.55748656 20:-0.55748656 21:1.8806962 
0.0021544350000000001 1:0.95746818 2:1.1445376 3:-0.29185161 4:0.077725173 5:4.0293007 6:-0.1933536 7:-0.28506568 8:-0.22012377 9:-0.35129127 10:-0.2967574 11:-0.6222249 12:-0.34375599 13:-0.29289579 14:-0.26478731 15:2.0681975 16:-0.062197158 17:-0.062197158 18:-0.21534843 19:1.7903024 20:1.7903024 21:-0.5306915 
0.0021544350000000001 1:0.95746818 2:1.1445376 3:0.088473254 4:0.2583484 5:4.0293007 6:-0.1933536 7:-0.28506568 8:0.15273366 9:-0.35129127 10:-0.2967574 11:1.1243293 12:-0.31905348 13:-0.29289579 14:-0.26478731 15:-0.48257941 16:-0.062197158 17:-0.062197158 18:-0.21534843 19:1.7903024 20:1.7903024 21:-0.5306915 
0.0021544350000000001 1:0.95746818 2:-0.87202861 3:-0.48201404 4:0.93315677 5:-0.24770291 6:-0.1933536 7:-0.28506568 8:-0.5530607 9:-0.35129127 10:-0.2967574 11:-0.45320352 12:0.36471212 13:-0.29289579 14:-0.26478731 15:-0.48257941 16:-0.062197158 17:-0.062197158 18:4.6346727 19:1.7903024 20:1.7903024 21:-0.5306915 
0.0021544350000000001 1:0.95746818 2:-0.87202861 3:-0.48201404 4:0.21066387 5:-0.24770291 6:-0.1933536 7:-0.28506568 8:-0.79258367 9:-0.35129127 10:-0.2967574 11:-1.0166081 12:1.1304901 13:-0.29289579 14:-0.26478731 15:-0.48257941 16:-0.062197158 17:-0.062197158 18:-0.21534843 19:-0.55748656 20:-0.55748656 21:1.8806962 
0.0021544350000000001 1:0.95746818 2:1.1445376 3:1.2294478 4:0.21066387 5:-0.24770291 6:-0.068428812 7:-0.28506568 8:0.032972171 9:-0.35129127 10:-0.2967574 11:0.39190336 12:2.250008 13:-0.29289579 14:-0.26478731 15:-0.48257941 16:-0.062197158 17:-0.062197158 18:4.6346727 19:-0.55748656 20:-0.55748656 21:-0.5306915 
0.0021544350000000001 1:0.95746818 2:-0.87202861 3:-0.48201404 4:-0.64476773 5:4.0293007 6:0.32003593 7:-0.28506568 8:1.6098317 9:-0.35129127 10:-0.2967574 11:-1.0166081 12:-0.93661634 13:-0.29289579 14:-0.26478731 15:2.0681975 16:-0.062197158 17:-0.062197158 18:-0.21534843 19:-0.55748656 20:-0.55748656 21:-0.5306915 
0.0021544350000000001 1:0.95746818 2:1.1445376 3:1.6097727 4:-0.3427657 5:-0.24770291 6:0.18039398 7:-0.28506568 8:-0.65286193 9:-0.35129127 10:-0.2967574 11:-0.67856536 12:-0.45047086 13:-0.29289579 14:-0.26478731 15:-0.48257941 16:-0.062197158 17:-0.062197158 18:-0.21534843 19:-0.55748656 20:-0.55748656 21:1.8806962 
0.0021544350000000001 1:0.95746818 2:1.1445376 3:-0.29185161 4:-0.64476773 5:-0.24770291 6:0.14890609 7:-0.28506568 8:0.22538896 9:-0.35129127 10:-0.2967574 11:0.56092474 12:-0.92871153 13:-0.29289579 14:-0.26478731 15:-0.48257941 16:-0.062197158 17:-0.062197158 18:-0.21534843 19:1.7903024 20:1.7903024 21:-0.5306915 
0.0021544350000000001 1:0.95746818 2:1.1445376 3:0.65896054 4:1.619525 5:-0.24770291 6:0.022270005 7:-0.28506568 8:1.3168153 9:-0.35129127 10:-0.2967574 11:-1.0166081 12:0.63643978 13:-0.29289579 14:-0.26478731 15:-0.48257941 16:-0.062197158 17:-0.062197158 18:-0.21534843 19:-0.55748656 20:-0.55748656 21:1.8806962 
0.0021544350000000001 1:0.95746818 2:1.1445376 3:0.088473254 4:-0.37889034 5:-0.24770291 6:-0.1933536 7:-0.28506568 8:-0.24008402 9:-0.35129127 10:-0.2967574 11:1.2144741 12:-0.77160354 13:-0.29289579 14:-0.26478731 15:-0.48257941 16:-0.062197158 17:-0.062197158 18:-0.21534843 19:-0.55748656 20:-0.55748656 21:-0.5306915 
0.0021544350000000001 1:0.95746818 2:1.1445376 3:-0.10168918 4:-0.43957975 5:-0.24770291 6:-0.09221586 7:-0.28506568 8:-0.98500045 9:-0.35129127 10:-0.2967574 11:-0.52081207 12:0.83405989 13:-0.29289579 14:-0.26478731 15:-0.48257941 16:-0.062197158 17:-0.062197158 18:-0.21534843 19:-0.55748656 20:-0.55748656 21:-0.5306915 
0.0021544350000000001 1:0.95746818 2:1.1445376 3:0.84912297 4:0.78865819 5:-0.24770291 6:0.33115937 7:-0.28506568 8:0.74435539 9:-0.35129127 10:-0.2967574 11:-1.0166081 12:0.043579432 13:-0.29289579 14:-0.26478731 15:-0.48257941 16:-0.062197158 17:-0.062197158 18:-0.21534843 19:-0.55748656 20:-0.55748656 21:1.8806962 
0.0021544350000000001 1:0.95746818 2:1.1445376 3:1.4196103 4:-0.58407833 5:-0.24770291 6:-0.1933536 7:-0.28506568 8:0.43217712 9:-0.35129127 10:-0.2967574 11:0.78628658 12:-0.072028335 13:-0.29289579 14:-0.26478731 15:-0.48257941 16:-0.062197158 17:-0.062197158 18:-0.21534843 19:1.7903024 20:1.7903024 21:-0.5306915 
0.0021544350000000001 1:-1.0424049 2:-0.87202861 3:-0.48201404 4:-0.030648763 5:-0.24770291 6:-0.1933536 7:-0.28506568 8:-0.73270292 9:-0.35129127 10:-0.2967574 11:-0.29545024 12:-0.78049645 13:-0.29289579 14:-0.26478731 15:2.0681975 16:-0.062197158 17:-0.062197158 18:-0.21534843 19:-0.55748656 20:-0.55748656 21:1.8806962 
0.0021544350000000001 1:0.95746818 2:-0.87202861 3:-0.48201404 4:0.066165287 5:-0.24770291 6:-0.1933536 7:-0.28506568 8:-0.85885169 9:-0.35129127 10:-0.2967574 11:-0.79124628 12:1.03168 13:-0.29289579 14:-0.26478731 15:-0.48257941 16:-0.062197158 17:-0.062197158 18:-0.21534843 19:1.7903024 20:1.7903024 21:1.8806962 
0.0021544350000000001 1:0.95746818 2:1.1445376 3:0.46879811 4:-0.62020297 5:4.0293007 6:-0.1933536 7:-0.28506568 8:0.6317796 9:-0.35129127 10:-0.2967574 11:1.6877339 12:-0.60659075 13:-0.29289579 14:-0.26478731 15:-0.48257941 16:-0.062197158 17:-0.062197158 18:-0.21534843 19:-0.55748656 20:-0.55748656 21:-0.5306915 
0.0021544350000000001 1:0.95746818 2:1.1445376 3:1.6097727 4:-0.078333295 5:-0.24770291 6:0.32003593 7:-0.28506568 8:-0.85885169 9:-0.35129127 10:-0.2967574 11:0.11020107 12:-0.46726857 13:-0.29289579 14:-0.26478731 15:-0.48257941 16:-0.062197158 17:-0.062197158 18:-0.21534843 19:-0.55748656 20:-0.55748656 21:1.8806962 
0.0021544350000000001 1:0.95746818 2:-0.87202861 3:-0.48201404 4:-0.54795368 5:-0.24770291 6:-0.011100314 7:-0.28506568 8:-0.33988525 9:-0.35129127 10:-0.2967574 11:0.44824382 12:-0.64809097 13:-0.29289579 14:-0.26478731 15:-0.48257941 16:-0.062197158 17:-0.062197158 18:-0.21534843 19:1.7903024 20:1.7903024 21:-0.5306915 
0.0021544350000000001 1:0.95746818 2:1.1445376 3:-0.29185161 4:-0.006084004 5:-0.24770291 6:-0.14201464 7:-0.28506568 8:-0.81893119 9:-0.35129127 10:-0.2967574 11:-0.56588444 12:0.0020792078 13:-0.29289579 14:-0.26478731 15:-0.48257941 16:-0.062197158 17:-0.062197158 18:-0.21534843 19:1.7903024 20:1.7903024 21:-0.5306915 
0.0021544350000000001 1:0.95746818 2:1.1445376 3:-0.29185161 4:-0.64476773 5:4.0293007 6:-0.18325694 7:-0.28506568 8:-0.74547748 9:-0.35129127 10:-0.2967574 11:3.7159905 12:-0.83780628 13:-0.29289579 14:-0.26478731 15:-0.48257941 16:-0.062197158 17:-0.062197158 18:-0.21534843 19:1.7903024 20:1.7903024 21:-0.5306915 
0.0021544350000000001 1:0.95746818 2:1.1445376 3:0.088473254 4:0.030040641 5:-0.24770291 6:-0.093756029 7:-0.28506568 8:-0.63928897 9:2.8411452 10:-0.2967574 11:-1.0166081 12:-0.64809097 13:-0.29289579 14:-0.26478731 15:-0.48257941 16:-0.062197158 17:-0.062197158 18:-0.21534843 19:-0.55748656 20:-0.55748656 21:-0.5306915 
0.0021544350000000001 1:0.95746818 2:1.1445376 3:0.46879811 4:0.066165287 5:-0.24770291 6:0.051362079 7:-0.28506568 8:-0.2065508 9:-0.35129127 10:-0.2967574 11:0.67360566 12:-0.73899622 13:-0.29289579 14:-0.26478731 15:-0.48257941 16:-0.062197158 17:-0.062197158 18:-0.21534843 19:-0.55748656 20:-0.55748656 21:1.8806962 
0.0021544350000000001 1:0.95746818 2:1.1445376 3:0.088473254 4:-0.58407833 5:-0.24770291 6:2.3920761 7:-0.28506568 8:-0.45964674 9:-0.35129127 10:-0.2967574 11:0.44824382 12:-0.8704136 13:-0.29289579 14:-0.26478731 15:-0.48257941 16:-0.062197158 17:-0.062197158 18:-0.21534843 19:-0.55748656 20:-0.55748656 21:-0.5306915 
0.0021544350000000001 1:-1.0424049 2:-0.87202861 3:-0.48201404 4:-0.64476773 5:-0.24770291 6:-0.1933536 7:-0.28506568 8:-1.2045632 9:-0.35129127 10:-0.2967574 11:-1.0166081 12:-0.93661634 13:-0.29289579 14:-0.26478731 15:-0.48257941 16:-0.062197158 17:-0.062197158 18:-0.21534843 19:-0.55748656 20:-0.55748656 21:1.8806962 
0.0021544350000000001 1:0.95746818 2:1.1445376 3:-0.10168918 4:0.28291316 5:-0.24770291 6:-0.088964393 7:-0.28506568 8:0.25253489 9:-0.35129127 10:-0.2967574 11:0.52712047 12:-0.10463565 13:3.4075925 14:-0.26478731 15:-0.48257941 16:-0.062197158 17:-0.062197158 18:-0.21534843 19:-0.55748656 20:-0.55748656 21:-0.5306915 
0.0021544350000000001 1:0.95746818 2:-0.87202861 3:-0.48201404 4:1.9446468 5:-0.24770291 6:-0.084001628 7:-0.28506568 8:0.43217712 9:2.8411452 10:-0.2967574 11:-0.44193543 12:-0.30225577 13:-0.29289579 14:-0.26478731 15:2.0681975 16:-0.062197158 17:-0.062197158 18:-0.21534843 19:-0.55748656 20:-0.55748656 21:-0.5306915 
0.0021544350000000001 1:0.95746818 2:-0.87202861 3:-0.48201404 4:-0.46414451 5:-0.24770291 6:-0.1933536 7:-0.28506568 8:-0.73270292 9:-0.35129127 10:-0.2967574 11:-0.45320352 12:1.2293001 13:-0.29289579 14:3.7693253 15:-0.48257941 16:-0.062197158 17:-0.062197158 18:-0.21534843 19:-0.55748656 20:-0.55748656 21:-0.5306915 
0.001273358864615941 1:0.95746818 2:1.1445376 3:1.4196103 4:0.25979339 5:-0.24770291 6:-0.15142679 7:-0.28506568 8:-0.63928897 9:2.8411452 10:-0.2967574 11:-0.34052261 12:0.21649703 13:-0.29289579 14:-0.26478731 15:-0.48257941 16:-0.062197158 17:-0.062197158 18:-0.21534843 19:-0.55748656 20:-0.55748656 21:-0.5306915 
0.0021544350000000001 1:0.95746818 2:1.1445376 3:-0.29185161 4:-0.22283188 5:-0.24770291 6:-0.15330921 7:-0.28506568 8:-0.86523897 9:-0.35129127 10:-0.2967574 11:-0.11516077 12:0.53762972 13:-0.29289579 14:-0.26478731 15:-0.48257941 16:-0.062197158 17:-0.062197158 18:-0.21534843 19:-0.55748656 20:-0.55748656 21:-0.5306915 
0.0021544350000000001 1:0.95746818 2:1.1445376 3:0.088473254 4:-0.078333295 5:-0.24770291 6:-0.097520885 7:-0.28506568 8:-0.29357748 9:-0.35129127 10:-0.2967574 11:1.0679889 12:-0.54137611 13:-0.29289579 14:-0.26478731 15:-0.48257941 16:-0.062197158 17:-0.062197158 18:-0.21534843 19:1.7903024 20:1.7903024 21:-0.5306915 
0.0021544350000000001 1:0.95746818 2:1.1445376 3:0.65896054 4:0.066165287 5:-0.24770291 6:-0.13054895 7:-0.28506568 8:0.39864391 9:-0.35129127 10:-0.2967574 11:-1.0166081 12:0.043579432 13:-0.29289579 14:-0.26478731 15:-0.48257941 16:-0.062197158 17:-0.062197158 18:-0.21534843 19:-0.55748656 20:-0.55748656 21:1.8806962 
0.0021544350000000001 1:0.95746818 2:1.1445376 3:-0.29185161 4:-0.29508117 5:-0.24770291 6:-0.1933536 7:-0.28506568 8:-0.034094261 9:-0.35129127 10:-0.2967574 11:0.12146916 12:-0.94452114 13:-0.29289579 14:-0.26478731 15:-0.48257941 16:-0.062197158 17:-0.062197158 18:-0.21534843 19:-0.55748656 20:-0.55748656 21:-0.5306915 
0.0021544350000000001 1:0.95746818 2:1.1445376 3:0.65896054 4:0.57191032 5:-0.24770291 6:-0.1933536 7:-0.28506568 8:0.18546846 9:-0.35129127 10:-0.2967574 11:0.13273725 12:-0.40106583 13:-0.29289579 14:-0.26478731 15:-0.48257941 16:-0.062197158 17:-0.062197158 18:-0.21534843 19:-0.55748656 20:-0.55748656 21:-0.5306915 
0.0021544350000000001 1:0.95746818 2:1.1445376 3:0.27863568 4:-0.43957975 5:-0.24770291 6:0.077544945 7:-0.28506568 8:0.35872341 9:-0.35129127 10:-0.2967574 11:-1.0166081 12:-0.76369874 13:-0.29289579 14:-0.26478731 15:-0.48257941 16:-0.062197158 17:-0.062197158 18:-0.21534843 19:-0.55748656 20:-0.55748656 21:-0.5306915 
0.0021544350000000001 1:0.95746818 2:1.1445376 3:1.0392854 4:-0.22283188 5:-0.24770291 6:-0.19215569 7:-0.28506568 8:-0.24008402 9:-0.35129127 10:-0.2967574 11:-0.2053055 12:0.051484237 13:-0.29289579 14:-0.26478731 15:-0.48257941 16:-0.062197158 17:-0.062197158 18:-0.21534843 19:1.7903024 20:1.7903024 21:1.8806962 
0.0021544350000000001 1:0.95746818 2:1.1445376 3:-0.10168918 4:0.7164089 5:4.0293007 6:-0.19215569 7:-0.28506568 8:-0.24008402 9:-0.35129127 10:-0.2967574 11:1.3496912 12:0.068281946 13:-0.29289579 14:-0.26478731 15:-0.48257941 16:-0.062197158 17:-0.062197158 18:-0.21534843 19:-0.55748656 20:-0.55748656 21:-0.5306915 
0.0021544350000000001 1:-1.0424049 2:-0.87202861 3:-0.48201404 4:-0.22283188 5:-0.24770291 6:-0.17401593 7:-0.28506568 8:0.4385644 9:-0.35129127 10:-0.2967574 11:0.29049054 12:-0.91981863 13:-0.29289579 14:-0.26478731 15:-0.48257941 16:-0.062197158 17:-0.062197158 18:-0.21534843 19:1.7903024 20:1.7903024 21:1.8806962 
-0.0021544350000000001 1:0.95746818 2:1.1445376 3:-0.29185161 4:0.066165287 5:-0.24770291 6:-0.189931 7:-0.28506568 8:-0.76543773 9:-0.35129127 10:-0.2967574 11:-0.0024798503 12:-0.71429371 13:-0.29289579 14:-0.26478731 15:-0.48257941 16:-0.062197158 17:-0.062197158 18:-0.21534843 19:1.7903024 20:1.7903024 21:-0.5306915 
-0.0021544350000000001 1:-1.0424049 2:-0.87202861 3:-0.48201404 4:-0.62020297 5:-0.24770291 6:-0.18582388 7:-0.28506568 8:-0.84527872 9:-0.35129127 10:-0.2967574 11:-1.0166081 12:-0.8625088 13:-0.29289579 14:-0.26478731 15:-0.48257941 16:-0.062197158 17:-0.062197158 18:-0.21534843 19:-0.55748656 20:-0.55748656 21:1.8806962 
-0.0021544350000000001 1:-1.0424049 2:-0.87202861 3:-0.48201404 4:-0.29508117 5:-0.24770291 6:-0.19044439 7:-0.28506568 8:-0.40615328 9:-0.35129127 10:-0.2967574 11:-1.0166081 12:1.5257303 13:-0.29289579 14:-0.26478731 15:2.0681975 16:-0.062197158 17:-0.062197158 18:-0.21534843 19:1.7903024 20:1.7903024 21:-0.5306915 
-0.0021544350000000001 1:-1.0424049 2:-0.87202861 3:-0.48201404 4:-0.64476773 5:-0.24770291 6:-0.19249795 7:-0.28506568 8:0.49844514 9:-0.35129127 10:-0.2967574 11:-0.34052261 12:-0.77950835 13:-0.29289579 14:-0.26478731 15:-0.48257941 16:-0.062197158 17:-0.062197158 18:-0.21534843 19:-0.55748656 20:-0.55748656 21:-0.5306915 
-0.0021544350000000001 1:0.95746818 2:1.1445376 3:0.46879811 4:-0.42657487 5:-0.24770291 6:-0.19249795 7:-0.28506568 8:-0.91873243 9:-0.35129127 10:-0.2967574 11:-0.22784169 12:-0.79630606 13:-0.29289579 14:-0.26478731 15:-0.48257941 16:-0.062197158 17:-0.062197158 18:-0.21534843 19:-0.55748656 20:-0.55748656 21:1.8806962 
-0.0021544350000000001 1:0.95746818 2:-0.87202861 3:-0.48201404 4:-0.58407833 5:-0.24770291 6:-0.1933536 7:-0.28506568 8:0.23896193 9:-0.35129127 10:-0.2967574 11:-0.098258631 12:-0.59868594 13:-0.29289579 14:-0.26478731 15:-0.48257941 16:-0.062197158 17:-0.062197158 18:-0.21534843 19:-0.55748656 20:-0.55748656 21:-0.5306915 
-0.0021544350000000001 1:-1.0424049 2:1.1445376 3:-0.29185161 4:3.353508 5:-0.24770291 6:-0.17418706 7:-0.28506568 8:0.92399762 9:-0.35129127 10:-0.2967574 11:0.96657605 12:-0.697496 13:-0.29289579 14:-0.26478731 15:-0.48257941 16:-0.062197158 17:-0.062197158 18:-0.21534843 19:-0.55748656 20:-0.55748656 21:-0.5306915 
-0.0021544350000000001 1:-1.0424049 2:-0.87202861 3:-0.48201404 4:-0.51182904 5:-0.24770291 6:-0.1933536 7:-0.28506568 8:-0.89877218 9:-0.35129127 10:-0.2967574 11:-1.0166081 12:0.43881966 13:-0.29289579 14:-0.26478731 15:-0.48257941 16:-0.062197158 17:-0.062197158 18:-0.21534843 19:-0.55748656 20:-0.55748656 21:1.8806962 
-0.0021544350000000001 1:-1.0424049 2:1.1445376 3:-0.29185161 4:1.2221539 5:-0.24770291 6:-0.1916423 7:3.5011913 8:2.1016522 9:-0.35129127 10:3.3632506 11:-1.0166081 12:-0.54928091 13:-0.29289579 14:-0.26478731 15:-0.48257941 16:-0.062197158 17:-0.062197158 18:-0.21534843 19:-0.55748656 20:-0.55748656 21:-0.5306915 
-0.0021544350000000001 1:0.95746818 2:1.1445376 3:0.65896054 4:0.10228993 5:-0.24770291 6:-0.13397154 7:-0.28506568 8:-0.61294144 9:-0.35129127 10:-0.2967574 11:0.15527344 12:-0.85361589 13:-0.29289579 14:-0.26478731 15:-0.48257941 16:-0.062197158 17:-0.062197158 18:-0.21534843 19:1.7903024 20:1.7903024 21:-0.5306915 
-0.0021544350000000001 1:0.95746818 2:1.1445376 3:-0.29185161 4:-0.65632762 5:-0.24770291 6:-0.1933536 7:3.5011913 8:1.4629243 9:-0.35129127 10:3.3632506 11:-0.4870078 12:2.810261 13:-0.29289579 14:-0.26478731 15:-0.48257941 16:-0.062197158 17:-0.062197158 18:-0.21534843 19:-0.55748656 20:-0.55748656 21:-0.5306915 
-0.0021544350000000001 1:-1.0424049 2:-0.87202861 3:-0.48201404 4:-0.64476773 5:-0.24770291 6:-0.021539235 7:-0.28506568 8:-0.24647129 9:-0.35129127 10:-0.2967574 11:0.44824382 12:-0.82891338 13:-0.29289579 14:-0.26478731 15:-0.48257941 16:-0.062197158 17:-0.062197158 18:-0.21534843 19:-0.55748656 20:-0.55748656 21:-0.5306915 
-0.0021544350000000001 1:-1.0424049 2:1.1445376 3:-0.29185161 4:-0.58407833 5:-0.24770291 6:-0.19266908 7:-0.28506568 8:-0.59936847 9:-0.35129127 10:-0.2967574 11:0.3355629 12:-0.80421086 13:-0.29289579 14:-0.26478731 15:-0.48257941 16:-0.062197158 17:-0.062197158 18:-0.21534843 19:-0.55748656 20:-0.55748656 21:-0.5306915 
-0.0021544350000000001 1:-1.0424049 2:-0.87202861 3:-0.48201404 4:-0.51182904 5:-0.24770291 6:-0.1933536 7:-0.28506568 8:0.27888242 9:-0.35129127 10:-0.2967574 11:0.94403986 12:-0.45047086 13:-0.29289579 14:3.7693253 15:-0.48257941 16:-0.062197158 17:-0.062197158 18:-0.21534843 19:-0.55748656 20:-0.55748656 21:-0.5306915 
-0.0021544350000000001 1:-1.0424049 2:-0.87202861 3:-0.48201404 4:-0.60864309 5:-0.24770291 6:-0.1933536 7:-0.28506568 8:-0.68559674 9:-0.35129127 10:-0.2967574 11:-0.11516077 12:0.43881966 13:-0.29289579 14:-0.26478731 15:-0.48257941 16:-0.062197158 17:-0.062197158 18:-0.21534843 19:-0.55748656 20:-0.55748656 21:1.8806962 
-0.0021544350000000001 1:-1.0424049 2:-0.87202861 3:-0.48201404 4:-0.58407833 5:-0.24770291 6:-0.1933536 7:-0.28506568 8:-0.57302094 9:-0.35129127 10:-0.2967574 11:-1.0166081 12:0.83405989 13:-0.29289579 14:-0.26478731 15:-0.48257941 16:-0.062197158 17:-0.062197158 18:-0.21534843 19:-0.55748656 20:-0.55748656 21:-0.5306915 
-0.0021544350000000001 1:-1.0424049 2:-0.87202861 3:-0.48201404 4:-0.51182904 5:-0.24770291 6:-0.19301134 7:-0.28506568 8:0.61181935 9:-0.35129127 10:-0.2967574 11:0.67360566 12:-0.59868594 13:-0.29289579 14:-0.26478731 15:-0.48257941 16:-0.062197158 17:-0.062197158 18:-0.21534843 19:-0.55748656 20:-0.55748656 21:-0.5306915 
-0.0021544350000000001 1:0.95746818 2:-0.87202861 3:-0.48201404 4:2.9561369 5:-0.24770291 6:-0.1933536 7:-0.28506568 8:0.2852697 9:-0.35129127 10:-0.2967574 11:-1.0166081 12:-0.15404068 13:-0.29289579 14:-0.26478731 15:-0.48257941 16:-0.062197158 17:-0.062197158 18:4.6346727 19:-0.55748656 20:-0.55748656 21:-0.5306915 
-0.0021544350000000001 1:-1.0424049 2:1.1445376 3:0.27863568 4:-0.55951357 5:-0.24770291 6:-0.19198456 7:-0.28506568 8:-1.1319079 9:2.8411452 10:-0.2967574 11:-0.11516077 12:-0.89511611 13:-0.29289579 14:-0.26478731 15:-0.48257941 16:-0.062197158 17:-0.062197158 18:-0.21534843 19:-0.55748656 20:-0.55748656 21:-0.5306915 
-0.0021544350000000001 1:-1.0424049 2:1.1445376 3:-0.29185161 4:-0.5363938 5:-0.24770291 6:-0.19147117 7:-0.28506568 8:-0.61294144 9:2.8411452 10:-0.2967574 11:0.11020107 12:-0.78049645 13:-0.29289579 14:-0.26478731 15:-0.48257941 16:-0.062197158 17:-0.062197158 18:-0.21534843 19:-0.55748656 20:-0.55748656 21:-0.5306915 
-0.0021544350000000001 1:-1.0424049 2:-0.87202861 3:-0.48201404 4:0.35516245 5:-0.24770291 6:-0.18479711 7:-0.28506568 8:0.41860415 9:2.8411452 10:-0.2967574 11:1.5412487 12:-0.10463565 13:-0.29289579 14:-0.26478731 15:-0.48257941 16:-0.062197158 17:-0.062197158 18:-0.21534843 19:-0.55748656 20:-0.55748656 21:-0.5306915 
-0.0021544350000000001 1:-1.0424049 2:-0.87202861 3:-0.48201404 4:-0.31964592 5:-0.24770291 6:-0.1933536 7:-0.28506568 8:0.19265415 9:-0.35129127 10:-0.2967574 11:-0.34052261 12:-0.697496 13:-0.29289579 14:-0.26478731 15:-0.48257941 16:-0.062197158 17:-0.062197158 18:-0.21534843 19:-0.55748656 20:-0.55748656 21:-0.5306915 
-0.0021544350000000001 1:-1.0424049 2:1.1445376 3:-0.29185161 4:0.14997446 5:-0.24770291 6:-0.1916423 7:-0.28506568 8:-0.29357748 9:-0.35129127 10:-0.2967574 11:0.56092474 12:-0.3516608 13:-0.29289579 14:-0.26478731 15:-0.48257941 16:-0.062197158 17:-0.062197158 18:-0.21534843 19:-0.55748656 20:-0.55748656 21:-0.5306915 
-0.0021544350000000001 1:-1.0424049 2:-0.87202861 3:-0.48201404 4:-0.65632762 5:-0.24770291 6:-0.1933536 7:-0.28506568 8:-0.86523897 9:-0.35129127 10:-0.2967574 11:-1.0166081 12:-0.94452114 13:-0.29289579 14:-0.26478731 15:-0.48257941 16:-0.062197158 17:-0.062197158 18:-0.21534843 19:-0.55748656 20:-0.55748656 21:-0.5306915 
-0.0021544350000000001 1:-1.0424049 2:-0.87202861 3:-0.48201404 4:-0.58407833 5:-0.24770291 6:-0.1933536 7:-0.28506568 8:-0.21373649 9:-0.35129127 10:-0.2967574 11:-0.45320352 12:-0.22814823 13:-0.29289579 14:-0.26478731 15:-0.48257941 16:-0.062197158 17:-0.062197158 18:-0.21534843 19:-0.55748656 20:-0.55748656 21:-0.5306915 
-0.0021544350000000001 1:-1.0424049 2:-0.87202861 3:-0.48201404 4:-0.22283188 5:-0.24770291 6:-0.13927657 7:-0.28506568 8:0.65812712 9:-0.35129127 10:-0.2967574 11:-1.0166081 12:-0.62338846 13:-0.29289579 14:-0.26478731 15:-0.48257941 16:-0.062197158 17:-0.062197158 18:-0.21534843 19:-0.55748656 20:-0.55748656 21:1.8806962 
-0.0021544350000000001 1:0.95746818 2:-0.87202861 3:-0.48201404 4:-0.65632762 5:-0.24770291 6:-0.1933536 7:3.5011913 8:1.3966563 9:-0.35129127 10:3.3632506 11:-1.0166081 12:4.2598046 13:-0.29289579 14:-0.26478731 15:-0.48257941 16:-0.062197158 17:-0.062197158 18:-0.21534843 19:1.7903024 20:1.7903024 21:-0.5306915 
-0.0021544350000000001 1:-1.0424049 2:-0.87202861 3:-0.48201404 4:-0.55951357 5:-0.24770291 6:-0.17281802 7:-0.28506568 8:1.3503485 9:-0.35129127 10:-0.2967574 11:-1.0166081 12:-0.68069829 13:3.4075925 14:-0.26478731 15:-0.48257941 16:-0.062197158 17:-0.062197158 18:-0.21534843 19:-0.55748656 20:-0.55748656 21:-0.5306915 
-0.0021544350000000001 1:-1.0424049 2:1.1445376 3:1.6097727 4:-0.36733046 5:-0.24770291 6:-0.1933536 7:-0.28506568 8:-0.65286193 9:-0.35129127 10:-0.2967574 11:-1.0166081 12:-0.94452114 13:-0.29289579 14:-0.26478731 15:-0.48257941 16:-0.062197158 17:-0.062197158 18:-0.21534843 19:-0.55748656 20:-0.55748656 21:-0.5306915 
-0.0021544350000000001 1:0.95746818 2:-0.87202861 3:-0.48201404 4:-0.59563821 5:-0.24770291 6:-0.1933536 7:-0.28506568 8:0.82419638 9:-0.35129127 10:-0.2967574 11:-0.11516077 12:-0.59868594 13:-0.29289579 14:-0.26478731 15:-0.48257941 16:-0.062197158 17:-0.062197158 18:-0.21534843 19:-0.55748656 20:-0.55748656 21:-0.5306915 
-0.0021544350000000001 1:0.95746818 2:-0.87202861 3:-0.48201404 4:-0.36733046 5:-0.24770291 6:-0.1933536 7:-0.28506568 8:0.21900168 9:-0.35129127 10:-0.2967574 11:0.3355629 12:-0.055230626 13:-0.29289579 14:-0.26478731 15:-0.48257941 16:-0.062197158 17:-0.062197158 18:-0.21534843 19:-0.55748656 20:-0.55748656 21:-0.5306915 
-0.0021544350000000001 1:0.95746818 2:1.1445376 3:-0.10168918 4:-0.36733046 5:-0.24770291 6:-0.10778868 7:-0.28506568 8:-0.22012377 9:2.8411452 10:-0.2967574 11:-0.075722447 12:-0.74690103 13:-0.29289579 14:-0.26478731 15:-0.48257941 16:-0.062197158 17:-0.062197158 18:-0.21534843 19:-0.55748656 20:-0.55748656 21:-0.5306915 
-0.0021544350000000001 1:0.95746818 2:-0.87202861 3:-0.48201404 4:0.64415961 5:-0.24770291 6:-0.1933536 7:-0.28506568 8:-0.49956723 9:-0.35129127 10:-0.2967574 11:-0.34052261 12:1.2293001 13:-0.29289579 14:-0.26478731 15:-0.48257941 16:-0.062197158 17:-0.062197158 18:-0.21534843 19:1.7903024 20:1.7903024 21:-0.5306915 
-0.0021544350000000001 1:0.95746818 2:-0.87202861 3:-0.48201404 4:-0.58407833 5:-0.24770291 6:-0.1933536 7:-0.28506568 8:-0.7790107 9:-0.35129127 10:-0.2967574 11:-0.22784169 12:0.98227498 13:-0.29289579 14:-0.26478731 15:-0.48257941 16:-0.062197158 17:-0.062197158 18:-0.21534843 19:-0.55748656 20:-0.55748656 21:1.8806962 
-0.0021544350000000001 1:-1.0424049 2:1.1445376 3:-0.29185161 4:-0.36733046 5:-0.24770291 6:-0.19318247 7:-0.28506568 8:-1.0384939 9:-0.35129127 10:-0.2967574 11:-0.34052261 12:1.03168 13:-0.29289579 14:-0.26478731 15:-0.48257941 16:-0.062197158 17:-0.062197158 18:-0.21534843 19:-0.55748656 20:-0.55748656 21:-0.5306915 
-0.0021544350000000001 1:-1.0424049 2:-0.87202861 3:-0.48201404 4:-0.17514734 5:-0.24770291 6:-0.19249795 7:-0.28506568 8:-0.9323054 9:-0.35129127 10:-0.2967574 11:0.22288199 12:-0.81310377 13:-0.29289579 14:-0.26478731 15:-0.48257941 16:-0.062197158 17:-0.062197158 18:-0.21534843 19:-0.55748656 20:-0.55748656 21:-0.5306915 
-0.00033878117018276195 1:-1.0424049 2:-0.87202861 3:-0.48201404 4:-0.48726428 5:-0.24770291 6:-0.1933536 7:-0.28506568 8:-0.04048154 9:-0.35129127 10:-0.2967574 11:-1.0166081 12:-0.63129326 13:-0.29289579 14:-0.26478731 15:-0.48257941 16:-0.062197158 17:-0.062197158 18:4.6346727 19:-0.55748656 20:-0.55748656 21:-0.5306915 
-0.0021544350000000001 1:-1.0424049 2:1.1445376 3:-0.29185161 4:-0.58407833 5:-0.24770291 6:-0.1669996 7:-0.28506568 8:-0.21373649 9:-0.35129127 10:-0.2967574 11:-0.79124628 12:-0.20344571 13:-0.29289579 14:-0.26478731 15:-0.48257941 16:-0.062197158 17:-0.062197158 18:-0.21534843 19:-0.55748656 20:-0.55748656 21:1.8806962 
-0.0021544350000000001 1:0.95746818 2:-0.87202861 3:-0.48201404 4:0.21066387 5:-0.24770291 6:-0.1933536 7:-0.28506568 8:-0.69916971 9:2.8411452 10:-0.2967574 11:0.49331619 12:1.2293001 13:-0.29289579 14:-0.26478731 15:-0.48257941 16:-0.062197158 17:-0.062197158 18:-0.21534843 19:1.7903024 20:1.7903024 21:-0.5306915 
-0.0021544350000000001 1:-1.0424049 2:-0.87202861 3:-0.48201404 4:-0.63176286 5:-0.24770291 6:-0.1933536 7:-0.28506568 8:-0.71912996 9:-0.35129127 10:-0.2967574 11:-1.0166081 12:0.83405989 13:-0.29289579 14:-0.26478731 15:-0.48257941 16:-0.062197158 17:-0.062197158 18:-0.21534843 19:-0.55748656 20:-0.55748656 21:-0.5306915 
-0.0021544350000000001 1:-1.0424049 2:-0.87202861 3:-0.48201404 4:-0.58407833 5:-0.24770291 6:-0.18479711 7:-0.28506568 8:-0.28639179 9:-0.35129127 10:-0.2967574 11:-0.0024798503 12:-0.54137611 13:-0.29289579 14:-0.26478731 15:-0.48257941 16:-0.062197158 17:-0.062197158 18:-0.21534843 19:-0.55748656 20:-0.55748656 21:-0.5306915 
-0.0021544350000000001 1:0.95746818 2:-0.87202861 3:-0.48201404 4:2.0775855 5:-0.24770291 6:-0.17624061 7:-0.28506568 8:1.682487 9:-0.35129127 10:-0.2967574 11:0.11020107 12:-0.67279348 13:-0.29289579 14:-0.26478731 15:2.0681975 16:-0.062197158 17:-0.062197158 18:-0.21534843 19:1.7903024 20:1.7903024 21:1.8806962 
-0.0021544350000000001 1:-1.0424049 2:1.1445376 3:-0.29185161 4:-0.63176286 5:-0.24770291 6:-0.19232682 7:-0.28506568 8:-1.2181361 9:-0.35129127 10:-0.2967574 11:-1.0166081 12:-0.32695828 13:-0.29289579 14:-0.26478731 15:-0.48257941 16:-0.062197158 17:-0.062197158 18:-0.21534843 19:-0.55748656 20:-0.55748656 21:-0.5306915 
-0.0021544350000000001 1:-1.0424049 2:1.1445376 3:-0.29185161 4:-0.5363938 5:-0.24770291 6:-0.17966321 7:-0.28506568 8:-0.61932872 9:-0.35129127 10:-0.2967574 11:0.56092474 12:-0.31905348 13:-0.29289579 14:-0.26478731 15:-0.48257941 16:-0.062197158 17:-0.062197158 18:-0.21534843 19:1.7903024 20:1.7903024 21:-0.5306915 
-0.0021544350000000001 1:0.95746818 2:1.1445376 3:0.088473254 4:-0.51182904 5:-0.24770291 6:-0.16819751 7:3.5011913 8:-0.53948773 9:-0.35129127 10:3.3632506 11:-0.0024798503 12:-0.73899622 13:-0.29289579 14:-0.26478731 15:-0.48257941 16:-0.062197158 17:-0.062197158 18:-0.21534843 19:1.7903024 20:1.7903024 21:-0.5306915 
-0.0021544350000000001 1:-1.0424049 2:-0.87202861 3:-0.48201404 4:0.23522863 5:-0.24770291 6:-0.1933536 7:-0.28506568 8:1.6497522 9:-0.35129127 10:-0.2967574 11:-0.60532276 12:0.3400096 13:3.4075925 14:-0.26478731 15:-0.48257941 16:-0.062197158 17:-0.062197158 18:-0.21534843 19:-0.55748656 20:-0.55748656 21:-0.5306915 
-0.0021544350000000001 1:-1.0424049 2:1.1445376 3:-0.29185161 4:-0.62020297 5:-0.24770291 6:-0.17487157 7:-0.28506568 8:-0.31992501 9:-0.35129127 10:-0.2967574 11:0.51585237 12:-0.88721131 13:-0.29289579 14:-0.26478731 15:2.0681975 16:-0.062197158 17:-0.062197158 18:-0.21534843 19:-0.55748656 20:-0.55748656 21:-0.5306915 
-0.0021544350000000001 1:-1.0424049 2:1.1445376 3:-0.10168918 4:-0.60864309 5:-0.24770291 6:-0.19027326 7:-0.28506568 8:0.72439515 9:-0.35129127 10:-0.2967574 11:-1.0166081 12:0.66114229 13:-0.29289579 14:-0.26478731 15:-0.48257941 16:-0.062197158 17:-0.062197158 18:-0.21534843 19:1.7903024 20:1.7903024 21:-0.5306915 
-0.0021544350000000001 1:-1.0424049 2:1.1445376 3:-0.10168918 4:0.30747792 5:-0.24770291 6:-0.16374813 7:-0.28506568 8:-0.72551724 9:-0.35129127 10:-0.2967574 11:-0.0024798503 12:1.4516228 13:-0.29289579 14:-0.26478731 15:-0.48257941 16:-0.062197158 17:-0.062197158 18:-0.21534843 19:-0.55748656 20:-0.55748656 21:1.8806962 
-0.0021544350000000001 1:-1.0424049 2:1.1445376 3:-0.10168918 4:-0.58407833 5:-0.24770291 6:-0.17487157 7:-0.28506568 8:-0.14667006 9:-0.35129127 10:-0.2967574 11:1.2370103 12:-0.697496 13:-0.29289579 14:-0.26478731 15:2.0681975 16:-0.062197158 17:-0.062197158 18:-0.21534843 19:-0.55748656 20:-0.55748656 21:1.8806962 
-0.0021544350000000001 1:-1.0424049 2:1.1445376 3:1.4196103 4:-0.65632762 5:-0.24770291 6:-0.19027326 7:3.5011913 8:0.42499143 9:-0.35129127 10:3.3632506 11:0.11020107 12:-0.88721131 13:-0.29289579 14:-0.26478731 15:-0.48257941 16:-0.062197158 17:-0.062197158 18:-0.21534843 19:-0.55748656 20:-0.55748656 21:-0.5306915 
-0.0021544350000000001 1:-1.0424049 2:1.1445376 3:-0.29185161 4:-0.60864309 5:-0.24770291 6:-0.19318247 7:-0.28506568 8:-1.0919874 9:-0.35129127 10:-0.2967574 11:-0.34052261 12:1.03168 13:-0.29289579 14:-0.26478731 15:2.0681975 16:-0.062197158 17:-0.062197158 18:-0.21534843 19:-0.55748656 20:-0.55748656 21:-0.5306915 
-0.0021544350000000001 1:0.95746818 2:-0.87202861 3:-0.48201404 4:-0.58407833 5:-0.24770291 6:-0.1933536 7:-0.28506568 8:0.68447465 9:-0.35129127 10:-0.2967574 11:0.60599711 12:-0.84571109 13:-0.29289579 14:-0.26478731 15:-0.48257941 16:-0.062197158 17:-0.062197158 18:-0.21534843 19:-0.55748656 20:-0.55748656 21:-0.5306915 
-0.0021544350000000001 1:0.95746818 2:-0.87202861 3:-0.48201404 4:-0.63176286 5:-0.24770291 6:-0.1933536 7:-0.28506568 8:-1.1981759 9:-0.35129127 10:-0.2967574 11:0.11020107 12:-0.77950835 13:-0.29289579 14:-0.26478731 15:-0.48257941 16:-0.062197158 17:-0.062197158 18:-0.21534843 19:-0.55748656 20:-0.55748656 21:-0.5306915 
-0.0021544350000000001 1:-1.0424049 2:-0.87202861 3:-0.48201404 4:0.35516245 5:-0.24770291 6:-0.1933536 7:-0.28506568 8:-0.45325946 9:-0.35129127 10:-0.2967574 11:0.8989675 12:-0.8783184 13:-0.29289579 14:-0.26478731 15:2.0681975 16:-0.062197158 17:-0.062197158 18:-0.21534843 19:-0.55748656 20:-0.55748656 21:-0.5306915 
-0.0021544350000000001 1:-1.0424049 2:-0.87202861 3:-0.48201404 4:-0.46414451 5:-0.24770291 6:-0.1933536 7:-0.28506568 8:-0.77262342 9:-0.35129127 10:-0.2967574 11:-0.11516077 12:-0.78840125 13:-0.29289579 14:3.7693253 15:-0.48257941 16:-0.062197158 17:-0.062197158 18:-0.21534843 19:1.7903024 20:1.7903024 21:-0.5306915 
-0.0021544350000000001 1:-1.0424049 2:-0.87202861 3:-0.48201404 4:-0.22283188 5:-0.24770291 6:-0.19318247 7:-0.28506568 8:-0.51952748 9:2.8411452 10:-0.2967574 11:0.56092474 12:1.7559577 13:-0.29289579 14:-0.26478731 15:2.0681975 16:-0.062197158 17:-0.062197158 18:-0.21534843 19:-0.55748656 20:-0.55748656 21:-0.5306915 
-0.0021544350000000001 1:-1.0424049 2:-0.87202861 3:-0.48201404 4:-0.36733046 5:-0.24770291 6:-0.011613704 7:-0.28506568 8:-0.47960699 9:-0.35129127 10:-0.2967574 11:-0.0024798503 12:1.5257303 13:-0.29289579 14:-0.26478731 15:-0.48257941 16:-0.062197158 17:-0.062197158 18:4.6346727 19:-0.55748656 20:-0.55748656 21:-0.5306915 
-0.0021544350000000001 1:-1.0424049 2:-0.87202861 3:-0.48201404 4:-0.60864309 5:-0.24770291 6:-0.13328702 7:-0.28506568 8:-0.83250416 9:-0.35129127 10:-0.2967574 11:-1.0166081 12:0.73524983 13:-0.29289579 14:-0.26478731 15:-0.48257941 16:-0.062197158 17:-0.062197158 18:-0.21534843 19:-0.55748656 20:-0.55748656 21:1.8806962 
-0.0021544350000000001 1:-1.0424049 2:-0.87202861 3:-0.48201404 4:-0.60864309 5:-0.24770291 6:-0.15040001 7:-0.28506568 8:-0.28639179 9:2.8411452 10:-0.2967574 11:0.22288199 12:-0.79630606 13:-0.29289579 14:-0.26478731 15:2.0681975 16:-0.062197158 17:-0.062197158 18:-0.21534843 19:-0.55748656 20:-0.55748656 21:-0.5306915 
-0.0021544350000000001 1:-1.0424049 2:-0.87202861 3:-0.48201404 4:-0.22283188 5:-0.24770291 6:-0.1933536 7:-0.28506568 8:0.34515044 9:-0.35129127 10:-0.2967574 11:0.28485649 12:-0.79630606 13:-0.29289579 14:-0.26478731 15:-0.48257941 16:-0.062197158 17:-0.062197158 18:-0.21534843 19:-0.55748656 20:-0.55748656 21:-0.5306915 
-0.0021544350000000001 1:0.95746818 2:-0.87202861 3:-0.48201404 4:-0.51182904 5:-0.24770291 6:-0.1933536 7:-0.28506568 8:-0.65924921 9:-0.35129127 10:-0.2967574 11:0.78628658 12:-0.79630606 13:-0.29289579 14:-0.26478731 15:-0.48257941 16:-0.062197158 17:-0.062197158 18:-0.21534843 19:-0.55748656 20:-0.55748656 21:-0.5306915 
-0.0021544350000000001 1:-1.0424049 2:-0.87202861 3:-0.48201404 4:0.42741174 5:-0.24770291 6:-0.13345815 7:-0.28506568 8:1.6896727 9:-0.35129127 10:-0.2967574 11:-1.0166081 12:-0.64809097 13:-0.29289579 14:-0.26478731 15:-0.48257941 16:-0.062197158 17:-0.062197158 18:4.6346727 19:-0.55748656 20:-0.55748656 21:-0.5306915 
-0.0021544350000000001 1:-1.0424049 2:1.1445376 3:0.65896054 4:-0.60864309 5:-0.24770291 6:-0.18736405 7:-0.28506568 8:-1.1446824 9:-0.35129127 10:-0.2967574 11:0.3355629 12:-0.84571109 13:3.4075925 14:-0.26478731 15:-0.48257941 16:-0.062197158 17:-0.062197158 18:-0.21534843 19:-0.55748656 20:-0.55748656 21:-0.5306915 
-0.0021544350000000001 1:-1.0424049 2:-0.87202861 3:-0.48201404 4:2.233644 5:-0.24770291 6:-0.1933536 7:-0.28506568 8:0.6317796 9:-0.35129127 10:-0.2967574 11:0.11020107 12:-0.45047086 13:3.4075925 14:-0.26478731 15:2.0681975 16:-0.062197158 17:-0.062197158 18:-0.21534843 19:1.7903024 20:1.7903024 21:-0.5306915 
-0.0021544350000000001 1:0.95746818 2:-0.87202861 3:-0.48201404 4:-0.41501499 5:-0.24770291 6:-0.1933536 7:-0.28506568 8:-0.92511971 9:-0.35129127 10:-0.2967574 11:-0.22784169 12:1.03168 13:-0.29289579 14:-0.26478731 15:2.0681975 16:-0.062197158 17:-0.062197158 18:-0.21534843 19:1.7903024 20:1.7903024 21:-0.5306915 
-0.0021544350000000001 1:-1.0424049 2:-0.87202861 3:-0.48201404 4:-0.64476773 5:4.0293007 6:-0.19318247 7:-0.28506568 8:-0.11393525 9:-0.35129127 10:-0.2967574 11:-0.29545024 12:-0.54137611 13:-0.29289579 14:-0.26478731 15:2.0681975 16:-0.062197158 17:-0.062197158 18:-0.21534843 19:1.7903024 20:1.7903024 21:-0.5306915 
-0.0021544350000000001 1:0.95746818 2:-0.87202861 3:-0.48201404 4:0.13841458 5:-0.24770291 6:-0.19318247 7:-0.28506568 8:-0.47321971 9:-0.35129127 10:-0.2967574 11:1.0116484 12:-0.5324832 13:-0.29289579 14:-0.26478731 15:2.0681975 16:-0.062197158 17:-0.062197158 18:-0.21534843 19:-0.55748656 20:-0.55748656 21:1.8806962 
-0.0021544350000000001 1:0.95746818 2:1.1445376 3:-0.29185161 4:-0.54795368 5:-0.24770291 6:-0.1933536 7:-0.28506568 8:-0.84527872 9:2.8411452 10:-0.2967574 11:-0.11516077 12:0.10088927 13:-0.29289579 14:-0.26478731 15:-0.48257941 16:-0.062197158 17:-0.062197158 18:-0.21534843 19:-0.55748656 20:-0.55748656 21:-0.5306915 
-0.0021544350000000001 1:-1.0424049 2:-0.87202861 3:-0.48201404 4:-0.43957975 5:-0.24770291 6:-0.1933536 7:-0.28506568 8:-0.73270292 9:-0.35129127 10:-0.2967574 11:-0.0024798503 12:-0.48307817 13:-0.29289579 14:-0.26478731 15:-0.48257941 16:-0.062197158 17:-0.062197158 18:-0.21534843 19:-0.55748656 20:-0.55748656 21:-0.5306915 
-0.0021544350000000001 1:0.95746818 2:-0.87202861 3:-0.48201404 4:-0.51182904 5:-0.24770291 6:-0.18171677 7:-0.28506568 8:-0.7790107 9:-0.35129127 10:-0.2967574 11:-0.45320352 12:1.3281102 13:3.4075925 14:-0.26478731 15:-0.48257941 16:-0.062197158 17:-0.062197158 18:-0.21534843 19:-0.55748656 20:-0.55748656 21:-0.5306915 
-0.0021544350000000001 1:0.95746818 2:1.1445376 3:0.088473254 4:0.35516245 5:-0.24770291 6:-0.1933536 7:-0.28506568 8:-0.1666303 9:-0.35129127 10:-0.2967574 11:0.83699299 12:-0.25285074 13:-0.29289579 14:-0.26478731 15:-0.48257941 16:-0.062197158 17:-0.062197158 18:-0.21534843 19:-0.55748656 20:-0.55748656 21:-0.5306915 
-0.0021544350000000001 1:-1.0424049 2:-0.87202861 3:-0.48201404 4:0.21066387 5:-0.24770291 6:-0.1933536 7:-0.28506568 8:0.62459391 9:-0.35129127 10:-0.2967574 11:1.6877339 12:-0.15404068 13:-0.29289579 14:-0.26478731 15:-0.48257941 16:-0.062197158 17:-0.062197158 18:-0.21534843 19:-0.55748656 20:-0.55748656 21:1.8806962 
-0.0021544350000000001 1:-1.0424049 2:-0.87202861 3:-0.48201404 4:-0.46414451 5:-0.24770291 6:-0.19318247 7:-0.28506568 8:-0.99218614 9:2.8411452 10:-0.2967574 11:-0.11516077 12:-0.94452114 13:-0.29289579 14:-0.26478731 15:-0.48257941 16:-0.062197158 17:-0.062197158 18:-0.21534843 19:-0.55748656 20:-0.55748656 21:-0.5306915 
-0.0021544350000000001 1:0.95746818 2:-0.87202861 3:-0.48201404 4:-0.22283188 5:-0.24770291 6:-0.1933536 7:-0.28506568 8:1.0373718 9:-0.35129127 10:-0.2967574 11:-1.0166081 12:1.2293001 13:-0.29289579 14:-0.26478731 15:-0.48257941 16:-0.062197158 17:-0.062197158 18:4.6346727 19:1.7903024 20:1.7903024 21:-0.5306915 
-0.0021544350000000001 1:-1.0424049 2:-0.87202861 3:-0.48201404 4:-0.006084004 5:-0.24770291 6:-0.1933536 7:-0.28506568 8:-0.046868819 9:-0.35129127 10:-0.2967574 11:0.8989675 12:-0.45047086 13:-0.29289579 14:3.7693253 15:2.0681975 16:-0.062197158 17:-0.062197158 18:-0.21534843 19:-0.55748656 20:-0.55748656 21:-0.5306915 
-0.0021544350000000001 1:-1.0424049 2:-0.87202861 3:-0.48201404 4:-0.22283188 5:-0.24770291 6:-0.1933536 7:-0.28506568 8:0.19265415 9:-0.35129127 10:-0.2967574 11:-0.34052261 12:-0.51667359 13:-0.29289579 14:-0.26478731 15:-0.48257941 16:-0.062197158 17:-0.062197158 18:-0.21534843 19:-0.55748656 20:-0.55748656 21:1.8806962 
-0.0021544350000000001 1:0.95746818 2:-0.87202861 3:-0.48201404 4:-0.65632762 5:-0.24770291 6:-0.18873309 7:-0.28506568 8:1.4166165 9:-0.35129127 10:-0.2967574 11:-0.45320352 12:-0.64809097 13:-0.29289579 14:-0.26478731 15:-0.48257941 16:-0.062197158 17:-0.062197158 18:-0.21534843 19:-0.55748656 20:-0.55748656 21:-0.5306915 
-0.0021544350000000001 1:-1.0424049 2:-0.87202861 3:-0.48201404 4:-0.58407833 5:-0.24770291 6:-0.12661296 7:-0.28506568 8:0.61181935 9:-0.35129127 10:-0.2967574 11:-1.0166081 12:-0.61548365 13:-0.29289579 14:-0.26478731 15:-0.48257941 16:-0.062197158 17:-0.062197158 18:-0.21534843 19:-0.55748656 20:-0.55748656 21:-0.5306915 
-0.0021544350000000001 1:-1.0424049 2:-0.87202861 3:-0.48201404 4:-0.63176286 5:-0.24770291 6:-0.1933536 7:-0.28506568 8:-0.66563649 9:-0.35129127 10:-0.2967574 11:-1.0166081 12:-0.91092572 13:-0.29289579 14:-0.26478731 15:-0.48257941 16:-0.062197158 17:-0.062197158 18:-0.21534843 19:-0.55748656 20:-0.55748656 21:-0.5306915 
-0.0021544350000000001 1:0.95746818 2:-0.87202861 3:-0.48201404 4:-0.31964592 5:-0.24770291 6:-0.1933536 7:-0.28506568 8:0.40503119 9:-0.35129127 10:-0.2967574 11:0.11020107 12:-0.19554091 13:-0.29289579 14:-0.26478731 15:-0.48257941 16:-0.062197158 17:-0.062197158 18:-0.21534843 19:-0.55748656 20:-0.55748656 21:-0.5306915 
-0.0021544350000000001 1:-1.0424049 2:-0.87202861 3:-0.48201404 4:-0.63176286 5:-0.24770291 6:-0.1933536 7:-0.28506568 8:-1.2245234 9:2.8411452 10:-0.2967574 11:-0.34052261 12:-0.37636331 13:-0.29289579 14:-0.26478731 15:-0.48257941 16:-0.062197158 17:-0.062197158 18:-0.21534843 19:-0.55748656 20:-0.55748656 21:-0.5306915 
-0.0021544350000000001 1:0.95746818 2:-0.87202861 3:-0.48201404 4:-0.43957975 5:-0.24770291 6:-0.1933536 7:-0.28506568 8:0.95114356 9:-0.35129127 10:-0.2967574 11:2.1384576 12:-0.49987588 13:3.4075925 14:-0.26478731 15:-0.48257941 16:-0.062197158 17:-0.062197158 18:-0.21534843 19:-0.55748656 20:-0.55748656 21:-0.5306915 
-0.0021544350000000001 1:-1.0424049 2:1.1445376 3:-0.10168918 4:-0.37889034 5:-0.24770291 6:-0.09290038 7:-0.28506568 8:-1.0448812 9:-0.35129127 10:-0.2967574 11:-0.11516077 12:-0.45837566 13:-0.29289579 14:-0.26478731 15:-0.48257941 16:-0.062197158 17:-0.062197158 18:-0.21534843 19:-0.55748656 20:-0.55748656 21:1.8806962 
-0.0021544350000000001 1:-1.0424049 2:1.1445376 3:-0.10168918 4:-0.54795368 5:-0.24770291 6:-0.10778868 7:-0.28506568 8:0.57189885 9:-0.35129127 10:-0.2967574 11:0.25105222 12:-0.80519896 13:-0.29289579 14:-0.26478731 15:-0.48257941 16:-0.062197158 17:-0.062197158 18:-0.21534843 19:-0.55748656 20:-0.55748656 21:1.8806962 
-0.0021544350000000001 1:-1.0424049 2:-0.87202861 3:-0.48201404 4:-0.31964592 5:-0.24770291 6:-0.1933536 7:-0.28506568 8:0.27249514 9:-0.35129127 10:-0.2967574 11:-0.85885483 12:-0.73109142 13:-0.29289579 14:-0.26478731 15:-0.48257941 16:-0.062197158 17:-0.062197158 18:-0.21534843 19:-0.55748656 20:-0.55748656 21:-0.5306915 
-0.0021544350000000001 1:-1.0424049 2:1.1445376 3:-0.10168918 4:-0.64476773 5:-0.24770291 6:-0.19232682 7:-0.28506568 8:-0.59936847 9:-0.35129127 10:-0.2967574 11:-0.29545024 12:-0.8625088 13:-0.29289579 14:-0.26478731 15:-0.48257941 16:-0.062197158 17:-0.062197158 18:-0.21534843 19:1.7903024 20:1.7903024 21:1.8806962 
-0.0021544350000000001 1:-1.0424049 2:1.1445376 3:-0.29185161 4:-0.58407833 5:-0.24770291 6:-0.17658287 7:-0.28506568 8:-1.1782157 9:2.8411452 10:-0.2967574 11:-0.40813116 12:-0.697496 13:-0.29289579 14:-0.26478731 15:-0.48257941 16:-0.062197158 17:-0.062197158 18:-0.21534843 19:-0.55748656 20:-0.55748656 21:-0.5306915 
-0.0021544350000000001 1:0.95746818 2:-0.87202861 3:-0.48201404 4:-0.41501499 5:-0.24770291 6:-0.1933536 7:-0.28506568 8:-2.495592 9:-0.35129127 10:-0.2967574 11:0.78628658 12:-0.84571109 13:-0.29289579 14:-0.26478731 15:-0.48257941 16:-0.062197158 17:-0.062197158 18:-0.21534843 19:-0.55748656 20:-0.55748656 21:1.8806962 
-0.0021544350000000001 1:-1.0424049 2:-0.87202861 3:-0.48201404 4:-0.60864309 5:-0.24770291 6:-0.1933536 7:-0.28506568 8:-1.0448812 9:2.8411452 10:-0.2967574 11:0.8989675 12:1.03168 13:-0.29289579 14:-0.26478731 15:2.0681975 16:-0.062197158 17:-0.062197158 18:-0.21534843 19:1.7903024 20:1.7903024 21:-0.5306915 
-0.0021544350000000001 1:0.95746818 2:-0.87202861 3:-0.48201404 4:0.49966103 5:-0.24770291 6:-0.1933536 7:-0.28506568 8:0.31880292 9:-0.35129127 10:-0.2967574 11:-0.56588444 12:2.3162108 13:-0.29289579 14:-0.26478731 15:-0.48257941 16:-0.062197158 17:-0.062197158 18:-0.21534843 19:1.7903024 20:1.7903024 21:1.8806962 
-0.0021544350000000001 1:-1.0424049 2:-0.87202861 3:-0.48201404 4:-0.31964592 5:-0.24770291 6:-0.1933536 7:-0.28506568 8:-0.40615328 9:-0.35129127 10:-0.2967574 11:-0.45320352 12:-0.77950835 13:-0.29289579 14:3.7693253 15:-0.48257941 16:-0.062197158 17:-0.062197158 18:-0.21534843 19:-0.55748656 20:-0.55748656 21:-0.5306915 
-0.0021544350000000001 1:-1.0424049 2:1.1445376 3:-0.10168918 4:0.066165287 5:-0.24770291 6:-0.18633727 7:-0.28506568 8:-0.014134013 9:-0.35129127 10:-0.2967574 11:-0.11516077 12:-0.33486309 13:-0.29289579 14:-0.26478731 15:-0.48257941 16:-0.062197158 17:-0.062197158 18:-0.21534843 19:-0.55748656 20:-0.55748656 21:1.8806962 
-0.0021544350000000001 1:-1.0424049 2:-0.87202861 3:-0.48201404 4:-0.006084004 5:-0.24770291 6:-0.1933536 7:-0.28506568 8:0.95114356 9:-0.35129127 10:-0.2967574 11:-0.22220764 12:0.043579432 13:3.4075925 14:-0.26478731 15:-0.48257941 16:-0.062197158 17:-0.062197158 18:-0.21534843 19:-0.55748656 20:-0.55748656 21:-0.5306915 
-0.0021544350000000001 1:-1.0424049 2:-0.87202861 3:-0.48201404 4:-0.65632762 5:-0.24770291 6:-0.1933536 7:-0.28506568 8:0.26530945 9:-0.35129127 10:-0.2967574 11:-1.0166081 12:-0.94452114 13:-0.29289579 14:-0.26478731 15:-0.48257941 16:-0.062197158 17:-0.062197158 18:-0.21534843 19:-0.55748656 20:-0.55748656 21:-0.5306915 
-0.0021544350000000001 1:-1.0424049 2:-0.87202861 3:-0.48201404 4:-0.62020297 5:-0.24770291 6:-0.1933536 7:-0.28506568 8:0.56471317 9:-0.35129127 10:-0.2967574 11:-0.11516077 12:-0.072028335 13:-0.29289579 14:-0.26478731 15:-0.48257941 16:-0.062197158 17:-0.062197158 18:-0.21534843 19:-0.55748656 20:-0.55748656 21:1.8806962 
-0.0021544350000000001 1:-1.0424049 2:1.1445376 3:-0.29185161 4:-0.64476773 5:-0.24770291 6:-0.19318247 7:-0.28506568 8:-0.94507996 9:-0.35129127 10:-0.2967574 11:-0.45320352 12:0.48822469 13:-0.29289579 14:-0.26478731 15:-0.48257941 16:-0.062197158 17:-0.062197158 18:-0.21534843 19:-0.55748656 20:-0.55748656 21:-0.5306915 
-0.0021544350000000001 1:-1.0424049 2:-0.87202861 3:-0.48201404 4:-0.3427657 5:-0.24770291 6:-0.19112891 7:-0.28506568 8:-1.0448812 9:-0.35129127 10:-0.2967574 11:0.78628658 12:1.081085 13:-0.29289579 14:-0.26478731 15:2.0681975 16:-0.062197158 17:-0.062197158 18:-0.21534843 19:-0.55748656 20:-0.55748656 21:1.8806962 
-0.0021544350000000001 1:-1.0424049 2:1.1445376 3:-0.10168918 4:-0.48726428 5:-0.24770291 6:-0.19215569 7:-0.28506568 8:-0.95226565 9:-0.35129127 10:-0.2967574 11:0.11020107 12:1.2125024 13:-0.29289579 14:-0.26478731 15:-0.48257941 16:-0.062197158 17:-0.062197158 18:-0.21534843 19:-0.55748656 20:-0.55748656 21:1.8806962 
-0.0021544350000000001 1:0.95746818 2:-0.87202861 3:-0.48201404 4:0.49966103 5:-0.24770291 6:-0.1933536 7:-0.28506568 8:-0.44607377 9:-0.35129127 10:-0.2967574 11:0.042592517 12:-0.50778069 13:-0.29289579 14:-0.26478731 15:-0.48257941 16:-0.062197158 17:-0.062197158 18:-0.21534843 19:1.7903024 20:1.7903024 21:-0.5306915 
-0.0021544350000000001 1:-1.0424049 2:-0.87202861 3:-0.48201404 4:-0.36733046 5:-0.24770291 6:-0.15433599 7:-0.28506568 8:1.2832821 9:-0.35129127 10:-0.2967574 11:-1.0166081 12:0.3400096 13:-0.29289579 14:-0.26478731 15:-0.48257941 16:-0.062197158 17:-0.062197158 18:-0.21534843 19:-0.55748656 20:-0.55748656 21:1.8806962 
-0.0021544350000000001 1:-1.0424049 2:-0.87202861 3:-0.48201404 4:0.78865819 5:-0.24770291 6:-0.075787395 7:-0.28506568 8:0.39225663 9:-0.35129127 10:-0.2967574 11:0.16654153 12:0.14238949 13:3.4075925 14:-0.26478731 15:-0.48257941 16:-0.062197158 17:-0.062197158 18:-0.21534843 19:-0.55748656 20:-0.55748656 21:-0.5306915 
-0.0021544350000000001 1:-1.0424049 2:1.1445376 3:-0.10168918 4:-0.64476773 5:-0.24770291 6:-0.13328702 7:3.5011913 8:3.4789093 9:-0.35129127 10:3.3632506 11:-1.0166081 12:2.810261 13:-0.29289579 14:-0.26478731 15:-0.48257941 16:-0.062197158 17:-0.062197158 18:-0.21534843 19:1.7903024 20:1.7903024 21:-0.5306915 
-0.0021544350000000001 1:-1.0424049 2:-0.87202861 3:-0.48201404 4:-0.29508117 5:-0.24770291 6:-0.1933536 7:-0.28506568 8:0.085667225 9:-0.35129127 10:-0.2967574 11:0.56092474 12:-0.45047086 13:-0.29289579 14:-0.26478731 15:-0.48257941 16:-0.062197158 17:-0.062197158 18:-0.21534843 19:-0.55748656 20:-0.55748656 21:1.8806962 
-0.0021544350000000001 1:0.95746818 2:-0.87202861 3:-0.48201404 4:-0.52483391 5:-0.24770291 6:-0.1933536 7:-0.28506568 8:-0.31992501 9:-0.35129127 10:-0.2967574 11:0.11020107 12:-0.82100857 13:-0.29289579 14:-0.26478731 15:-0.48257941 16:-0.062197158 17:-0.062197158 18:-0.21534843 19:-0.55748656 20:-0.55748656 21:-0.5306915 
-0.0021544350000000001 1:-1.0424049 2:-0.87202861 3:-0.48201404 4:-0.58407833 5:-0.24770291 6:-0.1933536 7:-0.28506568 8:-0.75905045 9:-0.35129127 10:-0.2967574 11:-0.0024798503 12:1.3775152 13:-0.29289579 14:-0.26478731 15:-0.48257941 16:-0.062197158 17:-0.062197158 18:-0.21534843 19:-0.55748656 20:-0.55748656 21:1.8806962 
-0.0021544350000000001 1:-1.0424049 2:-0.87202861 3:-0.48201404 4:-0.60864309 5:-0.24770291 6:-0.1933536 7:-0.28506568 8:-0.11393525 9:-0.35129127 10:-0.2967574 11:0.2003458 12:-0.25285074 13:-0.29289579 14:-0.26478731 15:-0.48257941 16:-0.062197158 17:-0.062197158 18:-0.21534843 19:-0.55748656 20:-0.55748656 21:1.8806962 
-0.0021544350000000001 1:-1.0424049 2:-0.87202861 3:-0.48201404 4:0.21066387 5:-0.24770291 6:-0.19061552 7:-0.28506568 8:-0.61294144 9:-0.35129127 10:-0.2967574 11:-0.9039272 12:1.3281102 13:-0.29289579 14:-0.26478731 15:2.0681975 16:-0.062197158 17:-0.062197158 18:-0.21534843 19:1.7903024 20:1.7903024 21:-0.5306915 
-0.0021544350000000001 1:-1.0424049 2:1.1445376 3:-0.29185161 4:-0.46414451 5:-0.24770291 6:-0.18975987 7:-0.28506568 8:-1.1917886 9:-0.35129127 10:-0.2967574 11:-0.56588444 12:-0.40106583 13:-0.29289579 14:-0.26478731 15:-0.48257941 16:-0.062197158 17:-0.062197158 18:-0.21534843 19:-0.55748656 20:-0.55748656 21:-0.5306915 
-0.0021544350000000001 1:-1.0424049 2:1.1445376 3:-0.29185161 4:0.0054758825 5:-0.24770291 6:-0.18975987 7:-0.28506568 8:-0.44607377 9:-0.35129127 10:-0.2967574 11:1.327155 12:-0.30225577 13:-0.29289579 14:-0.26478731 15:2.0681975 16:-0.062197158 17:-0.062197158 18:-0.21534843 19:-0.55748656 20:-0.55748656 21:1.8806962 
-0.0021544350000000001 1:-1.0424049 2:-0.87202861 3:-0.48201404 4:-0.58407833 5:-0.24770291 6:-0.054909554 7:-0.28506568 8:-0.66563649 9:2.8411452 10:-0.2967574 11:-0.34052261 12:-0.697496 13:-0.29289579 14:-0.26478731 15:-0.48257941 16:-0.062197158 17:-0.062197158 18:-0.21534843 19:-0.55748656 20:-0.55748656 21:-0.5306915 
-0.0021544350000000001 1:-1.0424049 2:1.1445376 3:-0.10168918 4:-0.078333295 5:-0.24770291 6:-0.12592844 7:-0.28506568 8:-0.68559674 9:-0.35129127 10:-0.2967574 11:0.11020107 12:-0.79630606 13:-0.29289579 14:-0.26478731 15:-0.48257941 16:-0.062197158 17:-0.062197158 18:-0.21534843 19:-0.55748656 20:-0.55748656 21:1.8806962 
-0.0021544350000000001 1:-1.0424049 2:1.1445376 3:-0.29185161 4:-0.006084004 5:-0.24770291 6:-0.19284021 7:-0.28506568 8:-0.27361723 9:-0.35129127 10:-0.2967574 11:-0.45320352 12:-0.64809097 13:-0.29289579 14:-0.26478731 15:-0.48257941 16:-0.062197158 17:-0.062197158 18:-0.21534843 19:-0.55748656 20:-0.55748656 21:-0.5306915 
-0.0021544350000000001 1:-1.0424049 2:1.1445376 3:-0.10168918 4:-0.65632762 5:-0.24770291 6:-0.19318247 7:3.5011913 8:0.6645144 9:-0.35129127 10:3.3632506 11:-0.92082933 12:0.043579432 13:-0.29289579 14:-0.26478731 15:-0.48257941 16:-0.062197158 17:-0.062197158 18:-0.21534843 19:-0.55748656 20:-0.55748656 21:-0.5306915 
-0.0021544350000000001 1:-1.0424049 2:-0.87202861 3:-0.48201404 4:-0.36733046 5:-0.24770291 6:-0.19301134 7:-0.28506568 8:1.3431628 9:-0.35129127 10:-0.2967574 11:-0.45320352 12:-0.20344571 13:3.4075925 14:-0.26478731 15:-0.48257941 16:-0.062197158 17:-0.062197158 18:-0.21534843 19:-0.55748656 20:-0.55748656 21:-0.5306915 
-0.0021544350000000001 1:0.95746818 2:1.1445376 3:3.3212346 4:-0.65632762 5:-0.24770291 6:-0.17110672 7:-0.28506568 8:1.8820895 9:-0.35129127 10:-0.2967574 11:-0.16023314 12:2.1185906 13:-0.29289579 14:-0.26478731 15:-0.48257941 16:-0.062197158 17:-0.062197158 18:-0.21534843 19:-0.55748656 20:-0.55748656 21:-0.5306915 
-0.0021544350000000001 1:0.95746818 2:1.1445376 3:1.4196103 4:-0.51182904 5:-0.24770291 6:-0.18856196 7:-0.28506568 8:-0.093975003 9:-0.35129127 10:-0.2967574 11:-0.27291405 12:-0.73899622 13:3.4075925 14:-0.26478731 15:-0.48257941 16:-0.062197158 17:-0.062197158 18:-0.21534843 19:1.7903024 20:1.7903024 21:-0.5306915 
-0.0021544350000000001 1:-1.0424049 2:-0.87202861 3:-0.48201404 4:-0.64476773 5:-0.24770291 6:-0.1933536 7:-0.28506568 8:-0.93869268 9:2.8411452 10:-0.2967574 11:1.1243293 12:-0.91191382 13:-0.29289579 14:-0.26478731 15:-0.48257941 16:-0.062197158 17:-0.062197158 18:-0.21534843 19:-0.55748656 20:-0.55748656 21:-0.5306915 
-0.0021544350000000001 1:-1.0424049 2:-0.87202861 3:-0.48201404 4:0.041600528 5:-0.24770291 6:-0.1933536 7:-0.28506568 8:2.1814932 9:-0.35129127 10:-0.2967574 11:0.78628658 12:-0.40897063 13:-0.29289579 14:-0.26478731 15:-0.48257941 16:-0.062197158 17:-0.062197158 18:-0.21534843 19:-0.55748656 20:-0.55748656 21:1.8806962 
-0.0021544350000000001 1:0.95746818 2:-0.87202861 3:-0.48201404 4:0.78865819 5:-0.24770291 6:-0.1933536 7:-0.28506568 8:0.47209762 9:-0.35129127 10:-0.2967574 11:0.56092474 12:-0.15404068 13:-0.29289579 14:-0.26478731 15:-0.48257941 16:-0.062197158 17:-0.062197158 18:-0.21534843 19:-0.55748656 20:-0.55748656 21:1.8806962 
-0.0021544350000000001 1:0.95746818 2:-0.87202861 3:-0.48201404 4:-0.22283188 5:-0.24770291 6:-0.15484938 7:-0.28506568 8:-0.20016352 9:-0.35129127 10:-0.2967574 11:-1.0166081 12:-0.64809097 13:-0.29289579 14:-0.26478731 15:-0.48257941 16:-0.062197158 17:-0.062197158 18:-0.21534843 19:1.7903024 20:1.7903024 21:1.8806962 
-0.0021544350000000001 1:0.95746818 2:-0.87202861 3:-0.48201404 4:-0.48726428 5:-0.24770291 6:-0.1933536 7:-0.28506568 8:-0.96504021 9:-0.35129127 10:-0.2967574 11:-0.11516077 12:-0.82891338 13:-0.29289579 14:-0.26478731 15:-0.48257941 16:-0.062197158 17:-0.062197158 18:-0.21534843 19:1.7903024 20:1.7903024 21:-0.5306915 
-0.0021544350000000001 1:-1.0424049 2:-0.87202861 3:-0.48201404 4:-0.51182904 5:-0.24770291 6:-0.1933536 7:-0.28506568 8:0.085667225 9:-0.35129127 10:-0.2967574 11:0.29049054 12:-0.25285074 13:-0.29289579 14:-0.26478731 15:-0.48257941 16:-0.062197158 17:-0.062197158 18:-0.21534843 19:-0.55748656 20:-0.55748656 21:-0.5306915 
-0.0021544350000000001 1:-1.0424049 2:1.1445376 3:0.65896054 4:-0.65632762 5:-0.24770291 6:-0.15912763 7:3.5011913 8:0.31241564 9:-0.35129127 10:3.3632506 11:-1.0166081 12:-0.20344571 13:-0.29289579 14:-0.26478731 15:-0.48257941 16:-0.062197158 17:-0.062197158 18:-0.21534843 19:-0.55748656 20:-0.55748656 21:-0.5306915 
-0.0021544350000000001 1:-1.0424049 2:-0.87202861 3:-0.48201404 4:1.7394589 5:-0.24770291 6:-0.1933536 7:-0.28506568 8:0.29884267 9:-0.35129127 10:-0.2967574 11:-1.0166081 12:-0.27755325 13:-0.29289579 14:-0.26478731 15:2.0681975 16:-0.062197158 17:-0.062197158 18:-0.21534843 19:-0.55748656 20:-0.55748656 21:1.8806962 
