svm_type c_svc
kernel_type linear
nr_class 2
total_sv 378
rho 0.13042058262965547
label 2 1
probA -3.1889740967199165
probB -0.26913632680838812
nr_sv 186 192
SV
0.0021544350000000001 1:-1.0520669 2:0.14238949 3:-0.51182904 4:0.95746818 5:-0.87202861 6:-0.48201404 7:-0.94641608 8:-0.56588444 9:-0.1933536 10:-0.64981549 11:0.67392707 12:-0.062197158 13:0.58124678 14:-0.55748656 15:0.58124678 16:-0.062197158 17:-0.55748656 18:-0.281094 19:-0.5306915 20:-0.26478731 21:-0.21534843 22:-0.19494267 23:-0.28506568 24:-0.29289579 25:-0.10814863 26:3.6555494 27:-0.23427262 28:-0.35129127 29:-0.076249571 30:-0.30438101 31:-0.24770291 32:-0.2967574 33:-0.088131026 34:-0.2967574 35:-0.48257941 36:-0.10814863 37:-0.088131026 38:-0.062197158 39:0.83154855 40:-0.11692812 41:0.32654457 42:-0.12512391 43:-0.2967574 
0.0021544350000000001 1:-0.67282218 2:-0.3516608 3:-0.28352128 4:0.95746818 5:1.1445376 6:-0.29185161 7:-0.94641608 8:0.44824382 9:-0.056449723 10:-0.64981549 11:0.67392707 12:-0.062197158 13:0.58124678 14:-0.55748656 15:0.58124678 16:-0.062197158 17:-0.55748656 18:-0.281094 19:-0.5306915 20:-0.26478731 21:-0.21534843 22:-0.19494267 23:-0.28506568 24:-0.29289579 25:-0.10814863 26:-0.27302859 27:4.2602909 28:-0.35129127 29:-0.076249571 30:-0.30438101 31:-0.24770291 32:-0.2967574 33:-0.088131026 34:-0.2967574 35:-0.48257941 36:-0.10814863 37:-0.088131026 38:-0.062197158 39:0.83154855 40:-0.11692812 41:0.32654457 42:-0.12512391 43:-0.2967574 
0.0021544350000000001 1:-0.68559674 2:1.1304901 3:-0.27051641 4:0.95746818 5:-0.87202861 6:-0.48201404 7:-0.94641608 8:-0.45320352 9:-0.1933536 10:-0.64981549 11:0.67392707 12:-0.062197158 13:0.58124678 14:-0.55748656 15:0.58124678 16:-0.062197158 17:-0.55748656 18:-0.281094 19:-0.5306915 20:-0.26478731 21:-0.21534843 22:-0.19494267 23:-0.28506568 24:-0.29289579 25:-0.10814863 26:-0.27302859 27:-0.23427262 28:2.8411452 29:-0.076249571 30:-0.30438101 31:-0.24770291 32:-0.2967574 33:-0.088131026 34:-0.2967574 35:2.0681975 36:-0.10814863 37:-0.088131026 38:-0.062197158 39:-1.200254 40:-0.11692812 41:0.32654457 42:-0.12512391 43:-0.2967574 
0.0021544350000000001 1:-0.79258367 2:0.53762972 3:-0.24739663 4:0.95746818 5:1.1445376 6:-0.29185161 7:-0.94641608 8:-0.56588444 9:1.4837189 10:-0.64981549 11:0.67392707 12:-0.062197158 13:0.58124678 14:-0.55748656 15:0.58124678 16:-0.062197158 17:-0.55748656 18:3.550661 19:-0.5306915 20:-0.26478731 21:-0.21534843 22:-0.19494267 23:-0.28506568 24:-0.29289579 25:-0.10814863 26:-0.27302859 27:-0.23427262 28:-0.35129127 29:-0.076249571 30:-0.30438101 31:-0.24770291 32:-0.2967574 33:-0.088131026 34:-0.2967574 35:-0.48257941 36:-0.10814863 37:-0.088131026 38:-0.062197158 39:0.83154855 40:-0.11692812 41:0.32654457 42:-0.12512391 43:-0.2967574 
0.0021544350000000001 1:1.0437591 2:-0.94452114 3:0.066165287 4:0.95746818 5:-0.87202861 6:-0.48201404 7:-0.94641608 8:-1.0166081 9:-0.1933536 10:1.5359275 11:-1.4809755 12:-0.062197158 13:0.58124678 14:-0.55748656 15:0.58124678 16:-0.062197158 17:-0.55748656 18:-0.281094 19:1.8806962 20:-0.26478731 21:-0.21534843 22:-0.19494267 23:-0.28506568 24:-0.29289579 25:-0.10814863 26:-0.27302859 27:-0.23427262 28:-0.35129127 29:-0.076249571 30:-0.30438101 31:-0.24770291 32:-0.2967574 33:-0.088131026 34:-0.2967574 35:-0.48257941 36:-0.10814863 37:-0.088131026 38:-0.062197158 39:0.83154855 40:-0.11692812 41:0.32654457 42:-0.12512391 43:-0.2967574 
0.0021544350000000001 1:-0.36623278 2:-0.40897063 3:0.86090748 4:0.95746818 5:1.1445376 6:-0.29185161 7:-0.94641608 8:0.17217557 9:-0.1933536 10:-0.64981549 11:0.67392707 12:-0.062197158 13:-1.7171183 14:1.7903024 15:-1.7171183 16:-0.062197158 17:1.7903024 18:-0.281094 19:-0.5306915 20:3.7693253 21:-0.21534843 22:-0.19494267 23:-0.28506568 24:-0.29289579 25:-0.10814863 26:-0.27302859 27:-0.23427262 28:-0.35129127 29:-0.076249571 30:-0.30438101 31:-0.24770291 32:-0.2967574 33:-0.088131026 34:-0.2967574 35:-0.48257941 36:-0.10814863 37:-0.088131026 38:-0.062197158 39:0.83154855 40:-0.11692812 41:0.32654457 42:-0.12512391 43:-0.2967574 
0.0021544350000000001 1:2.3683211 2:0.043579432 3:0.49966103 4:0.95746818 5:1.1445376 6:0.27863568 7:-0.94641608 8:-1.0166081 9:-0.17641174 10:1.5359275 11:-1.4809755 12:-0.062197158 13:0.58124678 14:-0.55748656 15:0.58124678 16:-0.062197158 17:-0.55748656 18:3.550661 19:-0.5306915 20:-0.26478731 21:-0.21534843 22:-0.19494267 23:-0.28506568 24:-0.29289579 25:-0.10814863 26:-0.27302859 27:-0.23427262 28:-0.35129127 29:-0.076249571 30:-0.30438101 31:-0.24770291 32:-0.2967574 33:-0.088131026 34:-0.2967574 35:-0.48257941 36:-0.10814863 37:-0.088131026 38:-0.062197158 39:0.83154855 40:-0.11692812 41:0.32654457 42:-0.12512391 43:-0.2967574 
0.0021544350000000001 1:-0.5857955 2:-0.81310377 3:-0.60864309 4:-1.0424049 5:-0.87202861 6:-0.48201404 7:-0.94641608 8:-0.45320352 9:-0.1933536 10:-0.64981549 11:0.67392707 12:-0.062197158 13:0.58124678 14:-0.55748656 15:0.58124678 16:-0.062197158 17:-0.55748656 18:-0.281094 19:1.8806962 20:-0.26478731 21:-0.21534843 22:-0.19494267 23:-0.28506568 24:-0.29289579 25:-0.10814863 26:-0.27302859 27:-0.23427262 28:-0.35129127 29:-0.076249571 30:-0.30438101 31:-0.24770291 32:-0.2967574 33:-0.088131026 34:-0.2967574 35:-0.48257941 36:-0.10814863 37:-0.088131026 38:-0.062197158 39:0.83154855 40:-0.11692812 41:0.32654457 42:-0.12512391 43:-0.2967574 
0.0021544350000000001 1:1.0437591 2:-0.84571109 3:0.78865819 4:0.95746818 5:-0.87202861 6:-0.48201404 7:1.0545779 8:0.78628658 9:-0.1933536 10:-0.64981549 11:0.67392707 12:-0.062197158 13:0.58124678 14:-0.55748656 15:0.58124678 16:-0.062197158 17:-0.55748656 18:-0.281094 19:-0.5306915 20:-0.26478731 21:-0.21534843 22:-0.19494267 23:-0.28506568 24:3.4075925 25:-0.10814863 26:-0.27302859 27:-0.23427262 28:-0.35129127 29:-0.076249571 30:-0.30438101 31:-0.24770291 32:-0.2967574 33:-0.088131026 34:-0.2967574 35:2.0681975 36:-0.10814863 37:-0.088131026 38:-0.062197158 39:-1.200254 40:-0.11692812 41:0.32654457 42:-0.12512391 43:-0.2967574 
0.0021544350000000001 1:-0.68559674 2:-0.63129326 3:0.23522863 4:0.95746818 5:1.1445376 6:0.65896054 7:-0.94641608 8:-0.56588444 9:-0.1933536 10:-0.64981549 11:0.67392707 12:-0.062197158 13:-1.7171183 14:1.7903024 15:-1.7171183 16:-0.062197158 17:1.7903024 18:-0.281094 19:-0.5306915 20:-0.26478731 21:-0.21534843 22:-0.19494267 23:-0.28506568 24:-0.29289579 25:-0.10814863 26:-0.27302859 27:-0.23427262 28:-0.35129127 29:-0.076249571 30:3.2790136 31:-0.24770291 32:-0.2967574 33:-0.088131026 34:-0.2967574 35:-0.48257941 36:-0.10814863 37:-0.088131026 38:-0.062197158 39:0.83154855 40:-0.11692812 41:0.32654457 42:-0.12512391 43:-0.2967574 
0.0021544350000000001 1:0.052932419 2:-0.06313543 3:1.0892152 4:0.95746818 5:1.1445376 6:0.088473254 7:-0.94641608 8:0.73558016 9:-0.14201464 10:-0.64981549 11:0.67392707 12:-0.062197158 13:0.58124678 14:-0.55748656 15:0.58124678 16:-0.062197158 17:-0.55748656 18:-0.281094 19:-0.5306915 20:3.7693253 21:-0.21534843 22:-0.19494267 23:-0.28506568 24:-0.29289579 25:-0.10814863 26:-0.27302859 27:-0.23427262 28:-0.35129127 29:-0.076249571 30:-0.30438101 31:-0.24770291 32:-0.2967574 33:-0.088131026 34:-0.2967574 35:2.0681975 36:-0.10814863 37:-0.088131026 38:-0.062197158 39:-1.200254 40:-0.11692812 41:0.32654457 42:-0.12512391 43:-0.2967574 
0.0021544350000000001 1:2.0353842 2:1.4763253 3:-0.29508117 4:0.95746818 5:1.1445376 6:0.27863568 7:1.0545779 8:0.11020107 9:-0.1933536 10:-0.64981549 11:0.67392707 12:-0.062197158 13:0.58124678 14:-0.55748656 15:0.58124678 16:-0.062197158 17:-0.55748656 18:-0.281094 19:-0.5306915 20:-0.26478731 21:-0.21534843 22:-0.19494267 23:-0.28506568 24:-0.29289579 25:-0.10814863 26:-0.27302859 27:4.2602909 28:-0.35129127 29:-0.076249571 30:-0.30438101 31:-0.24770291 32:-0.2967574 33:-0.088131026 34:-0.2967574 35:-0.48257941 36:-0.10814863 37:-0.088131026 38:-0.062197158 39:0.83154855 40:-0.11692812 41:0.32654457 42:-0.12512391 43:-0.2967574 
0.0021544350000000001 1:1.3431628 2:0.24910435 3:-0.64476773 4:-1.0424049 5:-0.87202861 6:-0.48201404 7:-0.94641608 8:-1.0166081 9:0.26698568 10:-0.64981549 11:0.67392707 12:-0.062197158 13:0.58124678 14:-0.55748656 15:0.58124678 16:-0.062197158 17:-0.55748656 18:-0.281094 19:-0.5306915 20:-0.26478731 21:-0.21534843 22:-0.19494267 23:-0.28506568 24:-0.29289579 25:-0.10814863 26:3.6555494 27:-0.23427262 28:-0.35129127 29:-0.076249571 30:-0.30438101 31:-0.24770291 32:-0.2967574 33:-0.088131026 34:-0.2967574 35:-0.48257941 36:-0.10814863 37:-0.088131026 38:-0.062197158 39:0.83154855 40:-0.11692812 41:0.32654457 42:-0.12512391 43:-0.2967574 
0.0021544350000000001 1:1.1770936 2:-0.15404068 3:-0.65632762 4:0.95746818 5:-0.87202861 6:-0.48201404 7:-0.94641608 8:-0.45320352 9:-0.029068948 10:1.5359275 11:-1.4809755 12:-0.062197158 13:0.58124678 14:-0.55748656 15:0.58124678 16:-0.062197158 17:-0.55748656 18:-0.281094 19:-0.5306915 20:-0.26478731 21:-0.21534843 22:-0.19494267 23:-0.28506568 24:-0.29289579 25:9.2286834 26:-0.27302859 27:-0.23427262 28:-0.35129127 29:-0.076249571 30:-0.30438101 31:-0.24770291 32:-0.2967574 33:-0.088131026 34:-0.2967574 35:-0.48257941 36:9.2286834 37:-0.088131026 38:-0.062197158 39:-1.200254 40:-0.11692812 41:0.32654457 42:-0.12512391 43:-0.2967574 
0.0021544350000000001 1:3.2194261 2:-0.94452114 3:-0.65632762 4:-1.0424049 5:-0.87202861 6:-0.48201404 7:-0.94641608 8:-1.0166081 9:-0.1933536 10:1.5359275 11:-1.4809755 12:-0.062197158 13:-1.7171183 14:-0.55748656 15:-1.7171183 16:-0.062197158 17:-0.55748656 18:-0.281094 19:-0.5306915 20:-0.26478731 21:-0.21534843 22:-0.19494267 23:-0.28506568 24:-0.29289579 25:-0.10814863 26:-0.27302859 27:-0.23427262 28:-0.35129127 29:-0.076249571 30:-0.30438101 31:-0.24770291 32:-0.2967574 33:-0.088131026 34:-0.2967574 35:-0.48257941 36:-0.10814863 37:-0.088131026 38:-0.062197158 39:-1.200254 40:-0.11692812 41:-3.0564572 42:7.9766491 43:-0.2967574 
0.0021544350000000001 1:-2.495592 2:1.1304901 3:1.2221539 4:0.95746818 5:-0.87202861 6:-0.48201404 7:-0.94641608 8:-1.0166081 9:-0.1933536 10:-0.64981549 11:0.67392707 12:-0.062197158 13:0.58124678 14:-0.55748656 15:0.58124678 16:-0.062197158 17:-0.55748656 18:-0.281094 19:-0.5306915 20:-0.26478731 21:-0.21534843 22:-0.19494267 23:-0.28506568 24:-0.29289579 25:-0.10814863 26:-0.27302859 27:-0.23427262 28:-0.35129127 29:-0.076249571 30:-0.30438101 31:4.0293007 32:-0.2967574 33:-0.088131026 34:-0.2967574 35:-0.48257941 36:-0.10814863 37:-0.088131026 38:-0.062197158 39:0.83154855 40:-0.11692812 41:0.32654457 42:-0.12512391 43:-0.2967574 
0.0021544350000000001 1:-0.95226565 2:0.93286995 3:-0.36733046 4:0.95746818 5:-0.87202861 6:-0.48201404 7:1.0545779 8:-0.67856536 9:-0.12490166 10:-0.64981549 11:0.67392707 12:-0.062197158 13:0.58124678 14:-0.55748656 15:0.58124678 16:-0.062197158 17:-0.55748656 18:-0.281094 19:-0.5306915 20:-0.26478731 21:-0.21534843 22:-0.19494267 23:-0.28506568 24:-0.29289579 25:-0.10814863 26:-0.27302859 27:-0.23427262 28:2.8411452 29:-0.076249571 30:-0.30438101 31:-0.24770291 32:-0.2967574 33:-0.088131026 34:-0.2967574 35:-0.48257941 36:-0.10814863 37:-0.088131026 38:-0.062197158 39:0.83154855 40:-0.11692812 41:0.32654457 42:-0.12512391 43:-0.2967574 
0.0021544350000000001 1:-0.3598455 2:-0.72219851 3:-0.29508117 4:0.95746818 5:-0.87202861 6:-0.48201404 7:-0.94641608 8:-1.0166081 9:0.71329231 10:-0.64981549 11:0.67392707 12:-0.062197158 13:0.58124678 14:-0.55748656 15:0.58124678 16:-0.062197158 17:-0.55748656 18:-0.281094 19:-0.5306915 20:-0.26478731 21:-0.21534843 22:-0.19494267 23:-0.28506568 24:-0.29289579 25:-0.10814863 26:-0.27302859 27:-0.23427262 28:-0.35129127 29:-0.076249571 30:-0.30438101 31:4.0293007 32:-0.2967574 33:-0.088131026 34:-0.2967574 35:2.0681975 36:-0.10814863 37:-0.088131026 38:-0.062197158 39:-1.200254 40:-0.11692812 41:0.32654457 42:-0.12512391 43:-0.2967574 
0.0021544350000000001 1:-0.14028278 2:-0.85361589 3:-0.50026915 4:0.95746818 5:1.1445376 6:0.27863568 7:-0.94641608 8:1.1243293 9:-0.10778868 10:1.5359275 11:-1.4809755 12:-0.062197158 13:0.58124678 14:-0.55748656 15:0.58124678 16:-0.062197158 17:-0.55748656 18:-0.281094 19:-0.5306915 20:-0.26478731 21:-0.21534843 22:-0.19494267 23:-0.28506568 24:-0.29289579 25:-0.10814863 26:3.6555494 27:-0.23427262 28:-0.35129127 29:-0.076249571 30:-0.30438101 31:-0.24770291 32:-0.2967574 33:-0.088131026 34:-0.2967574 35:-0.48257941 36:-0.10814863 37:-0.088131026 38:-0.062197158 39:0.83154855 40:-0.11692812 41:0.32654457 42:-0.12512391 43:-0.2967574 
0.0021544350000000001 1:1.230587 2:-0.85361589 3:-0.5363938 4:0.95746818 5:1.1445376 6:1.6097727 7:1.0545779 8:1.4623721 9:-0.19232682 10:1.5359275 11:-1.4809755 12:-0.062197158 13:0.58124678 14:-0.55748656 15:0.58124678 16:-0.062197158 17:-0.55748656 18:-0.281094 19:-0.5306915 20:3.7693253 21:-0.21534843 22:-0.19494267 23:-0.28506568 24:-0.29289579 25:-0.10814863 26:-0.27302859 27:-0.23427262 28:-0.35129127 29:-0.076249571 30:-0.30438101 31:-0.24770291 32:-0.2967574 33:-0.088131026 34:-0.2967574 35:2.0681975 36:-0.10814863 37:-0.088131026 38:-0.062197158 39:-1.200254 40:-0.11692812 41:0.32654457 42:-0.12512391 43:-0.2967574 
0.0021544350000000001 1:0.87130257 2:0.051484237 3:3.0283862 4:0.95746818 5:-0.87202861 6:-0.48201404 7:1.0545779 8:-0.49827589 9:-0.1933536 10:-0.64981549 11:0.67392707 12:-0.062197158 13:0.58124678 14:-0.55748656 15:0.58124678 16:-0.062197158 17:-0.55748656 18:-0.281094 19:-0.5306915 20:-0.26478731 21:-0.21534843 22:-0.19494267 23:-0.28506568 24:-0.29289579 25:-0.10814863 26:-0.27302859 27:-0.23427262 28:2.8411452 29:-0.076249571 30:-0.30438101 31:-0.24770291 32:-0.2967574 33:-0.088131026 34:-0.2967574 35:2.0681975 36:-0.10814863 37:-0.088131026 38:-0.062197158 39:-1.200254 40:-0.11692812 41:0.32654457 42:-0.12512391 43:-0.2967574 
0.0021544350000000001 1:-0.57302094 2:-0.84571109 3:-0.29508117 4:0.95746818 5:1.1445376 6:-0.29185161 7:-0.94641608 8:-1.0166081 9:-0.077327564 10:1.5359275 11:-1.4809755 12:-0.062197158 13:0.58124678 14:-0.55748656 15:0.58124678 16:-0.062197158 17:-0.55748656 18:-0.281094 19:-0.5306915 20:-0.26478731 21:-0.21534843 22:-0.19494267 23:-0.28506568 24:-0.29289579 25:-0.10814863 26:-0.27302859 27:-0.23427262 28:2.8411452 29:-0.076249571 30:-0.30438101 31:-0.24770291 32:-0.2967574 33:-0.088131026 34:-0.2967574 35:2.0681975 36:-0.10814863 37:-0.088131026 38:-0.062197158 39:-1.200254 40:-0.11692812 41:0.32654457 42:-0.12512391 43:-0.2967574 
0.0021544350000000001 1:-0.086789314 2:-0.84571109 3:-0.15058259 4:0.95746818 5:1.1445376 6:1.6097727 7:-0.94641608 8:-0.83631865 9:-0.10094348 10:-0.64981549 11:0.67392707 12:-0.062197158 13:0.58124678 14:-0.55748656 15:0.58124678 16:-0.062197158 17:-0.55748656 18:-0.281094 19:1.8806962 20:-0.26478731 21:-0.21534843 22:-0.19494267 23:-0.28506568 24:-0.29289579 25:-0.10814863 26:-0.27302859 27:-0.23427262 28:-0.35129127 29:-0.076249571 30:-0.30438101 31:-0.24770291 32:-0.2967574 33:-0.088131026 34:-0.2967574 35:-0.48257941 36:-0.10814863 37:-0.088131026 38:-0.062197158 39:0.83154855 40:-0.11692812 41:0.32654457 42:-0.12512391 43:-0.2967574 
0.0021544350000000001 1:0.79146158 2:0.3400096 3:-0.51182904 4:0.95746818 5:1.1445376 6:0.088473254 7:1.0545779 8:-0.19967146 9:-0.1933536 10:1.5359275 11:-1.4809755 12:-0.062197158 13:0.58124678 14:-0.55748656 15:0.58124678 16:-0.062197158 17:-0.55748656 18:-0.281094 19:-0.5306915 20:-0.26478731 21:-0.21534843 22:-0.19494267 23:-0.28506568 24:-0.29289579 25:-0.10814863 26:-0.27302859 27:-0.23427262 28:2.8411452 29:-0.076249571 30:-0.30438101 31:-0.24770291 32:-0.2967574 33:-0.088131026 34:-0.2967574 35:-0.48257941 36:-0.10814863 37:-0.088131026 38:-0.062197158 39:0.83154855 40:-0.11692812 41:0.32654457 42:-0.12512391 43:-0.2967574 
0.0021544350000000001 1:1.5028448 2:1.5336351 3:0.0054758825 4:0.95746818 5:1.1445376 6:0.088473254 7:1.0545779 8:-0.13769695 9:-0.1933536 10:1.5359275 11:-1.4809755 12:-0.062197158 13:0.58124678 14:-0.55748656 15:0.58124678 16:-0.062197158 17:-0.55748656 18:3.550661 19:-0.5306915 20:-0.26478731 21:-0.21534843 22:-0.19494267 23:-0.28506568 24:-0.29289579 25:-0.10814863 26:-0.27302859 27:-0.23427262 28:-0.35129127 29:-0.076249571 30:-0.30438101 31:-0.24770291 32:-0.2967574 33:-0.088131026 34:-0.2967574 35:-0.48257941 36:-0.10814863 37:-0.088131026 38:-0.062197158 39:0.83154855 40:-0.11692812 41:0.32654457 42:-0.12512391 43:-0.2967574 
0.0021544350000000001 1:-0.0005610448 2:-0.20344571 3:-0.47570439 4:0.95746818 5:1.1445376 6:1.2294478 7:1.0545779 8:0.0031541956 9:-0.1933536 10:1.5359275 11:-1.4809755 12:-0.062197158 13:0.58124678 14:-0.55748656 15:0.58124678 16:-0.062197158 17:-0.55748656 18:-0.281094 19:-0.5306915 20:3.7693253 21:-0.21534843 22:-0.19494267 23:-0.28506568 24:-0.29289579 25:-0.10814863 26:-0.27302859 27:-0.23427262 28:-0.35129127 29:-0.076249571 30:-0.30438101 31:-0.24770291 32:-0.2967574 33:-0.088131026 34:-0.2967574 35:2.0681975 36:-0.10814863 37:-0.088131026 38:-0.062197158 39:-1.200254 40:-0.11692812 41:0.32654457 42:-0.12512391 43:-0.2967574 
0.0021544350000000001 1:-0.83889144 2:1.0978827 3:-0.55951357 4:0.95746818 5:1.1445376 6:-0.29185161 7:1.0545779 8:-0.56588444 9:-0.18479711 10:1.5359275 11:-1.4809755 12:-0.062197158 13:0.58124678 14:-0.55748656 15:0.58124678 16:-0.062197158 17:-0.55748656 18:-0.281094 19:-0.5306915 20:3.7693253 21:-0.21534843 22:-0.19494267 23:-0.28506568 24:-0.29289579 25:-0.10814863 26:-0.27302859 27:-0.23427262 28:-0.35129127 29:-0.076249571 30:-0.30438101 31:-0.24770291 32:-0.2967574 33:-0.088131026 34:-0.2967574 35:2.0681975 36:-0.10814863 37:-0.088131026 38:-0.062197158 39:-1.200254 40:-0.11692812 41:0.32654457 42:-0.12512391 43:-0.2967574 
0.0021544350000000001 1:0.23896193 2:-0.3516608 3:1.4865863 4:0.95746818 5:-0.87202861 6:-0.48201404 7:1.0545779 8:-1.0166081 9:-0.1933536 10:-0.64981549 11:0.67392707 12:-0.062197158 13:0.58124678 14:-0.55748656 15:0.58124678 16:-0.062197158 17:-0.55748656 18:-0.281094 19:-0.5306915 20:3.7693253 21:-0.21534843 22:-0.19494267 23:-0.28506568 24:-0.29289579 25:-0.10814863 26:-0.27302859 27:-0.23427262 28:-0.35129127 29:-0.076249571 30:-0.30438101 31:-0.24770291 32:-0.2967574 33:-0.088131026 34:-0.2967574 35:2.0681975 36:-0.10814863 37:-0.088131026 38:-0.062197158 39:-1.200254 40:-0.11692812 41:0.32654457 42:-0.12512391 43:-0.2967574 
0.0021544350000000001 1:-0.70555699 2:0.17499681 3:0.090730045 4:0.95746818 5:1.1445376 6:0.84912297 7:-0.94641608 8:-0.28981619 9:0.3640163 10:1.5359275 11:-1.4809755 12:-0.062197158 13:0.58124678 14:-0.55748656 15:0.58124678 16:-0.062197158 17:-0.55748656 18:-0.281094 19:-0.5306915 20:-0.26478731 21:-0.21534843 22:-0.19494267 23:-0.28506568 24:-0.29289579 25:-0.10814863 26:-0.27302859 27:-0.23427262 28:2.8411452 29:-0.076249571 30:-0.30438101 31:-0.24770291 32:-0.2967574 33:-0.088131026 34:-0.2967574 35:-0.48257941 36:-0.10814863 37:-0.088131026 38:-0.062197158 39:0.83154855 40:-0.11692812 41:0.32654457 42:-0.12512391 43:-0.2967574 
0.0021544350000000001 1:-0.67282218 2:-0.49197108 3:0.0054758825 4:0.95746818 5:1.1445376 6:0.84912297 7:1.0545779 8:-0.22784169 9:0.21461995 10:1.5359275 11:-1.4809755 12:-0.062197158 13:0.58124678 14:-0.55748656 15:0.58124678 16:-0.062197158 17:-0.55748656 18:-0.281094 19:-0.5306915 20:-0.26478731 21:-0.21534843 22:-0.19494267 23:-0.28506568 24:-0.29289579 25:-0.10814863 26:-0.27302859 27:-0.23427262 28:2.8411452 29:-0.076249571 30:-0.30438101 31:-0.24770291 32:-0.2967574 33:-0.088131026 34:-0.2967574 35:2.0681975 36:-0.10814863 37:-0.088131026 38:-0.062197158 39:-1.200254 40:-0.11692812 41:0.32654457 42:-0.12512391 43:-0.2967574 
0.0021544350000000001 1:-0.28000451 2:-0.82891338 3:-0.58407833 4:0.95746818 5:1.1445376 6:-0.10168918 7:-0.94641608 8:0.44824382 9:-0.10778868 10:-0.64981549 11:0.67392707 12:-0.062197158 13:-1.7171183 14:1.7903024 15:-1.7171183 16:-0.062197158 17:1.7903024 18:-0.281094 19:-0.5306915 20:3.7693253 21:-0.21534843 22:-0.19494267 23:-0.28506568 24:-0.29289579 25:-0.10814863 26:-0.27302859 27:-0.23427262 28:-0.35129127 29:-0.076249571 30:-0.30438101 31:-0.24770291 32:-0.2967574 33:-0.088131026 34:-0.2967574 35:-0.48257941 36:-0.10814863 37:-0.088131026 38:-0.062197158 39:0.83154855 40:-0.11692812 41:0.32654457 42:-0.12512391 43:-0.2967574 
0.0021544350000000001 1:0.76431564 2:1.03168 3:-0.15058259 4:0.95746818 5:-0.87202861 6:-0.48201404 7:-0.94641608 8:-0.85322078 9:-0.050117919 10:1.5359275 11:-1.4809755 12:-0.062197158 13:0.58124678 14:-0.55748656 15:0.58124678 16:-0.062197158 17:-0.55748656 18:-0.281094 19:-0.5306915 20:-0.26478731 21:-0.21534843 22:-0.19494267 23:-0.28506568 24:-0.29289579 25:-0.10814863 26:-0.27302859 27:-0.23427262 28:2.8411452 29:-0.076249571 30:-0.30438101 31:-0.24770291 32:-0.2967574 33:-0.088131026 34:-0.2967574 35:2.0681975 36:-0.10814863 37:-0.088131026 38:-0.062197158 39:-1.200254 40:-0.11692812 41:0.32654457 42:-0.12512391 43:-0.2967574 
0.0021544350000000001 1:0.072892666 2:-0.65599578 3:-0.3427657 4:0.95746818 5:1.1445376 6:2.5605848 7:-0.94641608 8:-0.34052261 9:0.16242535 10:1.5359275 11:-1.4809755 12:-0.062197158 13:0.58124678 14:-0.55748656 15:0.58124678 16:-0.062197158 17:-0.55748656 18:-0.281094 19:-0.5306915 20:-0.26478731 21:-0.21534843 22:-0.19494267 23:-0.28506568 24:-0.29289579 25:-0.10814863 26:-0.27302859 27:-0.23427262 28:-0.35129127 29:-0.076249571 30:3.2790136 31:-0.24770291 32:-0.2967574 33:-0.088131026 34:-0.2967574 35:-0.48257941 36:-0.10814863 37:-0.088131026 38:-0.062197158 39:0.83154855 40:-0.11692812 41:0.32654457 42:-0.12512391 43:-0.2967574 
0.0021544350000000001 1:-0.99218614 2:-0.072028335 3:0.21066387 4:0.95746818 5:-0.87202861 6:-0.48201404 7:-0.94641608 8:0.3355629 9:-0.1933536 10:1.5359275 11:-1.4809755 12:-0.062197158 13:-1.7171183 14:1.7903024 15:-1.7171183 16:-0.062197158 17:1.7903024 18:-0.281094 19:1.8806962 20:-0.26478731 21:-0.21534843 22:-0.19494267 23:-0.28506568 24:-0.29289579 25:-0.10814863 26:-0.27302859 27:-0.23427262 28:-0.35129127 29:-0.076249571 30:-0.30438101 31:-0.24770291 32:-0.2967574 33:-0.088131026 34:-0.2967574 35:2.0681975 36:-0.10814863 37:-0.088131026 38:-0.062197158 39:-1.200254 40:-0.11692812 41:0.32654457 42:-0.12512391 43:-0.2967574 
0.0019643733251891687 1:0.15273366 2:-0.73899622 3:1.2221539 4:0.95746818 5:-0.87202861 6:-0.48201404 7:1.0545779 8:-0.092624585 9:5.1604436 10:-0.64981549 11:0.67392707 12:-0.062197158 13:0.58124678 14:-0.55748656 15:0.58124678 16:-0.062197158 17:-0.55748656 18:-0.281094 19:-0.5306915 20:-0.26478731 21:-0.21534843 22:-0.19494267 23:-0.28506568 24:-0.29289579 25:-0.10814863 26:-0.27302859 27:-0.23427262 28:-0.35129127 29:13.08951 30:-0.30438101 31:-0.24770291 32:-0.2967574 33:-0.088131026 34:-0.2967574 35:2.0681975 36:-0.10814863 37:-0.088131026 38:-0.062197158 39:-1.200254 40:-0.11692812 41:0.32654457 42:-0.12512391 43:-0.2967574 
0.0021544350000000001 1:1.3830833 2:-0.90400902 3:-0.58407833 4:0.95746818 5:1.1445376 6:1.6097727 7:-0.94641608 8:1.1243293 9:0.27417314 10:-0.64981549 11:0.67392707 12:-0.062197158 13:-1.7171183 14:1.7903024 15:-1.7171183 16:-0.062197158 17:1.7903024 18:-0.281094 19:-0.5306915 20:-0.26478731 21:-0.21534843 22:-0.19494267 23:-0.28506568 24:-0.29289579 25:-0.10814863 26:3.6555494 27:-0.23427262 28:-0.35129127 29:-0.076249571 30:-0.30438101 31:-0.24770291 32:-0.2967574 33:-0.088131026 34:-0.2967574 35:-0.48257941 36:-0.10814863 37:-0.088131026 38:-0.062197158 39:0.83154855 40:-0.11692812 41:0.32654457 42:-0.12512391 43:-0.2967574 
0.0021544350000000001 1:-0.7790107 2:0.24119955 3:0.066165287 4:0.95746818 5:1.1445376 6:0.088473254 7:-0.94641608 8:-0.56588444 9:-0.036256401 10:1.5359275 11:-1.4809755 12:-0.062197158 13:0.58124678 14:-0.55748656 15:0.58124678 16:-0.062197158 17:-0.55748656 18:3.550661 19:-0.5306915 20:-0.26478731 21:-0.21534843 22:-0.19494267 23:-0.28506568 24:-0.29289579 25:-0.10814863 26:-0.27302859 27:-0.23427262 28:-0.35129127 29:-0.076249571 30:-0.30438101 31:-0.24770291 32:-0.2967574 33:-0.088131026 34:-0.2967574 35:-0.48257941 36:-0.10814863 37:-0.088131026 38:-0.062197158 39:0.83154855 40:-0.11692812 41:0.32654457 42:-0.12512391 43:-0.2967574 
0.0021544350000000001 1:-0.96504021 2:0.93286995 3:-0.22283188 4:0.95746818 5:-0.87202861 6:-0.48201404 7:-0.94641608 8:-0.34052261 9:0.18415884 10:-0.64981549 11:0.67392707 12:-0.062197158 13:0.58124678 14:-0.55748656 15:0.58124678 16:-0.062197158 17:-0.55748656 18:-0.281094 19:-0.5306915 20:-0.26478731 21:-0.21534843 22:-0.19494267 23:-0.28506568 24:-0.29289579 25:-0.10814863 26:-0.27302859 27:-0.23427262 28:-0.35129127 29:-0.076249571 30:3.2790136 31:-0.24770291 32:-0.2967574 33:-0.088131026 34:-0.2967574 35:-0.48257941 36:-0.10814863 37:-0.088131026 38:-0.062197158 39:0.83154855 40:-0.11692812 41:0.32654457 42:-0.12512391 43:-0.2967574 
0.0021544350000000001 1:-0.63928897 2:-0.74690103 3:-0.41501499 4:0.95746818 5:-0.87202861 6:-0.48201404 7:-0.94641608 8:0.67360566 9:-0.1933536 10:-0.64981549 11:0.67392707 12:-0.062197158 13:0.58124678 14:-0.55748656 15:0.58124678 16:-0.062197158 17:-0.55748656 18:-0.281094 19:1.8806962 20:-0.26478731 21:-0.21534843 22:-0.19494267 23:-0.28506568 24:-0.29289579 25:-0.10814863 26:-0.27302859 27:-0.23427262 28:-0.35129127 29:-0.076249571 30:-0.30438101 31:-0.24770291 32:-0.2967574 33:-0.088131026 34:-0.2967574 35:-0.48257941 36:-0.10814863 37:-0.088131026 38:-0.062197158 39:0.83154855 40:-0.11692812 41:-3.0564572 42:-0.12512391 43:3.3632506 
0.0021544350000000001 1:-0.43968649 2:-0.84571109 3:-0.4034551 4:0.95746818 5:-0.87202861 6:-0.48201404 7:1.0545779 8:1.7497084 9:-0.1933536 10:1.5359275 11:-1.4809755 12:-0.062197158 13:0.58124678 14:-0.55748656 15:0.58124678 16:-0.062197158 17:-0.55748656 18:-0.281094 19:1.8806962 20:-0.26478731 21:-0.21534843 22:-0.19494267 23:-0.28506568 24:-0.29289579 25:-0.10814863 26:-0.27302859 27:-0.23427262 28:-0.35129127 29:-0.076249571 30:-0.30438101 31:-0.24770291 32:-0.2967574 33:-0.088131026 34:-0.2967574 35:2.0681975 36:-0.10814863 37:-0.088131026 38:-0.062197158 39:-1.200254 40:-0.11692812 41:0.32654457 42:-0.12512391 43:-0.2967574 
0.0021544350000000001 1:2.2549469 2:-0.40106583 3:-0.15058259 4:0.95746818 5:1.1445376 6:0.46879811 7:1.0545779 8:-0.67856536 9:-0.18342807 10:-0.64981549 11:0.67392707 12:-0.062197158 13:0.58124678 14:-0.55748656 15:0.58124678 16:-0.062197158 17:-0.55748656 18:-0.281094 19:-0.5306915 20:-0.26478731 21:-0.21534843 22:-0.19494267 23:-0.28506568 24:-0.29289579 25:-0.10814863 26:-0.27302859 27:-0.23427262 28:-0.35129127 29:-0.076249571 30:3.2790136 31:-0.24770291 32:-0.2967574 33:-0.088131026 34:-0.2967574 35:-0.48257941 36:-0.10814863 37:-0.088131026 38:-0.062197158 39:0.83154855 40:-0.11692812 41:0.32654457 42:-0.12512391 43:-0.2967574 
0.0021544350000000001 1:1.3830833 2:0.3400096 3:1.0776554 4:0.95746818 5:-0.87202861 6:-0.48201404 7:1.0545779 8:0.95530795 9:-0.1933536 10:-0.64981549 11:0.67392707 12:-0.062197158 13:0.58124678 14:-0.55748656 15:0.58124678 16:-0.062197158 17:-0.55748656 18:-0.281094 19:-0.5306915 20:-0.26478731 21:-0.21534843 22:-0.19494267 23:-0.28506568 24:-0.29289579 25:-0.10814863 26:-0.27302859 27:-0.23427262 28:2.8411452 29:-0.076249571 30:-0.30438101 31:-0.24770291 32:-0.2967574 33:-0.088131026 34:-0.2967574 35:2.0681975 36:-0.10814863 37:-0.088131026 38:-0.062197158 39:-1.200254 40:-0.11692812 41:0.32654457 42:-0.12512391 43:-0.2967574 
0.0021544350000000001 1:0.55832589 2:0.24119955 3:-0.36733046 4:0.95746818 5:-0.87202861 6:-0.48201404 7:1.0545779 8:-1.0166081 9:-0.1933536 10:1.5359275 11:-1.4809755 12:-0.062197158 13:0.58124678 14:-0.55748656 15:0.58124678 16:-0.062197158 17:-0.55748656 18:-0.281094 19:-0.5306915 20:-0.26478731 21:-0.21534843 22:-0.19494267 23:-0.28506568 24:-0.29289579 25:-0.10814863 26:3.6555494 27:-0.23427262 28:-0.35129127 29:-0.076249571 30:-0.30438101 31:-0.24770291 32:-0.2967574 33:-0.088131026 34:-0.2967574 35:-0.48257941 36:-0.10814863 37:-0.088131026 38:-0.062197158 39:0.83154855 40:-0.11692812 41:0.32654457 42:-0.12512391 43:-0.2967574 
0.0021544350000000001 1:0.80423614 2:-0.94452114 3:3.6786298 4:0.95746818 5:-0.87202861 6:-0.48201404 7:-0.94641608 8:-1.0166081 9:-0.1933536 10:-0.64981549 11:0.67392707 12:-0.062197158 13:0.58124678 14:-0.55748656 15:0.58124678 16:-0.062197158 17:-0.55748656 18:-0.281094 19:1.8806962 20:-0.26478731 21:-0.21534843 22:-0.19494267 23:-0.28506568 24:-0.29289579 25:-0.10814863 26:-0.27302859 27:-0.23427262 28:-0.35129127 29:-0.076249571 30:-0.30438101 31:-0.24770291 32:3.3632506 33:-0.088131026 34:-0.2967574 35:-0.48257941 36:-0.10814863 37:-0.088131026 38:-0.062197158 39:-1.200254 40:-0.11692812 41:0.32654457 42:-0.12512391 43:-0.2967574 
0.0021544350000000001 1:-0.20016352 2:-0.20344571 3:-0.3427657 4:0.95746818 5:1.1445376 6:-0.29185161 7:1.0545779 8:1.0736229 9:-0.1933536 10:1.5359275 11:-1.4809755 12:-0.062197158 13:0.58124678 14:-0.55748656 15:0.58124678 16:-0.062197158 17:-0.55748656 18:-0.281094 19:1.8806962 20:-0.26478731 21:-0.21534843 22:-0.19494267 23:-0.28506568 24:-0.29289579 25:-0.10814863 26:-0.27302859 27:-0.23427262 28:-0.35129127 29:-0.076249571 30:-0.30438101 31:-0.24770291 32:-0.2967574 33:-0.088131026 34:-0.2967574 35:-0.48257941 36:-0.10814863 37:-0.088131026 38:-0.062197158 39:0.83154855 40:-0.11692812 41:0.32654457 42:-0.12512391 43:-0.2967574 
0.0021544350000000001 1:-0.43968649 2:-0.84571109 3:-0.23439176 4:0.95746818 5:1.1445376 6:0.46879811 7:1.0545779 8:0.74121421 9:-0.1933536 10:-0.64981549 11:0.67392707 12:-0.062197158 13:0.58124678 14:-0.55748656 15:0.58124678 16:-0.062197158 17:-0.55748656 18:-0.281094 19:1.8806962 20:-0.26478731 21:-0.21534843 22:-0.19494267 23:-0.28506568 24:-0.29289579 25:-0.10814863 26:-0.27302859 27:-0.23427262 28:-0.35129127 29:-0.076249571 30:-0.30438101 31:-0.24770291 32:-0.2967574 33:-0.088131026 34:-0.2967574 35:-0.48257941 36:-0.10814863 37:-0.088131026 38:-0.062197158 39:0.83154855 40:-0.11692812 41:0.32654457 42:-0.12512391 43:-0.2967574 
0.0021544350000000001 1:0.29245539 2:-0.45047086 3:-0.65632762 4:0.95746818 5:-0.87202861 6:-0.48201404 7:1.0545779 8:0.32992886 9:-0.15912763 10:-0.64981549 11:0.67392707 12:-0.062197158 13:0.58124678 14:-0.55748656 15:0.58124678 16:-0.062197158 17:-0.55748656 18:-0.281094 19:-0.5306915 20:-0.26478731 21:-0.21534843 22:-0.19494267 23:-0.28506568 24:-0.29289579 25:-0.10814863 26:-0.27302859 27:-0.23427262 28:-0.35129127 29:-0.076249571 30:3.2790136 31:-0.24770291 32:-0.2967574 33:-0.088131026 34:-0.2967574 35:-0.48257941 36:-0.10814863 37:-0.088131026 38:-0.062197158 39:0.83154855 40:-0.11692812 41:0.32654457 42:-0.12512391 43:-0.2967574 
0.0021544350000000001 1:1.3503485 2:-0.25285074 3:0.35516245 4:0.95746818 5:-0.87202861 6:-0.48201404 7:-0.94641608 8:0.27922245 9:-0.1933536 10:-0.64981549 11:0.67392707 12:-0.062197158 13:0.58124678 14:-0.55748656 15:0.58124678 16:-0.062197158 17:-0.55748656 18:3.550661 19:-0.5306915 20:-0.26478731 21:-0.21534843 22:-0.19494267 23:-0.28506568 24:-0.29289579 25:-0.10814863 26:-0.27302859 27:-0.23427262 28:-0.35129127 29:-0.076249571 30:-0.30438101 31:-0.24770291 32:-0.2967574 33:-0.088131026 34:-0.2967574 35:-0.48257941 36:-0.10814863 37:-0.088131026 38:-0.062197158 39:0.83154855 40:-0.11692812 41:-3.0564572 42:-0.12512391 43:3.3632506 
0.0021544350000000001 1:1.2569346 2:1.6245404 3:0.83634272 4:0.95746818 5:1.1445376 6:1.2294478 7:1.0545779 8:-1.0166081 9:-0.1933536 10:1.5359275 11:-1.4809755 12:-0.062197158 13:0.58124678 14:-0.55748656 15:0.58124678 16:-0.062197158 17:-0.55748656 18:-0.281094 19:-0.5306915 20:-0.26478731 21:-0.21534843 22:-0.19494267 23:-0.28506568 24:3.4075925 25:-0.10814863 26:-0.27302859 27:-0.23427262 28:-0.35129127 29:-0.076249571 30:-0.30438101 31:-0.24770291 32:3.3632506 33:-0.088131026 34:-0.2967574 35:-0.48257941 36:-0.10814863 37:-0.088131026 38:-0.062197158 39:-1.200254 40:-0.11692812 41:0.32654457 42:-0.12512391 43:-0.2967574 
0.0021544350000000001 1:1.9755035 2:1.5257303 3:1.6556497 4:0.95746818 5:-0.87202861 6:-0.48201404 7:1.0545779 8:-0.88139101 9:0.15369773 10:-0.64981549 11:0.67392707 12:-0.062197158 13:0.58124678 14:-0.55748656 15:0.58124678 16:-0.062197158 17:-0.55748656 18:-0.281094 19:-0.5306915 20:-0.26478731 21:-0.21534843 22:-0.19494267 23:-0.28506568 24:-0.29289579 25:-0.10814863 26:3.6555494 27:-0.23427262 28:-0.35129127 29:-0.076249571 30:-0.30438101 31:-0.24770291 32:-0.2967574 33:-0.088131026 34:-0.2967574 35:2.0681975 36:-0.10814863 37:-0.088131026 38:-0.062197158 39:-1.200254 40:-0.11692812 41:0.32654457 42:-0.12512391 43:-0.2967574 
0.0021544350000000001 1:0.11281316 2:0.83405989 3:0.86090748 4:0.95746818 5:-0.87202861 6:-0.48201404 7:1.0545779 8:-0.14896504 9:-0.1933536 10:-0.64981549 11:0.67392707 12:-0.062197158 13:-1.7171183 14:1.7903024 15:-1.7171183 16:-0.062197158 17:1.7903024 18:-0.281094 19:-0.5306915 20:-0.26478731 21:-0.21534843 22:-0.19494267 23:-0.28506568 24:-0.29289579 25:-0.10814863 26:-0.27302859 27:-0.23427262 28:-0.35129127 29:-0.076249571 30:3.2790136 31:-0.24770291 32:-0.2967574 33:-0.088131026 34:-0.2967574 35:2.0681975 36:-0.10814863 37:-0.088131026 38:-0.062197158 39:-1.200254 40:-0.11692812 41:0.32654457 42:-0.12512391 43:-0.2967574 
0.0021544350000000001 1:-0.31992501 2:-0.63129326 3:-0.12601783 4:0.95746818 5:1.1445376 6:1.7999351 7:1.0545779 8:2.2680407 9:-0.071338019 10:-0.64981549 11:0.67392707 12:-0.062197158 13:0.58124678 14:-0.55748656 15:0.58124678 16:-0.062197158 17:-0.55748656 18:-0.281094 19:-0.5306915 20:3.7693253 21:-0.21534843 22:-0.19494267 23:-0.28506568 24:-0.29289579 25:-0.10814863 26:-0.27302859 27:-0.23427262 28:-0.35129127 29:-0.076249571 30:-0.30438101 31:-0.24770291 32:-0.2967574 33:-0.088131026 34:-0.2967574 35:2.0681975 36:-0.10814863 37:-0.088131026 38:-0.062197158 39:-1.200254 40:-0.11692812 41:0.32654457 42:-0.12512391 43:-0.2967574 
0.0021544350000000001 1:1.376696 2:-0.10463565 3:-0.62020297 4:0.95746818 5:-0.87202861 6:-0.48201404 7:1.0545779 8:0.25105222 9:-0.1933536 10:-0.64981549 11:0.67392707 12:-0.062197158 13:0.58124678 14:-0.55748656 15:0.58124678 16:-0.062197158 17:-0.55748656 18:-0.281094 19:-0.5306915 20:-0.26478731 21:-0.21534843 22:-0.19494267 23:-0.28506568 24:-0.29289579 25:-0.10814863 26:-0.27302859 27:4.2602909 28:-0.35129127 29:-0.076249571 30:-0.30438101 31:-0.24770291 32:-0.2967574 33:-0.088131026 34:-0.2967574 35:-0.48257941 36:-0.10814863 37:-0.088131026 38:-0.062197158 39:0.83154855 40:-0.11692812 41:0.32654457 42:-0.12512391 43:-0.2967574 
0.0021544350000000001 1:-0.86523897 2:0.43881966 3:-0.18670723 4:0.95746818 5:1.1445376 6:0.088473254 7:-0.94641608 8:0.11020107 9:0.044688015 10:-0.64981549 11:0.67392707 12:-0.062197158 13:0.58124678 14:-0.55748656 15:0.58124678 16:-0.062197158 17:-0.55748656 18:-0.281094 19:1.8806962 20:-0.26478731 21:-0.21534843 22:-0.19494267 23:-0.28506568 24:-0.29289579 25:-0.10814863 26:-0.27302859 27:-0.23427262 28:-0.35129127 29:-0.076249571 30:-0.30438101 31:-0.24770291 32:-0.2967574 33:-0.088131026 34:-0.2967574 35:-0.48257941 36:-0.10814863 37:-0.088131026 38:-0.062197158 39:0.83154855 40:-0.11692812 41:0.32654457 42:-0.12512391 43:-0.2967574 
0.0021544350000000001 1:-0.40615328 2:-0.89511611 3:-0.65632762 4:0.95746818 5:-0.87202861 6:-0.48201404 7:1.0545779 8:-1.0166081 9:-0.1933536 10:-0.64981549 11:0.67392707 12:-0.062197158 13:0.58124678 14:-0.55748656 15:0.58124678 16:-0.062197158 17:-0.55748656 18:-0.281094 19:-0.5306915 20:-0.26478731 21:-0.21534843 22:-0.19494267 23:-0.28506568 24:3.4075925 25:-0.10814863 26:-0.27302859 27:-0.23427262 28:-0.35129127 29:-0.076249571 30:-0.30438101 31:-0.24770291 32:3.3632506 33:-0.088131026 34:-0.2967574 35:-0.48257941 36:-0.10814863 37:-0.088131026 38:-0.062197158 39:-1.200254 40:-0.11692812 41:0.32654457 42:-0.12512391 43:-0.2967574 
0.0021544350000000001 1:1.3631231 2:1.4269202 3:3.967627 4:0.95746818 5:-0.87202861 6:-0.48201404 7:-0.94641608 8:-0.39686306 9:-0.1933536 10:-0.64981549 11:0.67392707 12:-0.062197158 13:0.58124678 14:-0.55748656 15:0.58124678 16:-0.062197158 17:-0.55748656 18:-0.281094 19:-0.5306915 20:-0.26478731 21:-0.21534843 22:-0.19494267 23:-0.28506568 24:-0.29289579 25:-0.10814863 26:-0.27302859 27:4.2602909 28:-0.35129127 29:-0.076249571 30:-0.30438101 31:-0.24770291 32:-0.2967574 33:-0.088131026 34:-0.2967574 35:-0.48257941 36:-0.10814863 37:-0.088131026 38:-0.062197158 39:0.83154855 40:-0.11692812 41:-3.0564572 42:-0.12512391 43:3.3632506 
0.0021544350000000001 1:-0.99218614 2:0.93286995 3:-0.18670723 4:0.95746818 5:1.1445376 6:0.65896054 7:1.0545779 8:-0.79124628 9:-0.090675692 10:1.5359275 11:-1.4809755 12:-0.062197158 13:0.58124678 14:-0.55748656 15:0.58124678 16:-0.062197158 17:-0.55748656 18:-0.281094 19:-0.5306915 20:-0.26478731 21:-0.21534843 22:-0.19494267 23:-0.28506568 24:-0.29289579 25:-0.10814863 26:-0.27302859 27:-0.23427262 28:-0.35129127 29:-0.076249571 30:3.2790136 31:-0.24770291 32:-0.2967574 33:-0.088131026 34:-0.2967574 35:-0.48257941 36:-0.10814863 37:-0.088131026 38:-0.062197158 39:0.83154855 40:-0.11692812 41:0.32654457 42:-0.12512391 43:-0.2967574 
0.0021544350000000001 1:0.14554797 2:-0.030528111 3:-0.18670723 4:0.95746818 5:1.1445376 6:-0.10168918 7:-0.94641608 8:-1.0166081 9:-0.1933536 10:1.5359275 11:-1.4809755 12:-0.062197158 13:0.58124678 14:-0.55748656 15:0.58124678 16:-0.062197158 17:-0.55748656 18:-0.281094 19:-0.5306915 20:-0.26478731 21:-0.21534843 22:-0.19494267 23:-0.28506568 24:-0.29289579 25:-0.10814863 26:-0.27302859 27:-0.23427262 28:2.8411452 29:-0.076249571 30:-0.30438101 31:-0.24770291 32:-0.2967574 33:-0.088131026 34:-0.2967574 35:2.0681975 36:-0.10814863 37:-0.088131026 38:-0.062197158 39:-1.200254 40:-0.11692812 41:0.32654457 42:-0.12512391 43:-0.2967574 
0.0021544350000000001 1:1.2768948 2:-0.79630606 3:0.13841458 4:0.95746818 5:1.1445376 6:-0.29185161 7:-0.94641608 8:0.85952917 9:-0.040705777 10:1.5359275 11:-1.4809755 12:-0.062197158 13:0.58124678 14:-0.55748656 15:0.58124678 16:-0.062197158 17:-0.55748656 18:-0.281094 19:-0.5306915 20:-0.26478731 21:-0.21534843 22:-0.19494267 23:-0.28506568 24:-0.29289579 25:-0.10814863 26:-0.27302859 27:-0.23427262 28:2.8411452 29:-0.076249571 30:-0.30438101 31:-0.24770291 32:-0.2967574 33:-0.088131026 34:-0.2967574 35:2.0681975 36:-0.10814863 37:-0.088131026 38:-0.062197158 39:-1.200254 40:-0.11692812 41:0.32654457 42:-0.12512391 43:-0.2967574 
0.0021544350000000001 1:-0.76543773 2:1.3281102 3:-0.65632762 4:0.95746818 5:1.1445376 6:1.6097727 7:1.0545779 8:-1.0166081 9:-0.1933536 10:1.5359275 11:-1.4809755 12:-0.062197158 13:-1.7171183 14:1.7903024 15:-1.7171183 16:-0.062197158 17:1.7903024 18:-0.281094 19:-0.5306915 20:-0.26478731 21:-0.21534843 22:-0.19494267 23:-0.28506568 24:-0.29289579 25:9.2286834 26:-0.27302859 27:-0.23427262 28:-0.35129127 29:-0.076249571 30:-0.30438101 31:-0.24770291 32:-0.2967574 33:-0.088131026 34:-0.2967574 35:-0.48257941 36:9.2286834 37:-0.088131026 38:-0.062197158 39:-1.200254 40:-0.11692812 41:0.32654457 42:-0.12512391 43:-0.2967574 
0.0021544350000000001 1:0.15273366 2:-0.34375599 3:-0.066773408 4:0.95746818 5:1.1445376 6:-0.29185161 7:1.0545779 8:-0.0024798503 9:2.8916041 10:-0.64981549 11:0.67392707 12:-0.062197158 13:-1.7171183 14:1.7903024 15:-1.7171183 16:-0.062197158 17:1.7903024 18:-0.281094 19:1.8806962 20:-0.26478731 21:-0.21534843 22:-0.19494267 23:-0.28506568 24:-0.29289579 25:-0.10814863 26:-0.27302859 27:-0.23427262 28:-0.35129127 29:-0.076249571 30:-0.30438101 31:-0.24770291 32:-0.2967574 33:-0.088131026 34:-0.2967574 35:2.0681975 36:-0.10814863 37:-0.088131026 38:-0.062197158 39:-1.200254 40:-0.11692812 41:0.32654457 42:-0.12512391 43:-0.2967574 
0.0021544350000000001 1:0.065706977 2:-0.15404068 3:0.066165287 4:0.95746818 5:-0.87202861 6:-0.48201404 7:1.0545779 8:1.0116484 9:-0.1933536 10:-0.64981549 11:0.67392707 12:-0.062197158 13:0.58124678 14:-0.55748656 15:0.58124678 16:-0.062197158 17:-0.55748656 18:-0.281094 19:-0.5306915 20:-0.26478731 21:-0.21534843 22:-0.19494267 23:-0.28506568 24:-0.29289579 25:-0.10814863 26:-0.27302859 27:4.2602909 28:-0.35129127 29:-0.076249571 30:-0.30438101 31:-0.24770291 32:-0.2967574 33:-0.088131026 34:-0.2967574 35:-0.48257941 36:-0.10814863 37:-0.088131026 38:-0.062197158 39:0.83154855 40:-0.11692812 41:0.32654457 42:-0.12512391 43:-0.2967574 
0.0021544350000000001 1:-0.89238491 2:-0.91981863 3:-0.36733046 4:-1.0424049 5:1.1445376 6:-0.29185161 7:-0.94641608 8:0.3355629 9:-0.061925878 10:-0.64981549 11:-1.4809755 12:-0.062197158 13:0.58124678 14:-0.55748656 15:0.58124678 16:-0.062197158 17:-0.55748656 18:-0.281094 19:-0.5306915 20:-0.26478731 21:-0.21534843 22:-0.19494267 23:-0.28506568 24:-0.29289579 25:-0.10814863 26:-0.27302859 27:-0.23427262 28:2.8411452 29:-0.076249571 30:-0.30438101 31:-0.24770291 32:-0.2967574 33:-0.088131026 34:-0.2967574 35:-0.48257941 36:-0.10814863 37:-0.088131026 38:-0.062197158 39:0.83154855 40:-0.11692812 41:0.32654457 42:-0.12512391 43:-0.2967574 
0.0021544350000000001 1:-0.88519922 2:0.88346492 3:-0.17514734 4:0.95746818 5:1.1445376 6:0.088473254 7:1.0545779 8:-0.79124628 9:-0.18856196 10:-0.64981549 11:0.67392707 12:-0.062197158 13:0.58124678 14:-0.55748656 15:0.58124678 16:-0.062197158 17:-0.55748656 18:-0.281094 19:1.8806962 20:-0.26478731 21:-0.21534843 22:-0.19494267 23:-0.28506568 24:-0.29289579 25:-0.10814863 26:-0.27302859 27:-0.23427262 28:-0.35129127 29:-0.076249571 30:-0.30438101 31:-0.24770291 32:-0.2967574 33:-0.088131026 34:-0.2967574 35:-0.48257941 36:-0.10814863 37:-0.088131026 38:-0.062197158 39:0.83154855 40:-0.11692812 41:0.32654457 42:-0.12512391 43:-0.2967574 
0.0021544350000000001 1:-0.88519922 2:0.6700352 3:-0.089893181 4:0.95746818 5:1.1445376 6:2.18026 7:-0.94641608 8:-0.67856536 9:-0.16631508 10:-0.64981549 11:0.67392707 12:-0.062197158 13:0.58124678 14:-0.55748656 15:0.58124678 16:-0.062197158 17:-0.55748656 18:3.550661 19:-0.5306915 20:-0.26478731 21:-0.21534843 22:-0.19494267 23:-0.28506568 24:-0.29289579 25:-0.10814863 26:-0.27302859 27:-0.23427262 28:-0.35129127 29:-0.076249571 30:-0.30438101 31:-0.24770291 32:-0.2967574 33:-0.088131026 34:-0.2967574 35:-0.48257941 36:-0.10814863 37:-0.088131026 38:-0.062197158 39:0.83154855 40:-0.11692812 41:0.32654457 42:-0.12512391 43:-0.2967574 
0.0021544350000000001 1:-0.45325946 2:-0.94452114 3:-0.65632762 4:-1.0424049 5:-0.87202861 6:-0.48201404 7:-0.94641608 8:-1.0166081 9:-0.1933536 10:1.5359275 11:-1.4809755 12:-0.062197158 13:-1.7171183 14:-0.55748656 15:-1.7171183 16:-0.062197158 17:-0.55748656 18:-0.281094 19:-0.5306915 20:-0.26478731 21:-0.21534843 22:-0.19494267 23:-0.28506568 24:-0.29289579 25:-0.10814863 26:-0.27302859 27:-0.23427262 28:-0.35129127 29:-0.076249571 30:-0.30438101 31:-0.24770291 32:-0.2967574 33:-0.088131026 34:-0.2967574 35:-0.48257941 36:-0.10814863 37:-0.088131026 38:-0.062197158 39:-1.200254 40:-0.11692812 41:-3.0564572 42:7.9766491 43:-0.2967574 
0.0021544350000000001 1:-0.98500045 2:0.88346492 3:-0.36733046 4:0.95746818 5:1.1445376 6:0.27863568 7:1.0545779 8:-0.56588444 9:-0.10778868 10:1.5359275 11:-1.4809755 12:-0.062197158 13:-1.7171183 14:1.7903024 15:-1.7171183 16:-0.062197158 17:1.7903024 18:-0.281094 19:1.8806962 20:-0.26478731 21:-0.21534843 22:-0.19494267 23:-0.28506568 24:-0.29289579 25:-0.10814863 26:-0.27302859 27:-0.23427262 28:-0.35129127 29:-0.076249571 30:-0.30438101 31:-0.24770291 32:-0.2967574 33:-0.088131026 34:-0.2967574 35:-0.48257941 36:-0.10814863 37:-0.088131026 38:-0.062197158 39:0.83154855 40:-0.11692812 41:0.32654457 42:-0.12512391 43:-0.2967574 
0.0021544350000000001 1:0.50483242 2:-0.94452114 3:-0.65632762 4:-1.0424049 5:-0.87202861 6:-0.48201404 7:-0.94641608 8:-1.0166081 9:-0.1933536 10:-0.64981549 11:0.67392707 12:-0.062197158 13:-1.7171183 14:-0.55748656 15:-1.7171183 16:-0.062197158 17:-0.55748656 18:-0.281094 19:-0.5306915 20:-0.26478731 21:-0.21534843 22:-0.19494267 23:-0.28506568 24:-0.29289579 25:-0.10814863 26:-0.27302859 27:-0.23427262 28:-0.35129127 29:-0.076249571 30:-0.30438101 31:-0.24770291 32:-0.2967574 33:-0.088131026 34:-0.2967574 35:-0.48257941 36:-0.10814863 37:-0.088131026 38:-0.062197158 39:-1.200254 40:-0.11692812 41:-3.0564572 42:7.9766491 43:-0.2967574 
0.0021544350000000001 1:-0.48599427 2:-0.25285074 3:-0.47570439 4:0.95746818 5:1.1445376 6:0.84912297 7:-0.94641608 8:-1.0166081 9:1.014652 10:-0.64981549 11:0.67392707 12:-0.062197158 13:0.58124678 14:-0.55748656 15:0.58124678 16:-0.062197158 17:-0.55748656 18:-0.281094 19:-0.5306915 20:3.7693253 21:-0.21534843 22:-0.19494267 23:-0.28506568 24:-0.29289579 25:-0.10814863 26:-0.27302859 27:-0.23427262 28:-0.35129127 29:-0.076249571 30:-0.30438101 31:-0.24770291 32:-0.2967574 33:-0.088131026 34:-0.2967574 35:-0.48257941 36:-0.10814863 37:-0.088131026 38:-0.062197158 39:0.83154855 40:-0.11692812 41:0.32654457 42:-0.12512391 43:-0.2967574 
0.0021544350000000001 1:-0.70555699 2:1.2787052 3:-0.43957975 4:0.95746818 5:1.1445376 6:0.27863568 7:-0.94641608 8:-1.0166081 9:-0.13842092 10:1.5359275 11:-1.4809755 12:-0.062197158 13:-1.7171183 14:1.7903024 15:-1.7171183 16:-0.062197158 17:1.7903024 18:-0.281094 19:-0.5306915 20:-0.26478731 21:-0.21534843 22:-0.19494267 23:-0.28506568 24:-0.29289579 25:-0.10814863 26:-0.27302859 27:-0.23427262 28:-0.35129127 29:-0.076249571 30:-0.30438101 31:4.0293007 32:-0.2967574 33:-0.088131026 34:-0.2967574 35:2.0681975 36:-0.10814863 37:-0.088131026 38:-0.062197158 39:-1.200254 40:-0.11692812 41:0.32654457 42:-0.12512391 43:-0.2967574 
0.0021544350000000001 1:0.62459391 2:0.24119955 3:-0.28352128 4:0.95746818 5:1.1445376 6:0.46879811 7:1.0545779 8:-0.40813116 9:-0.0056241592 10:-0.64981549 11:0.67392707 12:-0.062197158 13:0.58124678 14:-0.55748656 15:0.58124678 16:-0.062197158 17:-0.55748656 18:-0.281094 19:-0.5306915 20:-0.26478731 21:-0.21534843 22:-0.19494267 23:-0.28506568 24:-0.29289579 25:-0.10814863 26:-0.27302859 27:4.2602909 28:-0.35129127 29:-0.076249571 30:-0.30438101 31:-0.24770291 32:-0.2967574 33:-0.088131026 34:-0.2967574 35:-0.48257941 36:-0.10814863 37:-0.088131026 38:-0.062197158 39:0.83154855 40:-0.11692812 41:0.32654457 42:-0.12512391 43:-0.2967574 
0.0021544350000000001 1:-0.49317995 2:-0.60659075 3:-0.17514734 4:0.95746818 5:1.1445376 6:-0.29185161 7:1.0545779 8:1.20884 9:-0.189931 10:-0.64981549 11:0.67392707 12:-0.062197158 13:0.58124678 14:-0.55748656 15:0.58124678 16:-0.062197158 17:-0.55748656 18:-0.281094 19:-0.5306915 20:-0.26478731 21:-0.21534843 22:-0.19494267 23:-0.28506568 24:-0.29289579 25:-0.10814863 26:-0.27302859 27:-0.23427262 28:-0.35129127 29:-0.076249571 30:-0.30438101 31:4.0293007 32:-0.2967574 33:-0.088131026 34:-0.2967574 35:-0.48257941 36:-0.10814863 37:-0.088131026 38:-0.062197158 39:0.83154855 40:-0.11692812 41:0.32654457 42:-0.12512391 43:-0.2967574 
0.0021544350000000001 1:-0.23369674 2:0.043579432 3:2.5226412 4:0.95746818 5:-0.87202861 6:-0.48201404 7:1.0545779 8:-0.6222249 9:-0.1933536 10:-0.64981549 11:0.67392707 12:-0.062197158 13:0.58124678 14:-0.55748656 15:0.58124678 16:-0.062197158 17:-0.55748656 18:-0.281094 19:-0.5306915 20:-0.26478731 21:-0.21534843 22:-0.19494267 23:-0.28506568 24:-0.29289579 25:-0.10814863 26:-0.27302859 27:-0.23427262 28:-0.35129127 29:-0.076249571 30:3.2790136 31:-0.24770291 32:-0.2967574 33:-0.088131026 34:-0.2967574 35:-0.48257941 36:-0.10814863 37:-0.088131026 38:-0.062197158 39:0.83154855 40:-0.11692812 41:0.32654457 42:-0.12512391 43:-0.2967574 
0.0021544350000000001 1:-0.046868819 2:1.4269202 3:-0.078333295 4:0.95746818 5:1.1445376 6:-0.29185161 7:-0.94641608 8:0.22288199 9:-0.19010213 10:1.5359275 11:-1.4809755 12:-0.062197158 13:0.58124678 14:-0.55748656 15:0.58124678 16:-0.062197158 17:-0.55748656 18:-0.281094 19:1.8806962 20:-0.26478731 21:-0.21534843 22:-0.19494267 23:-0.28506568 24:-0.29289579 25:-0.10814863 26:-0.27302859 27:-0.23427262 28:-0.35129127 29:-0.076249571 30:-0.30438101 31:-0.24770291 32:-0.2967574 33:-0.088131026 34:-0.2967574 35:-0.48257941 36:-0.10814863 37:-0.088131026 38:-0.062197158 39:0.83154855 40:-0.11692812 41:0.32654457 42:-0.12512391 43:-0.2967574 
0.0021544350000000001 1:0.085667225 2:-0.83780628 3:-0.64476773 4:0.95746818 5:-0.87202861 6:-0.48201404 7:-0.94641608 8:1.4623721 9:1.7193647 10:1.5359275 11:-1.4809755 12:-0.062197158 13:0.58124678 14:-0.55748656 15:0.58124678 16:-0.062197158 17:-0.55748656 18:-0.281094 19:-0.5306915 20:3.7693253 21:-0.21534843 22:-0.19494267 23:-0.28506568 24:-0.29289579 25:-0.10814863 26:-0.27302859 27:-0.23427262 28:-0.35129127 29:-0.076249571 30:-0.30438101 31:-0.24770291 32:-0.2967574 33:-0.088131026 34:-0.2967574 35:-0.48257941 36:-0.10814863 37:-0.088131026 38:-0.062197158 39:0.83154855 40:-0.11692812 41:0.32654457 42:-0.12512391 43:-0.2967574 
0.0021544350000000001 1:-0.36623278 2:-0.59868594 3:-0.36733046 4:0.95746818 5:1.1445376 6:0.46879811 7:1.0545779 8:-0.11516077 9:0.79526351 10:-0.64981549 11:0.67392707 12:-0.062197158 13:-1.7171183 14:1.7903024 15:-1.7171183 16:-0.062197158 17:1.7903024 18:-0.281094 19:1.8806962 20:-0.26478731 21:-0.21534843 22:-0.19494267 23:-0.28506568 24:-0.29289579 25:-0.10814863 26:-0.27302859 27:-0.23427262 28:-0.35129127 29:-0.076249571 30:-0.30438101 31:-0.24770291 32:-0.2967574 33:-0.088131026 34:-0.2967574 35:-0.48257941 36:-0.10814863 37:-0.088131026 38:-0.062197158 39:0.83154855 40:-0.11692812 41:0.32654457 42:-0.12512391 43:-0.2967574 
0.0021544350000000001 1:1.1834808 2:-0.3516608 3:0.030040641 4:0.95746818 5:1.1445376 6:1.0392854 7:1.0545779 8:1.2144741 9:0.51837542 10:1.5359275 11:-1.4809755 12:-0.062197158 13:0.58124678 14:-0.55748656 15:0.58124678 16:-0.062197158 17:-0.55748656 18:-0.281094 19:1.8806962 20:-0.26478731 21:-0.21534843 22:-0.19494267 23:-0.28506568 24:-0.29289579 25:-0.10814863 26:-0.27302859 27:-0.23427262 28:-0.35129127 29:-0.076249571 30:-0.30438101 31:-0.24770291 32:-0.2967574 33:-0.088131026 34:-0.2967574 35:-0.48257941 36:-0.10814863 37:-0.088131026 38:-0.062197158 39:0.83154855 40:-0.11692812 41:0.32654457 42:-0.12512391 43:-0.2967574 
0.0021544350000000001 1:0.31241564 2:-0.45047086 3:0.64415961 4:0.95746818 5:1.1445376 6:0.84912297 7:-0.94641608 8:-0.17150123 9:0.023981304 10:-0.64981549 11:0.67392707 12:-0.062197158 13:0.58124678 14:-0.55748656 15:0.58124678 16:-0.062197158 17:-0.55748656 18:-0.281094 19:-0.5306915 20:-0.26478731 21:-0.21534843 22:-0.19494267 23:-0.28506568 24:-0.29289579 25:-0.10814863 26:3.6555494 27:-0.23427262 28:-0.35129127 29:-0.076249571 30:-0.30438101 31:-0.24770291 32:-0.2967574 33:-0.088131026 34:-0.2967574 35:-0.48257941 36:-0.10814863 37:-0.088131026 38:-0.062197158 39:0.83154855 40:-0.11692812 41:0.32654457 42:-0.12512391 43:-0.2967574 
0.0021544350000000001 1:-0.86523897 2:-0.77950835 3:-0.19826712 4:0.95746818 5:1.1445376 6:-0.29185161 7:-0.94641608 8:-1.0166081 9:-0.1933536 10:1.5359275 11:-1.4809755 12:-0.062197158 13:0.58124678 14:-0.55748656 15:0.58124678 16:-0.062197158 17:-0.55748656 18:-0.281094 19:-0.5306915 20:-0.26478731 21:-0.21534843 22:-0.19494267 23:-0.28506568 24:-0.29289579 25:-0.10814863 26:-0.27302859 27:-0.23427262 28:2.8411452 29:-0.076249571 30:-0.30438101 31:-0.24770291 32:-0.2967574 33:-0.088131026 34:-0.2967574 35:-0.48257941 36:-0.10814863 37:-0.088131026 38:-0.062197158 39:0.83154855 40:-0.11692812 41:0.32654457 42:-0.12512391 43:-0.2967574 
0.0021544350000000001 1:-0.65286193 2:1.3281102 3:-0.042208649 4:0.95746818 5:1.1445376 6:1.6097727 7:1.0545779 8:0.6172652 9:-0.14475272 10:-0.64981549 11:0.67392707 12:-0.062197158 13:0.58124678 14:-0.55748656 15:0.58124678 16:-0.062197158 17:-0.55748656 18:-0.281094 19:-0.5306915 20:-0.26478731 21:-0.21534843 22:-0.19494267 23:-0.28506568 24:-0.29289579 25:-0.10814863 26:-0.27302859 27:-0.23427262 28:-0.35129127 29:-0.076249571 30:3.2790136 31:-0.24770291 32:-0.2967574 33:-0.088131026 34:-0.2967574 35:2.0681975 36:-0.10814863 37:-0.088131026 38:-0.062197158 39:-1.200254 40:-0.11692812 41:0.32654457 42:-0.12512391 43:-0.2967574 
0.0021544350000000001 1:-0.41333896 2:0.76785715 3:-0.24739663 4:0.95746818 5:-0.87202861 6:-0.48201404 7:-0.94641608 8:-0.11516077 9:-0.16768412 10:1.5359275 11:-1.4809755 12:-0.062197158 13:0.58124678 14:-0.55748656 15:0.58124678 16:-0.062197158 17:-0.55748656 18:3.550661 19:-0.5306915 20:-0.26478731 21:-0.21534843 22:-0.19494267 23:-0.28506568 24:-0.29289579 25:-0.10814863 26:-0.27302859 27:-0.23427262 28:-0.35129127 29:-0.076249571 30:-0.30438101 31:-0.24770291 32:-0.2967574 33:-0.088131026 34:-0.2967574 35:-0.48257941 36:-0.10814863 37:-0.088131026 38:-0.062197158 39:0.83154855 40:-0.11692812 41:0.32654457 42:-0.12512391 43:-0.2967574 
0.0021544350000000001 1:0.8577296 2:-0.90400902 3:0.82478284 4:0.95746818 5:-0.87202861 6:-0.48201404 7:-0.94641608 8:1.2370103 9:-0.1933536 10:-0.64981549 11:0.67392707 12:-0.062197158 13:0.58124678 14:-0.55748656 15:0.58124678 16:-0.062197158 17:-0.55748656 18:-0.281094 19:-0.5306915 20:-0.26478731 21:-0.21534843 22:-0.19494267 23:-0.28506568 24:3.4075925 25:-0.10814863 26:-0.27302859 27:-0.23427262 28:-0.35129127 29:-0.076249571 30:-0.30438101 31:-0.24770291 32:-0.2967574 33:-0.088131026 34:-0.2967574 35:2.0681975 36:-0.10814863 37:-0.088131026 38:-0.062197158 39:-1.200254 40:-0.11692812 41:0.32654457 42:-0.12512391 43:-0.2967574 
0.0021544350000000001 1:-0.49956723 2:-0.77160354 3:-0.35577057 4:0.95746818 5:-0.87202861 6:-0.48201404 7:1.0545779 8:-0.11516077 9:0.80946729 10:1.5359275 11:-1.4809755 12:-0.062197158 13:0.58124678 14:-0.55748656 15:0.58124678 16:-0.062197158 17:-0.55748656 18:-0.281094 19:-0.5306915 20:-0.26478731 21:-0.21534843 22:-0.19494267 23:-0.28506568 24:-0.29289579 25:-0.10814863 26:-0.27302859 27:-0.23427262 28:-0.35129127 29:-0.076249571 30:-0.30438101 31:4.0293007 32:-0.2967574 33:-0.088131026 34:-0.2967574 35:2.0681975 36:-0.10814863 37:-0.088131026 38:-0.062197158 39:-1.200254 40:-0.11692812 41:0.32654457 42:-0.12512391 43:-0.2967574 
0.0021544350000000001 1:0.93757059 2:-0.88721131 3:-0.15058259 4:0.95746818 5:1.1445376 6:1.0392854 7:-0.94641608 8:-0.45320352 9:-0.12917991 10:-0.64981549 11:0.67392707 12:-0.062197158 13:-1.7171183 14:1.7903024 15:-1.7171183 16:-0.062197158 17:1.7903024 18:-0.281094 19:-0.5306915 20:3.7693253 21:-0.21534843 22:-0.19494267 23:-0.28506568 24:-0.29289579 25:-0.10814863 26:-0.27302859 27:-0.23427262 28:-0.35129127 29:-0.076249571 30:-0.30438101 31:-0.24770291 32:-0.2967574 33:-0.088131026 34:-0.2967574 35:2.0681975 36:-0.10814863 37:-0.088131026 38:-0.062197158 39:-1.200254 40:-0.11692812 41:0.32654457 42:-0.12512391 43:-0.2967574 
0.0021544350000000001 1:-0.16024303 2:1.9782804 3:0.80021808 4:0.95746818 5:1.1445376 6:0.46879811 7:1.0545779 8:-0.070088401 9:-0.1933536 10:-0.64981549 11:0.67392707 12:-0.062197158 13:0.58124678 14:-0.55748656 15:0.58124678 16:-0.062197158 17:-0.55748656 18:3.550661 19:-0.5306915 20:-0.26478731 21:-0.21534843 22:-0.19494267 23:-0.28506568 24:-0.29289579 25:-0.10814863 26:-0.27302859 27:-0.23427262 28:-0.35129127 29:-0.076249571 30:-0.30438101 31:-0.24770291 32:-0.2967574 33:-0.088131026 34:-0.2967574 35:-0.48257941 36:-0.10814863 37:-0.088131026 38:-0.062197158 39:0.83154855 40:-0.11692812 41:0.32654457 42:-0.12512391 43:-0.2967574 
0.0021544350000000001 1:0.49844514 2:-0.72219851 3:-0.22283188 4:-1.0424049 5:-0.87202861 6:-0.48201404 7:1.0545779 8:1.4116657 9:-0.1933536 10:-0.64981549 11:0.67392707 12:-0.062197158 13:-1.7171183 14:1.7903024 15:-1.7171183 16:-0.062197158 17:1.7903024 18:-0.281094 19:-0.5306915 20:-0.26478731 21:4.6346727 22:-0.19494267 23:-0.28506568 24:-0.29289579 25:-0.10814863 26:-0.27302859 27:-0.23427262 28:-0.35129127 29:-0.076249571 30:-0.30438101 31:-0.24770291 32:-0.2967574 33:-0.088131026 34:-0.2967574 35:-0.48257941 36:-0.10814863 37:-0.088131026 38:-0.062197158 39:0.83154855 40:-0.11692812 41:0.32654457 42:-0.12512391 43:-0.2967574 
0.0021544350000000001 1:2.2685199 2:-0.64018617 3:-0.62020297 4:0.95746818 5:-0.87202861 6:-0.48201404 7:1.0545779 8:0.44824382 9:-0.1933536 10:-0.64981549 11:0.67392707 12:-0.062197158 13:0.58124678 14:-0.55748656 15:0.58124678 16:-0.062197158 17:-0.55748656 18:-0.281094 19:-0.5306915 20:-0.26478731 21:-0.21534843 22:-0.19494267 23:-0.28506568 24:-0.29289579 25:-0.10814863 26:-0.27302859 27:-0.23427262 28:2.8411452 29:-0.076249571 30:-0.30438101 31:-0.24770291 32:-0.2967574 33:-0.088131026 34:-0.2967574 35:-0.48257941 36:-0.10814863 37:-0.088131026 38:-0.062197158 39:0.83154855 40:-0.11692812 41:0.32654457 42:-0.12512391 43:-0.2967574 
0.0021544350000000001 1:0.5918591 2:-0.90302092 3:-0.63176286 4:0.95746818 5:-0.87202861 6:-0.48201404 7:1.0545779 8:0.56092474 9:-0.1933536 10:-0.64981549 11:0.67392707 12:-0.062197158 13:0.58124678 14:-0.55748656 15:0.58124678 16:-0.062197158 17:-0.55748656 18:-0.281094 19:-0.5306915 20:-0.26478731 21:-0.21534843 22:-0.19494267 23:-0.28506568 24:-0.29289579 25:-0.10814863 26:3.6555494 27:-0.23427262 28:-0.35129127 29:-0.076249571 30:-0.30438101 31:-0.24770291 32:-0.2967574 33:-0.088131026 34:-0.2967574 35:-0.48257941 36:-0.10814863 37:-0.088131026 38:-0.062197158 39:0.83154855 40:-0.11692812 41:0.32654457 42:-0.12512391 43:-0.2967574 
0.0021544350000000001 1:-1.0520669 2:-0.8704136 3:2.233644 4:-1.0424049 5:-0.87202861 6:-0.48201404 7:1.0545779 8:0.67360566 9:-0.1933536 10:1.5359275 11:-1.4809755 12:16.046867 13:-1.7171183 14:-0.55748656 15:-1.7171183 16:16.046867 17:-0.55748656 18:-0.281094 19:-0.5306915 20:3.7693253 21:-0.21534843 22:-0.19494267 23:-0.28506568 24:-0.29289579 25:-0.10814863 26:-0.27302859 27:-0.23427262 28:-0.35129127 29:-0.076249571 30:-0.30438101 31:-0.24770291 32:-0.2967574 33:-0.088131026 34:3.3632506 35:-0.48257941 36:-0.10814863 37:-0.088131026 38:-0.062197158 39:-1.200254 40:-0.11692812 41:-3.0564572 42:-0.12512391 43:3.3632506 
0.0021544350000000001 1:-0.88519922 2:0.167092 3:-0.16214247 4:0.95746818 5:-0.87202861 6:-0.48201404 7:-0.94641608 8:-0.34052261 9:-0.1933536 10:-0.64981549 11:0.67392707 12:-0.062197158 13:0.58124678 14:-0.55748656 15:0.58124678 16:-0.062197158 17:-0.55748656 18:-0.281094 19:-0.5306915 20:-0.26478731 21:-0.21534843 22:-0.19494267 23:-0.28506568 24:-0.29289579 25:-0.10814863 26:-0.27302859 27:-0.23427262 28:-0.35129127 29:-0.076249571 30:3.2790136 31:-0.24770291 32:-0.2967574 33:-0.088131026 34:-0.2967574 35:-0.48257941 36:-0.10814863 37:-0.088131026 38:-0.062197158 39:0.83154855 40:-0.11692812 41:-3.0564572 42:-0.12512391 43:3.3632506 
0.0021544350000000001 1:-0.43968649 2:-0.79630606 3:-0.58407833 4:0.95746818 5:-0.87202861 6:-0.48201404 7:-0.94641608 8:0.94967391 9:-0.18941761 10:-0.64981549 11:0.67392707 12:-0.062197158 13:0.58124678 14:-0.55748656 15:0.58124678 16:-0.062197158 17:-0.55748656 18:-0.281094 19:1.8806962 20:-0.26478731 21:-0.21534843 22:-0.19494267 23:-0.28506568 24:-0.29289579 25:-0.10814863 26:-0.27302859 27:-0.23427262 28:-0.35129127 29:-0.076249571 30:-0.30438101 31:-0.24770291 32:3.3632506 33:-0.088131026 34:-0.2967574 35:-0.48257941 36:-0.10814863 37:-0.088131026 38:-0.062197158 39:-1.200254 40:-0.11692812 41:0.32654457 42:-0.12512391 43:-0.2967574 
0.0021544350000000001 1:-0.83250416 2:-0.3516608 3:-0.64476773 4:0.95746818 5:-0.87202861 6:-0.48201404 7:-0.94641608 8:-0.45320352 9:-0.1933536 10:1.5359275 11:-1.4809755 12:-0.062197158 13:0.58124678 14:-0.55748656 15:0.58124678 16:-0.062197158 17:-0.55748656 18:3.550661 19:-0.5306915 20:-0.26478731 21:-0.21534843 22:-0.19494267 23:-0.28506568 24:-0.29289579 25:-0.10814863 26:-0.27302859 27:-0.23427262 28:-0.35129127 29:-0.076249571 30:-0.30438101 31:-0.24770291 32:-0.2967574 33:-0.088131026 34:-0.2967574 35:-0.48257941 36:-0.10814863 37:-0.088131026 38:-0.062197158 39:0.83154855 40:-0.11692812 41:0.32654457 42:-0.12512391 43:-0.2967574 
0.0021544350000000001 1:1.8621293 2:0.91607224 3:3.5095665 4:0.95746818 5:1.1445376 6:1.6097727 7:1.0545779 8:-0.84758674 9:-0.14201464 10:-0.64981549 11:0.67392707 12:-0.062197158 13:0.58124678 14:-0.55748656 15:0.58124678 16:-0.062197158 17:-0.55748656 18:-0.281094 19:-0.5306915 20:-0.26478731 21:-0.21534843 22:-0.19494267 23:3.5011913 24:-0.29289579 25:-0.10814863 26:-0.27302859 27:-0.23427262 28:-0.35129127 29:-0.076249571 30:-0.30438101 31:-0.24770291 32:-0.2967574 33:-0.088131026 34:3.3632506 35:-0.48257941 36:-0.10814863 37:-0.088131026 38:-0.062197158 39:-1.200254 40:-0.11692812 41:0.32654457 42:-0.12512391 43:-0.2967574 
0.0021544350000000001 1:-0.84527872 2:-0.58188823 3:-0.053768536 4:0.95746818 5:1.1445376 6:0.46879811 7:-0.94641608 8:0.22288199 9:0.2349844 10:1.5359275 11:-1.4809755 12:-0.062197158 13:0.58124678 14:-0.55748656 15:0.58124678 16:-0.062197158 17:-0.55748656 18:-0.281094 19:-0.5306915 20:-0.26478731 21:-0.21534843 22:-0.19494267 23:-0.28506568 24:-0.29289579 25:-0.10814863 26:-0.27302859 27:-0.23427262 28:2.8411452 29:-0.076249571 30:-0.30438101 31:-0.24770291 32:-0.2967574 33:-0.088131026 34:-0.2967574 35:-0.48257941 36:-0.10814863 37:-0.088131026 38:-0.062197158 39:0.83154855 40:-0.11692812 41:0.32654457 42:-0.12512391 43:-0.2967574 
0.0021544350000000001 1:-0.86523897 2:-0.58188823 3:-0.006084004 4:0.95746818 5:1.1445376 6:-0.29185161 7:-0.94641608 8:-0.45320352 9:-0.16768412 10:-0.64981549 11:0.67392707 12:-0.062197158 13:0.58124678 14:-0.55748656 15:0.58124678 16:-0.062197158 17:-0.55748656 18:-0.281094 19:1.8806962 20:-0.26478731 21:-0.21534843 22:-0.19494267 23:-0.28506568 24:-0.29289579 25:-0.10814863 26:-0.27302859 27:-0.23427262 28:-0.35129127 29:-0.076249571 30:-0.30438101 31:-0.24770291 32:-0.2967574 33:-0.088131026 34:-0.2967574 35:-0.48257941 36:-0.10814863 37:-0.088131026 38:-0.062197158 39:0.83154855 40:-0.11692812 41:0.32654457 42:-0.12512391 43:-0.2967574 
0.0021544350000000001 1:-0.84527872 2:-0.3516608 3:-0.60864309 4:0.95746818 5:1.1445376 6:0.088473254 7:-0.94641608 8:-0.45320352 9:-0.19232682 10:1.5359275 11:-1.4809755 12:-0.062197158 13:0.58124678 14:-0.55748656 15:0.58124678 16:-0.062197158 17:-0.55748656 18:-0.281094 19:-0.5306915 20:-0.26478731 21:-0.21534843 22:-0.19494267 23:-0.28506568 24:-0.29289579 25:-0.10814863 26:-0.27302859 27:-0.23427262 28:2.8411452 29:-0.076249571 30:-0.30438101 31:-0.24770291 32:-0.2967574 33:-0.088131026 34:-0.2967574 35:-0.48257941 36:-0.10814863 37:-0.088131026 38:-0.062197158 39:0.83154855 40:-0.11692812 41:0.32654457 42:-0.12512391 43:-0.2967574 
0.0021544350000000001 1:1.8493547 2:-0.84571109 3:0.48810114 4:0.95746818 5:-0.87202861 6:-0.48201404 7:-0.94641608 8:-0.0024798503 9:-0.13961883 10:-0.64981549 11:0.67392707 12:-0.062197158 13:-1.7171183 14:1.7903024 15:-1.7171183 16:-0.062197158 17:1.7903024 18:-0.281094 19:-0.5306915 20:-0.26478731 21:-0.21534843 22:-0.19494267 23:-0.28506568 24:-0.29289579 25:-0.10814863 26:3.6555494 27:-0.23427262 28:-0.35129127 29:-0.076249571 30:-0.30438101 31:-0.24770291 32:-0.2967574 33:-0.088131026 34:-0.2967574 35:2.0681975 36:-0.10814863 37:-0.088131026 38:-0.062197158 39:-1.200254 40:-0.11692812 41:0.32654457 42:-0.12512391 43:-0.2967574 
0.0021544350000000001 1:-0.086789314 2:0.3400096 3:0.24678851 4:0.95746818 5:1.1445376 6:1.0392854 7:-0.94641608 8:0.84262704 9:0.012002215 10:-0.64981549 11:0.67392707 12:-0.062197158 13:0.58124678 14:-0.55748656 15:0.58124678 16:-0.062197158 17:-0.55748656 18:-0.281094 19:-0.5306915 20:3.7693253 21:-0.21534843 22:-0.19494267 23:-0.28506568 24:-0.29289579 25:-0.10814863 26:-0.27302859 27:-0.23427262 28:-0.35129127 29:-0.076249571 30:-0.30438101 31:-0.24770291 32:-0.2967574 33:-0.088131026 34:-0.2967574 35:-0.48257941 36:-0.10814863 37:-0.088131026 38:-0.062197158 39:0.83154855 40:-0.11692812 41:0.32654457 42:-0.12512391 43:-0.2967574 
0.0021544350000000001 1:-0.67920946 2:1.2293001 3:0.066165287 4:0.95746818 5:1.1445376 6:0.84912297 7:1.0545779 8:-0.45320352 9:-0.054909554 10:-0.64981549 11:0.67392707 12:-0.062197158 13:0.58124678 14:-0.55748656 15:0.58124678 16:-0.062197158 17:-0.55748656 18:-0.281094 19:-0.5306915 20:-0.26478731 21:-0.21534843 22:-0.19494267 23:-0.28506568 24:-0.29289579 25:-0.10814863 26:-0.27302859 27:-0.23427262 28:2.8411452 29:-0.076249571 30:-0.30438101 31:-0.24770291 32:-0.2967574 33:-0.088131026 34:-0.2967574 35:-0.48257941 36:-0.10814863 37:-0.088131026 38:-0.062197158 39:0.83154855 40:-0.11692812 41:0.32654457 42:-0.12512391 43:-0.2967574 
0.0021544350000000001 1:-0.64567625 2:-0.94452114 3:-0.63176286 4:0.95746818 5:-0.87202861 6:-0.48201404 7:-0.94641608 8:-1.0166081 9:-0.1933536 10:-0.64981549 11:0.67392707 12:-0.062197158 13:0.58124678 14:-0.55748656 15:0.58124678 16:-0.062197158 17:-0.55748656 18:-0.281094 19:-0.5306915 20:3.7693253 21:-0.21534843 22:-0.19494267 23:-0.28506568 24:-0.29289579 25:-0.10814863 26:-0.27302859 27:-0.23427262 28:-0.35129127 29:-0.076249571 30:-0.30438101 31:-0.24770291 32:-0.2967574 33:-0.088131026 34:-0.2967574 35:-0.48257941 36:-0.10814863 37:-0.088131026 38:-0.062197158 39:0.83154855 40:-0.11692812 41:0.32654457 42:-0.12512391 43:-0.2967574 
0.0021544350000000001 1:-0.69916971 2:0.72734503 3:0.0546054 4:-1.0424049 5:-0.87202861 6:-0.48201404 7:-0.94641608 8:-0.092624585 9:-0.1933536 10:1.5359275 11:-1.4809755 12:-0.062197158 13:-1.7171183 14:1.7903024 15:-1.7171183 16:-0.062197158 17:1.7903024 18:-0.281094 19:-0.5306915 20:-0.26478731 21:-0.21534843 22:-0.19494267 23:-0.28506568 24:-0.29289579 25:-0.10814863 26:-0.27302859 27:-0.23427262 28:-0.35129127 29:-0.076249571 30:-0.30438101 31:4.0293007 32:-0.2967574 33:-0.088131026 34:-0.2967574 35:-0.48257941 36:-0.10814863 37:-0.088131026 38:-0.062197158 39:0.83154855 40:-0.11692812 41:0.32654457 42:-0.12512391 43:-0.2967574 
0.0021544350000000001 1:-0.69278243 2:1.1798951 3:-0.5363938 4:0.95746818 5:1.1445376 6:0.46879811 7:1.0545779 8:-1.0166081 9:-0.097520885 10:1.5359275 11:-1.4809755 12:-0.062197158 13:0.58124678 14:-0.55748656 15:0.58124678 16:-0.062197158 17:-0.55748656 18:-0.281094 19:-0.5306915 20:-0.26478731 21:-0.21534843 22:-0.19494267 23:-0.28506568 24:-0.29289579 25:-0.10814863 26:-0.27302859 27:-0.23427262 28:2.8411452 29:-0.076249571 30:-0.30438101 31:-0.24770291 32:-0.2967574 33:-0.088131026 34:-0.2967574 35:-0.48257941 36:-0.10814863 37:-0.088131026 38:-0.062197158 39:0.83154855 40:-0.11692812 41:0.32654457 42:-0.12512391 43:-0.2967574 
0.0021544350000000001 1:-0.47321971 2:-0.82990148 3:-0.57251844 4:0.95746818 5:1.1445376 6:0.84912297 7:1.0545779 8:-0.47573971 9:0.68351572 10:-0.64981549 11:0.67392707 12:-0.062197158 13:0.58124678 14:-0.55748656 15:0.58124678 16:-0.062197158 17:-0.55748656 18:-0.281094 19:1.8806962 20:-0.26478731 21:-0.21534843 22:-0.19494267 23:-0.28506568 24:-0.29289579 25:-0.10814863 26:-0.27302859 27:-0.23427262 28:-0.35129127 29:-0.076249571 30:-0.30438101 31:-0.24770291 32:-0.2967574 33:-0.088131026 34:-0.2967574 35:-0.48257941 36:-0.10814863 37:-0.088131026 38:-0.062197158 39:0.83154855 40:-0.11692812 41:0.32654457 42:-0.12512391 43:-0.2967574 
0.0021544350000000001 1:-0.65286193 2:1.3281102 3:0.35516245 4:0.95746818 5:1.1445376 6:1.2294478 7:-0.94641608 8:-0.70110154 9:-0.066375254 10:-0.64981549 11:0.67392707 12:-0.062197158 13:0.58124678 14:-0.55748656 15:0.58124678 16:-0.062197158 17:-0.55748656 18:-0.281094 19:-0.5306915 20:-0.26478731 21:-0.21534843 22:-0.19494267 23:-0.28506568 24:3.4075925 25:-0.10814863 26:-0.27302859 27:-0.23427262 28:-0.35129127 29:-0.076249571 30:-0.30438101 31:-0.24770291 32:-0.2967574 33:-0.088131026 34:-0.2967574 35:-0.48257941 36:-0.10814863 37:-0.088131026 38:-0.062197158 39:0.83154855 40:-0.11692812 41:0.32654457 42:-0.12512391 43:-0.2967574 
0.0021544350000000001 1:-1.0584542 2:-0.91191382 3:-0.59563821 4:-1.0424049 5:-0.87202861 6:-0.48201404 7:-0.94641608 8:0.11020107 9:-0.1865084 10:-0.64981549 11:0.67392707 12:-0.062197158 13:0.58124678 14:-0.55748656 15:0.58124678 16:-0.062197158 17:-0.55748656 18:-0.281094 19:-0.5306915 20:-0.26478731 21:-0.21534843 22:-0.19494267 23:-0.28506568 24:-0.29289579 25:-0.10814863 26:-0.27302859 27:-0.23427262 28:2.8411452 29:-0.076249571 30:-0.30438101 31:-0.24770291 32:-0.2967574 33:-0.088131026 34:-0.2967574 35:-0.48257941 36:-0.10814863 37:11.324837 38:-0.062197158 39:-1.200254 40:-0.11692812 41:0.32654457 42:-0.12512391 43:-0.2967574 
0.00092934024842280085 1:2.015424 2:2.2174007 3:-0.65632762 4:0.95746818 5:1.1445376 6:2.3704224 7:-0.94641608 8:-1.0166081 9:-0.15108453 10:1.5359275 11:-1.4809755 12:-0.062197158 13:0.58124678 14:-0.55748656 15:0.58124678 16:-0.062197158 17:-0.55748656 18:-0.281094 19:-0.5306915 20:-0.26478731 21:-0.21534843 22:-0.19494267 23:-0.28506568 24:-0.29289579 25:9.2286834 26:-0.27302859 27:-0.23427262 28:-0.35129127 29:-0.076249571 30:-0.30438101 31:-0.24770291 32:-0.2967574 33:-0.088131026 34:3.3632506 35:-0.48257941 36:-0.10814863 37:-0.088131026 38:-0.062197158 39:-1.200254 40:-0.11692812 41:0.32654457 42:-0.12512391 43:-0.2967574 
0.0021544350000000001 1:-0.63290169 2:-0.64809097 3:-0.24739663 4:0.95746818 5:-0.87202861 6:-0.48201404 7:-0.94641608 8:1.3609593 9:-0.15912763 10:-0.64981549 11:0.67392707 12:-0.062197158 13:0.58124678 14:-0.55748656 15:0.58124678 16:-0.062197158 17:-0.55748656 18:-0.281094 19:1.8806962 20:-0.26478731 21:-0.21534843 22:-0.19494267 23:-0.28506568 24:-0.29289579 25:-0.10814863 26:-0.27302859 27:-0.23427262 28:-0.35129127 29:-0.076249571 30:-0.30438101 31:-0.24770291 32:-0.2967574 33:-0.088131026 34:-0.2967574 35:2.0681975 36:-0.10814863 37:-0.088131026 38:-0.062197158 39:-1.200254 40:-0.11692812 41:0.32654457 42:-0.12512391 43:-0.2967574 
0.0021544350000000001 1:-0.87881194 2:1.0237752 3:-0.65632762 4:0.95746818 5:-0.87202861 6:-0.48201404 7:-0.94641608 8:-1.0166081 9:-0.1933536 10:-0.64981549 11:0.67392707 12:-0.062197158 13:0.58124678 14:-0.55748656 15:0.58124678 16:-0.062197158 17:-0.55748656 18:-0.281094 19:-0.5306915 20:-0.26478731 21:-0.21534843 22:5.1198102 23:-0.28506568 24:-0.29289579 25:-0.10814863 26:-0.27302859 27:-0.23427262 28:-0.35129127 29:-0.076249571 30:-0.30438101 31:-0.24770291 32:-0.2967574 33:11.324837 34:-0.2967574 35:-0.48257941 36:-0.10814863 37:-0.088131026 38:-0.062197158 39:-1.200254 40:-0.11692812 41:0.32654457 42:-0.12512391 43:-0.2967574 
0.0021544350000000001 1:-0.5131402 2:-0.40106583 3:-0.006084004 4:0.95746818 5:1.1445376 6:0.65896054 7:-0.94641608 8:-1.0166081 9:-0.090675692 10:-0.64981549 11:0.67392707 12:-0.062197158 13:0.58124678 14:-0.55748656 15:0.58124678 16:-0.062197158 17:-0.55748656 18:-0.281094 19:1.8806962 20:-0.26478731 21:-0.21534843 22:-0.19494267 23:-0.28506568 24:-0.29289579 25:-0.10814863 26:-0.27302859 27:-0.23427262 28:-0.35129127 29:-0.076249571 30:-0.30438101 31:-0.24770291 32:-0.2967574 33:-0.088131026 34:-0.2967574 35:-0.48257941 36:-0.10814863 37:-0.088131026 38:-0.062197158 39:0.83154855 40:-0.11692812 41:0.32654457 42:-0.12512391 43:-0.2967574 
0.0021544350000000001 1:0.37868366 2:-0.74690103 3:-0.078333295 4:0.95746818 5:1.1445376 6:1.6097727 7:-0.94641608 8:-1.0166081 9:-0.11531839 10:1.5359275 11:-1.4809755 12:-0.062197158 13:0.58124678 14:-0.55748656 15:0.58124678 16:-0.062197158 17:-0.55748656 18:-0.281094 19:1.8806962 20:-0.26478731 21:-0.21534843 22:-0.19494267 23:-0.28506568 24:-0.29289579 25:-0.10814863 26:-0.27302859 27:-0.23427262 28:-0.35129127 29:-0.076249571 30:-0.30438101 31:-0.24770291 32:-0.2967574 33:-0.088131026 34:-0.2967574 35:-0.48257941 36:-0.10814863 37:-0.088131026 38:-0.062197158 39:0.83154855 40:-0.11692812 41:0.32654457 42:-0.12512391 43:-0.2967574 
0.0021544350000000001 1:0.94395787 2:-0.8704136 3:-0.54795368 4:0.95746818 5:1.1445376 6:1.0392854 7:1.0545779 8:0.67360566 9:-0.16563056 10:-0.64981549 11:0.67392707 12:-0.062197158 13:-1.7171183 14:1.7903024 15:-1.7171183 16:-0.062197158 17:1.7903024 18:-0.281094 19:1.8806962 20:-0.26478731 21:-0.21534843 22:-0.19494267 23:-0.28506568 24:-0.29289579 25:-0.10814863 26:-0.27302859 27:-0.23427262 28:-0.35129127 29:-0.076249571 30:-0.30438101 31:-0.24770291 32:-0.2967574 33:-0.088131026 34:-0.2967574 35:-0.48257941 36:-0.10814863 37:-0.088131026 38:-0.062197158 39:0.83154855 40:-0.11692812 41:0.32654457 42:-0.12512391 43:-0.2967574 
0.0021544350000000001 1:0.69804762 2:0.3400096 3:0.35516245 4:0.95746818 5:1.1445376 6:-0.29185161 7:-0.94641608 8:-1.0166081 9:-0.10778868 10:-0.64981549 11:0.67392707 12:-0.062197158 13:0.58124678 14:-0.55748656 15:0.58124678 16:-0.062197158 17:-0.55748656 18:3.550661 19:-0.5306915 20:-0.26478731 21:-0.21534843 22:-0.19494267 23:-0.28506568 24:-0.29289579 25:-0.10814863 26:-0.27302859 27:-0.23427262 28:-0.35129127 29:-0.076249571 30:-0.30438101 31:-0.24770291 32:3.3632506 33:-0.088131026 34:-0.2967574 35:-0.48257941 36:-0.10814863 37:-0.088131026 38:-0.062197158 39:-1.200254 40:-0.11692812 41:0.32654457 42:-0.12512391 43:-0.2967574 
0.0021544350000000001 1:-0.25365698 2:2.0197806 3:-0.65632762 4:0.95746818 5:-0.87202861 6:-0.48201404 7:-0.94641608 8:-1.0166081 9:2.0676139 10:1.5359275 11:-1.4809755 12:-0.062197158 13:-1.7171183 14:1.7903024 15:-1.7171183 16:-0.062197158 17:1.7903024 18:-0.281094 19:-0.5306915 20:-0.26478731 21:-0.21534843 22:5.1198102 23:-0.28506568 24:-0.29289579 25:-0.10814863 26:-0.27302859 27:-0.23427262 28:-0.35129127 29:-0.076249571 30:-0.30438101 31:-0.24770291 32:-0.2967574 33:-0.088131026 34:-0.2967574 35:-0.48257941 36:-0.10814863 37:-0.088131026 38:-0.062197158 39:-1.200254 40:8.5357527 41:0.32654457 42:-0.12512391 43:-0.2967574 
0.0021544350000000001 1:-0.28639179 2:1.7727554 3:1.0054061 4:0.95746818 5:-0.87202861 6:-0.48201404 7:1.0545779 8:1.7271722 9:-0.10778868 10:-0.64981549 11:0.67392707 12:-0.062197158 13:0.58124678 14:-0.55748656 15:0.58124678 16:-0.062197158 17:-0.55748656 18:-0.281094 19:-0.5306915 20:-0.26478731 21:-0.21534843 22:-0.19494267 23:-0.28506568 24:-0.29289579 25:-0.10814863 26:-0.27302859 27:-0.23427262 28:-0.35129127 29:-0.076249571 30:3.2790136 31:-0.24770291 32:-0.2967574 33:-0.088131026 34:-0.2967574 35:-0.48257941 36:-0.10814863 37:-0.088131026 38:-0.062197158 39:0.83154855 40:-0.11692812 41:0.32654457 42:-0.12512391 43:-0.2967574 
0.0021544350000000001 1:0.49205786 2:-0.54137611 3:-0.64476773 4:0.95746818 5:-0.87202861 6:-0.48201404 7:1.0545779 8:1.2370103 9:0.7991995 10:-0.64981549 11:0.67392707 12:-0.062197158 13:0.58124678 14:-0.55748656 15:0.58124678 16:-0.062197158 17:-0.55748656 18:-0.281094 19:-0.5306915 20:-0.26478731 21:-0.21534843 22:-0.19494267 23:-0.28506568 24:-0.29289579 25:-0.10814863 26:-0.27302859 27:-0.23427262 28:-0.35129127 29:-0.076249571 30:3.2790136 31:-0.24770291 32:-0.2967574 33:-0.088131026 34:-0.2967574 35:-0.48257941 36:-0.10814863 37:-0.088131026 38:-0.062197158 39:0.83154855 40:-0.11692812 41:0.32654457 42:-0.12512391 43:-0.2967574 
0.0021544350000000001 1:-0.27361723 2:-0.64018617 3:0.42741174 4:0.95746818 5:1.1445376 6:0.46879811 7:1.0545779 8:-0.45320352 9:-0.19284021 10:-0.64981549 11:0.67392707 12:-0.062197158 13:0.58124678 14:-0.55748656 15:0.58124678 16:-0.062197158 17:-0.55748656 18:-0.281094 19:-0.5306915 20:-0.26478731 21:-0.21534843 22:-0.19494267 23:-0.28506568 24:-0.29289579 25:-0.10814863 26:-0.27302859 27:-0.23427262 28:-0.35129127 29:-0.076249571 30:3.2790136 31:-0.24770291 32:-0.2967574 33:-0.088131026 34:-0.2967574 35:-0.48257941 36:-0.10814863 37:-0.088131026 38:-0.062197158 39:0.83154855 40:-0.11692812 41:0.32654457 42:-0.12512391 43:-0.2967574 
0.0021544350000000001 1:0.19265415 2:-0.8704136 3:-0.54795368 4:-1.0424049 5:-0.87202861 6:-0.48201404 7:-0.94641608 8:0.67360566 9:-0.18582388 10:1.5359275 11:-1.4809755 12:-0.062197158 13:0.58124678 14:-0.55748656 15:0.58124678 16:-0.062197158 17:-0.55748656 18:-0.281094 19:-0.5306915 20:3.7693253 21:-0.21534843 22:-0.19494267 23:-0.28506568 24:-0.29289579 25:-0.10814863 26:-0.27302859 27:-0.23427262 28:-0.35129127 29:-0.076249571 30:-0.30438101 31:-0.24770291 32:-0.2967574 33:-0.088131026 34:-0.2967574 35:-0.48257941 36:-0.10814863 37:-0.088131026 38:-0.062197158 39:0.83154855 40:-0.11692812 41:0.32654457 42:-0.12512391 43:-0.2967574 
0.0021544350000000001 1:-0.1338955 2:-0.055230626 3:1.5111511 4:0.95746818 5:1.1445376 6:-0.10168918 7:1.0545779 8:0.84262704 9:-0.1933536 10:-0.64981549 11:0.67392707 12:-0.062197158 13:0.58124678 14:-0.55748656 15:0.58124678 16:-0.062197158 17:-0.55748656 18:-0.281094 19:-0.5306915 20:-0.26478731 21:-0.21534843 22:-0.19494267 23:-0.28506568 24:-0.29289579 25:-0.10814863 26:-0.27302859 27:-0.23427262 28:-0.35129127 29:-0.076249571 30:3.2790136 31:-0.24770291 32:-0.2967574 33:-0.088131026 34:-0.2967574 35:-0.48257941 36:-0.10814863 37:-0.088131026 38:-0.062197158 39:0.83154855 40:-0.11692812 41:0.32654457 42:-0.12512391 43:-0.2967574 
0.0021544350000000001 1:0.079279945 2:-0.91191382 3:0.28291316 4:0.95746818 5:1.1445376 6:-0.29185161 7:1.0545779 8:1.4172997 9:1.1756852 10:-0.64981549 11:0.67392707 12:-0.062197158 13:-1.7171183 14:1.7903024 15:-1.7171183 16:-0.062197158 17:1.7903024 18:-0.281094 19:1.8806962 20:-0.26478731 21:-0.21534843 22:-0.19494267 23:-0.28506568 24:-0.29289579 25:-0.10814863 26:-0.27302859 27:-0.23427262 28:-0.35129127 29:-0.076249571 30:-0.30438101 31:-0.24770291 32:-0.2967574 33:-0.088131026 34:-0.2967574 35:2.0681975 36:-0.10814863 37:-0.088131026 38:-0.062197158 39:-1.200254 40:-0.11692812 41:0.32654457 42:-0.12512391 43:-0.2967574 
0.0021544350000000001 1:-1.0919874 2:0.83405989 3:-0.25895652 4:0.95746818 5:-0.87202861 6:-0.48201404 7:1.0545779 8:-1.0166081 9:-0.1933536 10:1.5359275 11:-1.4809755 12:-0.062197158 13:0.58124678 14:-0.55748656 15:0.58124678 16:-0.062197158 17:-0.55748656 18:3.550661 19:-0.5306915 20:-0.26478731 21:-0.21534843 22:-0.19494267 23:-0.28506568 24:-0.29289579 25:-0.10814863 26:-0.27302859 27:-0.23427262 28:-0.35129127 29:-0.076249571 30:-0.30438101 31:-0.24770291 32:-0.2967574 33:-0.088131026 34:-0.2967574 35:-0.48257941 36:-0.10814863 37:-0.088131026 38:-0.062197158 39:0.83154855 40:-0.11692812 41:0.32654457 42:-0.12512391 43:-0.2967574 
0.0021544350000000001 1:0.69166034 2:0.28269977 3:-0.64476773 4:0.95746818 5:1.1445376 6:-0.29185161 7:-0.94641608 8:0.11020107 9:-0.14201464 10:-0.64981549 11:0.67392707 12:-0.062197158 13:0.58124678 14:-0.55748656 15:0.58124678 16:-0.062197158 17:-0.55748656 18:-0.281094 19:-0.5306915 20:-0.26478731 21:-0.21534843 22:-0.19494267 23:-0.28506568 24:-0.29289579 25:-0.10814863 26:-0.27302859 27:-0.23427262 28:2.8411452 29:-0.076249571 30:-0.30438101 31:-0.24770291 32:-0.2967574 33:-0.088131026 34:-0.2967574 35:-0.48257941 36:-0.10814863 37:-0.088131026 38:-0.062197158 39:0.83154855 40:-0.11692812 41:0.32654457 42:-0.12512391 43:-0.2967574 
0.0021544350000000001 1:-0.10036228 2:0.10088927 3:-0.006084004 4:0.95746818 5:1.1445376 6:0.46879811 7:1.0545779 8:-0.45883757 9:-0.10778868 10:1.5359275 11:-1.4809755 12:-0.062197158 13:0.58124678 14:-0.55748656 15:0.58124678 16:-0.062197158 17:-0.55748656 18:-0.281094 19:-0.5306915 20:-0.26478731 21:-0.21534843 22:5.1198102 23:-0.28506568 24:-0.29289579 25:-0.10814863 26:-0.27302859 27:-0.23427262 28:-0.35129127 29:-0.076249571 30:-0.30438101 31:-0.24770291 32:-0.2967574 33:11.324837 34:-0.2967574 35:-0.48257941 36:-0.10814863 37:-0.088131026 38:-0.062197158 39:-1.200254 40:-0.11692812 41:0.32654457 42:-0.12512391 43:-0.2967574 
0.0021544350000000001 1:0.69166034 2:-0.83780628 3:-0.51182904 4:0.95746818 5:1.1445376 6:0.088473254 7:-0.94641608 8:0.11020107 9:-0.022223754 10:-0.64981549 11:0.67392707 12:-0.062197158 13:-1.7171183 14:1.7903024 15:-1.7171183 16:-0.062197158 17:1.7903024 18:3.550661 19:-0.5306915 20:-0.26478731 21:-0.21534843 22:-0.19494267 23:-0.28506568 24:-0.29289579 25:-0.10814863 26:-0.27302859 27:-0.23427262 28:-0.35129127 29:-0.076249571 30:-0.30438101 31:-0.24770291 32:-0.2967574 33:-0.088131026 34:-0.2967574 35:-0.48257941 36:-0.10814863 37:-0.088131026 38:-0.062197158 39:0.83154855 40:-0.11692812 41:0.32654457 42:-0.12512391 43:-0.2967574 
0.0021544350000000001 1:-0.94507996 2:0.3400096 3:-0.23439176 4:0.95746818 5:1.1445376 6:0.84912297 7:-0.94641608 8:-0.56588444 9:0.31216396 10:-0.64981549 11:0.67392707 12:-0.062197158 13:0.58124678 14:-0.55748656 15:0.58124678 16:-0.062197158 17:-0.55748656 18:-0.281094 19:-0.5306915 20:-0.26478731 21:-0.21534843 22:-0.19494267 23:-0.28506568 24:-0.29289579 25:-0.10814863 26:-0.27302859 27:-0.23427262 28:-0.35129127 29:-0.076249571 30:3.2790136 31:-0.24770291 32:-0.2967574 33:-0.088131026 34:-0.2967574 35:2.0681975 36:-0.10814863 37:-0.088131026 38:-0.062197158 39:-1.200254 40:-0.11692812 41:0.32654457 42:-0.12512391 43:-0.2967574 
0.0021544350000000001 1:1.3567358 2:4.0127794 3:-0.15058259 4:0.95746818 5:1.1445376 6:0.088473254 7:-0.94641608 8:-0.34052261 9:-0.19095778 10:-0.64981549 11:0.67392707 12:-0.062197158 13:0.58124678 14:-0.55748656 15:0.58124678 16:-0.062197158 17:-0.55748656 18:-0.281094 19:-0.5306915 20:-0.26478731 21:-0.21534843 22:-0.19494267 23:-0.28506568 24:-0.29289579 25:-0.10814863 26:-0.27302859 27:-0.23427262 28:-0.35129127 29:-0.076249571 30:3.2790136 31:-0.24770291 32:-0.2967574 33:-0.088131026 34:-0.2967574 35:-0.48257941 36:-0.10814863 37:-0.088131026 38:-0.062197158 39:0.83154855 40:-0.11692812 41:0.32654457 42:-0.12512391 43:-0.2967574 
0.0021544350000000001 1:-0.49956723 2:1.5257303 3:0.21066387 4:0.95746818 5:-0.87202861 6:-0.48201404 7:1.0545779 8:-0.9039272 9:-0.1933536 10:-0.64981549 11:0.67392707 12:-0.062197158 13:0.58124678 14:-0.55748656 15:0.58124678 16:-0.062197158 17:-0.55748656 18:3.550661 19:-0.5306915 20:-0.26478731 21:-0.21534843 22:-0.19494267 23:-0.28506568 24:-0.29289579 25:-0.10814863 26:-0.27302859 27:-0.23427262 28:-0.35129127 29:-0.076249571 30:-0.30438101 31:-0.24770291 32:-0.2967574 33:-0.088131026 34:-0.2967574 35:-0.48257941 36:-0.10814863 37:-0.088131026 38:-0.062197158 39:0.83154855 40:-0.11692812 41:-3.0564572 42:-0.12512391 43:3.3632506 
0.0021544350000000001 1:0.51840539 2:0.14238949 3:-0.62020297 4:0.95746818 5:-0.87202861 6:-0.48201404 7:1.0545779 8:0.26795435 9:-0.1933536 10:1.5359275 11:-1.4809755 12:-0.062197158 13:0.58124678 14:-0.55748656 15:0.58124678 16:-0.062197158 17:-0.55748656 18:-0.281094 19:-0.5306915 20:-0.26478731 21:-0.21534843 22:-0.19494267 23:-0.28506568 24:-0.29289579 25:-0.10814863 26:-0.27302859 27:-0.23427262 28:2.8411452 29:-0.076249571 30:-0.30438101 31:-0.24770291 32:-0.2967574 33:-0.088131026 34:-0.2967574 35:-0.48257941 36:-0.10814863 37:-0.088131026 38:-0.062197158 39:0.83154855 40:-0.11692812 41:0.32654457 42:-0.12512391 43:-0.2967574 
0.0021544350000000001 1:-0.68559674 2:-0.44256605 3:0.090730045 4:0.95746818 5:-0.87202861 6:-0.48201404 7:-0.94641608 8:-1.0166081 9:-0.1933536 10:-0.64981549 11:0.67392707 12:-0.062197158 13:-1.7171183 14:1.7903024 15:-1.7171183 16:-0.062197158 17:1.7903024 18:-0.281094 19:1.8806962 20:-0.26478731 21:-0.21534843 22:-0.19494267 23:-0.28506568 24:-0.29289579 25:-0.10814863 26:-0.27302859 27:-0.23427262 28:-0.35129127 29:-0.076249571 30:-0.30438101 31:-0.24770291 32:-0.2967574 33:-0.088131026 34:-0.2967574 35:2.0681975 36:-0.10814863 37:-0.088131026 38:-0.062197158 39:-1.200254 40:-0.11692812 41:0.32654457 42:-0.12512391 43:-0.2967574 
0.0021544350000000001 1:-0.060441787 2:0.3400096 3:0.49966103 4:0.95746818 5:1.1445376 6:0.84912297 7:1.0545779 8:-1.0166081 9:0.33115937 10:1.5359275 11:-1.4809755 12:-0.062197158 13:0.58124678 14:-0.55748656 15:0.58124678 16:-0.062197158 17:-0.55748656 18:-0.281094 19:1.8806962 20:-0.26478731 21:-0.21534843 22:-0.19494267 23:-0.28506568 24:-0.29289579 25:-0.10814863 26:-0.27302859 27:-0.23427262 28:-0.35129127 29:-0.076249571 30:-0.30438101 31:-0.24770291 32:3.3632506 33:-0.088131026 34:-0.2967574 35:-0.48257941 36:-0.10814863 37:-0.088131026 38:-0.062197158 39:-1.200254 40:-0.11692812 41:0.32654457 42:-0.12512391 43:-0.2967574 
0.0021544350000000001 1:2.7076453 2:1.8221605 3:-0.65632762 4:0.95746818 5:1.1445376 6:1.6097727 7:1.0545779 8:-1.0166081 9:0.046228183 10:1.5359275 11:-1.4809755 12:-0.062197158 13:0.58124678 14:-0.55748656 15:0.58124678 16:-0.062197158 17:-0.55748656 18:-0.281094 19:-0.5306915 20:-0.26478731 21:-0.21534843 22:-0.19494267 23:3.5011913 24:-0.29289579 25:-0.10814863 26:-0.27302859 27:-0.23427262 28:-0.35129127 29:-0.076249571 30:-0.30438101 31:-0.24770291 32:-0.2967574 33:-0.088131026 34:3.3632506 35:-0.48257941 36:-0.10814863 37:-0.088131026 38:-0.062197158 39:-1.200254 40:-0.11692812 41:0.32654457 42:-0.12512391 43:-0.2967574 
0.0021544350000000001 1:-0.64567625 2:-0.94452114 3:-0.65632762 4:-1.0424049 5:-0.87202861 6:-0.48201404 7:-0.94641608 8:-1.0166081 9:-0.1933536 10:-0.64981549 11:0.67392707 12:-0.062197158 13:-1.7171183 14:-0.55748656 15:-1.7171183 16:-0.062197158 17:-0.55748656 18:-0.281094 19:-0.5306915 20:-0.26478731 21:-0.21534843 22:-0.19494267 23:-0.28506568 24:-0.29289579 25:-0.10814863 26:-0.27302859 27:-0.23427262 28:-0.35129127 29:-0.076249571 30:-0.30438101 31:-0.24770291 32:-0.2967574 33:-0.088131026 34:-0.2967574 35:-0.48257941 36:-0.10814863 37:-0.088131026 38:-0.062197158 39:-1.200254 40:-0.11692812 41:-3.0564572 42:7.9766491 43:-0.2967574 
0.0021544350000000001 1:0.4385644 2:0.068281946 3:0.78865819 4:0.95746818 5:-0.87202861 6:-0.48201404 7:1.0545779 8:-1.0166081 9:0.49116578 10:1.5359275 11:-1.4809755 12:-0.062197158 13:0.58124678 14:-0.55748656 15:0.58124678 16:-0.062197158 17:-0.55748656 18:-0.281094 19:-0.5306915 20:-0.26478731 21:-0.21534843 22:5.1198102 23:-0.28506568 24:-0.29289579 25:-0.10814863 26:-0.27302859 27:-0.23427262 28:-0.35129127 29:-0.076249571 30:-0.30438101 31:-0.24770291 32:-0.2967574 33:-0.088131026 34:-0.2967574 35:-0.48257941 36:-0.10814863 37:-0.088131026 38:-0.062197158 39:0.83154855 40:-0.11692812 41:0.32654457 42:-0.12512391 43:-0.2967574 
0.0021544350000000001 1:-2.495592 2:-0.15404068 3:0.78865819 4:0.95746818 5:1.1445376 6:0.088473254 7:1.0545779 8:0.6172652 9:0.19665132 10:-0.64981549 11:0.67392707 12:-0.062197158 13:0.58124678 14:-0.55748656 15:0.58124678 16:-0.062197158 17:-0.55748656 18:-0.281094 19:-0.5306915 20:-0.26478731 21:-0.21534843 22:-0.19494267 23:-0.28506568 24:-0.29289579 25:-0.10814863 26:-0.27302859 27:-0.23427262 28:-0.35129127 29:-0.076249571 30:-0.30438101 31:4.0293007 32:-0.2967574 33:-0.088131026 34:-0.2967574 35:-0.48257941 36:-0.10814863 37:-0.088131026 38:-0.062197158 39:0.83154855 40:-0.11692812 41:0.32654457 42:-0.12512391 43:-0.2967574 
0.0021544350000000001 1:-0.48599427 2:-0.37636331 3:-0.4034551 4:0.95746818 5:-0.87202861 6:-0.48201404 7:-0.94641608 8:1.0116484 9:-0.1933536 10:1.5359275 11:-1.4809755 12:-0.062197158 13:0.58124678 14:-0.55748656 15:0.58124678 16:-0.062197158 17:-0.55748656 18:-0.281094 19:-0.5306915 20:-0.26478731 21:-0.21534843 22:-0.19494267 23:-0.28506568 24:-0.29289579 25:-0.10814863 26:-0.27302859 27:-0.23427262 28:-0.35129127 29:-0.076249571 30:-0.30438101 31:4.0293007 32:-0.2967574 33:-0.088131026 34:-0.2967574 35:2.0681975 36:-0.10814863 37:-0.088131026 38:-0.062197158 39:-1.200254 40:-0.11692812 41:0.32654457 42:-0.12512391 43:-0.2967574 
0.0021544350000000001 1:0.77788861 2:-0.93661634 3:-0.64476773 4:-1.0424049 5:1.1445376 6:-0.29185161 7:-0.94641608 8:2.1384576 9:-0.1933536 10:-0.64981549 11:0.67392707 12:-0.062197158 13:0.58124678 14:-0.55748656 15:0.58124678 16:-0.062197158 17:-0.55748656 18:-0.281094 19:-0.5306915 20:-0.26478731 21:-0.21534843 22:5.1198102 23:-0.28506568 24:-0.29289579 25:-0.10814863 26:-0.27302859 27:-0.23427262 28:-0.35129127 29:-0.076249571 30:-0.30438101 31:-0.24770291 32:-0.2967574 33:-0.088131026 34:-0.2967574 35:-0.48257941 36:-0.10814863 37:-0.088131026 38:-0.062197158 39:0.83154855 40:-0.11692812 41:-3.0564572 42:-0.12512391 43:3.3632506 
0.0021544350000000001 1:3.3663335 2:2.5632359 3:-0.65632762 4:0.95746818 5:-0.87202861 6:-0.48201404 7:1.0545779 8:-1.0166081 9:-0.1933536 10:-0.64981549 11:0.67392707 12:-0.062197158 13:0.58124678 14:-0.55748656 15:0.58124678 16:-0.062197158 17:-0.55748656 18:-0.281094 19:-0.5306915 20:-0.26478731 21:-0.21534843 22:-0.19494267 23:3.5011913 24:-0.29289579 25:-0.10814863 26:-0.27302859 27:-0.23427262 28:-0.35129127 29:-0.076249571 30:-0.30438101 31:-0.24770291 32:-0.2967574 33:-0.088131026 34:3.3632506 35:-0.48257941 36:-0.10814863 37:-0.088131026 38:-0.062197158 39:-1.200254 40:-0.11692812 41:0.32654457 42:-0.12512391 43:-0.2967574 
0.0021544350000000001 1:1.0174116 2:-0.54928091 3:-0.15058259 4:0.95746818 5:1.1445376 6:-0.10168918 7:1.0545779 8:-1.0166081 9:-0.19078665 10:-0.64981549 11:0.67392707 12:-0.062197158 13:0.58124678 14:-0.55748656 15:0.58124678 16:-0.062197158 17:-0.55748656 18:-0.281094 19:-0.5306915 20:-0.26478731 21:-0.21534843 22:-0.19494267 23:-0.28506568 24:-0.29289579 25:-0.10814863 26:-0.27302859 27:4.2602909 28:-0.35129127 29:-0.076249571 30:-0.30438101 31:-0.24770291 32:-0.2967574 33:-0.088131026 34:-0.2967574 35:-0.48257941 36:-0.10814863 37:-0.088131026 38:-0.062197158 39:0.83154855 40:-0.11692812 41:0.32654457 42:-0.12512391 43:-0.2967574 
0.0021544350000000001 1:0.23257465 2:0.86765531 3:0.64415961 4:0.95746818 5:1.1445376 6:1.7999351 7:1.0545779 8:-1.0166081 9:-0.1555339 10:-0.64981549 11:0.67392707 12:-0.062197158 13:0.58124678 14:-0.55748656 15:0.58124678 16:-0.062197158 17:-0.55748656 18:-0.281094 19:1.8806962 20:-0.26478731 21:-0.21534843 22:-0.19494267 23:-0.28506568 24:-0.29289579 25:-0.10814863 26:-0.27302859 27:-0.23427262 28:-0.35129127 29:-0.076249571 30:-0.30438101 31:-0.24770291 32:-0.2967574 33:-0.088131026 34:-0.2967574 35:-0.48257941 36:-0.10814863 37:-0.088131026 38:-0.062197158 39:0.83154855 40:-0.11692812 41:0.32654457 42:-0.12512391 43:-0.2967574 
0.0021544350000000001 1:-0.81893119 2:-0.3516608 3:-0.3427657 4:0.95746818 5:1.1445376 6:1.0392854 7:1.0545779 8:-0.11516077 9:-0.19318247 10:-0.64981549 11:0.67392707 12:-0.062197158 13:-1.7171183 14:1.7903024 15:-1.7171183 16:-0.062197158 17:1.7903024 18:-0.281094 19:-0.5306915 20:-0.26478731 21:4.6346727 22:-0.19494267 23:-0.28506568 24:-0.29289579 25:-0.10814863 26:-0.27302859 27:-0.23427262 28:-0.35129127 29:-0.076249571 30:-0.30438101 31:-0.24770291 32:-0.2967574 33:-0.088131026 34:-0.2967574 35:-0.48257941 36:-0.10814863 37:-0.088131026 38:-0.062197158 39:0.83154855 40:-0.11692812 41:0.32654457 42:-0.12512391 43:-0.2967574 
0.0021544350000000001 1:-0.79897095 2:-0.48307817 3:-0.51182904 4:0.95746818 5:1.1445376 6:0.27863568 7:-0.94641608 8:-0.56588444 9:-0.1933536 10:1.5359275 11:-1.4809755 12:-0.062197158 13:0.58124678 14:-0.55748656 15:0.58124678 16:-0.062197158 17:-0.55748656 18:-0.281094 19:-0.5306915 20:-0.26478731 21:-0.21534843 22:-0.19494267 23:-0.28506568 24:3.4075925 25:-0.10814863 26:-0.27302859 27:-0.23427262 28:-0.35129127 29:-0.076249571 30:-0.30438101 31:-0.24770291 32:3.3632506 33:-0.088131026 34:-0.2967574 35:-0.48257941 36:-0.10814863 37:-0.088131026 38:-0.062197158 39:-1.200254 40:-0.11692812 41:-3.0564572 42:-0.12512391 43:3.3632506 
0.00061849618475416255 1:-0.65924921 2:1.3775152 3:-0.51182904 4:0.95746818 5:1.1445376 6:-0.10168918 7:1.0545779 8:0.67360566 9:-0.099061054 10:1.5359275 11:-1.4809755 12:-0.062197158 13:0.58124678 14:-0.55748656 15:0.58124678 16:-0.062197158 17:-0.55748656 18:-0.281094 19:-0.5306915 20:-0.26478731 21:-0.21534843 22:-0.19494267 23:-0.28506568 24:-0.29289579 25:-0.10814863 26:-0.27302859 27:-0.23427262 28:-0.35129127 29:-0.076249571 30:-0.30438101 31:4.0293007 32:-0.2967574 33:-0.088131026 34:-0.2967574 35:2.0681975 36:-0.10814863 37:-0.088131026 38:-0.062197158 39:-1.200254 40:-0.11692812 41:0.32654457 42:-0.12512391 43:-0.2967574 
0.0021544350000000001 1:-0.54587501 2:1.493123 3:-0.19826712 4:0.95746818 5:-0.87202861 6:-0.48201404 7:1.0545779 8:-0.34052261 9:-0.1933536 10:-0.64981549 11:0.67392707 12:-0.062197158 13:0.58124678 14:-0.55748656 15:0.58124678 16:-0.062197158 17:-0.55748656 18:-0.281094 19:-0.5306915 20:-0.26478731 21:-0.21534843 22:-0.19494267 23:-0.28506568 24:-0.29289579 25:-0.10814863 26:-0.27302859 27:-0.23427262 28:2.8411452 29:-0.076249571 30:-0.30438101 31:-0.24770291 32:-0.2967574 33:-0.088131026 34:-0.2967574 35:2.0681975 36:-0.10814863 37:-0.088131026 38:-0.062197158 39:-1.200254 40:-0.11692812 41:0.32654457 42:-0.12512391 43:-0.2967574 
0.0021544350000000001 1:1.602646 2:1.03168 3:-0.65632762 4:0.95746818 5:1.1445376 6:1.6097727 7:-0.94641608 8:-1.0166081 9:0.020387577 10:-0.64981549 11:0.67392707 12:-0.062197158 13:0.58124678 14:-0.55748656 15:0.58124678 16:-0.062197158 17:-0.55748656 18:-0.281094 19:-0.5306915 20:-0.26478731 21:-0.21534843 22:-0.19494267 23:-0.28506568 24:3.4075925 25:-0.10814863 26:-0.27302859 27:-0.23427262 28:-0.35129127 29:-0.076249571 30:-0.30438101 31:-0.24770291 32:3.3632506 33:-0.088131026 34:-0.2967574 35:-0.48257941 36:-0.10814863 37:-0.088131026 38:-0.062197158 39:-1.200254 40:-0.11692812 41:0.32654457 42:-0.12512391 43:-0.2967574 
0.0021544350000000001 1:2.3411752 2:2.3162108 3:2.5226412 4:0.95746818 5:-0.87202861 6:-0.48201404 7:1.0545779 8:-0.89829315 9:1.6139487 10:1.5359275 11:-1.4809755 12:-0.062197158 13:0.58124678 14:-0.55748656 15:0.58124678 16:-0.062197158 17:-0.55748656 18:-0.281094 19:-0.5306915 20:-0.26478731 21:-0.21534843 22:-0.19494267 23:-0.28506568 24:-0.29289579 25:-0.10814863 26:-0.27302859 27:-0.23427262 28:2.8411452 29:-0.076249571 30:-0.30438101 31:-0.24770291 32:-0.2967574 33:-0.088131026 34:-0.2967574 35:-0.48257941 36:-0.10814863 37:-0.088131026 38:-0.062197158 39:0.83154855 40:-0.11692812 41:0.32654457 42:-0.12512391 43:-0.2967574 
0.0021544350000000001 1:-0.41972624 2:-0.74690103 3:-0.15058259 4:0.95746818 5:-0.87202861 6:-0.48201404 7:1.0545779 8:0.56092474 9:-0.1933536 10:-0.64981549 11:0.67392707 12:-0.062197158 13:0.58124678 14:-0.55748656 15:0.58124678 16:-0.062197158 17:-0.55748656 18:-0.281094 19:-0.5306915 20:-0.26478731 21:-0.21534843 22:-0.19494267 23:-0.28506568 24:-0.29289579 25:-0.10814863 26:-0.27302859 27:-0.23427262 28:2.8411452 29:-0.076249571 30:-0.30438101 31:-0.24770291 32:-0.2967574 33:-0.088131026 34:-0.2967574 35:-0.48257941 36:-0.10814863 37:-0.088131026 38:-0.062197158 39:0.83154855 40:-0.11692812 41:0.32654457 42:-0.12512391 43:-0.2967574 
0.0021544350000000001 1:0.92399762 2:-0.030528111 3:0.66727938 4:0.95746818 5:-0.87202861 6:-0.48201404 7:-0.94641608 8:-1.0166081 9:-0.1933536 10:-0.64981549 11:0.67392707 12:-0.062197158 13:0.58124678 14:-0.55748656 15:0.58124678 16:-0.062197158 17:-0.55748656 18:-0.281094 19:-0.5306915 20:-0.26478731 21:-0.21534843 22:-0.19494267 23:-0.28506568 24:-0.29289579 25:-0.10814863 26:-0.27302859 27:-0.23427262 28:2.8411452 29:-0.076249571 30:-0.30438101 31:-0.24770291 32:-0.2967574 33:-0.088131026 34:-0.2967574 35:-0.48257941 36:-0.10814863 37:-0.088131026 38:-0.062197158 39:0.83154855 40:-0.11692812 41:-3.0564572 42:-0.12512391 43:3.3632506 
0.0021544350000000001 1:0.83776935 2:-0.75480583 3:0.066165287 4:0.95746818 5:-0.87202861 6:-0.48201404 7:-0.94641608 8:1.8567553 9:-0.090675692 10:-0.64981549 11:0.67392707 12:-0.062197158 13:0.58124678 14:-0.55748656 15:0.58124678 16:-0.062197158 17:-0.55748656 18:-0.281094 19:-0.5306915 20:-0.26478731 21:-0.21534843 22:-0.19494267 23:-0.28506568 24:-0.29289579 25:-0.10814863 26:-0.27302859 27:-0.23427262 28:-0.35129127 29:-0.076249571 30:-0.30438101 31:4.0293007 32:-0.2967574 33:-0.088131026 34:-0.2967574 35:-0.48257941 36:-0.10814863 37:-0.088131026 38:-0.062197158 39:0.83154855 40:-0.11692812 41:0.32654457 42:-0.12512391 43:-0.2967574 
0.0021544350000000001 1:-0.68559674 2:-0.91191382 3:-0.006084004 4:-1.0424049 5:-0.87202861 6:-0.48201404 7:1.0545779 8:-1.0166081 9:-0.1933536 10:-0.64981549 11:0.67392707 12:-0.062197158 13:0.58124678 14:-0.55748656 15:0.58124678 16:-0.062197158 17:-0.55748656 18:-0.281094 19:1.8806962 20:-0.26478731 21:-0.21534843 22:-0.19494267 23:-0.28506568 24:-0.29289579 25:-0.10814863 26:-0.27302859 27:-0.23427262 28:-0.35129127 29:-0.076249571 30:-0.30438101 31:-0.24770291 32:-0.2967574 33:-0.088131026 34:-0.2967574 35:-0.48257941 36:9.2286834 37:-0.088131026 38:-0.062197158 39:-1.200254 40:-0.11692812 41:-3.0564572 42:-0.12512391 43:3.3632506 
0.0021544350000000001 1:-0.22012377 2:-0.34375599 3:0.077725173 4:0.95746818 5:1.1445376 6:-0.29185161 7:-0.94641608 8:-0.6222249 9:-0.1933536 10:1.5359275 11:-1.4809755 12:-0.062197158 13:-1.7171183 14:1.7903024 15:-1.7171183 16:-0.062197158 17:1.7903024 18:-0.281094 19:-0.5306915 20:-0.26478731 21:-0.21534843 22:-0.19494267 23:-0.28506568 24:-0.29289579 25:-0.10814863 26:-0.27302859 27:-0.23427262 28:-0.35129127 29:-0.076249571 30:-0.30438101 31:4.0293007 32:-0.2967574 33:-0.088131026 34:-0.2967574 35:2.0681975 36:-0.10814863 37:-0.088131026 38:-0.062197158 39:-1.200254 40:-0.11692812 41:0.32654457 42:-0.12512391 43:-0.2967574 
0.0021544350000000001 1:0.15273366 2:-0.31905348 3:0.2583484 4:0.95746818 5:1.1445376 6:0.088473254 7:1.0545779 8:1.1243293 9:-0.1933536 10:-0.64981549 11:0.67392707 12:-0.062197158 13:-1.7171183 14:1.7903024 15:-1.7171183 16:-0.062197158 17:1.7903024 18:-0.281094 19:-0.5306915 20:-0.26478731 21:-0.21534843 22:-0.19494267 23:-0.28506568 24:-0.29289579 25:-0.10814863 26:-0.27302859 27:-0.23427262 28:-0.35129127 29:-0.076249571 30:-0.30438101 31:4.0293007 32:-0.2967574 33:-0.088131026 34:-0.2967574 35:-0.48257941 36:-0.10814863 37:-0.088131026 38:-0.062197158 39:0.83154855 40:-0.11692812 41:0.32654457 42:-0.12512391 43:-0.2967574 
0.0021544350000000001 1:-0.5530607 2:0.36471212 3:0.93315677 4:0.95746818 5:-0.87202861 6:-0.48201404 7:1.0545779 8:-0.45320352 9:-0.1933536 10:-0.64981549 11:0.67392707 12:-0.062197158 13:-1.7171183 14:1.7903024 15:-1.7171183 16:-0.062197158 17:1.7903024 18:-0.281094 19:-0.5306915 20:-0.26478731 21:4.6346727 22:-0.19494267 23:-0.28506568 24:-0.29289579 25:-0.10814863 26:-0.27302859 27:-0.23427262 28:-0.35129127 29:-0.076249571 30:-0.30438101 31:-0.24770291 32:-0.2967574 33:-0.088131026 34:-0.2967574 35:-0.48257941 36:-0.10814863 37:-0.088131026 38:-0.062197158 39:0.83154855 40:-0.11692812 41:-3.0564572 42:-0.12512391 43:3.3632506 
0.0021544350000000001 1:-0.79258367 2:1.1304901 3:0.21066387 4:0.95746818 5:-0.87202861 6:-0.48201404 7:1.0545779 8:-1.0166081 9:-0.1933536 10:-0.64981549 11:0.67392707 12:-0.062197158 13:0.58124678 14:-0.55748656 15:0.58124678 16:-0.062197158 17:-0.55748656 18:-0.281094 19:1.8806962 20:-0.26478731 21:-0.21534843 22:-0.19494267 23:-0.28506568 24:-0.29289579 25:-0.10814863 26:-0.27302859 27:-0.23427262 28:-0.35129127 29:-0.076249571 30:-0.30438101 31:-0.24770291 32:-0.2967574 33:-0.088131026 34:-0.2967574 35:-0.48257941 36:-0.10814863 37:-0.088131026 38:-0.062197158 39:0.83154855 40:-0.11692812 41:0.32654457 42:-0.12512391 43:-0.2967574 
0.0021544350000000001 1:0.032972171 2:2.250008 3:0.21066387 4:0.95746818 5:1.1445376 6:1.2294478 7:-0.94641608 8:0.39190336 9:-0.068428812 10:-0.64981549 11:0.67392707 12:-0.062197158 13:0.58124678 14:-0.55748656 15:0.58124678 16:-0.062197158 17:-0.55748656 18:-0.281094 19:-0.5306915 20:-0.26478731 21:4.6346727 22:-0.19494267 23:-0.28506568 24:-0.29289579 25:-0.10814863 26:-0.27302859 27:-0.23427262 28:-0.35129127 29:-0.076249571 30:-0.30438101 31:-0.24770291 32:-0.2967574 33:-0.088131026 34:-0.2967574 35:-0.48257941 36:-0.10814863 37:-0.088131026 38:-0.062197158 39:0.83154855 40:-0.11692812 41:0.32654457 42:-0.12512391 43:-0.2967574 
0.0021544350000000001 1:1.6098317 2:-0.93661634 3:-0.64476773 4:0.95746818 5:-0.87202861 6:-0.48201404 7:-0.94641608 8:-1.0166081 9:0.32003593 10:-0.64981549 11:0.67392707 12:-0.062197158 13:0.58124678 14:-0.55748656 15:0.58124678 16:-0.062197158 17:-0.55748656 18:-0.281094 19:-0.5306915 20:-0.26478731 21:-0.21534843 22:-0.19494267 23:-0.28506568 24:-0.29289579 25:-0.10814863 26:-0.27302859 27:-0.23427262 28:-0.35129127 29:-0.076249571 30:-0.30438101 31:4.0293007 32:-0.2967574 33:-0.088131026 34:-0.2967574 35:2.0681975 36:-0.10814863 37:-0.088131026 38:-0.062197158 39:-1.200254 40:-0.11692812 41:0.32654457 42:-0.12512391 43:-0.2967574 
0.0021544350000000001 1:-0.65286193 2:-0.45047086 3:-0.3427657 4:0.95746818 5:1.1445376 6:1.6097727 7:1.0545779 8:-0.67856536 9:0.18039398 10:-0.64981549 11:0.67392707 12:-0.062197158 13:0.58124678 14:-0.55748656 15:0.58124678 16:-0.062197158 17:-0.55748656 18:-0.281094 19:1.8806962 20:-0.26478731 21:-0.21534843 22:-0.19494267 23:-0.28506568 24:-0.29289579 25:-0.10814863 26:-0.27302859 27:-0.23427262 28:-0.35129127 29:-0.076249571 30:-0.30438101 31:-0.24770291 32:-0.2967574 33:-0.088131026 34:-0.2967574 35:-0.48257941 36:-0.10814863 37:-0.088131026 38:-0.062197158 39:0.83154855 40:-0.11692812 41:0.32654457 42:-0.12512391 43:-0.2967574 
