svm_type c_svc
kernel_type linear
nr_class 2
total_sv 996
rho 0.13340142754908646
label 1 2
probA -0.93799965067328506
probB 0.00080240048142223312
nr_sv 498 498
SV
0.01 1:0.51026254 2:-0.55247302 3:1.1208248 4:-0.099739181 5:-0.044626449 
0.01 1:0.33702853 2:0.46242017 3:1.1208248 4:-0.3789856 5:3.756651 
0.01 1:-0.93335423 2:0.067739488 3:-0.72804142 4:-0.3789856 5:-0.25121761 
0.01 1:-1.2220776 2:0.57518608 3:0.19639171 4:-0.58842041 5:-0.0033082155 
0.01 1:0.16379452 2:-0.3269412 3:-0.0090378737 4:-0.16955078 5:-0.68505906 
0.01 1:-0.35590752 2:1.2517815 3:-0.0090378737 4:0.87762328 5:0.45119235 
0.01 1:-0.9910989 2:-0.49609006 3:-0.62532662 4:-0.30917399 5:-0.25121761 
0.01 1:-0.70237555 2:-0.045026421 3:-1.2416154 4:0.039884027 5:-0.25121761 
0.01 1:-0.067184167 2:-0.55247302 3:0.093676918 4:-0.65823201 5:-0.14792203 
0.01 1:-0.9910989 2:0.94167529 3:-1.3956876 4:-0.30917399 5:-0.27187673 
0.01 1:0.33702853 2:0.34965426 3:0.60725088 4:-0.16955078 5:0.1413056 
0.01 1:-0.64463088 2:0.51880313 3:-1.0875432 4:-0.029927577 5:-0.20989938 
0.01 1:-0.9910989 2:0.57518608 3:-1.3956876 4:1.2266813 5:0.099987368 
0.01 1:-0.64463088 2:-1.0599196 3:-0.16311006 4:-0.3789856 5:-0.3545132 
0.01 1:0.51026254 2:0.1805054 3:-0.47125444 4:-0.65823201 5:-0.20989938 
0.01 1:-0.58688621 2:1.1672071 3:-1.3956876 4:-0.23936239 5:-0.16858115 
0.01 1:-0.70237555 2:-0.38332415 3:-0.67668402 4:0.17950724 5:-0.25121761 
0.01 1:-0.47139686 2:0.46242017 3:-0.36853965 4:-0.58842041 5:-0.25121761 
0.01 1:0.91447524 2:-1.0035367 3:0.70996567 4:-0.16955078 5:-0.1066038 
0.01 1:-0.47139686 2:0.57518608 3:-0.77939881 4:1.7851741 5:0.47185147 
0.01 1:-0.64463088 2:0.46242017 3:-0.9848284 4:1.0172465 5:-0.12726292 
0.01 1:-0.64463088 2:-0.66523893 3:0.14503431 4:-0.30917399 5:-0.1066038 
0.01 1:0.16379452 2:-0.045026421 3:0.55589348 4:-0.72804362 5:0.16196472 
0.01 1:-1.1065882 2:0.63156904 3:-0.31718225 4:-0.51860881 5:-0.14792203 
0.01 1:-0.9910989 2:0.46242017 3:-1.3956876 4:-0.65823201 5:-0.39583143 
0.01 1:1.6074113 2:-0.77800484 3:1.3776118 4:0.10969563 5:0.1413056 
0.01 1:0.91447524 2:0.067739488 3:0.91539525 4:-0.16955078 5:-0.3545132 
0.01 1:0.3947732 2:1.4491219 3:-0.16311006 4:-0.58842041 5:-0.20989938 
0.01 1:-0.93335423 2:0.96986677 3:-0.9848284 4:0.84271747 5:-0.43714966 
0.01 1:1.1454539 2:-1.0599196 3:1.274897 4:0.17950724 5:1.4634891 
0.01 1:-0.52914154 2:0.63156904 3:-1.0361858 4:-0.51860881 5:0.24460118 
0.01 1:-0.64463088 2:0.40603722 3:-1.190258 4:-0.029927577 5:-0.25121761 
0.01 1:0.45251787 2:-0.3269412 3:1.1208248 4:0.039884027 5:0.12064648 
0.01 1:0.68349656 2:0.34965426 3:0.86403786 4:-0.16955078 5:-0.3545132 
0.01 1:-0.18267351 2:-1.3982173 3:0.86403786 4:-0.51860881 5:-0.14792203 
0.01 1:-0.70237555 2:0.57518608 3:-1.0875432 4:-0.3789856 5:-0.1066038 
0.01 1:0.048305175 2:1.2235901 3:-0.83075621 4:-0.4487972 5:0.038010018 
0.01 1:-0.70237555 2:0.85710086 3:-1.0361858 4:-0.4487972 5:-0.27187673 
0.01 1:1.8961347 2:0.29327131 3:1.9939006 4:-0.23936239 5:-0.29253585 
0.01 1:-0.58688621 2:0.34965426 3:-0.06039527 4:-0.3789856 5:-0.16858115 
0.01 1:0.27928386 2:0.40603722 3:0.093676918 4:-0.23936239 5:0.20328295 
0.01 1:-0.24041818 2:0.91348381 3:-0.31718225 4:-0.30917399 5:-0.16858115 
0.01 1:-0.0094394959 2:0.1805054 3:-0.26582485 4:-0.099739181 5:-0.12726292 
0.01 1:-0.76012022 2:0.1805054 3:-0.72804142 4:-0.65823201 5:-0.2305585 
0.01 1:-1.3953116 2:-1.9056639 3:-0.31718225 4:-0.58842041 5:-0.89165023 
0.01 1:-1.3375669 2:-1.1163026 3:0.24774911 4:7.2304792 5:-0.70571818 
0.01 1:0.33702853 2:1.2517815 3:-0.67668402 4:-0.029927577 5:-0.044626449 
0.01 1:0.16379452 2:-0.3269412 3:-0.0090378737 4:-0.16955078 5:-0.68505906 
0.01 1:-1.5685456 2:-0.15779233 3:-0.933471 4:-0.16955078 5:-0.80901376 
0.01 1:-1.2798223 2:-1.1726855 3:-0.11175267 4:-0.16955078 5:-0.3545132 
0.01 1:-0.0094394959 2:0.71614347 3:-0.77939881 4:-0.16955078 5:-0.1066038 
0.01 1:-1.5685456 2:0.067739488 3:-1.190258 4:-0.58842041 5:-0.80901376 
0.01 1:-0.87560956 2:0.34965426 3:-0.8821136 4:-0.58842041 5:-0.51978613 
0.01 1:-0.0094394959 2:1.0544412 3:-0.62532662 4:-0.51860881 5:0.017350901 
0.01 1:0.16379452 2:1.1108242 3:-0.16311006 4:2.8323482 5:0.59580617 
0.01 1:-0.52914154 2:0.63156904 3:-1.0361858 4:-0.51860881 5:0.24460118 
0.01 1:-0.76012022 2:-1.6801321 3:0.65860827 4:-0.65823201 5:-0.51978613 
0.01 1:-0.067184167 2:0.40603722 3:-0.52261183 4:-0.16955078 5:-0.33385408 
0.01 1:0.51026254 2:-0.38332415 3:-0.21446746 4:0.039884027 5:0.058669134 
0.01 1:-0.29816285 2:0.011356533 3:0.2991065 4:-0.099739181 5:-0.16858115 
0.01 1:-0.76012022 2:-0.15779233 3:-0.11175267 4:-0.3789856 5:-0.37517231 
0.01 1:0.51026254 2:0.011356533 3:-0.16311006 4:0.039884027 5:-0.20989938 
0.01 1:0.45251787 2:1.3927389 3:-0.26582485 4:-0.23936239 5:-0.18924027 
0.01 1:-1.2220776 2:0.1805054 3:-0.933471 4:-0.58842041 5:-0.7263773 
0.01 1:1.4341773 2:-0.43970711 3:0.2991065 4:-0.029927577 5:0.22394207 
0.01 1:-0.76012022 2:0.88529233 3:-1.3956876 4:-0.4487972 5:0.22394207 
0.01 1:-0.70237555 2:0.88529233 3:0.40182129 4:-0.3789856 5:-0.0033082155 
0.01 1:-1.2798223 2:0.63156904 3:-1.2929728 4:-0.099739181 5:-0.39583143 
0.01 1:-0.35590752 2:0.067739488 3:-0.06039527 4:-0.4487972 5:0.017350901 
0.01 1:0.7989859 2:0.91348381 3:0.24774911 4:-0.029927577 5:-0.0033082155 
0.01 1:0.91447524 2:0.067739488 3:0.91539525 4:-0.16955078 5:-0.3545132 
0.01 1:0.56800722 2:-0.66523893 3:0.60725088 4:-0.23936239 5:-0.49912701 
0.01 1:0.33702853 2:0.51880313 3:-0.47125444 4:0.87762328 5:1.814694 
0.01 1:-0.24041818 2:1.0826327 3:-1.3443302 4:-0.4487972 5:-0.25121761 
0.01 1:-0.70237555 2:0.51880313 3:-1.0875432 4:-0.86766683 5:-0.37517231 
0.01 1:-0.70237555 2:1.279973 3:-0.62532662 4:-0.51860881 5:0.389215 
0.01 1:0.74124123 2:0.40603722 3:1.1721822 4:-0.16955078 5:-0.18924027 
0.01 1:-0.18267351 2:0.34965426 3:-1.1389006 4:-0.3789856 5:0.017350901 
0.01 1:0.74124123 2:0.40603722 3:1.1721822 4:-0.16955078 5:-0.18924027 
0.01 1:0.3947732 2:0.29327131 3:-0.11175267 4:0.17950724 5:-0.27187673 
0.01 1:-0.58688621 2:0.8007179 3:-1.1389006 4:0.73800007 5:0.389215 
0.01 1:2.531326 2:0.40603722 3:1.1208248 4:0.17950724 5:-0.27187673 
0.01 1:-0.52914154 2:-0.66523893 3:-0.16311006 4:-0.51860881 5:-0.45780878 
0.01 1:0.91447524 2:1.1953986 3:-0.41989704 4:2.2738554 5:0.47185147 
0.01 1:-0.35590752 2:1.3927389 3:0.76132307 4:-0.4487972 5:0.079328251 
0.01 1:-0.47139686 2:-0.72162188 3:-0.47125444 4:-0.65823201 5:-0.18924027 
0.01 1:-0.12492884 2:0.74433495 3:2.1993302 4:-0.23936239 5:0.20328295 
0.01 1:-0.24041818 2:-1.0035367 3:-0.31718225 4:-0.4487972 5:-0.31319496 
0.01 1:1.3186879 2:-1.3982173 3:0.60725088 4:9.045581 5:-0.39583143 
0.01 1:-1.1065882 2:0.011356533 3:-0.933471 4:0.94743488 5:0.71976087 
0.01 1:0.27928386 2:0.34965426 3:-0.47125444 4:0.24931884 5:0.017350901 
0.01 1:-0.52914154 2:-0.77800484 3:1.0694674 4:-0.3789856 5:-0.12726292 
0.01 1:-0.29816285 2:0.40603722 3:-0.06039527 4:-0.3789856 5:-0.16858115 
0.01 1:2.0693687 2:-0.83438779 3:1.1208248 4:0.10969563 5:0.20328295 
0.01 1:-0.29816285 2:0.40603722 3:-0.06039527 4:-0.3789856 5:-0.16858115 
0.01 1:-1.2798223 2:0.99805824 3:-0.8821136 4:0.17950724 5:-0.14792203 
0.01 1:1.8961347 2:-0.60885597 3:1.3262544 4:0.52856526 5:0.34789677 
0.01 1:-0.52914154 2:0.8007179 3:-0.77939881 4:-0.65823201 5:2.0212852 
0.01 1:2.358092 2:-0.60885597 3:1.1208248 4:1.4361161 5:-0.31319496 
0.01 1:0.97221991 2:-0.55247302 3:0.2991065 4:0.10969563 5:0.1413056 
0.01 1:-1.5685456 2:0.49061165 3:-1.3956876 4:-0.65823201 5:0.017350901 
0.01 1:1.0877093 2:-0.66523893 3:0.81268046 4:-0.23936239 5:0.45119235 
0.01 1:1.491922 2:-0.89077075 3:1.5830414 4:1.0172465 5:-0.3545132 
0.01 1:-0.47139686 2:-0.60885597 3:0.19639171 4:-0.65823201 5:-0.16858115 
0.01 1:-0.58688621 2:0.94167529 3:-1.3956876 4:-0.029927577 5:-0.27187673 
0.01 1:-1.2798223 2:0.34965426 3:-1.3443302 4:-0.30917399 5:-0.66439995 
0.01 1:0.10604985 2:-0.38332415 3:1.6343988 4:-0.79785522 5:6.7315638 
0.01 1:1.0877093 2:-1.6237492 3:1.1208248 4:-0.099739181 5:-0.27187673 
0.01 1:-1.1643329 2:-0.77800484 3:-0.57396923 4:-0.79785522 5:-0.16858115 
0.01 1:0.27928386 2:0.46242017 3:-0.67668402 4:-0.099739181 5:-0.43714966 
0.01 1:-0.0094394959 2:0.40603722 3:-0.11175267 4:-0.23936239 5:0.61646528 
0.01 1:0.33702853 2:0.20869688 3:0.3504639 4:0.31913044 5:0.099987368 
0.01 1:-0.81786489 2:0.1805054 3:-1.2416154 4:-0.72804362 5:-0.044626449 
0.01 1:-0.35590752 2:0.40603722 3:-1.3956876 4:0.039884027 5:-0.68505906 
0.01 1:-1.5685456 2:0.4342287 3:-1.1389006 4:-0.099739181 5:-0.31319496 
0.01 1:-0.64463088 2:0.067739488 3:-0.0090378737 4:0.039884027 5:-0.085944682 
0.01 1:0.048305175 2:1.0544412 3:-0.36853965 4:-0.099739181 5:-0.25121761 
0.01 1:0.3947732 2:-0.27055824 3:0.24774911 4:0.17950724 5:-0.085944682 
0.01 1:-0.70237555 2:-0.55247302 3:0.76132307 4:2.0644205 5:-0.3545132 
0.01 1:0.91447524 2:-1.0035367 3:1.4289692 4:-0.30917399 5:-0.54044525 
0.01 1:0.97221991 2:-1.3418344 3:0.65860827 4:0.24931884 5:0.20328295 
0.01 1:-0.52914154 2:0.12412244 3:-0.41989704 4:-0.51860881 5:-0.12726292 
0.01 1:0.97221991 2:1.1390156 3:0.81268046 4:-0.16955078 5:-0.6024226 
0.01 1:-0.35590752 2:-0.77800484 3:-0.77939881 4:-0.58842041 5:0.18262383 
0.01 1:-0.12492884 2:-1.1163026 3:0.86403786 4:-0.72804362 5:-0.95362758 
0.01 1:-0.52914154 2:0.011356533 3:-0.06039527 4:-0.3789856 5:0.2652603 
0.01 1:-1.1065882 2:0.63156904 3:-0.31718225 4:-0.51860881 5:-0.14792203 
0.01 1:-0.87560956 2:0.8007179 3:-1.2929728 4:-0.51860881 5:-0.78835465 
0.01 1:-0.35590752 2:0.067739488 3:-0.06039527 4:-0.4487972 5:0.017350901 
0.01 1:-0.70237555 2:0.85710086 3:-1.3956876 4:-0.16955078 5:-0.023967332 
0.01 1:-0.64463088 2:0.94167529 3:-0.72804142 4:-0.3789856 5:-0.25121761 
0.01 1:0.048305175 2:0.40603722 3:-0.8821136 4:-0.23936239 5:-0.065285565 
0.01 1:0.27928386 2:0.46242017 3:-0.67668402 4:-0.099739181 5:-0.43714966 
0.01 1:-0.93335423 2:0.29327131 3:-0.9848284 4:-0.51860881 5:0.18262383 
0.01 1:-0.76012022 2:-0.43970711 3:0.3504639 4:0.10969563 5:-0.12726292 
0.01 1:-0.70237555 2:-0.55247302 3:-0.52261183 4:-0.51860881 5:-0.12726292 
0.01 1:-0.35590752 2:-0.21417529 3:-0.06039527 4:-0.4487972 5:-0.54044525 
0.01 1:-0.52914154 2:0.12412244 3:-0.41989704 4:-0.51860881 5:-0.12726292 
0.01 1:-0.0094394959 2:-0.55247302 3:0.14503431 4:0.59837686 5:-0.18924027 
0.01 1:-1.3953116 2:0.65976052 3:-0.77939881 4:-0.3789856 5:-0.27187673 
0.01 1:1.3186879 2:-0.9471537 3:1.6343988 4:-0.23936239 5:1.3188752 
0.01 1:0.27928386 2:0.88529233 3:-0.06039527 4:-0.65823201 5:-0.0033082155 
0.01 1:0.51026254 2:0.067739488 3:0.19639171 4:-0.16955078 5:0.49251058 
0.01 1:-1.2798223 2:1.0544412 3:-0.8821136 4:0.039884027 5:-0.7263773 
0.01 1:1.665156 2:-0.15779233 3:2.4047597 4:1.8200799 5:0.24460118 
0.01 1:-0.76012022 2:0.40603722 3:0.14503431 4:1.3663045 5:-0.41649055 
0.01 1:-0.93335423 2:1.3081645 3:-1.2929728 4:-0.51860881 5:-0.20989938 
0.01 1:1.5496666 2:-1.849281 3:1.0694674 4:-0.3789856 5:5.2647665 
0.01 1:-0.81786489 2:0.57518608 3:0.2991065 4:2.9021598 5:3.0335819 
0.01 1:-0.47139686 2:1.3645475 3:-0.36853965 4:3.8795223 5:0.20328295 
0.01 1:-0.47139686 2:0.29327131 3:-0.36853965 4:-0.3789856 5:-0.31319496 
0.01 1:0.85673057 2:-0.77800484 3:0.81268046 4:-0.62332621 5:-0.41649055 
0.01 1:-0.067184167 2:0.96986677 3:-0.21446746 4:-0.3789856 5:0.22394207 
0.01 1:-1.1065882 2:0.57518608 3:-0.31718225 4:-0.65823201 5:-0.16858115 
0.01 1:-0.18267351 2:0.51880313 3:0.40182129 4:0.17950724 5:-0.044626449 
0.01 1:0.56800722 2:-0.55247302 3:0.86403786 4:-0.4487972 5:-0.065285565 
0.01 1:-0.0094394959 2:0.067739488 3:-0.16311006 4:0.59837686 5:-0.25121761 
0.01 1:-0.81786489 2:1.336356 3:-1.2929728 4:-0.16955078 5:-0.51978613 
0.01 1:0.10604985 2:-1.0599196 3:0.86403786 4:-0.58842041 5:-0.18924027 
0.01 1:-0.47139686 2:0.46242017 3:-0.06039527 4:-0.4487972 5:-0.31319496 
0.01 1:-0.41365219 2:-0.60885597 3:-0.11175267 4:0.94743488 5:0.32723765 
0.01 1:-0.76012022 2:0.40603722 3:0.14503431 4:1.3663045 5:-0.41649055 
0.01 1:-0.18267351 2:-0.55247302 3:0.45317869 4:-0.16955078 5:-0.27187673 
0.01 1:0.74124123 2:0.85710086 3:-0.16311006 4:-0.23936239 5:-0.023967332 
0.01 1:0.68349656 2:0.23688835 3:-0.0090378737 4:-0.16955078 5:-0.12726292 
0.01 1:-0.29816285 2:0.1805054 3:-0.41989704 4:-0.30917399 5:-0.14792203 
0.01 1:0.3947732 2:1.4491219 3:-0.16311006 4:-0.58842041 5:-0.20989938 
0.01 1:-0.067184167 2:1.1390156 3:-0.31718225 4:-0.58842041 5:-0.29253585 
0.01 1:0.10604985 2:0.74433495 3:-0.36853965 4:-0.30917399 5:0.18262383 
0.01 1:0.56800722 2:0.71614347 3:-0.06039527 4:-0.3789856 5:0.16196472 
0.01 1:-0.52914154 2:-0.21417529 3:-0.41989704 4:0.31913044 5:-0.2305585 
0.01 1:2.2426027 2:-0.43970711 3:1.1208248 4:-0.79785522 5:-0.27187673 
0.01 1:-0.35590752 2:0.51880313 3:-1.190258 4:0.87762328 5:-0.085944682 
0.01 1:1.0877093 2:0.8007179 3:0.60725088 4:-0.4487972 5:-0.70571818 
0.01 1:-0.18267351 2:1.7028452 3:-0.0090378737 4:-0.3789856 5:-0.16858115 
0.01 1:-0.87560956 2:0.57518608 3:-0.77939881 4:0.87762328 5:0.22394207 
0.01 1:-0.87560956 2:0.85710086 3:-0.31718225 4:-0.30917399 5:-0.37517231 
0.01 1:-0.067184167 2:-0.77800484 3:1.1208248 4:-0.16955078 5:0.22394207 
0.01 1:-0.29816285 2:0.46242017 3:0.093676918 4:-0.65823201 5:0.53382882 
0.01 1:-0.24041818 2:-0.55247302 3:-0.31718225 4:-0.65823201 5:0.36855588 
0.01 1:0.3947732 2:0.40603722 3:0.093676918 4:-0.3789856 5:-0.39583143 
0.01 1:0.27928386 2:-0.72162188 3:0.65860827 4:-0.23936239 5:-0.18924027 
0.01 1:0.3947732 2:0.067739488 3:1.1208248 4:0.24931884 5:0.12064648 
0.01 1:0.3947732 2:0.74433495 3:-0.52261183 4:0.31913044 5:-0.2305585 
0.01 1:-0.29816285 2:-0.66523893 3:2.0966154 4:-0.58842041 5:7.826497 
0.01 1:0.7989859 2:-1.1726855 3:1.3776118 4:-0.029927577 5:0.12064648 
0.01 1:1.665156 2:-0.72162188 3:1.1721822 4:-0.3789856 5:0.22394207 
0.01 1:-0.9910989 2:0.96986677 3:-0.9848284 4:0.039884027 5:0.36855588 
0.01 1:1.0877093 2:-0.60885597 3:1.531684 4:0.59837686 5:-0.37517231 
0.01 1:-0.18267351 2:-0.60885597 3:0.24774911 4:-0.029927577 5:-0.16858115 
0.01 1:-1.3375669 2:-0.15779233 3:-1.3956876 4:-0.79785522 5:-0.64374083 
0.01 1:2.3003473 2:-0.15779233 3:1.1208248 4:-0.23936239 5:0.017350901 
0.01 1:-0.24041818 2:-0.15779233 3:0.2991065 4:-0.3789856 5:-0.085944682 
0.01 1:0.27928386 2:-0.66523893 3:1.8911858 4:-0.23936239 5:0.099987368 
0.01 1:-0.9910989 2:1.1108242 3:-0.36853965 4:3.6700874 5:-0.31319496 
0.01 1:0.22153919 2:-0.38332415 3:0.19639171 4:-0.029927577 5:0.78173822 
0.01 1:0.33702853 2:-0.27055824 3:-0.16311006 4:0.21441304 5:0.12064648 
0.01 1:0.27928386 2:0.74433495 3:-0.06039527 4:-0.58842041 5:-0.29253585 
0.01 1:-0.87560956 2:0.46242017 3:-1.190258 4:-0.72804362 5:-0.64374083 
0.0088759755553991741 1:0.3947732 2:1.6464622 3:-1.1389006 4:-0.099739181 5:-0.14792203 
0.01 1:-0.64463088 2:0.40603722 3:-1.190258 4:-0.029927577 5:-0.25121761 
0.01 1:-0.35590752 2:0.74433495 3:-1.190258 4:-0.65823201 5:-1.0156049 
0.01 1:-0.067184167 2:1.4209304 3:-1.3956876 4:-0.23936239 5:0.017350901 
0.01 1:0.16379452 2:-1.1163026 3:0.65860827 4:0.039884027 5:-0.1066038 
0.01 1:-0.18267351 2:-0.55247302 3:0.45317869 4:-0.16955078 5:-0.27187673 
0.01 1:-0.87560956 2:-0.15779233 3:-0.83075621 4:-0.72804362 5:-0.27187673 
0.01 1:0.16379452 2:-0.3269412 3:0.14503431 4:0.31913044 5:-0.25121761 
0.01 1:0.16379452 2:1.5336963 3:-0.83075621 4:-0.16955078 5:-0.085944682 
0.01 1:-0.35590752 2:0.91348381 3:-0.26582485 4:-0.4487972 5:-0.085944682 
0.01 1:0.27928386 2:-0.60885597 3:-0.31718225 4:-0.029927577 5:0.079328251 
0.01 1:-0.0094394959 2:0.68795199 3:-0.8821136 4:0.24931884 5:0.017350901 
0.01 1:-0.52914154 2:0.96986677 3:-1.3956876 4:-0.4487972 5:-0.25121761 
0.01 1:-0.70237555 2:-0.55247302 3:0.76132307 4:2.0644205 5:-0.37517231 
0.01 1:2.9932834 2:0.011356533 3:2.6615467 4:1.5757393 5:0.65778352 
0.01 1:-1.5685456 2:0.74433495 3:-1.3956876 4:-0.029927577 5:-0.45780878 
0.01 1:-0.64463088 2:-0.21417529 3:-0.16311006 4:-0.23936239 5:-0.37517231 
0.01 1:0.68349656 2:-0.89077075 3:1.274897 4:-0.3789856 5:-0.12726292 
0.01 1:0.27928386 2:0.63156904 3:-0.52261183 4:0.24931884 5:-0.085944682 
0.01 1:-1.5685456 2:0.067739488 3:-1.190258 4:-0.58842041 5:-0.80901376 
0.01 1:0.45251787 2:-1.0599196 3:0.76132307 4:-0.51860881 5:-0.62308171 
0.01 1:0.91447524 2:0.067739488 3:0.91539525 4:-0.16955078 5:-0.3545132 
0.01 1:0.97221991 2:-1.1726855 3:1.6343988 4:-0.23936239 5:-0.2305585 
0.01 1:0.45251787 2:-0.045026421 3:0.2991065 4:-0.86766683 5:-0.37517231 
0.01 1:0.048305175 2:-1.3418344 3:0.65860827 4:-0.58842041 5:-0.43714966 
0.01 1:0.91447524 2:-0.15779233 3:1.1721822 4:7.8587837 5:2.4138084 
0.01 1:0.3947732 2:-0.43970711 3:1.1208248 4:0.039884027 5:-0.085944682 
0.01 1:-0.81786489 2:0.57518608 3:-1.2929728 4:-0.4487972 5:-0.20989938 
0.01 1:-0.52914154 2:0.011356533 3:-0.77939881 4:-0.4487972 5:1.5874438 
0.01 1:2.3003473 2:-0.77800484 3:1.8398284 4:-0.16955078 5:0.058669134 
0.01 1:1.6074113 2:-1.0035367 3:1.0694674 4:0.38894205 5:0.038010018 
0.01 1:-0.76012022 2:1.5618878 3:-1.3956876 4:-0.029927577 5:-0.41649055 
0.01 1:-0.24041818 2:-1.9620469 3:0.65860827 4:-0.23936239 5:-0.80901376 
0.01 1:-0.41365219 2:0.65976052 3:-1.2416154 4:-0.4487972 5:-0.044626449 
0.01 1:-0.41365219 2:1.4773134 3:-0.31718225 4:-0.16955078 5:-0.023967332 
0.01 1:-0.41365219 2:-0.045026421 3:-0.77939881 4:0.31913044 5:-0.43714966 
0.01 1:-0.47139686 2:-0.60885597 3:0.24774911 4:0.10969563 5:-0.43714966 
0.01 1:0.7989859 2:0.74433495 3:0.3504639 4:0.039884027 5:0.12064648 
0.01 1:-0.87560956 2:0.91348381 3:-1.3956876 4:2.1342321 5:0.74041998 
0.01 1:-0.18267351 2:0.40603722 3:-0.26582485 4:-0.30917399 5:-0.16858115 
0.01 1:-0.47139686 2:1.279973 3:-1.3956876 4:-0.4487972 5:-0.085944682 
0.01 1:-0.12492884 2:1.1390156 3:-1.3956876 4:-0.029927577 5:-0.14792203 
0.01 1:0.16379452 2:0.12412244 3:-0.933471 4:0.52856526 5:-0.41649055 
0.01 1:0.33702853 2:0.51880313 3:-0.41989704 4:0.94743488 5:1.6907393 
0.01 1:-0.81786489 2:0.23688835 3:-1.3956876 4:0.17950724 5:-0.14792203 
0.01 1:1.0877093 2:-1.6801321 3:0.50453609 4:-0.23936239 5:-0.64374083 
0.01 1:-0.35590752 2:0.8007179 3:-0.21446746 4:-0.30917399 5:-0.0033082155 
0.01 1:-0.47139686 2:1.3645475 3:-0.36853965 4:3.8795223 5:0.20328295 
0.01 1:0.74124123 2:0.1805054 3:-0.21446746 4:0.59837686 5:0.28591942 
0.01 1:-0.35590752 2:0.1805054 3:-0.36853965 4:-0.3789856 5:-0.27187673 
0.01 1:-1.2220776 2:0.68795199 3:-1.0875432 4:-0.65823201 5:-0.78835465 
0.01 1:-0.12492884 2:0.8007179 3:1.4289692 4:-0.51860881 5:0.59580617 
0.01 1:0.10604985 2:0.71614347 3:1.1208248 4:2.4832902 5:0.69910175 
0.01 1:-0.24041818 2:-0.55247302 3:-0.31718225 4:-0.65823201 5:0.36855588 
0.01 1:-0.41365219 2:0.65976052 3:-1.2416154 4:-0.4487972 5:-0.044626449 
0.01 1:-0.0094394959 2:1.0544412 3:-0.62532662 4:-0.51860881 5:0.017350901 
0.01 1:-0.81786489 2:-0.77800484 3:-0.16311006 4:-0.30917399 5:0.28591942 
0.01 1:-0.24041818 2:-0.21417529 3:0.24774911 4:-0.4487972 5:-0.12726292 
0.01 1:-0.29816285 2:0.57518608 3:1.0694674 4:-0.58842041 5:0.24460118 
0.01 1:4.3791555 2:-0.9471537 3:1.9425432 4:3.4606526 5:0.16196472 
0.01 1:-0.41365219 2:0.77252642 3:-0.8821136 4:-0.72804362 5:-0.45780878 
0.01 1:-1.2220776 2:-0.38332415 3:-0.52261183 4:-0.65823201 5:-0.31319496 
0.01 1:-0.64463088 2:0.1805054 3:-0.06039527 4:-0.3789856 5:-0.1066038 
0.01 1:-0.29816285 2:0.51880313 3:-1.1389006 4:-0.16955078 5:-0.18924027 
0.01 1:-0.24041818 2:-0.89077075 3:-0.21446746 4:-0.51860881 5:-0.2305585 
0.01 1:-1.1643329 2:0.23688835 3:0.042319522 4:-0.30917399 5:-0.82967288 
0.01 1:-0.76012022 2:0.51880313 3:-0.47125444 4:-0.72804362 5:-0.54044525 
0.01 1:1.2031986 2:-1.3982173 3:1.3776118 4:0.10969563 5:0.34789677 
0.01 1:-0.58688621 2:-1.0035367 3:-0.16311006 4:-0.3789856 5:-0.43714966 
0.01 1:-0.70237555 2:1.0262497 3:-1.3956876 4:-0.4487972 5:-0.16858115 
0.01 1:-0.70237555 2:-0.3269412 3:-1.3956876 4:-0.23936239 5:-0.43714966 
0.01 1:0.3947732 2:-0.3269412 3:0.19639171 4:0.10969563 5:-0.085944682 
0.01 1:0.62575189 2:-0.72162188 3:1.01811 4:-0.029927577 5:-0.023967332 
0.01 1:-0.12492884 2:1.4209304 3:-0.21446746 4:0.039884027 5:-0.6024226 
0.01 1:-0.0094394959 2:0.49061165 3:-0.26582485 4:0.039884027 5:-0.023967332 
0.01 1:-0.64463088 2:0.74433495 3:-1.2416154 4:-0.16955078 5:-0.20989938 
0.01 1:-0.0094394959 2:0.99805824 3:-0.77939881 4:0.039884027 5:0.079328251 
0.01 1:-0.067184167 2:-1.3982173 3:1.6857562 4:0.31913044 5:0.32723765 
0.01 1:0.048305175 2:0.60337756 3:0.45317869 4:-0.3789856 5:0.017350901 
0.01 1:0.3947732 2:0.91348381 3:-1.3956876 4:-0.099739181 5:-0.0033082155 
0.01 1:-1.5685456 2:0.51880313 3:-1.2416154 4:-0.72804362 5:-0.16858115 
0.01 1:-1.1643329 2:0.40603722 3:-0.8821136 4:-0.65823201 5:-0.82967288 
0.01 1:-0.47139686 2:0.34965426 3:-0.26582485 4:-0.51860881 5:-0.12726292 
0.01 1:-0.0094394959 2:0.54699461 3:-0.36853965 4:-0.72804362 5:-0.16858115 
0.01 1:-0.76012022 2:-0.15779233 3:-0.67668402 4:-0.51860881 5:-0.20989938 
0.01 1:-0.47139686 2:0.40603722 3:0.24774911 4:0.10969563 5:0.30657853 
0.01 1:-0.12492884 2:0.26507983 3:-0.26582485 4:-0.30917399 5:-0.2305585 
0.01 1:2.531326 2:0.40603722 3:1.9425432 4:-0.16955078 5:-0.51978613 
0.01 1:-0.41365219 2:-0.21417529 3:0.2991065 4:-0.4487972 5:-0.29253585 
0.01 1:-0.58688621 2:0.29327131 3:0.14503431 4:-0.099739181 5:-0.29253585 
0.01 1:0.62575189 2:0.34965426 3:-0.67668402 4:-0.3789856 5:-0.085944682 
0.01 1:0.3947732 2:-0.43970711 3:1.1208248 4:0.039884027 5:-0.085944682 
0.01 1:0.16379452 2:0.57518608 3:-0.52261183 4:0.24931884 5:0.22394207 
0.01 1:-0.12492884 2:1.4209304 3:-0.21446746 4:0.039884027 5:-0.6024226 
0.01 1:-0.18267351 2:-0.045026421 3:-1.2416154 4:-0.58842041 5:-0.37517231 
0.01 1:-0.81786489 2:-0.15779233 3:-1.190258 4:-0.72804362 5:-0.065285565 
0.01 1:0.56800722 2:-0.77800484 3:0.86403786 4:-0.30917399 5:0.389215 
0.01 1:-0.41365219 2:-0.66523893 3:-0.16311006 4:-0.51860881 5:-0.16858115 
0.01 1:0.33702853 2:-1.2290685 3:0.45317869 4:0.039884027 5:-0.66439995 
0.01 1:-0.9910989 2:0.99805824 3:-1.0361858 4:-0.65823201 5:-0.25121761 
0.01 1:0.62575189 2:0.88529233 3:-0.06039527 4:-0.099739181 5:-0.12726292 
0.01 1:0.048305175 2:1.2235901 3:-0.83075621 4:-0.4487972 5:0.038010018 
0.01 1:-0.76012022 2:1.1672071 3:-1.1389006 4:-0.3789856 5:-0.14792203 
0.01 1:-1.0488436 2:0.29327131 3:-1.3956876 4:-0.23936239 5:0.16196472 
0.01 1:-0.76012022 2:0.51880313 3:-0.8821136 4:-0.79785522 5:-0.3545132 
0.01 1:1.7229006 2:-0.89077075 3:0.70996567 4:-0.16955078 5:-0.0033082155 
0.01 1:2.4158367 2:0.1805054 3:1.1208248 4:-0.099739181 5:-0.49912701 
0.01 1:-1.1065882 2:1.5055048 3:-1.3956876 4:-0.23936239 5:-0.4784679 
0.01 1:-0.29816285 2:-0.49609006 3:0.042319522 4:0.10969563 5:0.24460118 
0.01 1:-0.12492884 2:1.1108242 3:-0.26582485 4:-0.23936239 5:-0.33385408 
0.0058637433185228013 1:-0.9910989 2:1.1672071 3:-1.2929728 4:3.739899 5:0.69910175 
0.01 1:-0.58688621 2:0.12412244 3:-1.2416154 4:-0.65823201 5:-0.33385408 
0.01 1:-0.47139686 2:-0.83438779 3:1.0694674 4:0.039884027 5:-0.31319496 
0.01 1:-0.47139686 2:-0.21417529 3:-0.41989704 4:-0.4487972 5:-0.25121761 
0.01 1:2.4158367 2:-0.38332415 3:1.1208248 4:1.3663045 5:-0.37517231 
0.004214451306190338 1:-0.29816285 2:-0.55247302 3:2.1993302 4:-0.4487972 5:7.7645196 
0.01 1:-0.93335423 2:0.1805054 3:-0.933471 4:0.24931884 5:-0.18924027 
0.01 1:-0.70237555 2:-1.0599196 3:0.042319522 4:-0.3789856 5:-0.12726292 
0.01 1:1.8961347 2:-0.3269412 3:0.86403786 4:-0.65823201 5:1.2155797 
0.01 1:-0.70237555 2:1.1672071 3:-0.57396923 4:-0.4487972 5:0.24460118 
0.01 1:-1.3375669 2:-0.15779233 3:-1.3956876 4:-0.79785522 5:-0.64374083 
0.01 1:1.4341773 2:-0.15779233 3:0.96675265 4:-0.029927577 5:-0.31319496 
0.01 1:-0.41365219 2:0.51880313 3:0.24774911 4:-0.23936239 5:-0.12726292 
0.01 1:0.27928386 2:0.40603722 3:0.093676918 4:-0.23936239 5:0.20328295 
0.01 1:0.10604985 2:-0.38332415 3:0.19639171 4:-0.20445659 5:-0.20989938 
0.01 1:0.91447524 2:0.34965426 3:-1.0361858 4:0.59837686 5:0.28591942 
0.01 1:-0.64463088 2:0.71614347 3:-1.2416154 4:-0.51860881 5:-0.20989938 
0.01 1:-1.4530563 2:0.85710086 3:-1.2929728 4:-0.51860881 5:-0.023967332 
0.01 1:-0.18267351 2:0.63156904 3:-0.26582485 4:-0.099739181 5:0.12064648 
0.01 1:-0.64463088 2:0.51880313 3:-1.0875432 4:0.10969563 5:-0.2305585 
0.01 1:-0.47139686 2:-0.66523893 3:-0.62532662 4:0.80781167 5:0.32723765 
0.01 1:-0.58688621 2:-0.43970711 3:0.45317869 4:2.343667 5:-0.29253585 
0.01 1:2.0693687 2:0.29327131 3:1.9939006 4:-0.029927577 5:-0.33385408 
0.01 1:-0.52914154 2:0.12412244 3:-0.26582485 4:-0.23936239 5:0.36855588 
0.01 1:-0.067184167 2:-0.77800484 3:0.55589348 4:-0.72804362 5:-0.62308171 
0.01 1:0.33702853 2:0.37784574 3:0.70996567 4:3.739899 5:-0.044626449 
0.01 1:-0.47139686 2:0.46242017 3:-0.06039527 4:-0.4487972 5:-0.31319496 
0.01 1:0.45251787 2:-0.43970711 3:0.40182129 4:-0.099739181 5:-0.16858115 
0.01 1:-0.18267351 2:1.5900793 3:-0.11175267 4:0.59837686 5:-0.25121761 
0.01 1:-0.47139686 2:0.68795199 3:-0.47125444 4:3.1115946 5:-0.0033082155 
0.01 1:0.27928386 2:-0.045026421 3:0.3504639 4:0.10969563 5:-0.023967332 
0.01 1:1.7806453 2:-0.38332415 3:1.1721822 4:0.10969563 5:0.69910175 
0.01 1:-0.70237555 2:0.1805054 3:-0.67668402 4:-0.65823201 5:-0.20989938 
0.01 1:0.22153919 2:0.91348381 3:-1.3956876 4:0.45875365 5:-0.085944682 
0.01 1:-0.52914154 2:0.46242017 3:-1.3443302 4:-0.3789856 5:-0.29253585 
0.01 1:-1.3375669 2:0.63156904 3:-1.1389006 4:-0.4487972 5:-0.45780878 
0.01 1:-0.29816285 2:0.63156904 3:-1.3956876 4:-0.4487972 5:-0.33385408 
0.01 1:-0.70237555 2:-0.55247302 3:0.76132307 4:2.0644205 5:-0.37517231 
0.01 1:-0.52914154 2:0.46242017 3:-1.3443302 4:-0.3789856 5:-0.29253585 
0.01 1:0.7989859 2:0.91348381 3:0.24774911 4:-0.029927577 5:-0.0033082155 
0.01 1:-0.70237555 2:-0.55247302 3:0.76132307 4:2.0644205 5:-0.3545132 
0.01 1:0.22153919 2:1.336356 3:-0.26582485 4:-0.16955078 5:-0.49912701 
0.01 1:1.83839 2:-0.60885597 3:1.0694674 4:0.039884027 5:-0.2305585 
0.01 1:-0.52914154 2:0.74433495 3:-1.3956876 4:-0.51860881 5:-0.27187673 
0.01 1:-0.12492884 2:0.74433495 3:-0.26582485 4:-0.23936239 5:-0.39583143 
0.01 1:-0.87560956 2:0.46242017 3:-0.36853965 4:-0.51860881 5:-0.2305585 
0.01 1:-0.29816285 2:0.12412244 3:0.40182129 4:-0.23936239 5:-0.29253585 
0.01 1:1.2031986 2:0.46242017 3:1.1208248 4:-0.30917399 5:2.3105128 
0.01 1:0.56800722 2:-1.1726855 3:1.531684 4:-0.3789856 5:-0.29253585 
0.01 1:-1.2798223 2:-0.83438779 3:-0.62532662 4:-0.51860881 5:-0.33385408 
0.01 1:-0.12492884 2:1.4209304 3:-0.8821136 4:0.52856526 5:0.038010018 
0.01 1:-0.87560956 2:-0.27055824 3:-0.11175267 4:-0.3789856 5:-0.25121761 
0.01 1:-0.76012022 2:0.34965426 3:-1.3956876 4:-0.58842041 5:-0.74703641 
0.01 1:-1.2798223 2:-1.1726855 3:-0.11175267 4:-0.16955078 5:-0.3545132 
0.01 1:0.91447524 2:-0.15779233 3:1.1721822 4:7.8587837 5:2.4138084 
0.01 1:-0.29816285 2:0.1805054 3:-0.41989704 4:-0.51860881 5:0.32723765 
0.01 1:-0.29816285 2:0.96986677 3:-1.0875432 4:-0.4487972 5:-0.18924027 
0.01 1:-0.41365219 2:0.12412244 3:-0.31718225 4:-0.23936239 5:-0.3545132 
0.01 1:-0.067184167 2:0.23688835 3:-0.06039527 4:-0.23936239 5:-0.58176348 
0.01 1:-0.76012022 2:1.4209304 3:-0.9848284 4:-0.3789856 5:0.099987368 
0.01 1:0.10604985 2:-0.72162188 3:0.65860827 4:2.6229134 5:-0.78835465 
0.01 1:0.3947732 2:0.51880313 3:-1.190258 4:-0.4487972 5:1.1949205 
0.01 1:-0.76012022 2:0.71614347 3:-0.57396923 4:-0.30917399 5:-0.29253585 
0.01 1:-0.47139686 2:-0.15779233 3:0.45317869 4:2.4832902 5:-0.3545132 
0.01 1:-0.81786489 2:0.29327131 3:-0.36853965 4:-0.55351461 5:-0.62308171 
0.01 1:-0.24041818 2:-1.9620469 3:0.65860827 4:-0.51860881 5:-0.54044525 
0.009337501076908037 1:-0.9910989 2:1.1672071 3:-1.2929728 4:3.739899 5:0.69910175 
0.01 1:2.184858 2:-0.72162188 3:1.274897 4:-0.3789856 5:0.079328251 
0.01 1:-0.47139686 2:0.40603722 3:-1.2416154 4:-0.51860881 5:0.1413056 
0.01 1:-0.58688621 2:0.32146279 3:-0.47125444 4:-0.099739181 5:-0.20989938 
0.01 1:0.97221991 2:0.91348381 3:-0.83075621 4:-0.79785522 5:-0.085944682 
0.01 1:-0.35590752 2:0.63156904 3:-0.31718225 4:-0.23936239 5:-0.2305585 
0.01 1:-0.9910989 2:0.74433495 3:-1.3956876 4:0.31913044 5:0.55448793 
0.01 1:-0.93335423 2:1.2517815 3:-0.77939881 4:-0.3789856 5:-0.044626449 
0.01 1:-0.76012022 2:0.23688835 3:-1.2929728 4:-0.3789856 5:-0.33385408 
0.01 1:2.4158367 2:-0.38332415 3:1.8398284 4:-0.3789856 5:-0.3545132 
0.01 1:0.10604985 2:-0.49609006 3:1.1721822 4:-0.4487972 5:5.8019036 
0.01 1:0.16379452 2:-0.21417529 3:0.093676918 4:-0.3789856 5:0.45119235 
0.01 1:-0.18267351 2:-0.045026421 3:-0.11175267 4:-0.3789856 5:-0.20989938 
0.01 1:-0.64463088 2:-1.0599196 3:0.24774911 4:-0.029927577 5:0.038010018 
0.01 1:-1.0488436 2:-0.38332415 3:-0.67668402 4:-0.099739181 5:0.53382882 
0.01 1:-1.1065882 2:-0.72162188 3:-0.21446746 4:-0.65823201 5:-0.45780878 
0.01 1:0.91447524 2:0.57518608 3:-0.16311006 4:-0.099739181 5:-0.2305585 
0.01 1:-0.29816285 2:-0.55247302 3:0.24774911 4:0.17950724 5:-0.16858115 
0.01 1:-1.1065882 2:0.63156904 3:-0.31718225 4:-0.51860881 5:-0.14792203 
0.01 1:-0.067184167 2:-1.3982173 3:1.6857562 4:0.31913044 5:0.32723765 
0.01 1:-0.81786489 2:0.8007179 3:-1.0875432 4:-0.30917399 5:-0.16858115 
0.01 1:2.8777941 2:-0.55247302 3:1.5830414 4:-0.4487972 5:-0.37517231 
0.01 1:0.91447524 2:0.34965426 3:-1.0361858 4:0.59837686 5:0.28591942 
0.01 1:0.68349656 2:1.871994 3:-0.06039527 4:-0.4487972 5:-0.18924027 
0.01 1:-1.2220776 2:0.40603722 3:-0.9848284 4:-0.3789856 5:0.038010018 
0.01 1:-0.87560956 2:0.8007179 3:-1.3956876 4:-0.4487972 5:-0.16858115 
0.01 1:0.22153919 2:-1.3418344 3:1.274897 4:-0.65823201 5:0.5131697 
0.01 1:-0.87560956 2:1.3645475 3:-1.3956876 4:-0.51860881 5:-0.45780878 
0.01 1:-0.24041818 2:-0.045026421 3:-0.06039527 4:-0.4487972 5:-0.18924027 
0.01 1:-0.93335423 2:0.067739488 3:-0.72804142 4:-0.3789856 5:-0.25121761 
0.01 1:-1.2798223 2:-1.1726855 3:-0.11175267 4:-0.51860881 5:-0.044626449 
0.01 1:-0.70237555 2:1.0826327 3:-1.3956876 4:-0.51860881 5:0.71976087 
0.01 1:-0.47139686 2:0.29327131 3:-0.67668402 4:-0.23936239 5:-0.2305585 
0.01 1:-0.76012022 2:0.88529233 3:-1.3956876 4:-0.4487972 5:-0.43714966 
0.01 1:-0.35590752 2:0.99805824 3:-0.8821136 4:0.039884027 5:-0.085944682 
0.01 1:-0.70237555 2:0.74433495 3:-1.3956876 4:0.94743488 5:-0.044626449 
0.01 1:-0.64463088 2:1.1108242 3:-1.1389006 4:1.4710219 5:-0.044626449 
0.01 1:-0.81786489 2:-0.27055824 3:-0.36853965 4:-0.4487972 5:-0.12726292 
0.01 1:-0.70237555 2:-0.55247302 3:-0.52261183 4:-0.51860881 5:-0.12726292 
0.01 1:-0.52914154 2:1.1953986 3:-1.0361858 4:-0.58842041 5:-0.044626449 
0.01 1:0.97221991 2:0.29327131 3:-0.26582485 4:-0.4487972 5:-0.16858115 
0.01 1:-0.64463088 2:0.94167529 3:-0.72804142 4:-0.3789856 5:-0.25121761 
0.01 1:-0.52914154 2:0.63156904 3:-0.52261183 4:1.9946089 5:1.6494211 
0.01 1:4.1481768 2:0.65976052 3:1.1208248 4:1.1568697 5:0.1413056 
0.01 1:1.7229006 2:-0.89077075 3:1.1721822 4:-0.51860881 5:0.038010018 
0.01 1:-0.41365219 2:0.85710086 3:-1.2929728 4:-0.86766683 5:-0.33385408 
0.01 1:-0.87560956 2:0.74433495 3:-1.0361858 4:-0.65823201 5:-0.37517231 
0.01 1:0.56800722 2:-1.4546003 3:0.70996567 4:-0.3789856 5:0.058669134 
0.01 1:0.3947732 2:0.29327131 3:-0.11175267 4:-0.3789856 5:0.32723765 
0.01 1:-1.7995243 2:-1.1726855 3:-0.11175267 4:-0.51860881 5:0.30657853 
0.01 1:-0.64463088 2:-0.77800484 3:0.24774911 4:-0.51860881 5:-0.4784679 
0.01 1:0.33702853 2:-1.2290685 3:1.531684 4:-0.3789856 5:0.47185147 
0.01 1:0.91447524 2:-1.0035367 3:0.70996567 4:-0.16955078 5:-0.1066038 
0.01 1:-0.29816285 2:0.1805054 3:-0.41989704 4:-0.51860881 5:0.32723765 
0.01 1:-0.76012022 2:0.29327131 3:-0.77939881 4:-0.4487972 5:0.058669134 
0.01 1:0.97221991 2:-0.83438779 3:0.55589348 4:-0.65823201 5:1.6700802 
0.01 1:0.16379452 2:-0.89077075 3:1.9425432 4:2.692725 5:-0.16858115 
0.01 1:-0.18267351 2:1.2235901 3:1.4803266 4:-0.3789856 5:0.61646528 
0.01 1:0.91447524 2:1.1953986 3:0.042319522 4:0.039884027 5:-0.20989938 
0.01 1:-0.76012022 2:-0.60885597 3:-0.41989704 4:-0.16955078 5:-0.3545132 
0.01 1:-0.47139686 2:0.88529233 3:-1.0361858 4:-0.029927577 5:-0.62308171 
0.01 1:-0.18267351 2:0.23688835 3:-0.21446746 4:0.45875365 5:-0.31319496 
0.01 1:-0.64463088 2:0.94167529 3:-0.72804142 4:-0.3789856 5:-0.25121761 
0.01 1:-0.41365219 2:-0.77800484 3:0.19639171 4:-0.16955078 5:-0.12726292 
0.01 1:-0.35590752 2:0.91348381 3:1.1208248 4:-0.51860881 5:0.55448793 
0.01 1:0.51026254 2:0.34965426 3:-0.16311006 4:0.52856526 5:0.2652603 
0.01 1:0.91447524 2:1.0826327 3:1.4289692 4:-0.58842041 5:0.98832938 
0.01 1:-0.81786489 2:0.29327131 3:-1.3443302 4:-0.4487972 5:-0.16858115 
0.01 1:-0.76012022 2:-0.10140938 3:-0.933471 4:-0.30917399 5:-0.54044525 
0.01 1:0.56800722 2:-0.55247302 3:0.86403786 4:-0.4487972 5:-0.065285565 
0.01 1:2.531326 2:0.40603722 3:1.1208248 4:0.17950724 5:-0.27187673 
0.01 1:-0.24041818 2:1.0826327 3:-0.52261183 4:0.039884027 5:0.16196472 
0.01 1:1.8961347 2:-0.66523893 3:1.5830414 4:0.17950724 5:0.16196472 
0.01 1:-0.58688621 2:0.34965426 3:-0.06039527 4:3.2512178 5:-0.37517231 
0.01 1:0.048305175 2:0.1805054 3:-1.190258 4:-0.3789856 5:-0.12726292 
0.01 1:-0.93335423 2:0.82890938 3:-1.0361858 4:-0.099739181 5:0.017350901 
0.01 1:-0.41365219 2:-0.66523893 3:1.1208248 4:-0.3789856 5:-0.0033082155 
0.01 1:0.27928386 2:0.46242017 3:0.14503431 4:0.17950724 5:-0.0033082155 
0.01 1:0.97221991 2:-1.0035367 3:0.91539525 4:-0.029927577 5:0.079328251 
0.01 1:0.10604985 2:-0.21417529 3:-0.83075621 4:-0.16955078 5:-0.085944682 
0.01 1:1.4341773 2:-1.5109832 3:0.91539525 4:0.52856526 5:-0.58176348 
0.01 1:-0.41365219 2:-0.60885597 3:-0.9848284 4:0.10969563 5:-0.085944682 
0.01 1:-0.70237555 2:0.85710086 3:-1.3956876 4:-0.23936239 5:-0.31319496 
0.01 1:-0.52914154 2:0.40603722 3:-0.06039527 4:3.3210294 5:-0.37517231 
0.01 1:-0.87560956 2:-0.27055824 3:-0.9848284 4:-0.51860881 5:-0.29253585 
0.01 1:-1.3375669 2:-0.15779233 3:-1.3956876 4:-0.79785522 5:-0.64374083 
0.01 1:0.97221991 2:-1.1726855 3:1.6343988 4:-0.23936239 5:-0.2305585 
0.01 1:0.27928386 2:-0.49609006 3:1.1208248 4:0.17950724 5:-0.1066038 
0.01 1:1.2031986 2:0.63156904 3:-0.16311006 4:0.17950724 5:0.34789677 
0.01 1:0.27928386 2:-0.3269412 3:1.1208248 4:0.24931884 5:-0.065285565 
0.01 1:-1.3375669 2:-0.15779233 3:-1.190258 4:-0.23936239 5:0.079328251 
0.01 1:1.2031986 2:-0.49609006 3:0.76132307 4:-0.72804362 5:1.1742614 
0.01 1:-0.47139686 2:1.1108242 3:-1.190258 4:-0.72804362 5:-0.25121761 
0.01 1:-0.29816285 2:0.34965426 3:0.2991065 4:-0.3789856 5:-0.29253585 
0.01 1:-0.47139686 2:0.40603722 3:-1.2416154 4:-0.51860881 5:0.1413056 
0.01 1:-0.0094394959 2:1.4209304 3:-0.8821136 4:0.039884027 5:-0.14792203 
0.01 1:2.8200494 2:-0.83438779 3:1.4289692 4:0.10969563 5:-0.14792203 
0.01 1:-0.41365219 2:0.88529233 3:-0.21446746 4:-0.16955078 5:0.47185147 
0.01 1:-0.64463088 2:1.1390156 3:-1.2929728 4:-0.029927577 5:-0.25121761 
0.01 1:1.2031986 2:0.26507983 3:1.7371136 4:0.039884027 5:-0.25121761 
0.01 1:-0.29816285 2:-0.15779233 3:-0.933471 4:-0.23936239 5:0.55448793 
0.01 1:-1.5685456 2:-1.2290685 3:0.50453609 4:-0.79785522 5:-0.29253585 
0.01 1:1.3764326 2:-0.38332415 3:0.60725088 4:-0.3789856 5:-0.56110436 
0.01 1:0.33702853 2:0.60337756 3:0.50453609 4:-0.58842041 5:3.6120372 
0.01 1:-0.64463088 2:0.60337756 3:-1.0361858 4:0.039884027 5:-0.2305585 
0.01 1:1.3186879 2:-0.9471537 3:1.6857562 4:-0.23936239 5:1.3188752 
0.01 1:-0.41365219 2:-0.21417529 3:-0.06039527 4:-0.65823201 5:3.054241 
0.01 1:-0.47139686 2:0.29327131 3:-1.2416154 4:1.0870581 5:-0.16858115 
0.01 1:2.3003473 2:-0.77800484 3:1.8398284 4:-0.16955078 5:0.058669134 
0.01 1:-0.29816285 2:-0.15779233 3:-0.52261183 4:-0.65823201 5:-0.12726292 
0.01 1:-0.9910989 2:0.57518608 3:-1.3956876 4:1.2266813 5:0.099987368 
0.01 1:-1.2220776 2:0.63156904 3:-0.933471 4:-0.029927577 5:-0.14792203 
0.01 1:-0.12492884 2:-0.83438779 3:1.0694674 4:-0.51860881 5:1.4221708 
0.01 1:-0.52914154 2:-0.9471537 3:0.093676918 4:0.039884027 5:-0.023967332 
0.01 1:-0.29816285 2:0.011356533 3:-1.3443302 4:-0.65823201 5:-0.2305585 
0.01 1:0.56800722 2:0.71614347 3:-0.06039527 4:-0.3789856 5:0.16196472 
0.01 1:-1.2798223 2:-1.0599196 3:-0.11175267 4:-0.51860881 5:-0.085944682 
0.01 1:-0.70237555 2:-0.9471537 3:0.14503431 4:-0.65823201 5:-0.16858115 
0.01 1:-1.2220776 2:-0.43970711 3:-0.36853965 4:-0.65823201 5:-0.39583143 
0.01 1:0.048305175 2:0.1805054 3:-0.9848284 4:-0.30917399 5:0.34789677 
0.01 1:0.22153919 2:0.54699461 3:-0.57396923 4:-0.3789856 5:0.2652603 
0.01 1:4.1481768 2:0.65976052 3:1.1208248 4:1.1568697 5:0.1413056 
0.01 1:-0.93335423 2:-0.27055824 3:-0.9848284 4:-0.30917399 5:-0.49912701 
-0.01 1:-0.87560956 2:0.68795199 3:-1.2929728 4:-0.30917399 5:-0.20989938 
-0.01 1:-1.2798223 2:-0.27055824 3:-0.933471 4:-0.58842041 5:-0.20989938 
-0.01 1:1.491922 2:-0.77800484 3:1.01811 4:-0.51860881 5:0.61646528 
-0.01 1:2.1271133 2:-0.77800484 3:1.9939006 4:0.31913044 5:0.099987368 
-0.01 1:1.491922 2:0.011356533 3:1.1208248 4:1.4361161 5:0.61646528 
-0.01 1:-0.24041818 2:0.29327131 3:-0.21446746 4:-0.16955078 5:-0.25121761 
-0.01 1:0.62575189 2:-0.72162188 3:0.19639171 4:-0.23936239 5:0.038010018 
-0.01 1:-0.24041818 2:2.8868872 3:-1.1389006 4:-0.23936239 5:-0.085944682 
-0.01 1:0.048305175 2:0.51880313 3:-0.77939881 4:-0.51860881 5:-0.33385408 
-0.01 1:-1.9150136 2:-0.83438779 3:-1.3443302 4:-0.65823201 5:-0.82967288 
-0.01 1:-0.067184167 2:1.1953986 3:-0.933471 4:-0.3789856 5:-0.43714966 
-0.01 1:-1.7995243 2:-1.0599196 3:-1.3956876 4:-0.51860881 5:-0.78835465 
-0.01 1:-1.1065882 2:-0.89077075 3:-0.11175267 4:-0.4487972 5:-0.29253585 
-0.01 1:-0.87560956 2:1.4491219 3:-1.3956876 4:-0.099739181 5:0.32723765 
-0.01 1:-1.1065882 2:0.1805054 3:-0.62532662 4:-0.51860881 5:-0.20989938 
-0.01 1:0.62575189 2:-0.15779233 3:0.3504639 4:0.73800007 5:-0.12726292 
-0.01 1:-0.9910989 2:1.1108242 3:-0.933471 4:2.0644205 5:0.59580617 
-0.01 1:-0.81786489 2:0.88529233 3:-1.3956876 4:-0.029927577 5:0.34789677 
-0.01 1:1.2609433 2:-0.9471537 3:1.01811 4:-0.23936239 5:-0.29253585 
-0.01 1:0.97221991 2:-0.38332415 3:0.86403786 4:0.24931884 5:-0.4784679 
-0.01 1:-1.0488436 2:-0.77800484 3:-0.21446746 4:4.0191455 5:-0.76769553 
-0.01 1:-0.18267351 2:-0.60885597 3:-0.52261183 4:-0.3789856 5:-0.31319496 
-0.01 1:-0.52914154 2:0.29327131 3:-1.3956876 4:-0.3789856 5:-0.49912701 
-0.01 1:-0.24041818 2:-1.0599196 3:0.76132307 4:-0.3789856 5:-0.044626449 
-0.01 1:-0.067184167 2:0.63156904 3:-0.0090378737 4:-0.3789856 5:0.1413056 
-0.01 1:0.91447524 2:0.011356533 3:1.531684 4:-0.099739181 5:0.099987368 
-0.01 1:-0.29816285 2:0.65976052 3:-1.3956876 4:2.0644205 5:-0.044626449 
-0.01 1:0.51026254 2:-0.66523893 3:1.1721822 4:-0.029927577 5:-0.68505906 
-0.01 1:-0.58688621 2:-1.0599196 3:0.2991065 4:-0.029927577 5:-0.49912701 
-0.01 1:-0.58688621 2:-0.77800484 3:0.19639171 4:-0.099739181 5:-0.29253585 
-0.01 1:-0.35590752 2:0.23688835 3:-0.31718225 4:-0.72804362 5:-0.39583143 
-0.01 1:1.8961347 2:-0.66523893 3:1.3776118 4:-0.72804362 5:0.1413056 
-0.01 1:-0.29816285 2:-1.0599196 3:0.50453609 4:-0.3789856 5:-0.12726292 
-0.01 1:0.45251787 2:1.4491219 3:-1.3956876 4:0.039884027 5:0.099987368 
-0.01 1:-0.24041818 2:-1.0035367 3:0.96675265 4:0.73800007 5:-0.20989938 
-0.01 1:-2.0882477 2:0.40603722 3:-0.52261183 4:-0.16955078 5:-0.62308171 
-0.01 1:-0.87560956 2:0.1805054 3:-0.26582485 4:-0.51860881 5:-0.29253585 
-0.01 1:0.91447524 2:-0.72162188 3:1.3262544 4:2.9021598 5:0.18262383 
-0.01 1:-0.64463088 2:-0.045026421 3:-1.0361858 4:-0.79785522 5:-0.29253585 
-0.01 1:0.85673057 2:-0.10140938 3:-0.41989704 4:0.45875365 5:-0.14792203 
-0.01 1:1.0877093 2:-0.49609006 3:1.5830414 4:1.0870581 5:0.079328251 
-0.01 1:-0.58688621 2:0.74433495 3:-1.3956876 4:-0.3789856 5:-0.085944682 
-0.01 1:0.27928386 2:-0.27055824 3:0.70996567 4:0.52856526 5:0.079328251 
-0.01 1:1.4341773 2:-0.72162188 3:0.70996567 4:-0.23936239 5:-0.085944682 
-0.01 1:-0.76012022 2:-0.55247302 3:0.45317869 4:-0.65823201 5:0.017350901 
-0.01 1:-0.76012022 2:-0.72162188 3:0.24774911 4:0.73800007 5:-0.56110436 
-0.01 1:0.10604985 2:-0.89077075 3:0.24774911 4:-0.51860881 5:-0.45780878 
-0.01 1:-0.64463088 2:0.57518608 3:-1.3956876 4:-0.4487972 5:0.18262383 
-0.01 1:-0.81786489 2:-0.49609006 3:-1.3956876 4:-0.79785522 5:-0.37517231 
-0.01 1:0.16379452 2:0.011356533 3:-0.26582485 4:-0.3789856 5:0.24460118 
-0.01 1:-0.41365219 2:-0.10140938 3:-0.62532662 4:0.17950724 5:0.45119235 
-0.01 1:-1.7417796 2:-0.3269412 3:-0.83075621 4:-0.23936239 5:-0.82967288 
-0.01 1:0.22153919 2:-0.045026421 3:-0.933471 4:-0.029927577 5:0.058669134 
-0.01 1:-1.7417796 2:0.23688835 3:-1.3443302 4:-0.58842041 5:-0.70571818 
-0.01 1:1.2609433 2:-0.10140938 3:1.8911858 4:-0.099739181 5:0.389215 
-0.01 1:-1.2220776 2:-0.49609006 3:0.60725088 4:-0.029927577 5:-0.2305585 
-0.01 1:-0.47139686 2:0.57518608 3:-0.0090378737 4:-0.3789856 5:-0.1066038 
-0.01 1:0.45251787 2:-0.89077075 3:0.24774911 4:-0.30917399 5:-0.49912701 
-0.01 1:-0.18267351 2:-0.83438779 3:0.86403786 4:-0.4487972 5:0.20328295 
-0.01 1:2.70456 2:-0.3269412 3:1.1208248 4:1.2266813 5:-0.065285565 
-0.01 1:-0.52914154 2:-0.9471537 3:0.14503431 4:-0.51860881 5:-0.29253585 
-0.01 1:-0.18267351 2:0.99805824 3:-1.1389006 4:-0.4487972 5:-0.29253585 
-0.01 1:-0.29816285 2:-0.27055824 3:2.0966154 4:-0.58842041 5:6.7522229 
-0.01 1:-0.76012022 2:-0.55247302 3:-1.2929728 4:-0.4487972 5:-0.16858115 
-0.01 1:1.2031986 2:-0.83438779 3:0.96675265 4:-0.30917399 5:0.32723765 
-0.01 1:-0.87560956 2:1.5900793 3:-1.1389006 4:-0.3789856 5:-0.37517231 
-0.01 1:0.22153919 2:0.96986677 3:-0.16311006 4:-0.029927577 5:2.8476499 
-0.01 1:0.27928386 2:-0.38332415 3:0.91539525 4:0.039884027 5:-0.4784679 
-0.01 1:-0.93335423 2:-0.38332415 3:-0.16311006 4:-0.58842041 5:-0.2305585 
-0.01 1:1.83839 2:0.067739488 3:2.2506875 4:1.2964929 5:0.74041998 
-0.01 1:-0.87560956 2:0.1805054 3:-0.26582485 4:-0.51860881 5:-0.29253585 
-0.01 1:-0.70237555 2:1.2517815 3:-1.3443302 4:-0.23936239 5:-0.6024226 
-0.01 1:2.4158367 2:0.40603722 3:1.1208248 4:1.2266813 5:0.24460118 
-0.01 1:-0.47139686 2:-0.10140938 3:-1.2929728 4:-0.58842041 5:-0.085944682 
-0.01 1:-0.76012022 2:-0.9471537 3:-0.31718225 4:-0.16955078 5:-0.044626449 
-0.01 1:-1.1065882 2:0.8007179 3:-0.9848284 4:-0.30917399 5:-0.89165023 
-0.01 1:-1.1643329 2:0.85710086 3:-1.3443302 4:0.80781167 5:0.30657853 
-0.01 1:-0.18267351 2:1.0544412 3:-0.26582485 4:-0.16955078 5:-0.27187673 
-0.01 1:0.7989859 2:0.011356533 3:1.6857562 4:-0.3789856 5:-1.0156049 
-0.01 1:-0.29816285 2:-0.045026421 3:-0.11175267 4:-0.4487972 5:-0.14792203 
-0.01 1:0.048305175 2:-1.0599196 3:0.76132307 4:-0.30917399 5:-0.33385408 
-0.01 1:-1.1065882 2:0.23688835 3:-0.77939881 4:-0.16955078 5:0.65778352 
-0.01 1:-0.70237555 2:-0.77800484 3:-0.77939881 4:-0.30917399 5:-0.4784679 
-0.01 1:0.56800722 2:1.3927389 3:-0.0090378737 4:0.17950724 5:-0.20989938 
-0.01 1:-0.067184167 2:0.63156904 3:-0.0090378737 4:-0.3789856 5:0.1413056 
-0.01 1:-0.76012022 2:0.91348381 3:-0.9848284 4:-0.51860881 5:0.18262383 
-0.01 1:0.97221991 2:0.1805054 3:-0.16311006 4:-0.23936239 5:-0.18924027 
-0.01 1:-0.76012022 2:0.68795199 3:-1.2929728 4:-0.30917399 5:-0.45780878 
-0.01 1:-0.9910989 2:-0.15779233 3:-1.3956876 4:-0.51860881 5:-0.54044525 
-0.01 1:-0.76012022 2:0.1805054 3:-0.52261183 4:-0.58842041 5:-0.4784679 
-0.01 1:-1.0488436 2:0.57518608 3:0.2991065 4:-0.51860881 5:-0.6024226 
-0.01 1:-0.87560956 2:0.34965426 3:-1.0875432 4:2.4134786 5:-0.58176348 
-0.01 1:-0.70237555 2:0.34965426 3:-1.2929728 4:-0.16955078 5:-0.12726292 
-0.01 1:-0.81786489 2:1.1953986 3:-1.2416154 4:-0.16955078 5:-0.70571818 
-0.01 1:0.7989859 2:-0.60885597 3:0.96675265 4:-0.30917399 5:-0.29253585 
-0.01 1:1.2609433 2:-0.55247302 3:0.40182129 4:0.52856526 5:0.079328251 
-0.01 1:-0.9910989 2:-0.045026421 3:-0.9848284 4:-0.099739181 5:-0.37517231 
-0.01 1:2.6468154 2:-0.15779233 3:1.4289692 4:0.17950724 5:-0.33385408 
-0.01 1:0.74124123 2:-0.60885597 3:0.40182129 4:-0.30917399 5:-0.1066038 
-0.01 1:0.45251787 2:-0.9471537 3:0.60725088 4:-0.51860881 5:-0.58176348 
-0.01 1:1.3186879 2:-0.15779233 3:0.91539525 4:0.039884027 5:0.6371244 
-0.01 1:-0.9910989 2:1.7592281 3:-1.2416154 4:-0.16955078 5:-0.6024226 
-0.01 1:-1.3953116 2:0.46242017 3:-0.9848284 4:-0.30917399 5:-0.3545132 
-0.01 1:0.16379452 2:-0.21417529 3:0.042319522 4:-0.4487972 5:0.45119235 
-0.01 1:-0.067184167 2:0.60337756 3:-0.8821136 4:-0.30917399 5:-0.31319496 
-0.01 1:1.0299646 2:-0.83438779 3:1.1721822 4:-0.099739181 5:0.32723765 
-0.01 1:-0.70237555 2:-0.38332415 3:-0.36853965 4:-0.4487972 5:-0.2305585 
-0.01 1:1.665156 2:0.8007179 3:1.4289692 4:-0.16955078 5:-0.085944682 
-0.01 1:-1.2220776 2:-0.77800484 3:0.81268046 4:-0.3789856 5:-0.3545132 
-0.01 1:-0.52914154 2:0.85710086 3:-0.57396923 4:-0.51860881 5:-0.20989938 
-0.01 1:0.33702853 2:-0.27055824 3:1.3262544 4:1.0172465 5:0.2652603 
-0.01 1:2.358092 2:-0.21417529 3:1.5830414 4:0.31913044 5:0.30657853 
-0.01 1:-0.12492884 2:1.0826327 3:-0.933471 4:0.17950724 5:-0.085944682 
-0.01 1:-0.52914154 2:-0.89077075 3:0.81268046 4:0.039884027 5:-0.12726292 
-0.01 1:-0.18267351 2:0.8007179 3:0.14503431 4:-0.3789856 5:-0.58176348 
-0.01 1:-0.24041818 2:0.68795199 3:-1.3443302 4:-0.029927577 5:-0.20989938 
-0.01 1:-0.47139686 2:-0.55247302 3:0.14503431 4:-0.23936239 5:-0.54044525 
-0.01 1:1.2031986 2:-1.0599196 3:1.5830414 4:0.80781167 5:1.7733758 
-0.01 1:0.27928386 2:0.96986677 3:-1.3956876 4:-0.58842041 5:-0.39583143 
-0.01 1:-0.64463088 2:-0.83438779 3:0.14503431 4:-0.51860881 5:-0.31319496 
-0.01 1:-0.067184167 2:-0.49609006 3:-0.16311006 4:-0.16955078 5:-0.51978613 
-0.01 1:-1.1643329 2:2.5485895 3:-1.3443302 4:-0.3789856 5:-0.64374083 
-0.01 1:1.7806453 2:0.40603722 3:1.1208248 4:0.10969563 5:-0.065285565 
-0.01 1:-0.64463088 2:0.4342287 3:-1.2929728 4:-0.4487972 5:0.16196472 
-0.0047977463596247548 1:-0.18267351 2:-1.1163026 3:1.3262544 4:-0.029927577 5:0.058669134 
-0.01 1:0.3947732 2:-0.38332415 3:0.19639171 4:0.17950724 5:0.099987368 
-0.01 1:-0.87560956 2:0.63156904 3:-1.2416154 4:-0.16955078 5:-0.27187673 
-0.01 1:1.491922 2:-1.1726855 3:1.274897 4:-0.51860881 5:0.90569292 
-0.01 1:-0.9910989 2:0.29327131 3:-1.2929728 4:-0.099739181 5:-0.39583143 
-0.01 1:1.7229006 2:-0.9471537 3:1.9939006 4:-0.099739181 5:0.71976087 
-0.01 1:-0.35590752 2:0.57518608 3:-0.9848284 4:-0.4487972 5:-0.25121761 
-0.01 1:-1.7995243 2:0.65976052 3:-1.3956876 4:-0.27426819 5:-0.16858115 
-0.01 1:-1.0488436 2:0.46242017 3:-1.3956876 4:-0.23936239 5:0.1413056 
-0.01 1:0.33702853 2:1.2235901 3:-0.47125444 4:-0.029927577 5:-0.2305585 
-0.01 1:0.22153919 2:0.067739488 3:-0.06039527 4:-0.029927577 5:0.18262383 
-0.01 1:0.85673057 2:-0.15779233 3:0.3504639 4:-0.16955078 5:0.12064648 
-0.01 1:-0.29816285 2:0.095930966 3:-0.77939881 4:-0.029927577 5:-0.41649055 
-0.01 1:0.16379452 2:-0.43970711 3:0.19639171 4:0.039884027 5:-0.044626449 
-0.01 1:-0.76012022 2:0.91348381 3:-1.0361858 4:-0.029927577 5:0.058669134 
-0.01 1:-0.70237555 2:0.40603722 3:-1.3443302 4:-0.16955078 5:-0.18924027 
-0.01 1:1.0877093 2:0.65976052 3:0.45317869 4:-0.51860881 5:-0.7263773 
-0.01 1:-1.1643329 2:1.3081645 3:-1.3956876 4:0.24931884 5:-0.33385408 
-0.01 1:1.1454539 2:0.011356533 3:1.0694674 4:-0.029927577 5:-0.51978613 
-0.01 1:2.0693687 2:0.94167529 3:1.3262544 4:0.59837686 5:0.82305645 
-0.01 1:1.0299646 2:-0.89077075 3:0.3504639 4:-0.099739181 5:-0.065285565 
-0.01 1:-0.41365219 2:-0.66523893 3:-0.67668402 4:0.31913044 5:-0.023967332 
-0.01 1:-0.87560956 2:-0.9471537 3:0.24774911 4:-0.51860881 5:-0.43714966 
-0.01 1:-0.29816285 2:0.23688835 3:-0.933471 4:-0.16955078 5:-0.4784679 
-0.01 1:-1.7995243 2:-1.0599196 3:-1.3956876 4:-0.51860881 5:-0.78835465 
-0.01 1:-0.70237555 2:0.34965426 3:-1.3443302 4:-0.16955078 5:-0.16858115 
-0.01 1:-1.1065882 2:-1.2290685 3:-0.933471 4:-0.79785522 5:-0.45780878 
-0.01 1:-0.067184167 2:-0.60885597 3:1.1208248 4:0.039884027 5:-0.085944682 
-0.01 1:0.56800722 2:-0.21417529 3:0.45317869 4:-0.58842041 5:-0.14792203 
-0.01 1:-1.2798223 2:0.29327131 3:-0.21446746 4:-0.029927577 5:-0.91230935 
-0.01 1:-1.9150136 2:1.1953986 3:-1.3956876 4:-0.93747843 5:-0.9742867 
-0.01 1:0.10604985 2:-0.3269412 3:-0.0090378737 4:-0.4487972 5:-0.62308171 
-0.01 1:-0.35590752 2:2.1821003 3:-0.77939881 4:-0.23936239 5:1.1329432 
-0.01 1:-0.64463088 2:0.011356533 3:-0.67668402 4:-0.30917399 5:-0.49912701 
-0.01 1:-0.76012022 2:-0.55247302 3:0.14503431 4:-0.3789856 5:-0.065285565 
-0.01 1:1.6074113 2:-0.43970711 3:2.3534023 4:0.45875365 5:-0.45780878 
-0.01 1:-0.067184167 2:-0.72162188 3:0.86403786 4:0.17950724 5:0.017350901 
-0.01 1:-0.81786489 2:0.067739488 3:0.14503431 4:-0.23936239 5:-0.0033082155 
-0.01 1:-0.64463088 2:0.57518608 3:-1.3956876 4:-0.4487972 5:0.18262383 
-0.01 1:1.8961347 2:-0.49609006 3:1.8911858 4:-0.30917399 5:-0.6024226 
-0.01 1:-0.067184167 2:-1.1163026 3:0.24774911 4:0.17950724 5:-0.43714966 
-0.01 1:-0.81786489 2:1.7592281 3:-0.31718225 4:1.0870581 5:-0.29253585 
-0.01 1:-0.18267351 2:1.1108242 3:-0.16311006 4:0.17950724 5:-0.1066038 
-0.01 1:0.048305175 2:-0.9471537 3:0.24774911 4:-0.23936239 5:-0.14792203 
-0.01 1:-1.857269 2:0.32146279 3:-1.3956876 4:-0.58842041 5:-0.91230935 
-0.01 1:-1.7417796 2:-0.3269412 3:-0.83075621 4:-0.23936239 5:-0.82967288 
-0.01 1:1.491922 2:0.011356533 3:1.1208248 4:1.4361161 5:0.61646528 
-0.01 1:-0.12492884 2:0.095930966 3:-0.47125444 4:-0.4487972 5:-0.16858115 
-0.01 1:0.45251787 2:-0.15779233 3:0.14503431 4:-0.4487972 5:-0.4784679 
-0.01 1:1.1454539 2:0.011356533 3:1.0694674 4:-0.029927577 5:-0.51978613 
-0.01 1:-0.18267351 2:0.29327131 3:0.042319522 4:0.45875365 5:-0.45780878 
-0.01 1:-1.4530563 2:2.7177384 3:1.9939006 4:-0.3789856 5:-1.0156049 
-0.01 1:-1.684035 2:1.1953986 3:-0.933471 4:-0.58842041 5:0.017350901 
-0.01 1:-0.81786489 2:0.067739488 3:-1.190258 4:0.31913044 5:-0.2305585 
-0.01 1:-0.64463088 2:-1.1163026 3:0.2991065 4:-0.58842041 5:-0.56110436 
-0.01 1:0.16379452 2:0.88529233 3:-0.8821136 4:-0.65823201 5:0.079328251 
-0.01 1:1.2609433 2:-0.60885597 3:1.9939006 4:0.28422464 5:0.57514705 
-0.01 1:1.83839 2:0.34965426 3:1.6343988 4:0.039884027 5:-0.023967332 
-0.01 1:-0.76012022 2:0.91348381 3:-1.0361858 4:-0.029927577 5:0.058669134 
-0.01 1:-0.87560956 2:-0.66523893 3:0.19639171 4:4.3682035 5:-0.085944682 
-0.01 1:-0.81786489 2:-0.10140938 3:-0.21446746 4:-0.3789856 5:-0.33385408 
-0.01 1:-0.52914154 2:1.4491219 3:-0.41989704 4:1.8549857 5:0.12064648 
-0.01 1:-0.9910989 2:-0.045026421 3:-1.190258 4:-0.23936239 5:-0.39583143 
-0.01 1:1.3186879 2:-0.60885597 3:1.0694674 4:0.10969563 5:-0.4784679 
-0.01 1:-0.18267351 2:-0.83438779 3:-1.0875432 4:-0.51860881 5:-0.20989938 
-0.01 1:2.5890707 2:0.49061165 3:1.9939006 4:2.2738554 5:-0.1066038 
-0.01 1:1.4341773 2:-0.3269412 3:0.81268046 4:-0.30917399 5:1.7113985 
-0.01 1:-0.29816285 2:0.65976052 3:-1.3956876 4:-0.3789856 5:-0.12726292 
-0.01 1:0.3947732 2:-0.72162188 3:0.81268046 4:-0.099739181 5:-0.41649055 
-0.01 1:0.3947732 2:-0.72162188 3:0.70996567 4:-0.3789856 5:-0.62308171 
-0.01 1:0.45251787 2:1.5055048 3:-1.3956876 4:0.039884027 5:0.16196472 
-0.01 1:-0.52914154 2:-0.21417529 3:-0.0090378737 4:-0.30917399 5:-0.3545132 
-0.01 1:-0.64463088 2:0.57518608 3:-1.3956876 4:-0.4487972 5:0.18262383 
-0.01 1:-0.41365219 2:1.1672071 3:-1.2929728 4:-0.029927577 5:-0.3545132 
-0.01 1:-0.70237555 2:0.74433495 3:-1.3956876 4:-0.099739181 5:-0.74703641 
-0.01 1:0.68349656 2:-0.38332415 3:1.1208248 4:2.6229134 5:-0.49912701 
-0.01 1:2.8200494 2:-0.38332415 3:1.274897 4:-0.23936239 5:-0.3545132 
-0.01 1:-0.70237555 2:0.91348381 3:-0.9848284 4:-0.30917399 5:-0.51978613 
-0.01 1:-0.64463088 2:-0.9471537 3:0.96675265 4:-0.30917399 5:-0.29253585 
-0.01 1:-0.24041818 2:-0.72162188 3:0.093676918 4:-0.51860881 5:1.4221708 
-0.01 1:0.97221991 2:0.1805054 3:-0.16311006 4:-0.23936239 5:-0.18924027 
-0.01 1:1.0299646 2:-0.43970711 3:-0.21446746 4:-0.4487972 5:-0.12726292 
-0.01 1:0.22153919 2:-0.045026421 3:-0.933471 4:-0.029927577 5:0.058669134 
-0.01 1:-0.47139686 2:0.23688835 3:-0.9848284 4:0.039884027 5:0.017350901 
-0.01 1:-0.52914154 2:1.4491219 3:-0.41989704 4:1.8549857 5:0.12064648 
-0.01 1:-0.87560956 2:-0.66523893 3:0.19639171 4:4.3682035 5:-0.085944682 
-0.01 1:0.33702853 2:-0.72162188 3:0.24774911 4:2.1342321 5:-0.023967332 
-0.01 1:-0.0094394959 2:-0.60885597 3:0.55589348 4:-0.029927577 5:0.12064648 
-0.01 1:-0.0094394959 2:0.74433495 3:-0.62532662 4:-0.4487972 5:-0.18924027 
-0.01 1:0.91447524 2:-0.49609006 3:0.96675265 4:-0.23936239 5:0.058669134 
-0.01 1:0.33702853 2:-0.15779233 3:-0.31718225 4:-0.23936239 5:-0.0033082155 
-0.01 1:-1.3375669 2:-0.10140938 3:-1.3956876 4:-0.30917399 5:-0.49912701 
-0.01 1:2.8200494 2:-0.38332415 3:1.274897 4:-0.23936239 5:-0.3545132 
-0.01 1:0.62575189 2:-0.15779233 3:0.3504639 4:0.73800007 5:-0.12726292 
-0.01 1:-0.18267351 2:0.29327131 3:-0.57396923 4:-0.3789856 5:0.65778352 
-0.01 1:-1.0488436 2:2.0975259 3:-1.3956876 4:-0.65823201 5:-0.74703641 
-0.01 1:-0.70237555 2:0.34965426 3:-1.3956876 4:-0.30917399 5:0.058669134 
-0.01 1:0.16379452 2:-0.21417529 3:0.042319522 4:-0.4487972 5:0.45119235 
-0.01 1:-0.067184167 2:-1.1726855 3:0.76132307 4:-0.16955078 5:0.20328295 
-0.01 1:-0.0094394959 2:1.3081645 3:0.093676918 4:1.1568697 5:-0.27187673 
-0.01 1:-1.684035 2:-0.60885597 3:-0.0090378737 4:-0.3789856 5:0.079328251 
-0.01 1:-0.29816285 2:0.29327131 3:-1.2929728 4:-0.3789856 5:-0.31319496 
-0.01 1:0.3947732 2:-0.77800484 3:0.65860827 4:-0.86766683 5:-0.91230935 
-0.01 1:-0.87560956 2:0.1805054 3:-1.2416154 4:-0.58842041 5:-0.085944682 
-0.01 1:-1.1643329 2:-0.10140938 3:-0.72804142 4:-0.16955078 5:-0.25121761 
-0.01 1:0.74124123 2:0.1805054 3:0.19639171 4:0.17950724 5:0.017350901 
-0.01 1:-0.64463088 2:-0.77800484 3:0.86403786 4:0.039884027 5:-0.45780878 
-0.01 1:-0.76012022 2:0.68795199 3:-1.2929728 4:-0.30917399 5:-0.45780878 
-0.01 1:1.3764326 2:-0.045026421 3:0.55589348 4:0.039884027 5:-0.45780878 
-0.01 1:-0.76012022 2:0.067739488 3:-1.3956876 4:-0.30917399 5:-0.18924027 
-0.01 1:-0.067184167 2:-0.72162188 3:0.19639171 4:-0.4487972 5:-0.12726292 
-0.01 1:1.8961347 2:-0.66523893 3:1.3776118 4:-0.72804362 5:0.1413056 
-0.01 1:-0.81786489 2:0.57518608 3:-1.3443302 4:-0.099739181 5:-0.25121761 
-0.01 1:-0.58688621 2:-0.72162188 3:0.14503431 4:-0.58842041 5:-0.16858115 
-0.01 1:-0.47139686 2:-0.83438779 3:1.531684 4:-0.16955078 5:0.36855588 
-0.01 1:2.5890707 2:1.7592281 3:1.8398284 4:-0.099739181 5:-0.0033082155 
-0.01 1:-0.47139686 2:-0.045026421 3:0.65860827 4:-0.23936239 5:-0.58176348 
-0.01 1:-0.81786489 2:0.4342287 3:-0.77939881 4:5.694624 5:-0.31319496 
-0.01 1:-0.24041818 2:-1.0599196 3:0.45317869 4:-0.4487972 5:-0.4784679 
-0.01 1:-0.81786489 2:-0.21417529 3:-0.8821136 4:-0.16955078 5:-0.29253585 
-0.01 1:1.3764326 2:-0.72162188 3:0.50453609 4:-0.4487972 5:-0.14792203 
-0.01 1:-0.76012022 2:0.29327131 3:0.042319522 4:1.5757393 5:-0.065285565 
-0.01 1:-0.52914154 2:0.40603722 3:-0.06039527 4:-0.30917399 5:-0.1066038 
-0.01 1:0.16379452 2:1.7028452 3:-1.3956876 4:0.17950724 5:0.1413056 
-0.01 1:-1.0488436 2:0.011356533 3:-1.0875432 4:-0.3789856 5:-0.51978613 
-0.01 1:-0.9910989 2:1.8438026 3:-1.2929728 4:-0.099739181 5:-0.54044525 
-0.01 1:0.33702853 2:1.7592281 3:0.3504639 4:-0.79785522 5:-0.78835465 
-0.01 1:3.2820068 2:-0.66523893 3:1.8398284 4:0.87762328 5:0.017350901 
-0.01 1:-0.9910989 2:2.4358236 3:-1.3956876 4:-0.51860881 5:-0.12726292 
-0.01 1:1.3186879 2:-0.27055824 3:1.8911858 4:-0.23936239 5:0.47185147 
-0.01 1:-1.2220776 2:0.23688835 3:-0.8821136 4:-0.30917399 5:-0.82967288 
-0.01 1:3.1665174 2:-0.21417529 3:2.045258 4:0.31913044 5:0.099987368 
-0.01 1:1.6074113 2:-0.60885597 3:1.01811 4:0.074789829 5:-0.065285565 
-0.01 1:-0.47139686 2:-0.72162188 3:-0.77939881 4:0.31913044 5:0.079328251 
-0.01 1:0.74124123 2:1.3645475 3:-0.77939881 4:0.24931884 5:-0.12726292 
-0.01 1:0.33702853 2:-0.15779233 3:-0.31718225 4:-0.23936239 5:-0.0033082155 
-0.01 1:0.22153919 2:0.91348381 3:0.19639171 4:0.31913044 5:-0.044626449 
-0.01 1:-0.41365219 2:1.0544412 3:-1.3956876 4:-0.30917399 5:-0.41649055 
-0.01 1:1.665156 2:0.74433495 3:-0.16311006 4:-0.029927577 5:-0.065285565 
-0.01 1:0.22153919 2:0.57518608 3:0.042319522 4:0.10969563 5:0.16196472 
-0.01 1:-0.76012022 2:0.12412244 3:-0.72804142 4:-0.23936239 5:-0.27187673 
-0.01 1:-0.067184167 2:-0.83438779 3:0.24774911 4:-0.029927577 5:-0.16858115 
-0.01 1:-1.0488436 2:0.011356533 3:-1.0875432 4:-0.3789856 5:-0.51978613 
-0.01 1:-1.1065882 2:0.91348381 3:-1.3956876 4:-0.62332621 5:-0.68505906 
-0.01 1:-1.1065882 2:-0.83438779 3:-0.67668402 4:-0.23936239 5:-1.036264 
-0.01 1:2.1271133 2:-0.83438779 3:1.4803266 4:-0.30917399 5:0.099987368 
-0.01 1:0.33702853 2:-0.72162188 3:0.24774911 4:2.1342321 5:-0.023967332 
-0.01 1:-0.64463088 2:-0.83438779 3:0.19639171 4:-0.3789856 5:-0.66439995 
-0.01 1:1.2609433 2:-0.10140938 3:1.8911858 4:-0.099739181 5:0.389215 
-0.01 1:-1.1065882 2:-0.60885597 3:-0.933471 4:-0.16955078 5:-0.70571818 
-0.01 1:1.3764326 2:0.8007179 3:-0.26582485 4:0.10969563 5:0.389215 
-0.01 1:-0.24041818 2:-0.72162188 3:0.14503431 4:-0.51860881 5:1.4221708 
-0.01 1:0.048305175 2:-0.9471537 3:0.24774911 4:-0.23936239 5:-0.14792203 
-0.01 1:-0.64463088 2:0.65976052 3:-1.3956876 4:-0.4487972 5:0.18262383 
-0.01 1:-0.64463088 2:-0.89077075 3:0.24774911 4:-0.3789856 5:-0.54044525 
-0.01 1:-0.35590752 2:0.29327131 3:-1.3443302 4:-0.51860881 5:-0.0033082155 
-0.01 1:-0.58688621 2:0.74433495 3:-1.3956876 4:-0.3789856 5:-0.085944682 
-0.01 1:-0.64463088 2:-0.15779233 3:-0.47125444 4:-0.30917399 5:-0.3545132 
-0.01 1:-0.81786489 2:0.067739488 3:-1.190258 4:0.31913044 5:-0.2305585 
-0.01 1:-0.35590752 2:-1.4546003 3:2.0966154 4:0.66818846 5:5.5746533 
-0.01 1:-0.0094394959 2:-0.21417529 3:0.45317869 4:-0.51860881 5:2.7650134 
-0.01 1:1.83839 2:0.34965426 3:1.6343988 4:0.039884027 5:-0.023967332 
-0.01 1:-0.47139686 2:-0.10140938 3:-1.2929728 4:-0.58842041 5:-0.085944682 
-0.01 1:-0.76012022 2:0.23688835 3:-1.3956876 4:-0.3789856 5:2.1039217 
-0.01 1:0.10604985 2:0.32146279 3:-0.47125444 4:-0.30917399 5:-0.20989938 
-0.01 1:-1.3375669 2:-0.21417529 3:-1.3956876 4:-0.16955078 5:-0.41649055 
-0.01 1:1.1454539 2:-0.66523893 3:0.76132307 4:-0.099739181 5:2.5790814 
-0.01 1:-0.87560956 2:0.57518608 3:-1.0361858 4:-0.30917399 5:0.017350901 
-0.01 1:-0.81786489 2:1.1953986 3:-1.2416154 4:-0.16955078 5:-0.70571818 
-0.01 1:-0.87560956 2:0.51880313 3:-0.9848284 4:-0.4487972 5:-0.41649055 
-0.01 1:-0.64463088 2:0.8007179 3:-1.3956876 4:-0.23936239 5:-0.41649055 
-0.01 1:2.4735814 2:-0.77800484 3:1.1208248 4:-0.029927577 5:-0.16858115 
-0.01 1:-0.76012022 2:0.91348381 3:-1.3956876 4:-0.4487972 5:0.53382882 
-0.01 1:0.27928386 2:0.46242017 3:-0.41989704 4:1.0172465 5:0.12064648 
-0.01 1:1.6074113 2:-0.49609006 3:0.76132307 4:-0.23936239 5:-0.49912701 
-0.01 1:-0.87560956 2:-0.21417529 3:-0.26582485 4:-0.16955078 5:-0.3545132 
-0.01 1:0.33702853 2:-0.83438779 3:0.65860827 4:-0.23936239 5:-0.41649055 
-0.01 1:0.56800722 2:-0.9471537 3:0.60725088 4:-0.72804362 5:-0.16858115 
-0.01 1:-0.58688621 2:0.8007179 3:-1.2929728 4:-0.23936239 5:-0.33385408 
-0.01 1:0.62575189 2:-0.74981336 3:0.96675265 4:1.4361161 5:0.12064648 
-0.01 1:-0.70237555 2:0.34965426 3:-1.2929728 4:-0.16955078 5:-0.12726292 
-0.01 1:-0.9910989 2:0.29327131 3:-1.3956876 4:-0.23936239 5:0.24460118 
-0.01 1:0.68349656 2:-0.77800484 3:0.70996567 4:4.4380151 5:-0.39583143 
-0.01 1:-0.47139686 2:-0.83438779 3:1.531684 4:-0.16955078 5:0.36855588 
-0.01 1:-0.9910989 2:1.1108242 3:-0.933471 4:2.0644205 5:0.59580617 
-0.01 1:0.56800722 2:-0.9471537 3:0.60725088 4:-0.72804362 5:-0.16858115 
-0.01 1:1.0877093 2:0.067739488 3:0.50453609 4:8.9757693 5:2.5997405 
-0.01 1:0.68349656 2:-0.89077075 3:1.274897 4:-0.3789856 5:-0.0033082155 
-0.01 1:-1.3375669 2:-0.60885597 3:-0.41989704 4:-0.3789856 5:-0.27187673 
-0.01 1:0.048305175 2:-0.89077075 3:0.81268046 4:-0.16955078 5:-0.51978613 
-0.01 1:0.68349656 2:1.4209304 3:-0.26582485 4:-0.4487972 5:-0.2305585 
-0.01 1:-0.29816285 2:-1.1726855 3:0.86403786 4:0.10969563 5:0.32723765 
-0.01 1:-0.52914154 2:-1.0035367 3:0.2991065 4:-0.099739181 5:-0.41649055 
-0.01 1:-0.9910989 2:-0.77800484 3:1.1208248 4:-0.58842041 5:-0.37517231 
-0.01 1:-0.29816285 2:0.1805054 3:-0.77939881 4:-0.3789856 5:-0.12726292 
-0.01 1:-0.70237555 2:0.34965426 3:-1.3443302 4:-0.16955078 5:-0.16858115 
-0.01 1:-0.70237555 2:1.2517815 3:-1.3443302 4:-0.23936239 5:-0.6024226 
-0.01 1:-0.93335423 2:0.8007179 3:-1.2929728 4:-0.4487972 5:-0.56110436 
-0.01 1:0.33702853 2:-1.0035367 3:0.65860827 4:0.73800007 5:0.45119235 
-0.01 1:0.45251787 2:-0.15779233 3:0.14503431 4:-0.4487972 5:-0.4784679 
-0.01 1:-1.1065882 2:1.4773134 3:-1.190258 4:-0.23936239 5:-0.56110436 
-0.01 1:0.45251787 2:1.3081645 3:2.0966154 4:-0.58842041 5:6.7315638 
-0.01 1:-1.684035 2:0.29327131 3:-0.9848284 4:-0.4487972 5:-0.6024226 
-0.01 1:1.2031986 2:-0.66523893 3:1.4289692 4:0.45875365 5:-0.25121761 
-0.01 1:-1.3375669 2:0.067739488 3:-1.0875432 4:-0.51860881 5:-0.78835465 
-0.01 1:-0.067184167 2:-1.0035367 3:0.2991065 4:-0.099739181 5:-0.25121761 
-0.01 1:-1.5685456 2:1.8156111 3:-1.1389006 4:-0.79785522 5:-0.89165023 
-0.01 1:-0.87560956 2:0.63156904 3:-1.3956876 4:0.10969563 5:0.71976087 
-0.01 1:-0.87560956 2:0.8007179 3:-0.62532662 4:-0.51860881 5:0.61646528 
-0.01 1:0.27928386 2:0.12412244 3:-1.190258 4:-0.23936239 5:0.6371244 
-0.01 1:-1.1643329 2:0.12412244 3:-0.62532662 4:-0.51860881 5:-0.2305585 
-0.0034939248973955964 1:3.1087727 2:-0.63704745 3:2.0966154 4:0.24931884 5:-0.065285565 
-0.01 1:2.0693687 2:-0.83438779 3:1.2235396 4:-0.3789856 5:0.67844263 
-0.01 1:-0.12492884 2:0.011356533 3:-0.26582485 4:-0.23936239 5:-0.20989938 
-0.01 1:-0.29816285 2:-0.15779233 3:0.14503431 4:-0.4487972 5:-0.27187673 
-0.01 1:0.33702853 2:-1.1726855 3:0.19639171 4:-0.3789856 5:-0.0033082155 
-0.01 1:-0.47139686 2:0.63156904 3:-1.3956876 4:-0.099739181 5:-0.2305585 
-0.01 1:-0.81786489 2:-0.72162188 3:-0.67668402 4:-0.099739181 5:-0.065285565 
-0.01 1:-0.58688621 2:-0.49609006 3:-0.36853965 4:-0.65823201 5:-0.80901376 
-0.01 1:1.0299646 2:-0.55247302 3:0.65860827 4:0.039884027 5:0.079328251 
-0.01 1:-0.76012022 2:0.91348381 3:-1.0361858 4:-0.029927577 5:0.058669134 
-0.01 1:-0.41365219 2:-0.55247302 3:0.19639171 4:-0.30917399 5:-0.39583143 
-0.01 1:1.2031986 2:0.12412244 3:-0.21446746 4:0.10969563 5:0.058669134 
-0.01 1:-0.067184167 2:2.6613554 3:-0.933471 4:-0.16955078 5:-0.4784679 
-0.01 1:-1.2220776 2:0.96986677 3:-0.62532662 4:1.7851741 5:-0.25121761 
-0.01 1:0.51026254 2:-0.9471537 3:0.3504639 4:-0.65823201 5:-0.54044525 
-0.01 1:-0.52914154 2:0.60337756 3:-0.8821136 4:-0.099739181 5:-0.16858115 
-0.01 1:-0.18267351 2:-0.60885597 3:-0.52261183 4:-0.3789856 5:-0.31319496 
-0.01 1:-1.0488436 2:-0.72162188 3:-0.8821136 4:-0.3789856 5:-0.25121761 
-0.01 1:-0.35590752 2:0.29327131 3:-1.3443302 4:-0.51860881 5:-0.0033082155 
-0.01 1:0.68349656 2:1.1672071 3:-0.8821136 4:-0.30917399 5:-0.18924027 
-0.01 1:-0.24041818 2:0.011356533 3:-0.16311006 4:-0.3789856 5:-0.33385408 
-0.01 1:0.33702853 2:0.34965426 3:1.1721822 4:-0.3789856 5:5.1408118 
-0.01 1:-0.0094394959 2:-1.0599196 3:0.65860827 4:-0.099739181 5:-0.4784679 
-0.01 1:-0.76012022 2:0.40603722 3:-0.77939881 4:-0.23936239 5:-0.1066038 
-0.01 1:0.51026254 2:-0.55247302 3:1.274897 4:-0.16955078 5:-0.1066038 
-0.01 1:-0.52914154 2:0.51880313 3:-1.1389006 4:-0.4487972 5:-0.41649055 
-0.01 1:-0.76012022 2:0.63156904 3:-1.2929728 4:-0.30917399 5:-0.43714966 
-0.01 1:2.0693687 2:-0.77800484 3:2.1479728 4:0.17950724 5:0.1413056 
-0.01 1:-0.067184167 2:-1.0599196 3:0.55589348 4:-0.029927577 5:-0.16858115 
-0.01 1:-0.87560956 2:-0.9471537 3:0.24774911 4:-0.51860881 5:-0.43714966 
-0.01 1:-0.52914154 2:0.57518608 3:-1.0361858 4:-0.099739181 5:0.038010018 
-0.01 1:-0.64463088 2:0.23688835 3:-1.0875432 4:-0.65823201 5:-0.25121761 
-0.01 1:-0.64463088 2:-1.0599196 3:-0.31718225 4:-0.029927577 5:-0.27187673 
-0.01 1:-0.24041818 2:0.095930966 3:-1.0875432 4:1.0172465 5:-0.023967332 
-0.01 1:0.33702853 2:-0.27055824 3:1.3262544 4:1.0172465 5:0.2652603 
-0.01 1:-0.0094394959 2:0.011356533 3:-1.3956876 4:-0.79785522 5:-0.37517231 
-0.01 1:1.7229006 2:-0.9471537 3:1.9939006 4:-0.099739181 5:0.71976087 
-0.01 1:-0.70237555 2:0.011356533 3:-1.0361858 4:-0.58842041 5:-0.3545132 
-0.01 1:-1.2220776 2:-0.10140938 3:-0.67668402 4:-0.4487972 5:-0.66439995 
-0.01 1:1.3186879 2:-0.49609006 3:2.0966154 4:1.0870581 5:0.53382882 
-0.01 1:2.0693687 2:0.23688835 3:1.1721822 4:0.039884027 5:-0.12726292 
-0.01 1:-0.52914154 2:0.40603722 3:-0.06039527 4:-0.30917399 5:-0.1066038 
-0.01 1:0.33702853 2:-0.72162188 3:1.2235396 4:0.039884027 5:-0.74703641 
-0.01 1:1.2031986 2:-0.55247302 3:1.1721822 4:-0.16955078 5:-0.41649055 
-0.01 1:0.97221991 2:-0.21417529 3:-0.36853965 4:5.9040588 5:-0.3545132 
-0.01 1:0.85673057 2:0.74433495 3:0.60725088 4:0.45875365 5:-0.1066038 
-0.01 1:0.68349656 2:-0.38332415 3:-0.16311006 4:0.10969563 5:0.079328251 
-0.01 1:-0.70237555 2:0.34965426 3:-1.3956876 4:-0.23936239 5:-0.20989938 
-0.01 1:-0.64463088 2:-0.43970711 3:-0.62532662 4:-0.3789856 5:-0.20989938 
-0.01 1:-0.24041818 2:-0.10140938 3:-0.11175267 4:0.24931884 5:-0.2305585 
-0.01 1:1.2031986 2:-0.49609006 3:2.3534023 4:2.7974424 5:-0.29253585 
-0.01 1:-0.29816285 2:1.1672071 3:-0.9848284 4:-0.099739181 5:0.079328251 
-0.01 1:-1.7995243 2:-0.21417529 3:-0.06039527 4:-0.16955078 5:0.038010018 
-0.01 1:-1.5108009 2:0.40603722 3:-1.3956876 4:-0.79785522 5:-0.51978613 
-0.01 1:-0.76012022 2:-0.83438779 3:1.1208248 4:-0.029927577 5:0.18262383 
-0.01 1:1.0877093 2:-0.49609006 3:0.76132307 4:-0.3789856 5:-0.3545132 
-0.01 1:0.56800722 2:-0.9471537 3:0.60725088 4:-0.72804362 5:-0.16858115 
-0.01 1:-1.0488436 2:-0.10140938 3:-0.62532662 4:0.31913044 5:-0.49912701 
-0.01 1:1.0877093 2:-0.9471537 3:1.8911858 4:0.24931884 5:0.69910175 
-0.01 1:-0.81786489 2:-0.9471537 3:-0.11175267 4:-0.099739181 5:0.20328295 
-0.01 1:0.85673057 2:0.74433495 3:0.60725088 4:0.45875365 5:-0.1066038 
-0.01 1:1.1454539 2:0.34965426 3:0.76132307 4:0.17950724 5:0.038010018 
-0.01 1:-0.9910989 2:-0.49609006 3:-0.933471 4:-0.23936239 5:-0.51978613 
-0.01 1:0.048305175 2:-0.89077075 3:1.3262544 4:-0.51860881 5:6.7109047 
-0.01 1:0.048305175 2:-0.045026421 3:-0.26582485 4:0.10969563 5:-0.085944682 
-0.01 1:-0.24041818 2:0.29327131 3:-0.21446746 4:-0.16955078 5:-0.25121761 
-0.01 1:-1.857269 2:-0.3269412 3:-1.2929728 4:-0.86766683 5:-1.1189005 
-0.01 1:-0.64463088 2:-0.89077075 3:0.24774911 4:-0.3789856 5:-0.54044525 
-0.01 1:0.27928386 2:0.12412244 3:-1.190258 4:-0.23936239 5:0.6371244 
-0.01 1:-0.29816285 2:-0.15779233 3:-0.77939881 4:-0.51860881 5:1.8560123 
-0.01 1:0.3947732 2:0.011356533 3:1.1208248 4:-0.4487972 5:1.7113985 
-0.01 1:-0.81786489 2:0.60337756 3:-0.52261183 4:-0.099739181 5:3.1575366 
-0.01 1:-1.2798223 2:0.1805054 3:-1.3956876 4:-0.23936239 5:-0.18924027 
-0.01 1:2.0693687 2:0.29327131 3:1.5830414 4:-0.4487972 5:-0.3545132 
-0.01 1:-1.2798223 2:-0.72162188 3:-0.57396923 4:-0.51860881 5:-0.39583143 
-0.01 1:-0.70237555 2:-0.38332415 3:-0.36853965 4:-0.4487972 5:-0.2305585 
-0.01 1:1.491922 2:-1.1726855 3:1.274897 4:-0.51860881 5:0.90569292 
-0.01 1:1.8961347 2:0.011356533 3:1.9939006 4:0.77290587 5:0.67844263 
-0.01 1:-0.52914154 2:-0.21417529 3:-0.0090378737 4:-0.30917399 5:-0.3545132 
-0.01 1:1.2031986 2:-0.045026421 3:0.91539525 4:-0.3789856 5:-0.16858115 
-0.01 1:1.1454539 2:-0.55247302 3:0.86403786 4:-0.099739181 5:2.5997405 
-0.01 1:-0.58688621 2:-0.55247302 3:-0.16311006 4:-0.029927577 5:-0.20989938 
-0.01 1:-0.87560956 2:0.23688835 3:-1.3956876 4:-0.029927577 5:-0.33385408 
-0.01 1:-0.64463088 2:-0.045026421 3:-1.0361858 4:-0.79785522 5:-0.29253585 
-0.01 1:1.7229006 2:0.51880313 3:2.045258 4:1.8549857 5:-0.044626449 
-0.01 1:0.74124123 2:1.3645475 3:-0.77939881 4:0.24931884 5:-0.12726292 
-0.01 1:0.85673057 2:-0.15779233 3:1.1208248 4:0.039884027 5:3.3434687 
-0.01 1:-0.29816285 2:0.067739488 3:-0.06039527 4:-0.3789856 5:-0.0033082155 
-0.01 1:0.56800722 2:-0.15779233 3:0.45317869 4:-0.51860881 5:-0.085944682 
-0.01 1:-0.29816285 2:-0.38332415 3:-0.06039527 4:-0.4487972 5:-0.0033082155 
-0.01 1:-0.24041818 2:0.23688835 3:0.19639171 4:-0.3789856 5:-0.18924027 
-0.01 1:-0.067184167 2:-0.10140938 3:-0.16311006 4:-0.3789856 5:-0.18924027 
-0.01 1:0.74124123 2:-0.83438779 3:0.19639171 4:-0.029927577 5:0.16196472 
-0.01 1:-0.35590752 2:-0.55247302 3:-0.11175267 4:0.039884027 5:-0.31319496 
-0.01 1:0.16379452 2:-0.60885597 3:0.60725088 4:-0.51860881 5:-0.41649055 
-0.01 1:2.1271133 2:-0.43970711 3:1.4289692 4:-0.3789856 5:-0.31319496 
-0.01 1:-0.41365219 2:-0.10140938 3:-0.16311006 4:-0.099739181 5:0.058669134 
-0.01 1:-0.93335423 2:-0.60885597 3:-0.0090378737 4:4.2285803 5:-0.41649055 
-0.01 1:0.3947732 2:-0.9471537 3:1.274897 4:-0.30917399 5:0.47185147 
-0.01 1:-0.41365219 2:-0.72162188 3:0.093676918 4:-0.4487972 5:-0.20989938 
-0.01 1:-0.87560956 2:0.40603722 3:-0.47125444 4:-0.4487972 5:-0.18924027 
-0.01 1:1.0877093 2:-0.72162188 3:0.65860827 4:-0.029927577 5:-0.41649055 
-0.01 1:-0.41365219 2:-1.2290685 3:0.3504639 4:-0.029927577 5:-0.12726292 
-0.01 1:-0.47139686 2:-0.10140938 3:-1.2929728 4:-0.58842041 5:-0.085944682 
-0.01 1:-1.1065882 2:-0.77800484 3:0.2991065 4:0.52856526 5:-0.87099111 
-0.01 1:-0.58688621 2:0.12412244 3:-1.3443302 4:-0.51860881 5:0.099987368 
-0.01 1:-0.35590752 2:0.011356533 3:-1.0875432 4:-0.58842041 5:-0.29253585 
-0.01 1:-0.24041818 2:0.095930966 3:-1.0875432 4:1.0172465 5:-0.023967332 
-0.01 1:-1.857269 2:-0.10140938 3:-0.47125444 4:-0.30917399 5:-0.95362758 
-0.01 1:-0.0094394959 2:0.40603722 3:-0.72804142 4:0.039884027 5:-0.065285565 
-0.01 1:-0.067184167 2:-1.1163026 3:0.60725088 4:-0.029927577 5:-0.29253585 
-0.01 1:-0.58688621 2:-0.27055824 3:0.24774911 4:-0.30917399 5:-0.54044525 
-0.01 1:-0.58688621 2:-0.045026421 3:0.24774911 4:-0.30917399 5:-0.37517231 
-0.01 1:-1.1065882 2:1.9001855 3:-1.2416154 4:0.45875365 5:-0.3545132 
-0.01 1:-0.29816285 2:-0.77800484 3:0.76132307 4:-0.3789856 5:-0.044626449 
-0.01 1:-1.1643329 2:-0.9471537 3:-0.41989704 4:0.45875365 5:-0.27187673 
-0.01 1:4.2059215 2:0.88529233 3:2.5074745 4:0.80781167 5:0.24460118 
-0.01 1:0.97221991 2:-0.27055824 3:-0.16311006 4:0.10969563 5:0.28591942 
-0.01 1:0.22153919 2:0.067739488 3:-0.06039527 4:-0.029927577 5:0.18262383 
-0.01 1:2.4735814 2:-0.66523893 3:1.3776118 4:0.17950724 5:0.30657853 
-0.01 1:-0.93335423 2:1.8438026 3:-1.2929728 4:-0.4487972 5:-0.49912701 
-0.01 1:-0.70237555 2:0.40603722 3:-1.3443302 4:-0.16955078 5:-0.18924027 
-0.01 1:2.0693687 2:-0.55247302 3:1.9939006 4:0.38894205 5:0.43053323 
-0.01 1:-0.9910989 2:2.0693344 3:-1.190258 4:-0.16955078 5:-0.41649055 
-0.01 1:-1.3953116 2:0.46242017 3:-0.9848284 4:-0.30917399 5:-0.3545132 
-0.01 1:-0.81786489 2:-0.66523893 3:0.2991065 4:-0.23936239 5:-0.14792203 
-0.01 1:-0.24041818 2:0.067739488 3:0.3504639 4:-0.029927577 5:-0.25121761 
-0.01 1:-0.12492884 2:-0.83438779 3:0.042319522 4:-0.30917399 5:-0.45780878 
-0.01 1:0.048305175 2:-1.2290685 3:0.093676918 4:0.38894205 5:2.1865581 
-0.01 1:-0.58688621 2:-0.10140938 3:-0.47125444 4:-0.30917399 5:-0.37517231 
-0.01 1:-0.29816285 2:0.12412244 3:-1.3956876 4:-0.58842041 5:-0.37517231 
-0.01 1:2.5890707 2:0.49061165 3:1.9939006 4:2.2738554 5:-0.1066038 
-0.01 1:-0.067184167 2:0.34965426 3:-1.3956876 4:-0.029927577 5:0.099987368 
-0.01 1:-0.12492884 2:0.095930966 3:-0.47125444 4:-0.4487972 5:-0.16858115 
-0.01 1:1.9538793 2:-0.43970711 3:1.8398284 4:-0.23936239 5:-0.31319496 
-0.01 1:-1.3953116 2:-1.3418344 3:-0.11175267 4:7.5795373 5:-0.43714966 
-0.01 1:-0.93335423 2:-0.66523893 3:0.81268046 4:0.17950724 5:-0.25121761 
-0.01 1:-0.81786489 2:1.336356 3:-0.47125444 4:-0.099739181 5:3.1988549 
-0.01 1:0.27928386 2:0.46242017 3:-0.41989704 4:1.0172465 5:0.12064648 
-0.01 1:0.45251787 2:-0.72162188 3:1.531684 4:1.4361161 5:-0.16858115 
-0.01 1:0.27928386 2:-0.43970711 3:0.81268046 4:-0.79785522 5:-0.25121761 
-0.01 1:-0.93335423 2:1.2517815 3:-1.3443302 4:-0.099739181 5:-0.20989938 
-0.01 1:-0.9910989 2:-0.15779233 3:-1.3443302 4:-0.72804362 5:-0.58176348 
-0.01 1:-0.9910989 2:1.6182707 3:-1.2929728 4:0.10969563 5:-0.33385408 
-0.01 1:-0.64463088 2:-0.27055824 3:-1.0361858 4:2.0644205 5:0.017350901 
-0.01 1:1.1454539 2:-0.15779233 3:0.76132307 4:-0.3789856 5:-0.39583143 
-0.01 1:-0.64463088 2:0.011356533 3:-0.72804142 4:-0.3789856 5:-0.62308171 
-0.01 1:-0.41365219 2:1.4209304 3:-1.3956876 4:-0.58842041 5:-0.25121761 
-0.01 1:-0.70237555 2:0.40603722 3:-1.3956876 4:-0.51860881 5:-0.29253585 
-0.01 1:-0.64463088 2:-0.83438779 3:0.55589348 4:0.17950724 5:-0.41649055 
-0.01 1:-0.067184167 2:2.6613554 3:-0.933471 4:-0.16955078 5:-0.4784679 
-0.01 1:-1.1065882 2:-0.9471537 3:-0.31718225 4:-0.23936239 5:-0.850332 
-0.01 1:-0.87560956 2:-0.10140938 3:-1.3443302 4:-0.30917399 5:-0.29253585 
-0.01 1:0.3947732 2:-0.83438779 3:0.70996567 4:-0.099739181 5:0.30657853 
-0.01 1:-1.3375669 2:0.29327131 3:-0.36853965 4:-0.099739181 5:-0.27187673 
-0.01 1:0.97221991 2:-0.49609006 3:1.1208248 4:0.10969563 5:-0.2305585 
-0.01 1:0.51026254 2:1.279973 3:-0.47125444 4:-0.23936239 5:1.2362388 
-0.01 1:-0.29816285 2:0.29327131 3:-0.72804142 4:-0.30917399 5:0.28591942 
-0.01 1:-0.47139686 2:1.0262497 3:-1.3956876 4:-0.65823201 5:0.079328251 
-0.01 1:-1.1643329 2:-0.3269412 3:-1.3956876 4:-0.79785522 5:-0.68505906 
-0.01 1:-1.3953116 2:-0.74981336 3:-0.72804142 4:-0.099739181 5:-0.66439995 
-0.01 1:0.45251787 2:-0.72162188 3:1.1721822 4:-0.51860881 5:-0.3545132 
-0.01 1:1.4341773 2:-0.72162188 3:0.70996567 4:-0.23936239 5:-0.085944682 
