svm_type c_svc
kernel_type linear
nr_class 2
total_sv 794
rho 0.08460040882282506
label 1 2
nr_sv 397 397
SV
0.01 1:0.51026254 2:-0.55247302 3:1.1208248 4:-0.099739181 5:-0.044626449 6:0.65753807 7:2.0760607 8:0.46900532 9:-0.52824962 10:-0.11529839 11:-0.86836127 
0.01 1:-0.93335423 2:0.067739488 3:-0.72804142 4:-0.3789856 5:-0.25121761 6:-0.090192241 7:-0.30994148 8:0.30903983 9:1.9819829 10:-0.11529839 11:-0.58548293 
0.01 1:-1.0488436 2:1.98476 3:-1.2416154 4:2.1342321 5:-0.18924027 6:0.65753807 7:0.018133815 8:-0.53344514 9:1.7838066 10:-0.92849115 11:0.73461599 
0.01 1:0.16379452 2:-0.3269412 3:-0.0090378737 4:-0.16955078 5:-0.68505906 6:-0.18365853 7:-0.5485417 8:-0.8320474 9:-0.85854337 10:0.81406477 11:0.73461599 
0.01 1:-0.9910989 2:-0.49609006 3:-0.62532662 4:-0.30917399 5:-0.25121761 6:0.56407178 7:0.19708398 8:-0.5441095 9:0.066279129 10:-0.23146878 11:-1.0569468 
0.01 1:-0.70237555 2:-0.045026421 3:-1.2416154 4:0.039884027 5:-0.25121761 6:0.47060549 7:1.36026 8:0.38902257 9:1.2553366 10:-0.34763918 11:-0.58548293 
0.01 1:-0.067184167 2:-0.55247302 3:0.093676918 4:-0.65823201 5:-0.14792203 6:1.0314032 7:-0.041516238 8:-0.36814745 9:-0.39613212 10:-0.69615036 11:-0.11401903 
0.01 1:0.33702853 2:0.34965426 3:0.60725088 4:-0.16955078 5:0.1413056 6:-1.0248551 7:-0.72749186 8:1.0022237 9:0.39657288 10:-0.46380957 11:-0.11401903 
0.01 1:-0.9910989 2:0.57518608 3:-1.3956876 4:1.2266813 5:0.099987368 6:3.2745942 7:0.92779713 8:-0.6080957 9:-0.72642587 10:-1.2189171 11:-0.86836127 
0.01 1:-0.64463088 2:-1.0599196 3:-0.16311006 4:-0.3789856 5:-0.3545132 6:1.3118021 7:0.16725895 8:-0.5121164 9:0.85898413 10:-0.46380957 11:-0.30260459 
0.01 1:0.51026254 2:0.1805054 3:-0.47125444 4:-0.65823201 5:-0.20989938 6:-0.55752369 7:-0.75731688 8:-0.5121164 9:-1.0567196 10:-0.98657635 11:-0.49119015 
0.01 1:-0.58688621 2:1.1672071 3:-1.3956876 4:-0.23936239 5:-0.16858115 6:0.19020663 7:-0.5485417 8:0.49566624 9:0.66080788 10:-0.34763918 11:-0.96265405 
0.01 1:-0.70237555 2:-0.38332415 3:-0.67668402 4:0.17950724 5:-0.25121761 6:-0.090192241 7:-0.28011645 8:-0.25617161 9:0.33051413 10:-0.98657635 11:0.26315209 
0.01 1:0.91447524 2:-1.0035367 3:0.70996567 4:-0.16955078 5:-0.1066038 6:-0.4640574 7:0.43568419 8:0.78893632 9:-0.66036712 10:-0.92849115 11:-0.86836127 
0.01 1:-0.47139686 2:0.57518608 3:-0.77939881 4:1.7851741 5:0.47185147 6:3.1811279 7:1.8971105 8:0.84225816 9:-0.33007337 10:0.63980917 11:-0.96265405 
0.01 1:-0.64463088 2:-0.66523893 3:0.14503431 4:-0.30917399 5:-0.1066038 6:1.7791335 7:0.76375949 8:0.14907433 9:0.85898413 10:-0.81232076 11:-0.96265405 
0.01 1:0.16379452 2:-0.045026421 3:0.55589348 4:-0.72804362 5:0.16196472 6:-1.0248551 7:-0.84679196 8:-0.032219907 9:-0.72642587 10:-0.81232076 11:-0.96265405 
0.01 1:-1.1065882 2:0.63156904 3:-0.31718225 4:-0.51860881 5:-0.14792203 6:-0.18365853 7:-0.45906661 8:0.090420309 9:1.8498654 10:0.00087200463 11:-0.58548293 
0.01 1:-0.9910989 2:0.46242017 3:-1.3956876 4:-0.65823201 5:-0.39583143 6:-1.1183214 7:-1.1450422 8:-1.4719094 9:0.13233788 10:-1.6835987 11:-0.019726249 
0.01 1:1.6074113 2:-0.77800484 3:1.3776118 4:0.10969563 5:0.1413056 6:0.47060549 7:1.6286853 8:1.8020512 9:-1.1888371 10:-0.87040595 11:-0.86836127 
0.01 1:0.91447524 2:0.067739488 3:0.91539525 4:-0.16955078 5:-0.3545132 6:0.0032740485 7:-0.19064137 8:1.2688328 9:0.52869038 10:-0.23146878 11:-0.96265405 
0.01 1:0.3947732 2:1.4491219 3:-0.16311006 4:-0.58842041 5:-0.20989938 6:-0.55752369 7:-0.75731688 8:0.10641686 9:-0.13189712 10:0.058957202 11:-0.39689737 
0.01 1:-0.93335423 2:0.96986677 3:-0.9848284 4:0.84271747 5:-0.43714966 6:-0.74445626 7:-0.90644202 8:-1.8025048 9:0.79292538 10:-0.81232076 11:2.0547149 
0.01 1:1.1454539 2:-1.0599196 3:1.274897 4:0.17950724 5:1.4634891 6:-0.090192241 7:0.85323457 8:1.6420857 9:-0.85854337 10:-0.11529839 11:-0.96265405 
0.01 1:-0.52914154 2:0.63156904 3:-1.0361858 4:-0.51860881 5:0.24460118 6:-0.74445626 7:-0.69766683 8:-0.33082217 9:-0.06583837 10:-0.46380957 11:-0.77406849 
0.01 1:0.68349656 2:0.34965426 3:0.86403786 4:-0.16955078 5:-0.3545132 6:0.47060549 7:0.64445938 8:1.3221547 9:0.99110163 10:-0.17338359 11:-0.86836127 
0.01 1:-0.18267351 2:-1.3982173 3:0.86403786 4:-0.51860881 5:-0.14792203 6:1.1248695 7:0.64445938 8:-0.91203015 9:0.33051413 10:0.00087200463 11:0.73461599 
0.01 1:-0.70237555 2:0.57518608 3:-1.0875432 4:-0.3789856 5:-0.1066038 6:-0.74445626 7:-0.51871667 8:0.97556274 9:2.3783354 10:0.40746839 11:-0.77406849 
0.01 1:0.048305175 2:1.2235901 3:-0.83075621 4:-0.4487972 5:0.038010018 6:0.0032740485 7:0.49533425 8:-0.11753484 9:-0.79248462 10:0.93023516 11:-0.77406849 
0.01 1:-0.76012022 2:0.1805054 3:-0.72804142 4:-0.65823201 5:-0.2305585 6:0.84447065 7:-0.13099132 8:-0.22951069 9:0.19839663 10:-0.40572438 11:-1.1512396 
0.01 1:-1.3953116 2:-1.9056639 3:-0.31718225 4:-0.58842041 5:-0.89165023 6:3.8353919 7:2.6427362 8:-1.7651795 9:0.066279129 10:-1.2770023 11:-0.86836127 
0.01 1:-1.3375669 2:-1.1163026 3:0.24774911 4:7.2304792 5:-0.70571818 6:-0.93138884 7:1.9865856 8:-0.53344514 9:-0.06583837 10:-0.57997997 11:1.0174943 
0.01 1:0.33702853 2:1.2517815 3:-0.67668402 4:-0.029927577 5:-0.044626449 6:-0.65098997 7:-0.48889164 8:0.81026506 9:0.19839663 10:-0.11529839 11:0.074566531 
0.01 1:0.16379452 2:-0.3269412 3:-0.0090378737 4:-0.16955078 5:-0.68505906 6:-0.18365853 7:-0.5485417 8:-0.8320474 9:-0.85854337 10:0.81406477 11:0.73461599 
0.01 1:-1.5685456 2:-0.15779233 3:-0.933471 4:-0.16955078 5:-0.80901376 6:0.096740337 7:1.5690352 8:-1.6105462 9:2.1141004 10:-0.17338359 11:2.431886 
0.01 1:-1.2798223 2:-1.1726855 3:-0.11175267 4:-0.16955078 5:-0.3545132 6:0.65753807 7:0.34620911 8:-0.20818196 9:0.72686663 10:1.8015131 11:0.16885931 
0.0011457679304697605 1:-0.0094394959 2:0.71614347 3:-0.77939881 4:-0.16955078 5:-0.1066038 6:-0.090192241 7:1.9865856 8:-0.064213006 9:-0.92460212 10:0.00087200463 11:-0.58548293 
0.01 1:-1.5685456 2:0.067739488 3:-1.190258 4:-0.58842041 5:-0.80901376 6:-1.0248551 7:-0.9959171 8:-1.343937 9:2.7086291 10:-0.46380957 11:0.92320155 
0.01 1:-0.87560956 2:0.34965426 3:-0.8821136 4:-0.58842041 5:-0.51978613 6:1.6856673 7:0.19708398 8:-0.49078767 9:0.66080788 10:0.058957202 11:-0.67977571 
0.01 1:-0.0094394959 2:1.0544412 3:-0.62532662 4:-0.51860881 5:0.017350901 6:-0.55752369 7:0.16725895 8:0.04243066 9:-0.52824962 10:0.63980917 11:-0.86836127 
0.01 1:-0.52914154 2:0.63156904 3:-1.0361858 4:-0.51860881 5:0.24460118 6:-0.74445626 7:-0.69766683 8:-0.33082217 9:-0.06583837 10:-0.46380957 11:-0.77406849 
0.01 1:-0.76012022 2:-1.6801321 3:0.65860827 4:-0.65823201 5:-0.51978613 6:0.47060549 7:0.61463435 8:-0.81071867 9:1.2553366 10:-0.17338359 11:0.64032321 
0.01 1:0.51026254 2:-0.38332415 3:-0.21446746 4:0.039884027 5:0.058669134 6:0.19020663 7:0.91288462 8:1.332819 9:-1.0567196 10:-0.87040595 11:-0.96265405 
0.01 1:-0.76012022 2:-0.15779233 3:-0.11175267 4:-0.3789856 5:-0.37517231 6:-1.2117877 7:-0.72749186 8:-0.22417851 9:-0.39613212 10:-0.17338359 11:-1.1512396 
0.01 1:-1.2220776 2:0.1805054 3:-0.933471 4:-0.58842041 5:-0.7263773 6:0.75100436 7:-0.42924159 8:-1.4399163 9:1.5195716 10:-0.34763918 11:0.82890877 
0.01 1:1.0299646 2:2.2948662 3:-0.26582485 4:0.59837686 5:0.34789677 6:-0.4640574 7:1.1813099 8:2.2819476 9:0.79292538 10:-0.11529839 11:0.82890877 
0.01 1:1.4341773 2:-0.43970711 3:0.2991065 4:-0.029927577 5:0.22394207 6:0.3771392 7:-0.25029143 8:0.77827196 9:-0.46219087 10:0.29129799 11:0.35744487 
0.01 1:-0.76012022 2:0.88529233 3:-1.3956876 4:-0.4487972 5:0.22394207 6:-0.65098997 7:-0.72749186 8:-0.35215091 9:0.19839663 10:-0.34763918 11:-0.67977571 
0.01 1:-0.41365219 2:2.0975259 3:-1.0875432 4:-0.029927577 5:-0.18924027 6:-1.0248551 7:-1.0853922 8:-0.010891173 9:0.52869038 10:-0.57997997 11:-0.58548293 
0.01 1:-1.2798223 2:0.63156904 3:-1.2929728 4:-0.099739181 5:-0.39583143 6:0.93793694 7:-0.011691212 8:-1.6745324 9:1.0571604 10:-1.2189171 11:0.54603043 
0.01 1:0.7989859 2:0.91348381 3:0.24774911 4:-0.029927577 5:-0.0033082155 6:0.56407178 7:1.330435 8:0.62897082 9:-0.13189712 10:-0.23146878 11:-0.30260459 
0.01 1:0.91447524 2:0.067739488 3:0.91539525 4:-0.16955078 5:-0.3545132 6:0.0032740485 7:-0.19064137 8:1.2688328 9:0.52869038 10:-0.23146878 11:-0.96265405 
0.01 1:0.56800722 2:-0.66523893 3:0.60725088 4:-0.23936239 5:-0.49912701 6:-0.37059111 7:-0.45906661 8:0.89557999 9:-0.33007337 10:-0.057213193 11:-0.20831181 
0.01 1:-0.24041818 2:1.0826327 3:-1.3443302 4:-0.4487972 5:-0.25121761 6:-0.83792255 7:-0.42924159 8:-0.02155554 9:0.52869038 10:-0.69615036 11:-0.77406849 
0.01 1:-0.70237555 2:0.51880313 3:-1.0875432 4:-0.86766683 5:-0.37517231 6:-1.0248551 7:-1.0257421 8:-1.343937 9:-0.92460212 10:-1.0446615 11:-0.58548293 
0.01 1:0.74124123 2:0.40603722 3:1.1721822 4:-0.16955078 5:-0.18924027 6:1.1248695 7:0.73393446 8:1.5887638 9:1.2553366 10:-0.52189477 11:-0.67977571 
0.01 1:-0.18267351 2:0.34965426 3:-1.1389006 4:-0.3789856 5:0.017350901 6:-0.37059111 7:-0.42924159 8:0.33570074 9:0.33051413 10:-0.28955398 11:-0.39689737 
0.01 1:0.74124123 2:0.40603722 3:1.1721822 4:-0.16955078 5:-0.18924027 6:1.1248695 7:0.73393446 8:1.5887638 9:1.2553366 10:-0.52189477 11:-0.67977571 
0.01 1:-0.58688621 2:0.8007179 3:-1.1389006 4:0.73800007 5:0.389215 6:-0.93138884 7:-0.78714191 8:0.25571799 9:0.59474913 10:-0.17338359 11:-0.30260459 
0.01 1:2.531326 2:0.40603722 3:1.1208248 4:0.17950724 5:-0.27187673 6:-1.0248551 7:-0.81696694 8:1.4287983 9:-1.1227784 10:-0.52189477 11:0.92320155 
0.01 1:-0.52914154 2:-0.66523893 3:-0.16311006 4:-0.51860881 5:-0.45780878 6:0.19020663 7:0.018133815 8:-0.59743134 9:0.39657288 10:-0.23146878 11:-0.019726249 
0.01 1:-0.47139686 2:-0.72162188 3:-0.47125444 4:-0.65823201 5:-0.18924027 6:0.75100436 7:0.34620911 8:-0.11753484 9:0.19839663 10:-0.46380957 11:-0.96265405 
0.01 1:-0.24041818 2:-1.0035367 3:-0.31718225 4:-0.4487972 5:-0.31319496 6:2.8072627 7:1.6585103 8:-0.17085667 9:-0.26401462 10:-0.46380957 11:-0.86836127 
0.01 1:1.3186879 2:-1.3982173 3:0.60725088 4:9.045581 5:-0.39583143 6:-0.93138884 7:-0.69766683 8:3.135097 9:-1.2548959 10:0.00087200463 11:-1.1512396 
0.01 1:-1.1065882 2:0.011356533 3:-0.933471 4:0.94743488 5:0.71976087 6:-0.18365853 7:-0.45906661 8:0.04243066 9:1.2553366 10:0.058957202 11:0.54603043 
0.01 1:-0.12492884 2:0.1805054 3:0.042319522 4:-0.58842041 5:5.7812444 6:0.0032740485 7:0.28655906 8:0.04243066 9:-1.3209546 10:3.6021542 11:-1.0569468 
0.01 1:-0.52914154 2:-0.77800484 3:1.0694674 4:-0.3789856 5:-0.12726292 6:-0.18365853 7:0.61463435 8:0.25571799 9:0.19839663 10:-0.63806517 11:-1.1512396 
0.01 1:2.0693687 2:-0.83438779 3:1.1208248 4:0.10969563 5:0.20328295 6:-0.37059111 7:-0.13099132 8:1.9620167 9:-0.99066087 10:-0.28955398 11:-0.11401903 
0.01 1:-1.2798223 2:0.99805824 3:-0.8821136 4:0.17950724 5:-0.14792203 6:-0.27712482 7:-0.5485417 8:-0.21884632 9:1.9159241 10:0.00087200463 11:-0.20831181 
0.01 1:1.8961347 2:-0.60885597 3:1.3262544 4:0.52856526 5:0.34789677 6:1.592201 7:1.5392102 8:2.2819476 9:-0.72642587 10:1.6853427 11:-1.1512396 
0.01 1:2.358092 2:-0.60885597 3:1.1208248 4:1.4361161 5:-0.31319496 6:0.28367292 7:-0.10116629 8:0.57564899 9:-1.9154834 10:-0.28955398 11:-0.86836127 
0.01 1:0.97221991 2:-0.55247302 3:0.2991065 4:0.10969563 5:0.1413056 6:1.1248695 7:1.2707849 8:0.89557999 9:-0.59430837 10:0.1170424 11:-0.39689737 
0.01 1:-1.5685456 2:0.49061165 3:-1.3956876 4:-0.65823201 5:0.017350901 6:0.0032740485 7:0.37603414 8:-1.2906152 9:1.7838066 10:-0.81232076 11:-0.49119015 
0.01 1:-1.7417796 2:1.0544412 3:-0.41989704 4:-0.72804362 5:1.5048073 6:-0.83792255 7:0.46550922 8:-1.4772416 9:2.0480416 10:-0.28955398 11:0.54603043 
0.01 1:1.0877093 2:-0.66523893 3:0.81268046 4:-0.23936239 5:0.45119235 6:-0.4640574 7:-0.28011645 8:0.29837546 9:-0.99066087 10:0.058957202 11:0.35744487 
0.01 1:1.491922 2:-0.89077075 3:1.5830414 4:1.0172465 5:-0.3545132 6:0.096740337 7:0.5549843 8:1.4021374 9:-0.59430837 10:0.69789437 11:-0.30260459 
0.01 1:-0.47139686 2:-0.60885597 3:0.19639171 4:-0.65823201 5:-0.16858115 6:-0.090192241 7:-0.13099132 8:0.57564899 9:0.00022037948 10:-0.11529839 11:-1.3398252 
0.01 1:-1.2798223 2:0.34965426 3:-1.3443302 4:-0.30917399 5:-0.66439995 6:-1.0248551 7:-0.9959171 8:-1.0666635 9:1.3874541 10:-0.57997997 11:0.92320155 
0.01 1:0.10604985 2:-0.38332415 3:1.6343988 4:-0.79785522 5:6.7315638 6:0.0032740485 7:-0.041516238 8:0.15973869 9:-1.8494246 10:3.9506654 11:-1.1512396 
0.01 1:1.0877093 2:-1.6237492 3:1.1208248 4:-0.099739181 5:-0.27187673 6:-0.55752369 7:-0.5485417 8:0.57564899 9:-1.1227784 10:-0.28955398 11:-0.019726249 
0.01 1:-1.1643329 2:-0.77800484 3:-0.57396923 4:-0.79785522 5:-0.16858115 6:-0.4640574 7:-0.69766683 8:-0.65075317 9:0.19839663 10:-0.57997997 11:-1.0569468 
0.01 1:0.27928386 2:0.46242017 3:-0.67668402 4:-0.099739181 5:-0.43714966 6:-0.55752369 7:-0.13099132 8:0.095752493 9:-0.79248462 10:-0.40572438 11:-0.86836127 
0.01 1:-0.0094394959 2:0.40603722 3:-0.11175267 4:-0.23936239 5:0.61646528 6:-0.65098997 7:-0.25029143 8:-0.29882907 9:-1.0567196 10:-0.75423556 11:-0.58548293 
0.01 1:-0.47139686 2:3.3097594 3:-0.8821136 4:0.38894205 5:-0.044626449 6:-1.0248551 7:-1.0257421 8:-0.49078767 9:1.5195716 10:-0.34763918 11:0.73461599 
0.01 1:-0.81786489 2:0.1805054 3:-1.2416154 4:-0.72804362 5:-0.044626449 6:1.8725998 7:-0.011691212 8:-0.8000543 9:1.4535129 10:-0.52189477 11:0.16885931 
0.01 1:-0.35590752 2:0.40603722 3:-1.3956876 4:0.039884027 5:-0.68505906 6:-0.83792255 7:-0.9959171 8:-0.17618886 9:0.46263163 10:-0.57997997 11:0.35744487 
0.01 1:-1.5685456 2:0.4342287 3:-1.1389006 4:-0.099739181 5:-0.31319496 6:0.28367292 7:-0.63801678 8:-2.2077507 9:1.6516891 10:-0.63806517 11:2.3375933 
0.01 1:-0.64463088 2:0.067739488 3:-0.0090378737 4:0.039884027 5:-0.085944682 6:-0.37059111 7:0.94270965 8:-0.17085667 9:0.52869038 10:0.29129799 11:0.54603043 
0.01 1:0.048305175 2:1.0544412 3:-0.36853965 4:-0.099739181 5:-0.25121761 6:-0.55752369 7:-0.25029143 8:0.33570074 9:0.00022037948 10:-0.11529839 11:-0.96265405 
0.01 1:-0.70237555 2:-0.55247302 3:0.76132307 4:2.0644205 5:-0.3545132 6:1.1248695 7:2.433961 8:0.30903983 9:0.72686663 10:0.29129799 11:0.074566531 
0.01 1:0.91447524 2:-1.0035367 3:1.4289692 4:-0.30917399 5:-0.54044525 6:-1.0248551 7:-0.96609207 8:0.20239616 9:-0.33007337 10:0.75597957 11:0.16885931 
0.01 1:0.97221991 2:-1.3418344 3:0.65860827 4:0.24931884 5:0.20328295 6:-0.55752369 7:-0.60819175 8:2.0686603 9:1.1232191 10:1.4530019 11:-0.67977571 
0.01 1:-0.52914154 2:0.12412244 3:-0.41989704 4:-0.51860881 5:-0.12726292 6:-0.090192241 7:-0.36959153 8:-0.090873923 9:1.1892779 10:0.1170424 11:0.074566531 
0.01 1:-0.81786489 2:3.168802 3:-1.0875432 4:-0.30917399 5:-0.56110436 6:-0.37059111 7:-0.45906661 8:-1.024006 9:1.3213954 10:-1.3350875 11:0.92320155 
0.01 1:0.97221991 2:1.1390156 3:0.81268046 4:-0.16955078 5:-0.6024226 6:-0.090192241 7:-0.45906661 8:-0.064213006 9:-1.0567196 10:-0.52189477 11:0.54603043 
0.01 1:-0.35590752 2:-0.77800484 3:-0.77939881 4:-0.58842041 5:0.18262383 6:0.28367292 7:-0.57836672 8:-0.40547274 9:-0.99066087 10:-0.98657635 11:-0.96265405 
0.01 1:-0.12492884 2:-1.1163026 3:0.86403786 4:-0.72804362 5:-0.95362758 6:-0.93138884 7:-1.0257421 8:-0.69341064 9:0.26445538 10:-0.28955398 11:0.26315209 
0.01 1:-0.52914154 2:0.011356533 3:-0.06039527 4:-0.3789856 5:0.2652603 6:0.0032740485 7:0.76375949 8:-0.5441095 9:-1.0567196 10:-0.52189477 11:-0.96265405 
0.01 1:-1.1065882 2:0.63156904 3:-0.31718225 4:-0.51860881 5:-0.14792203 6:-0.18365853 7:-0.45906661 8:0.090420309 9:1.8498654 10:0.00087200463 11:-0.58548293 
0.01 1:-0.87560956 2:0.8007179 3:-1.2929728 4:-0.51860881 5:-0.78835465 6:-1.0248551 7:-1.0555672 8:-0.27750034 9:1.1232191 10:-0.81232076 11:-0.86836127 
0.01 1:-0.70237555 2:0.85710086 3:-1.3956876 4:-0.16955078 5:-0.023967332 6:0.096740337 7:-0.60819175 8:0.59164554 9:0.92504288 10:-0.75423556 11:-0.86836127 
0.01 1:-0.64463088 2:0.94167529 3:-0.72804142 4:-0.3789856 5:-0.25121761 6:-0.37059111 7:-0.78714191 8:-0.6720819 9:-0.13189712 10:-0.69615036 11:-0.30260459 
0.01 1:0.048305175 2:0.40603722 3:-0.8821136 4:-0.23936239 5:-0.065285565 6:-0.18365853 7:1.9269355 8:-0.17085667 9:-1.0567196 10:0.00087200463 11:-0.58548293 
0.01 1:0.27928386 2:0.46242017 3:-0.67668402 4:-0.099739181 5:-0.43714966 6:-0.55752369 7:-0.13099132 8:0.095752493 9:-0.79248462 10:-0.40572438 11:-0.86836127 
0.01 1:-0.76012022 2:-0.43970711 3:0.3504639 4:0.10969563 5:-0.12726292 6:0.0032740485 7:0.76375949 8:0.68229266 9:1.5856304 10:-0.34763918 11:-0.86836127 
0.01 1:-0.70237555 2:-0.55247302 3:-0.52261183 4:-0.51860881 5:-0.12726292 6:1.0314032 7:0.13743392 8:-0.20284977 9:1.1892779 10:-0.11529839 11:-0.019726249 
0.01 1:-0.35590752 2:-0.21417529 3:-0.06039527 4:-0.4487972 5:-0.54044525 6:-0.65098997 7:-0.45906661 8:-0.064213006 9:0.52869038 10:-0.11529839 11:-0.77406849 
0.01 1:-0.52914154 2:0.12412244 3:-0.41989704 4:-0.51860881 5:-0.12726292 6:-0.090192241 7:-0.36959153 8:-0.090873923 9:1.1892779 10:0.1170424 11:0.074566531 
0.01 1:-0.0094394959 2:-0.55247302 3:0.14503431 4:0.59837686 5:-0.18924027 6:-0.83792255 7:-0.36959153 8:0.61830646 9:0.33051413 10:-0.28955398 11:0.074566531 
0.01 1:-1.3953116 2:0.65976052 3:-0.77939881 4:-0.3789856 5:-0.27187673 6:1.4987347 7:-0.071341265 8:-0.66674972 9:1.7177479 10:0.29129799 11:-0.20831181 
0.01 1:1.3186879 2:-0.9471537 3:1.6343988 4:-0.23936239 5:1.3188752 6:-0.93138884 7:-0.84679196 8:1.0022237 9:-1.7833659 10:2.2661947 11:-0.96265405 
0.01 1:0.51026254 2:0.067739488 3:0.19639171 4:-0.16955078 5:0.49251058 6:-0.4640574 7:-0.25029143 8:0.14374214 9:-0.46219087 10:-0.57997997 11:0.45173765 
0.01 1:-1.2798223 2:1.0544412 3:-0.8821136 4:0.039884027 5:-0.7263773 6:-0.27712482 7:-0.57836672 8:-1.6532036 9:1.7177479 10:-0.92849115 11:1.3946655 
0.01 1:1.665156 2:-0.15779233 3:2.4047597 4:1.8200799 5:0.24460118 6:-1.0248551 7:-0.87661699 8:1.535442 9:-0.59430837 10:-0.23146878 11:0.73461599 
0.01 1:-0.76012022 2:0.40603722 3:0.14503431 4:1.3663045 5:-0.41649055 6:0.3771392 7:1.8971105 8:1.2901616 9:-0.06583837 10:2.9632171 11:-0.20831181 
0.01 1:-0.93335423 2:1.3081645 3:-1.2929728 4:-0.51860881 5:-0.20989938 6:-0.93138884 7:-1.0257421 8:-0.384144 9:1.5856304 10:-0.17338359 11:-0.44404376 
0.01 1:1.5496666 2:-1.849281 3:1.0694674 4:-0.3789856 5:5.2647665 6:-0.93138884 7:-0.84679196 8:0.62897082 9:-0.06583837 10:0.29129799 11:0.074566531 
0.01 1:-0.47139686 2:0.29327131 3:-0.36853965 4:-0.3789856 5:-0.31319496 6:1.6856673 7:-0.071341265 8:-0.94935544 9:-1.3870134 10:-1.3350875 11:-1.0569468 
0.01 1:0.85673057 2:-0.77800484 3:0.81268046 4:-0.62332621 5:-0.41649055 6:-1.0248551 7:-1.0555672 8:-1.0346704 9:-0.79248462 10:-1.1608319 11:0.92320155 
0.01 1:-1.1065882 2:0.57518608 3:-0.31718225 4:-0.65823201 5:-0.16858115 6:-0.37059111 7:-0.42924159 8:0.090420309 9:1.7838066 10:0.00087200463 11:-0.58548293 
0.01 1:-0.18267351 2:0.51880313 3:0.40182129 4:0.17950724 5:-0.044626449 6:1.1248695 7:0.16725895 8:0.14907433 9:0.00022037948 10:-0.23146878 11:0.35744487 
0.01 1:0.56800722 2:-0.55247302 3:0.86403786 4:-0.4487972 5:-0.065285565 6:-0.65098997 7:-0.72749186 8:0.19173179 9:-0.19795587 10:-0.63806517 11:-0.86836127 
0.01 1:-0.81786489 2:1.336356 3:-1.2929728 4:-0.16955078 5:-0.51978613 6:1.7791335 7:0.49533425 8:0.41568349 9:1.7177479 10:0.69789437 11:-0.49119015 
0.01 1:0.10604985 2:-1.0599196 3:0.86403786 4:-0.58842041 5:-0.18924027 6:-0.93138884 7:-1.0257421 8:-0.35748309 9:1.3874541 10:-0.17338359 11:0.26315209 
0.01 1:-0.47139686 2:0.46242017 3:-0.06039527 4:-0.4487972 5:-0.31319496 6:0.75100436 7:1.2409599 8:-0.32015781 9:-0.06583837 10:-0.75423556 11:-0.58548293 
0.01 1:-0.76012022 2:0.40603722 3:0.14503431 4:1.3663045 5:-0.41649055 6:0.3771392 7:1.8971105 8:1.2901616 9:-0.06583837 10:2.9632171 11:-0.20831181 
0.01 1:-0.35590752 2:2.4358236 3:-0.36853965 4:-0.3789856 5:-0.850332 6:-0.090192241 7:0.40585916 8:-0.65075317 9:0.33051413 10:-1.2770023 11:0.45173765 
0.01 1:-0.18267351 2:-0.55247302 3:0.45317869 4:-0.16955078 5:-0.27187673 6:-0.55752369 7:0.047958842 8:0.46900532 9:0.19839663 10:-1.1608319 11:-0.96265405 
0.01 1:0.74124123 2:0.85710086 3:-0.16311006 4:-0.23936239 5:-0.023967332 6:-1.0248551 7:-0.5485417 8:1.1088673 9:-1.1227784 10:-0.34763918 11:-0.20831181 
0.01 1:0.3947732 2:1.4491219 3:-0.16311006 4:-0.58842041 5:-0.20989938 6:-0.55752369 7:-0.75731688 8:0.10641686 9:-0.13189712 10:0.058957202 11:-0.39689737 
0.01 1:-0.067184167 2:1.1390156 3:-0.31718225 4:-0.58842041 5:-0.29253585 6:-1.0248551 7:-0.9959171 8:0.04243066 9:-0.72642587 10:-0.81232076 11:-0.86836127 
0.01 1:-0.52914154 2:-0.21417529 3:-0.41989704 4:0.31913044 5:-0.2305585 6:0.0032740485 7:-0.28011645 8:-0.064213006 9:0.39657288 10:-0.87040595 11:0.074566531 
0.01 1:2.2426027 2:-0.43970711 3:1.1208248 4:-0.79785522 5:-0.27187673 6:-1.2117877 7:-1.2046923 8:0.095752493 9:-1.1888371 10:-0.17338359 11:-0.019726249 
0.01 1:-0.35590752 2:0.51880313 3:-1.190258 4:0.87762328 5:-0.085944682 6:0.84447065 7:-0.041516238 8:0.57564899 9:0.19839663 10:-0.75423556 11:-0.86836127 
0.01 1:-0.0094394959 2:2.7741213 3:-1.2929728 4:0.59837686 5:-0.085944682 6:-0.93138884 7:-1.0555672 8:1.1728535 9:1.1232191 10:-0.98657635 11:0.54603043 
0.01 1:1.0877093 2:0.8007179 3:0.60725088 4:-0.4487972 5:-0.70571818 6:-0.93138884 7:-0.87661699 8:0.46900532 9:-0.92460212 10:-1.1027467 11:-0.39689737 
0.01 1:-0.87560956 2:0.85710086 3:-0.31718225 4:-0.30917399 5:-0.37517231 6:-0.65098997 7:-0.69766683 8:-0.6720819 9:0.46263163 10:-0.34763918 11:-0.11401903 
0.01 1:-0.067184167 2:-0.77800484 3:1.1208248 4:-0.16955078 5:0.22394207 6:2.900729 7:2.5830861 8:0.62897082 9:0.46263163 10:1.9176835 11:-0.58548293 
0.01 1:-0.29816285 2:0.46242017 3:0.093676918 4:-0.65823201 5:0.53382882 6:-0.65098997 7:-0.51871667 8:0.36236166 9:-0.33007337 10:5.2285398 11:-1.2455324 
0.01 1:-0.24041818 2:-0.55247302 3:-0.31718225 4:-0.65823201 5:0.36855588 6:-0.55752369 7:-0.28011645 8:-0.064213006 9:-0.92460212 10:1.4530019 11:-0.86836127 
0.01 1:0.3947732 2:0.40603722 3:0.093676918 4:-0.3789856 5:-0.39583143 6:1.4987347 7:0.79358451 8:-0.096206106 9:0.19839663 10:-0.52189477 11:-0.39689737 
0.01 1:0.27928386 2:-0.72162188 3:0.65860827 4:-0.23936239 5:-0.18924027 6:0.28367292 7:0.16725895 8:0.68229266 9:0.85898413 10:-0.11529839 11:-1.1512396 
0.01 1:0.3947732 2:0.74433495 3:-0.52261183 4:0.31913044 5:-0.2305585 6:-1.0248551 7:-0.9959171 8:0.46900532 9:-0.13189712 10:-0.63806517 11:-0.019726249 
0.01 1:-0.29816285 2:-0.66523893 3:2.0966154 4:-0.58842041 5:7.826497 6:0.19020663 7:0.67428441 8:0.30903983 9:-1.5191309 10:3.7764098 11:-1.0569468 
0.01 1:0.7989859 2:-1.1726855 3:1.3776118 4:-0.029927577 5:0.12064648 6:1.1248695 7:1.0918348 8:0.89557999 9:-0.19795587 10:0.93023516 11:-0.77406849 
0.01 1:1.665156 2:-0.72162188 3:1.1721822 4:-0.3789856 5:0.22394207 6:0.28367292 7:0.1076089 8:0.59164554 9:-1.3870134 10:-0.46380957 11:-0.019726249 
0.01 1:-0.9910989 2:0.96986677 3:-0.9848284 4:0.039884027 5:0.36855588 6:-0.18365853 7:-0.57836672 8:-0.03755209 9:0.85898413 10:-0.46380957 11:-0.20831181 
0.01 1:1.0877093 2:-0.60885597 3:1.531684 4:0.59837686 5:-0.37517231 6:-1.1183214 7:-1.0853922 8:0.20239616 9:-1.7833659 10:-0.17338359 11:-0.77406849 
0.01 1:-0.18267351 2:-0.60885597 3:0.24774911 4:-0.029927577 5:-0.16858115 6:0.93793694 7:2.2550108 8:0.68762484 9:-0.59430837 10:2.3823651 11:-0.67977571 
0.01 1:-1.3375669 2:-0.15779233 3:-1.3956876 4:-0.79785522 5:-0.64374083 6:-0.090192241 7:-0.60819175 8:-1.1946359 9:0.33051413 10:-1.2189171 11:-0.86836127 
0.01 1:2.3003473 2:-0.15779233 3:1.1208248 4:-0.23936239 5:0.017350901 6:-1.0248551 7:-0.96609207 8:1.855373 9:-0.79248462 10:-1.2770023 11:-0.77406849 
0.01 1:0.27928386 2:-0.66523893 3:1.8911858 4:-0.23936239 5:0.099987368 6:-0.65098997 7:-0.13099132 8:1.0022237 9:1.5195716 10:0.00087200463 11:0.074566531 
0.01 1:0.22153919 2:-0.38332415 3:0.19639171 4:-0.029927577 5:0.78173822 6:0.75100436 7:0.52515927 8:0.39435476 9:-1.3870134 10:0.46555358 11:-0.77406849 
0.01 1:0.27928386 2:0.74433495 3:-0.06039527 4:-0.58842041 5:-0.29253585 6:-1.1183214 7:-0.69766683 8:0.20239616 9:-1.0567196 10:0.46555358 11:-1.1512396 
0.01 1:-0.87560956 2:0.46242017 3:-1.190258 4:-0.72804362 5:-0.64374083 6:-1.0248551 7:-1.0853922 8:-0.78405775 9:0.72686663 10:-0.34763918 11:-0.86836127 
0.01 1:-0.35590752 2:0.74433495 3:-1.190258 4:-0.65823201 5:-1.0156049 6:-1.1183214 7:-1.1152172 8:-0.27750034 9:0.59474913 10:-1.1027467 11:-0.96265405 
0.01 1:0.16379452 2:-1.1163026 3:0.65860827 4:0.039884027 5:-0.1066038 6:0.0032740485 7:0.64445938 8:0.58631336 9:-0.06583837 10:-1.0446615 11:-0.96265405 
0.01 1:-0.18267351 2:-0.55247302 3:0.45317869 4:-0.16955078 5:-0.27187673 6:-0.55752369 7:0.047958842 8:0.46900532 9:0.19839663 10:-1.1608319 11:-0.96265405 
0.01 1:-0.87560956 2:-0.15779233 3:-0.83075621 4:-0.72804362 5:-0.27187673 6:0.0032740485 7:0.077783869 8:-0.67741409 9:0.33051413 10:0.75597957 11:-0.86836127 
0.008954881544119421 1:0.16379452 2:1.5336963 3:-0.83075621 4:-0.16955078 5:-0.085944682 6:-0.37059111 7:-0.45906661 8:0.62897082 9:0.59474913 10:-1.0446615 11:-0.49119015 
0.01 1:-0.87560956 2:1.3927389 3:-1.3956876 4:0.31913044 5:0.28591942 6:-0.74445626 7:-0.69766683 8:-0.11753484 9:0.92504288 10:-0.57997997 11:0.26315209 
0.01 1:0.27928386 2:-0.60885597 3:-0.31718225 4:-0.029927577 5:0.079328251 6:1.592201 7:1.2409599 8:0.80493287 9:-0.79248462 10:-0.81232076 11:-1.1512396 
0.01 1:-0.0094394959 2:0.68795199 3:-0.8821136 4:0.24931884 5:0.017350901 6:0.096740337 7:-0.19064137 8:0.69828921 9:-0.13189712 10:-0.63806517 11:-0.86836127 
0.01 1:-0.70237555 2:-0.55247302 3:0.76132307 4:2.0644205 5:-0.37517231 6:1.2183358 7:2.463786 8:0.30903983 9:0.72686663 10:0.34938319 11:0.074566531 
0.01 1:1.4341773 2:2.0411429 3:0.14503431 4:0.039884027 5:0.90569292 6:-0.83792255 7:0.40585916 8:0.60764209 9:-2.1136596 10:3.0213023 11:-0.20831181 
0.01 1:2.9932834 2:0.011356533 3:2.6615467 4:1.5757393 5:0.65778352 6:0.65753807 7:0.91288462 8:2.7085223 9:-0.85854337 10:0.63980917 11:2.431886 
0.01 1:-1.5685456 2:0.74433495 3:-1.3956876 4:-0.029927577 5:-0.45780878 6:-0.83792255 7:-0.93626704 8:-2.2184151 9:1.3874541 10:-0.46380957 11:2.3375933 
0.01 1:-0.64463088 2:-0.21417529 3:-0.16311006 4:-0.23936239 5:-0.37517231 6:-1.0248551 7:-0.30994148 8:-0.384144 9:0.13233788 10:-1.0446615 11:-0.96265405 
0.01 1:0.68349656 2:-0.89077075 3:1.274897 4:-0.3789856 5:-0.12726292 6:-0.93138884 7:-0.60819175 8:0.68229266 9:-0.85854337 10:-0.87040595 11:-0.86836127 
0.01 1:-1.5685456 2:0.067739488 3:-1.190258 4:-0.58842041 5:-0.80901376 6:-1.0248551 7:-0.9959171 8:-1.343937 9:2.7086291 10:-0.46380957 11:0.92320155 
0.01 1:0.45251787 2:-1.0599196 3:0.76132307 4:-0.51860881 5:-0.62308171 6:-0.65098997 7:-0.84679196 8:-1.4932381 9:-0.85854337 10:-0.63806517 11:0.92320155 
0.01 1:0.91447524 2:0.067739488 3:0.91539525 4:-0.16955078 5:-0.3545132 6:0.0032740485 7:-0.19064137 8:1.2688328 9:0.52869038 10:-0.23146878 11:-0.96265405 
0.01 1:0.97221991 2:-1.1726855 3:1.6343988 4:-0.23936239 5:-0.2305585 6:-1.2117877 7:-0.93626704 8:1.4287983 9:-0.72642587 10:0.69789437 11:-0.77406849 
0.01 1:0.45251787 2:-0.045026421 3:0.2991065 4:-0.86766683 5:-0.37517231 6:-0.65098997 7:-0.48889164 8:0.57564899 9:-0.46219087 10:-0.34763918 11:-1.0569468 
0.01 1:0.048305175 2:-1.3418344 3:0.65860827 4:-0.58842041 5:-0.43714966 6:-0.74445626 7:-0.78714191 8:-0.36814745 9:0.52869038 10:-0.34763918 11:0.074566531 
0.01 1:0.16379452 2:-0.21417529 3:1.2235396 4:-0.3789856 5:6.8968367 6:0.0032740485 7:0.46550922 8:0.62897082 9:-1.8494246 10:2.9632171 11:-1.3398252 
0.01 1:0.91447524 2:-0.15779233 3:1.1721822 4:7.8587837 5:2.4138084 6:2.9941953 7:1.0620098 8:3.0391177 9:-0.99066087 10:0.52363878 11:-1.5284107 
0.01 1:0.3947732 2:-0.43970711 3:1.1208248 4:0.039884027 5:-0.085944682 6:0.47060549 7:0.85323457 8:1.0555455 9:0.26445538 10:-0.52189477 11:-0.67977571 
0.01 1:-0.93335423 2:2.8868872 3:-0.9848284 4:-0.16955078 5:-0.43714966 6:0.28367292 7:-0.42924159 8:-0.12819921 9:1.3874541 10:-0.52189477 11:0.54603043 
0.01 1:-0.81786489 2:0.57518608 3:-1.2929728 4:-0.4487972 5:-0.20989938 6:0.19020663 7:-0.48889164 8:0.21306053 9:0.59474913 10:0.52363878 11:-0.58548293 
0.01 1:0.85673057 2:1.98476 3:-0.11175267 4:-0.029927577 5:0.32723765 6:1.7791335 7:3.2392367 8:2.2819476 9:0.66080788 10:0.058957202 11:0.73461599 
0.01 1:-0.52914154 2:0.011356533 3:-0.77939881 4:-0.4487972 5:1.5874438 6:-1.1183214 7:-1.0257421 8:0.15973869 9:-0.33007337 10:1.162576 11:-1.1512396 
0.01 1:2.3003473 2:-0.77800484 3:1.8398284 4:-0.16955078 5:0.058669134 6:-0.93138884 7:-0.84679196 8:1.9620167 9:-0.99066087 10:-0.98657635 11:-0.86836127 
0.01 1:1.6074113 2:-1.0035367 3:1.0694674 4:0.38894205 5:0.038010018 6:-1.0248551 7:-0.75731688 8:1.0022237 9:-0.92460212 10:-0.75423556 11:0.074566531 
0.01 1:-0.24041818 2:-1.9620469 3:0.65860827 4:-0.23936239 5:-0.80901376 6:2.0595324 7:0.61463435 8:-0.384144 9:0.13233788 10:1.5691723 11:0.82890877 
0.01 1:-0.41365219 2:0.65976052 3:-1.2416154 4:-0.4487972 5:-0.044626449 6:-0.18365853 7:0.31638408 8:0.095752493 9:0.39657288 10:-1.1608319 11:-0.11401903 
0.01 1:-0.41365219 2:-0.045026421 3:-0.77939881 4:0.31913044 5:-0.43714966 6:-0.37059111 7:0.19708398 8:0.20239616 9:0.33051413 10:-0.52189477 11:-1.2455324 
0.01 1:-0.47139686 2:-0.60885597 3:0.24774911 4:0.10969563 5:-0.43714966 6:-0.83792255 7:-0.63801678 8:-0.23484287 9:-0.46219087 10:-1.2770023 11:-0.019726249 
0.01 1:0.7989859 2:0.74433495 3:0.3504639 4:0.039884027 5:0.12064648 6:-0.37059111 7:1.2409599 8:0.66096392 9:-0.33007337 10:0.00087200463 11:-0.30260459 
0.01 1:-0.87560956 2:0.91348381 3:-1.3956876 4:2.1342321 5:0.74041998 6:0.47060549 7:0.34620911 8:1.5887638 9:0.99110163 10:0.34938319 11:-0.20831181 
0.01 1:-0.47139686 2:1.279973 3:-1.3956876 4:-0.4487972 5:-0.085944682 6:-0.93138884 7:-1.0257421 8:-0.0002268068 9:0.19839663 10:-0.98657635 11:-0.67977571 
0.01 1:0.16379452 2:0.12412244 3:-0.933471 4:0.52856526 5:-0.41649055 6:-0.74445626 7:-0.87661699 8:0.33570074 9:-0.52824962 10:-1.2770023 11:-0.39689737 
0.01 1:-0.81786489 2:0.23688835 3:-1.3956876 4:0.17950724 5:-0.14792203 6:0.47060549 7:-0.16081635 8:-0.82138304 9:0.66080788 10:-0.81232076 11:0.35744487 
0.01 1:1.0877093 2:-1.6801321 3:0.50453609 4:-0.23936239 5:-0.64374083 6:-0.18365853 7:-0.30994148 8:-0.30949344 9:-0.52824962 10:-0.98657635 11:-1.0569468 
0.01 1:0.74124123 2:0.1805054 3:-0.21446746 4:0.59837686 5:0.28591942 6:1.9660661 7:1.36026 8:1.535442 9:-0.06583837 10:-0.057213193 11:-0.30260459 
0.01 1:-0.35590752 2:0.1805054 3:-0.36853965 4:-0.3789856 5:-0.27187673 6:-0.65098997 7:-0.2204664 8:1.0555455 9:1.1232191 10:-0.23146878 11:-1.0569468 
0.01 1:-1.2220776 2:0.68795199 3:-1.0875432 4:-0.65823201 5:-0.78835465 6:-0.93138884 7:-0.84679196 8:-1.7278542 9:1.7177479 10:-0.69615036 11:1.4418118 
0.01 1:0.10604985 2:0.71614347 3:1.1208248 4:2.4832902 5:0.69910175 6:1.6856673 7:3.1199366 8:2.2819476 9:0.00022037948 10:2.7889615 11:-1.0569468 
0.01 1:-0.24041818 2:-0.55247302 3:-0.31718225 4:-0.65823201 5:0.36855588 6:-0.55752369 7:-0.28011645 8:-0.064213006 9:-0.92460212 10:1.4530019 11:-0.86836127 
0.01 1:-0.41365219 2:0.65976052 3:-1.2416154 4:-0.4487972 5:-0.044626449 6:-0.18365853 7:0.31638408 8:0.095752493 9:0.39657288 10:-1.1608319 11:-0.11401903 
0.01 1:-0.0094394959 2:1.0544412 3:-0.62532662 4:-0.51860881 5:0.017350901 6:-0.55752369 7:0.16725895 8:0.04243066 9:-0.52824962 10:0.63980917 11:-0.86836127 
0.01 1:-0.81786489 2:-0.77800484 3:-0.16311006 4:-0.30917399 5:0.28591942 6:-1.1183214 7:-1.1748673 8:-1.1199853 9:0.85898413 10:-0.46380957 11:0.92320155 
0.01 1:4.3791555 2:-0.9471537 3:1.9425432 4:3.4606526 5:0.16196472 6:0.56407178 7:0.73393446 8:0.46900532 9:-2.1797184 10:1.0464056 11:4.2234489 
0.01 1:-1.2220776 2:-0.38332415 3:-0.52261183 4:-0.65823201 5:-0.31319496 6:-0.83792255 7:-1.0555672 8:-1.3172761 9:1.9819829 10:-0.69615036 11:0.92320155 
0.01 1:-0.29816285 2:0.51880313 3:-1.1389006 4:-0.16955078 5:-0.18924027 6:-0.93138884 7:-0.84679196 8:0.33570074 9:-0.13189712 10:-0.17338359 11:-1.0569468 
0.01 1:-0.24041818 2:-0.89077075 3:-0.21446746 4:-0.51860881 5:-0.2305585 6:0.65753807 7:0.077783869 8:-0.22417851 9:-0.19795587 10:0.058957202 11:-1.0569468 
0.01 1:-1.1643329 2:0.23688835 3:0.042319522 4:-0.30917399 5:-0.82967288 6:-0.27712482 7:0.077783869 8:-1.5892174 9:0.66080788 10:-0.34763918 11:2.2433005 
0.01 1:-0.76012022 2:0.51880313 3:-0.47125444 4:-0.72804362 5:-0.54044525 6:-0.83792255 7:0.1076089 8:-0.8640405 9:-1.5191309 10:-0.34763918 11:-1.0569468 
0.01 1:1.2031986 2:-1.3982173 3:1.3776118 4:0.10969563 5:0.34789677 6:-1.0248551 7:-0.81696694 8:1.1088673 9:-0.39613212 10:-0.17338359 11:-0.86836127 
0.01 1:-0.58688621 2:-1.0035367 3:-0.16311006 4:-0.3789856 5:-0.43714966 6:1.1248695 7:0.047958842 8:-0.5121164 9:0.79292538 10:-0.69615036 11:-0.39689737 
0.01 1:-0.70237555 2:-0.3269412 3:-1.3956876 4:-0.23936239 5:-0.43714966 6:-0.83792255 7:-0.96609207 8:-0.82671522 9:0.59474913 10:-0.46380957 11:0.45173765 
0.01 1:0.62575189 2:-0.72162188 3:1.01811 4:-0.029927577 5:-0.023967332 6:-0.93138884 7:-0.78714191 8:0.53299152 9:-1.0567196 10:-0.92849115 11:0.074566531 
0.01 1:-0.12492884 2:1.4209304 3:-0.21446746 4:0.039884027 5:-0.6024226 6:-1.0248551 7:-0.93626704 8:0.14907433 9:0.39657288 10:-0.57997997 11:0.82890877 
0.01 1:-0.0094394959 2:0.49061165 3:-0.26582485 4:0.039884027 5:-0.023967332 6:-0.93138884 7:-0.81696694 8:0.78893632 9:-0.33007337 10:-0.28955398 11:-1.0569468 
0.01 1:-0.0094394959 2:0.99805824 3:-0.77939881 4:0.039884027 5:0.079328251 6:-0.37059111 7:-0.5485417 8:1.4287983 9:1.3213954 10:0.34938319 11:-0.39689737 
0.01 1:-0.067184167 2:-1.3982173 3:1.6857562 4:0.31913044 5:0.32723765 6:-0.55752369 7:-0.72749186 8:0.83159379 9:0.52869038 10:0.1170424 11:0.16885931 
0.01 1:0.048305175 2:0.60337756 3:0.45317869 4:-0.3789856 5:0.017350901 6:-0.090192241 7:0.25673403 8:0.38902257 9:0.00022037948 10:-0.52189477 11:-0.019726249 
0.01 1:0.3947732 2:0.91348381 3:-1.3956876 4:-0.099739181 5:-0.0033082155 6:0.28367292 7:-0.25029143 8:1.215511 9:0.26445538 10:-0.34763918 11:-1.0569468 
0.01 1:-1.5685456 2:0.51880313 3:-1.2416154 4:-0.72804362 5:-0.16858115 6:-0.93138884 7:-0.9959171 8:-0.9280267 9:2.3122766 10:-0.23146878 11:-0.30260459 
0.01 1:-1.1643329 2:0.40603722 3:-0.8821136 4:-0.65823201 5:-0.82967288 6:-0.37059111 7:-0.60819175 8:-1.9518059 9:1.5856304 10:-0.87040595 11:1.583251 
0.01 1:-0.0094394959 2:0.54699461 3:-0.36853965 4:-0.72804362 5:-0.16858115 6:1.0314032 7:2.1655357 8:0.25571799 9:-0.99066087 10:2.6727911 11:-1.2455324 
0.01 1:-0.76012022 2:-0.15779233 3:-0.67668402 4:-0.51860881 5:-0.20989938 6:-0.55752369 7:-0.69766683 8:-0.19218541 9:1.4535129 10:-0.28955398 11:-0.019726249 
0.01 1:2.531326 2:0.40603722 3:1.9425432 4:-0.16955078 5:-0.51978613 6:-0.93138884 7:-0.63801678 8:1.5887638 9:-1.8494246 10:-0.52189477 11:-0.49119015 
0.01 1:-0.58688621 2:0.29327131 3:0.14503431 4:-0.099739181 5:-0.29253585 6:-0.090192241 7:0.25673403 8:0.04243066 9:0.99110163 10:-0.40572438 11:-0.20831181 
0.01 1:0.62575189 2:0.34965426 3:-0.67668402 4:-0.3789856 5:-0.085944682 6:0.84447065 7:0.047958842 8:0.73561449 9:-1.1227784 10:-0.57997997 11:-0.67977571 
0.01 1:0.3947732 2:-0.43970711 3:1.1208248 4:0.039884027 5:-0.085944682 6:0.47060549 7:0.85323457 8:1.0555455 9:0.26445538 10:-0.52189477 11:-0.67977571 
0.01 1:-0.12492884 2:1.4209304 3:-0.21446746 4:0.039884027 5:-0.6024226 6:-1.0248551 7:-0.93626704 8:0.14907433 9:0.39657288 10:-0.57997997 11:0.82890877 
0.01 1:-0.18267351 2:-0.045026421 3:-1.2416154 4:-0.58842041 5:-0.37517231 6:-0.55752369 7:-0.33976651 8:-0.51744859 9:0.19839663 10:-0.52189477 11:-0.39689737 
0.01 1:-0.81786489 2:-0.15779233 3:-1.190258 4:-0.72804362 5:-0.065285565 6:0.28367292 7:0.077783869 8:-0.49078767 9:0.26445538 10:0.69789437 11:-0.86836127 
0.01 1:0.56800722 2:-0.77800484 3:0.86403786 4:-0.30917399 5:0.389215 6:1.6856673 7:2.3444859 8:0.57564899 9:-1.1227784 10:3.2536431 11:-0.86836127 
0.01 1:-0.41365219 2:-0.66523893 3:-0.16311006 4:-0.51860881 5:-0.16858115 6:-1.1183214 7:-1.0555672 8:-0.27750034 9:-0.19795587 10:-0.40572438 11:-0.86836127 
0.01 1:0.33702853 2:-1.2290685 3:0.45317869 4:0.039884027 5:-0.66439995 6:-0.55752369 7:-0.2204664 8:-0.58676697 9:0.59474913 10:0.1751276 11:1.3003727 
0.01 1:-0.9910989 2:0.99805824 3:-1.0361858 4:-0.65823201 5:-0.25121761 6:-0.93138884 7:-0.93626704 8:-0.27750034 9:0.85898413 10:-0.46380957 11:0.26315209 
0.01 1:0.048305175 2:1.2235901 3:-0.83075621 4:-0.4487972 5:0.038010018 6:0.0032740485 7:0.49533425 8:-0.11753484 9:-0.79248462 10:0.93023516 11:-0.77406849 
0.01 1:-1.0488436 2:0.29327131 3:-1.3956876 4:-0.23936239 5:0.16196472 6:-1.2117877 7:-0.9959171 8:-0.61342789 9:2.0480416 10:-0.23146878 11:1.0174943 
0.00032972814629784 1:-0.76012022 2:0.51880313 3:-0.8821136 4:-0.79785522 5:-0.3545132 6:1.0314032 7:0.49533425 8:-0.384144 9:-0.19795587 10:-0.28955398 11:-1.1512396 
0.01 1:1.7229006 2:-0.89077075 3:0.70996567 4:-0.16955078 5:-0.0033082155 6:-0.93138884 7:-0.90644202 8:1.1088673 9:-1.4530721 10:0.81406477 11:-1.0569468 
0.01 1:2.4158367 2:0.1805054 3:1.1208248 4:-0.099739181 5:-0.49912701 6:-1.0248551 7:-0.57836672 8:1.6954075 9:-1.5191309 10:1.2206611 11:0.45173765 
0.01 1:-1.1065882 2:1.5055048 3:-1.3956876 4:-0.23936239 5:-0.4784679 6:1.1248695 7:0.16725895 8:-1.5678887 9:1.1892779 10:-0.81232076 11:1.1117871 
0.01 1:-0.29816285 2:-0.49609006 3:0.042319522 4:0.10969563 5:0.24460118 6:0.19020663 7:1.4497351 8:-0.064213006 9:-0.59430837 10:0.058957202 11:-0.96265405 
0.01 1:-0.47139686 2:-0.83438779 3:1.0694674 4:0.039884027 5:-0.31319496 6:0.56407178 7:1.1216598 8:0.25571799 9:0.066279129 10:0.23321279 11:-0.77406849 
0.01 1:-0.47139686 2:-0.21417529 3:-0.41989704 4:-0.4487972 5:-0.25121761 6:-0.55752369 7:-0.071341265 8:-0.5441095 9:0.52869038 10:-0.69615036 11:-0.67977571 
0.01 1:2.4158367 2:-0.38332415 3:1.1208248 4:1.3663045 5:-0.37517231 6:0.93793694 7:0.077783869 8:0.73561449 9:-1.7173071 10:-0.52189477 11:-0.77406849 
0.01 1:-0.29816285 2:-0.55247302 3:2.1993302 4:-0.4487972 5:7.7645196 6:0.56407178 7:0.61463435 8:0.36236166 9:-1.1888371 10:3.6021542 11:-0.96265405 
0.01 1:-0.93335423 2:0.1805054 3:-0.933471 4:0.24931884 5:-0.18924027 6:-0.83792255 7:-0.72749186 8:-0.016223357 9:0.99110163 10:-0.28955398 11:-0.20831181 
0.01 1:-0.70237555 2:-1.0599196 3:0.042319522 4:-0.3789856 5:-0.12726292 6:1.4052684 7:0.64445938 8:0.11708123 9:0.92504288 10:-1.0446615 11:-0.96265405 
0.01 1:1.8961347 2:-0.3269412 3:0.86403786 4:-0.65823201 5:1.2155797 6:1.8725998 7:0.13743392 8:0.87425126 9:0.46263163 10:1.162576 11:-0.49119015 
0.01 1:-1.3375669 2:-0.15779233 3:-1.3956876 4:-0.79785522 5:-0.64374083 6:-0.090192241 7:-0.60819175 8:-1.1946359 9:0.33051413 10:-1.2189171 11:-0.86836127 
0.01 1:1.4341773 2:-0.15779233 3:0.96675265 4:-0.029927577 5:-0.31319496 6:-1.0248551 7:-0.57836672 8:1.8020512 9:-1.7173071 10:-0.11529839 11:-0.86836127 
0.01 1:-0.52914154 2:2.4640151 3:-1.3956876 4:-0.23936239 5:-0.0033082155 6:0.0032740485 7:-0.42924159 8:0.44767659 9:1.7838066 10:0.058957202 11:-0.20831181 
0.01 1:0.10604985 2:-0.38332415 3:0.19639171 4:-0.20445659 5:-0.20989938 6:1.4987347 7:0.34620911 8:0.68229266 9:0.13233788 10:-0.69615036 11:-0.58548293 
0.01 1:0.91447524 2:0.34965426 3:-1.0361858 4:0.59837686 5:0.28591942 6:1.4987347 7:0.73393446 8:1.8287121 9:0.00022037948 10:0.29129799 11:-0.58548293 
0.01 1:-0.64463088 2:0.71614347 3:-1.2416154 4:-0.51860881 5:-0.20989938 6:-0.83792255 7:-1.0257421 8:-0.45346239 9:0.19839663 10:-1.5674283 11:-0.86836127 
0.01 1:-0.18267351 2:0.63156904 3:-0.26582485 4:-0.099739181 5:0.12064648 6:-1.0248551 7:-0.39941656 8:-0.32015781 9:0.39657288 10:-0.46380957 11:0.54603043 
0.0099959424616265138 1:-0.47139686 2:-0.66523893 3:-0.62532662 4:0.80781167 5:0.32723765 6:1.2183358 7:1.4199101 8:0.60764209 9:-1.1227784 10:-0.46380957 11:-1.2455324 
0.01 1:-0.58688621 2:-0.43970711 3:0.45317869 4:2.343667 5:-0.29253585 6:-0.37059111 7:1.2111349 8:0.57564899 9:0.13233788 10:0.98832036 11:0.074566531 
0.01 1:2.0693687 2:0.29327131 3:1.9939006 4:-0.029927577 5:-0.33385408 6:-0.93138884 7:-0.28011645 8:1.3221547 9:-1.7173071 10:-0.57997997 11:-0.39689737 
0.01 1:-0.067184167 2:-0.77800484 3:0.55589348 4:-0.72804362 5:-0.62308171 6:-0.55752369 7:-0.51871667 8:-0.27750034 9:-0.33007337 10:0.46555358 11:-0.58548293 
0.0064825928078593945 1:-0.58688621 2:0.8007179 3:-0.06039527 4:-0.51860881 5:6.4629953 6:0.0032740485 7:0.13743392 8:0.095752493 9:-0.99066087 10:2.7889615 11:-0.96265405 
0.01 1:-0.47139686 2:0.46242017 3:-0.06039527 4:-0.4487972 5:-0.31319496 6:0.75100436 7:1.2409599 8:-0.32015781 9:-0.06583837 10:-0.75423556 11:-0.58548293 
0.01 1:0.45251787 2:-0.43970711 3:0.40182129 4:-0.099739181 5:-0.16858115 6:0.65753807 7:0.94270965 8:1.0555455 9:0.46263163 10:-0.23146878 11:-0.86836127 
0.01 1:-0.47139686 2:0.68795199 3:-0.47125444 4:3.1115946 5:-0.0033082155 6:1.0314032 7:1.4199101 8:1.2954937 9:0.46263163 10:0.63980917 11:-0.96265405 
0.01 1:1.7806453 2:-0.38332415 3:1.1721822 4:0.10969563 5:0.69910175 6:-1.1183214 7:-0.87661699 8:2.0686603 9:-1.1888371 10:0.23321279 11:-0.20831181 
0.01 1:-1.9150136 2:2.8868872 3:-0.16311006 4:-0.65823201 5:-0.78835465 6:1.4987347 7:1.4795601 8:-1.7705117 9:2.8407466 10:-0.23146878 11:1.0174943 
0.01 1:-0.70237555 2:0.1805054 3:-0.67668402 4:-0.65823201 5:-0.20989938 6:-0.83792255 7:-0.84679196 8:-0.42680147 9:-0.26401462 10:-0.23146878 11:-1.0569468 
0.01 1:-0.52914154 2:0.46242017 3:-1.3443302 4:-0.3789856 5:-0.29253585 6:-0.27712482 7:-0.25029143 8:0.40501912 9:1.1232191 10:-0.057213193 11:-0.58548293 
0.01 1:-1.3375669 2:0.63156904 3:-1.1389006 4:-0.4487972 5:-0.45780878 6:-0.65098997 7:-0.87661699 8:-0.93869107 9:1.3874541 10:0.69789437 11:0.16885931 
0.01 1:-0.29816285 2:0.63156904 3:-1.3956876 4:-0.4487972 5:-0.33385408 6:1.0314032 7:0.25673403 8:-0.27750034 9:0.00022037948 10:-0.17338359 11:0.54603043 
0.01 1:-0.70237555 2:-0.55247302 3:0.76132307 4:2.0644205 5:-0.37517231 6:1.2183358 7:2.463786 8:0.30903983 9:0.72686663 10:0.34938319 11:0.074566531 
0.01 1:-0.52914154 2:0.46242017 3:-1.3443302 4:-0.3789856 5:-0.29253585 6:-0.27712482 7:-0.25029143 8:0.40501912 9:1.1232191 10:-0.057213193 11:-0.58548293 
0.01 1:0.7989859 2:0.91348381 3:0.24774911 4:-0.029927577 5:-0.0033082155 6:0.56407178 7:1.330435 8:0.62897082 9:-0.13189712 10:-0.23146878 11:-0.30260459 
0.01 1:-0.70237555 2:-0.55247302 3:0.76132307 4:2.0644205 5:-0.3545132 6:1.1248695 7:2.433961 8:0.30903983 9:0.72686663 10:0.29129799 11:0.074566531 
0.01 1:1.83839 2:-0.60885597 3:1.0694674 4:0.039884027 5:-0.2305585 6:-0.74445626 7:-0.78714191 8:0.95956619 9:-1.4530721 10:-0.75423556 11:0.54603043 
0.01 1:-0.12492884 2:0.74433495 3:-0.26582485 4:-0.23936239 5:-0.39583143 6:-0.65098997 7:-0.69766683 8:0.04243066 9:-0.06583837 10:3.1374727 11:-0.11401903 
0.01 1:-0.47139686 2:0.99805824 3:-0.16311006 4:-0.51860881 5:5.6159715 6:-0.090192241 7:0.49533425 8:-0.17085667 9:-2.0476009 10:5.4027954 11:-0.86836127 
0.01 1:0.56800722 2:-1.1726855 3:1.531684 4:-0.3789856 5:-0.29253585 6:1.0314032 7:0.5549843 8:0.095752493 9:-0.19795587 10:0.75597957 11:0.26315209 
0.01 1:-1.2798223 2:-0.83438779 3:-0.62532662 4:-0.51860881 5:-0.33385408 6:-0.93138884 7:-0.81696694 8:-0.65075317 9:0.72686663 10:-0.52189477 11:-0.96265405 
0.01 1:-0.87560956 2:-0.27055824 3:-0.11175267 4:-0.3789856 5:-0.25121761 6:1.2183358 7:0.43568419 8:-0.75739684 9:0.19839663 10:-0.34763918 11:-0.019726249 
0.01 1:-0.76012022 2:0.34965426 3:-1.3956876 4:-0.58842041 5:-0.74703641 6:-1.2117877 7:-1.1450422 8:-0.384144 9:0.66080788 10:-1.1027467 11:-0.11401903 
0.01 1:-1.2798223 2:-1.1726855 3:-0.11175267 4:-0.16955078 5:-0.3545132 6:0.65753807 7:0.34620911 8:-0.20818196 9:0.72686663 10:1.8015131 11:0.16885931 
0.01 1:0.91447524 2:-0.15779233 3:1.1721822 4:7.8587837 5:2.4138084 6:2.9941953 7:1.0620098 8:3.0391177 9:-0.99066087 10:0.52363878 11:-1.5284107 
0.01 1:-0.29816285 2:0.1805054 3:-0.41989704 4:-0.51860881 5:0.32723765 6:-0.37059111 7:0.018133815 8:-0.17085667 9:-0.79248462 10:1.5691723 11:-0.86836127 
0.01 1:-0.29816285 2:0.96986677 3:-1.0875432 4:-0.4487972 5:-0.18924027 6:0.3771392 7:-0.33976651 8:-0.23484287 9:0.59474913 10:0.1751276 11:0.45173765 
0.01 1:-0.41365219 2:0.12412244 3:-0.31718225 4:-0.23936239 5:-0.3545132 6:-0.83792255 7:-0.5485417 8:-0.17085667 9:-0.19795587 10:-0.63806517 11:-0.67977571 
0.01 1:-0.067184167 2:0.23688835 3:-0.06039527 4:-0.23936239 5:-0.58176348 6:1.1248695 7:0.5549843 8:-0.43746584 9:-0.06583837 10:-1.3350875 11:-0.30260459 
0.01 1:-0.76012022 2:1.4209304 3:-0.9848284 4:-0.3789856 5:0.099987368 6:-0.55752369 7:-0.81696694 8:-0.59743134 9:0.59474913 10:-1.1027467 11:-0.39689737 
0.01 1:0.10604985 2:-0.72162188 3:0.65860827 4:2.6229134 5:-0.78835465 6:-1.2117877 7:-1.0853922 8:-0.56543824 9:-0.19795587 10:-0.57997997 11:1.4889582 
0.01 1:-0.76012022 2:0.71614347 3:-0.57396923 4:-0.30917399 5:-0.29253585 6:-0.74445626 7:-0.63801678 8:-0.35215091 9:0.39657288 10:-0.63806517 11:-0.67977571 
0.01 1:-0.47139686 2:-0.15779233 3:0.45317869 4:2.4832902 5:-0.3545132 6:0.096740337 7:1.6585103 8:0.57564899 9:0.26445538 10:0.81406477 11:0.074566531 
0.01 1:-0.81786489 2:0.29327131 3:-0.36853965 4:-0.55351461 5:-0.62308171 6:-0.74445626 7:-0.72749186 8:-1.866491 9:0.46263163 10:-0.98657635 11:1.2060799 
0.01 1:-0.24041818 2:-1.9620469 3:0.65860827 4:-0.51860881 5:-0.54044525 6:-0.83792255 7:-0.78714191 8:-1.3972588 9:-0.19795587 10:0.23321279 11:0.64032321 
0.01 1:2.184858 2:-0.72162188 3:1.274897 4:-0.3789856 5:0.079328251 6:-0.090192241 7:0.226909 8:1.7487293 9:-1.8494246 10:0.00087200463 11:-0.20831181 
0.01 1:-0.47139686 2:0.40603722 3:-1.2416154 4:-0.51860881 5:0.1413056 6:0.84447065 7:1.5690352 8:-0.91736234 9:0.26445538 10:-0.69615036 11:-0.30260459 
0.01 1:-0.58688621 2:0.32146279 3:-0.47125444 4:-0.099739181 5:-0.20989938 6:-0.090192241 7:0.40585916 8:-0.18152104 9:0.00022037948 10:-0.69615036 11:-0.58548293 
0.01 1:0.97221991 2:0.91348381 3:-0.83075621 4:-0.79785522 5:-0.085944682 6:-0.74445626 7:-0.6678418 8:-0.50145204 9:-2.8403059 10:-1.1027467 11:-0.67977571 
0.01 1:0.22153919 2:1.7592281 3:-1.3956876 4:-0.79785522 5:-0.4784679 6:0.75100436 7:-0.39941656 8:-0.704075 9:-0.26401462 10:-0.63806517 11:-0.67977571 
0.01 1:-0.9910989 2:0.74433495 3:-1.3956876 4:0.31913044 5:0.55448793 6:0.47060549 7:-0.45906661 8:-0.22951069 9:0.92504288 10:-0.17338359 11:-0.11401903 
0.01 1:-0.76012022 2:0.23688835 3:-1.2929728 4:-0.3789856 5:-0.33385408 6:0.096740337 7:-0.60819175 8:-0.51744859 9:0.33051413 10:-0.28955398 11:-0.20831181 
0.01 1:2.4158367 2:-0.38332415 3:1.8398284 4:-0.3789856 5:-0.3545132 6:-0.93138884 7:-0.93626704 8:1.1088673 9:-2.1136596 10:1.2206611 11:-0.20831181 
0.01 1:0.10604985 2:-0.49609006 3:1.1721822 4:-0.4487972 5:5.8019036 6:-0.090192241 7:-0.25029143 8:-0.20284977 9:-1.9815421 10:2.5566207 11:-0.96265405 
0.01 1:0.16379452 2:-0.21417529 3:0.093676918 4:-0.3789856 5:0.45119235 6:0.28367292 7:2.5830861 8:0.25571799 9:-2.5100121 10:7.668118 11:-0.58548293 
0.01 1:-0.18267351 2:-0.045026421 3:-0.11175267 4:-0.3789856 5:-0.20989938 6:0.28367292 7:0.37603414 8:-0.32015781 9:-0.06583837 10:-1.0446615 11:-0.20831181 
0.01 1:-0.64463088 2:-1.0599196 3:0.24774911 4:-0.029927577 5:0.038010018 6:2.5268639 7:1.9865856 8:-0.064213006 9:0.066279129 10:0.75597957 11:0.64032321 
0.01 1:-1.0488436 2:-0.38332415 3:-0.67668402 4:-0.099739181 5:0.53382882 6:-0.65098997 7:-0.28011645 8:0.31970419 9:2.3122766 10:-0.057213193 11:-0.58548293 
0.01 1:-1.1065882 2:-0.72162188 3:-0.21446746 4:-0.65823201 5:-0.45780878 6:-1.0248551 7:-1.0257421 8:-0.49078767 9:0.19839663 10:-0.57997997 11:-1.1512396 
0.01 1:0.91447524 2:0.57518608 3:-0.16311006 4:-0.099739181 5:-0.2305585 6:-0.93138884 7:-0.39941656 8:0.36236166 9:-1.4530721 10:-0.52189477 11:-0.96265405 
0.01 1:-0.29816285 2:-0.55247302 3:0.24774911 4:0.17950724 5:-0.16858115 6:1.2183358 7:0.34620911 8:0.36236166 9:0.00022037948 10:-0.11529839 11:-0.11401903 
0.01 1:-1.1065882 2:0.63156904 3:-0.31718225 4:-0.51860881 5:-0.14792203 6:-0.18365853 7:-0.45906661 8:0.090420309 9:1.8498654 10:0.00087200463 11:-0.58548293 
0.01 1:-0.067184167 2:-1.3982173 3:1.6857562 4:0.31913044 5:0.32723765 6:-0.55752369 7:-0.72749186 8:0.83159379 9:0.52869038 10:0.1170424 11:0.16885931 
0.01 1:-0.81786489 2:0.8007179 3:-1.0875432 4:-0.30917399 5:-0.16858115 6:-0.74445626 7:-0.39941656 8:0.92224091 9:2.4443941 10:0.29129799 11:-0.77406849 
0.01 1:2.8777941 2:-0.55247302 3:1.5830414 4:-0.4487972 5:-0.37517231 6:-0.090192241 7:-0.19064137 8:1.9620167 9:-1.6512484 10:-0.98657635 11:-1.3398252 
0.01 1:0.91447524 2:0.34965426 3:-1.0361858 4:0.59837686 5:0.28591942 6:1.4987347 7:0.73393446 8:1.8287121 9:0.00022037948 10:0.29129799 11:-0.58548293 
0.01 1:0.68349656 2:1.871994 3:-0.06039527 4:-0.4487972 5:-0.18924027 6:-0.27712482 7:-0.5485417 8:0.21306053 9:-0.39613212 10:-0.23146878 11:-0.39689737 
0.01 1:-1.2220776 2:0.40603722 3:-0.9848284 4:-0.3789856 5:0.038010018 6:1.4987347 7:-0.071341265 8:-0.97068417 9:0.92504288 10:-0.46380957 11:0.074566531 
0.01 1:-0.87560956 2:0.8007179 3:-1.3956876 4:-0.4487972 5:-0.16858115 6:0.56407178 7:-0.2204664 8:0.15440651 9:0.59474913 10:0.46555358 11:-0.67977571 
0.01 1:0.22153919 2:-1.3418344 3:1.274897 4:-0.65823201 5:0.5131697 6:-0.37059111 7:-0.28011645 8:0.095752493 9:-0.39613212 10:-0.46380957 11:-0.86836127 
0.01 1:-0.87560956 2:1.3645475 3:-1.3956876 4:-0.51860881 5:-0.45780878 6:1.6856673 7:0.16725895 8:0.46900532 9:2.0480416 10:0.1170424 11:-0.49119015 
0.01 1:-0.87560956 2:2.1539088 3:-1.0875432 4:-0.3789856 5:-0.58176348 6:-1.1183214 7:-1.0555672 8:-0.42680147 9:1.4535129 10:-0.11529839 11:0.45173765 
0.01 1:-0.93335423 2:0.067739488 3:-0.72804142 4:-0.3789856 5:-0.25121761 6:-0.090192241 7:-0.30994148 8:0.30903983 9:1.9819829 10:-0.11529839 11:-0.58548293 
0.01 1:-1.2798223 2:-1.1726855 3:-0.11175267 4:-0.51860881 5:-0.044626449 6:-1.0248551 7:-0.42924159 8:-1.1093209 9:0.33051413 10:-1.2770023 11:-0.30260459 
0.01 1:-0.70237555 2:1.0826327 3:-1.3956876 4:-0.51860881 5:0.71976087 6:-0.93138884 7:-0.96609207 8:-0.24017506 9:0.92504288 10:-0.46380957 11:-0.58548293 
0.01 1:-0.70237555 2:1.9565685 3:-1.1389006 4:2.2040438 5:-0.12726292 6:-1.2117877 7:-0.96609207 8:0.72495012 9:0.59474913 10:-0.81232076 11:-0.20831181 
0.01 1:-0.47139686 2:0.29327131 3:-0.67668402 4:-0.23936239 5:-0.2305585 6:1.0314032 7:0.40585916 8:-0.22417851 9:-0.19795587 10:-0.40572438 11:-0.58548293 
0.01 1:-0.76012022 2:0.88529233 3:-1.3956876 4:-0.4487972 5:-0.43714966 6:2.246465 7:0.49533425 8:0.62897082 9:1.9159241 10:0.87214996 11:-0.49119015 
0.01 1:-0.35590752 2:0.99805824 3:-0.8821136 4:0.039884027 5:-0.085944682 6:-0.65098997 7:-0.60819175 8:0.46900532 9:0.52869038 10:-0.98657635 11:-0.67977571 
0.01 1:-0.70237555 2:0.74433495 3:-1.3956876 4:0.94743488 5:-0.044626449 6:0.096740337 7:-0.041516238 8:0.46900532 9:0.99110163 10:-0.69615036 11:-0.86836127 
0.01 1:-0.29816285 2:1.6182707 3:-1.3443302 4:0.039884027 5:-0.29253585 6:2.9941953 7:1.30061 8:-0.27216816 9:0.46263163 10:-0.23146878 11:0.35744487 
0.01 1:-0.64463088 2:1.1108242 3:-1.1389006 4:1.4710219 5:-0.044626449 6:-1.1183214 7:-1.0555672 8:-0.27750034 9:0.66080788 10:-1.5674283 11:0.45173765 
0.01 1:-0.70237555 2:-0.55247302 3:-0.52261183 4:-0.51860881 5:-0.12726292 6:1.0314032 7:0.13743392 8:-0.20284977 9:1.1892779 10:-0.11529839 11:-0.019726249 
0.01 1:-0.52914154 2:1.1953986 3:-1.0361858 4:-0.58842041 5:-0.044626449 6:-0.090192241 7:0.047958842 8:-0.90669797 9:-1.2548959 10:-1.0446615 11:-0.39689737 
0.01 1:0.97221991 2:0.29327131 3:-0.26582485 4:-0.4487972 5:-0.16858115 6:-0.65098997 7:-0.42924159 8:0.36236166 9:-1.1888371 10:-0.63806517 11:-0.86836127 
0.01 1:-0.9910989 2:1.5336963 3:-1.2416154 4:3.6700874 5:-0.18924027 6:-0.93138884 7:-1.0257421 8:-0.22417851 9:1.3874541 10:-0.92849115 11:1.6775438 
0.01 1:-0.64463088 2:0.94167529 3:-0.72804142 4:-0.3789856 5:-0.25121761 6:-0.37059111 7:-0.78714191 8:-0.6720819 9:-0.13189712 10:-0.69615036 11:-0.30260459 
0.01 1:4.1481768 2:0.65976052 3:1.1208248 4:1.1568697 5:0.1413056 6:-0.55752369 7:-0.69766683 8:3.4283671 9:-2.5760709 10:0.46555358 11:0.64032321 
0.01 1:1.7229006 2:-0.89077075 3:1.1721822 4:-0.51860881 5:0.038010018 6:0.3771392 7:0.018133815 8:0.33036856 9:-1.0567196 10:-0.52189477 11:0.074566531 
0.01 1:-0.41365219 2:0.85710086 3:-1.2929728 4:-0.86766683 5:-0.33385408 6:-0.65098997 7:-0.78714191 8:-0.11753484 9:-0.92460212 10:2.4404503 11:-1.1512396 
0.01 1:0.56800722 2:-1.4546003 3:0.70996567 4:-0.3789856 5:0.058669134 6:-0.93138884 7:-0.90644202 8:0.68229266 9:-0.19795587 10:0.23321279 11:-0.67977571 
0.01 1:0.3947732 2:0.29327131 3:-0.11175267 4:-0.3789856 5:0.32723765 6:-0.74445626 7:-0.75731688 8:0.51699497 9:-0.26401462 10:0.34938319 11:-0.77406849 
0.01 1:-1.7995243 2:-1.1726855 3:-0.11175267 4:-0.51860881 5:0.30657853 6:-0.27712482 7:0.1076089 8:-0.5441095 9:0.46263163 10:-0.63806517 11:-1.1512396 
0.01 1:-0.64463088 2:-0.77800484 3:0.24774911 4:-0.51860881 5:-0.4784679 6:1.6856673 7:0.40585916 8:0.22372489 9:0.99110163 10:0.69789437 11:-0.49119015 
0.01 1:0.33702853 2:-1.2290685 3:1.531684 4:-0.3789856 5:0.47185147 6:0.93793694 7:1.1514848 8:0.20239616 9:-0.33007337 10:-0.75423556 11:-0.67977571 
0.01 1:0.91447524 2:-1.0035367 3:0.70996567 4:-0.16955078 5:-0.1066038 6:-0.4640574 7:0.43568419 8:0.78893632 9:-0.66036712 10:-0.92849115 11:-0.86836127 
0.01 1:-0.29816285 2:0.1805054 3:-0.41989704 4:-0.51860881 5:0.32723765 6:-0.37059111 7:0.018133815 8:-0.17085667 9:-0.79248462 10:1.5691723 11:-0.86836127 
0.01 1:-0.76012022 2:0.29327131 3:-0.77939881 4:-0.4487972 5:0.058669134 6:1.6856673 7:2.3146609 8:-0.59743134 9:0.85898413 10:-1.0446615 11:0.074566531 
0.01 1:0.16379452 2:-0.89077075 3:1.9425432 4:2.692725 5:-0.16858115 6:-1.2117877 7:-1.1450422 8:0.77293977 9:-0.26401462 10:-0.46380957 11:0.54603043 
0.01 1:-1.1643329 2:2.7741213 3:-1.3956876 4:-0.3789856 5:-0.1066038 6:0.096740337 7:-0.6678418 8:-1.2532899 9:1.8498654 10:-0.63806517 11:0.73461599 
0.01 1:-0.76012022 2:-0.60885597 3:-0.41989704 4:-0.16955078 5:-0.3545132 6:0.19020663 7:-0.30994148 8:-1.0453347 9:0.52869038 10:-0.57997997 11:0.45173765 
0.01 1:-0.47139686 2:0.88529233 3:-1.0361858 4:-0.029927577 5:-0.62308171 6:-1.0248551 7:-1.1152172 8:-0.21351414 9:0.46263163 10:-0.63806517 11:0.45173765 
0.01 1:-1.5685456 2:2.1821003 3:-1.3956876 4:-0.30917399 5:-0.9742867 6:0.096740337 7:0.94270965 8:-1.7385186 9:2.4443941 10:0.40746839 11:0.92320155 
0.01 1:-0.64463088 2:0.94167529 3:-0.72804142 4:-0.3789856 5:-0.25121761 6:-0.37059111 7:-0.78714191 8:-0.6720819 9:-0.13189712 10:-0.69615036 11:-0.30260459 
0.01 1:-0.41365219 2:-0.77800484 3:0.19639171 4:-0.16955078 5:-0.12726292 6:0.65753807 7:0.73393446 8:0.78893632 9:1.3874541 10:-0.057213193 11:-0.67977571 
0.01 1:0.51026254 2:0.34965426 3:-0.16311006 4:0.52856526 5:0.2652603 6:0.3771392 7:0.018133815 8:1.1088673 9:-0.33007337 10:0.058957202 11:-0.77406849 
0.01 1:0.91447524 2:1.0826327 3:1.4289692 4:-0.58842041 5:0.98832938 6:0.75100436 7:0.16725895 8:0.42634786 9:0.26445538 10:1.6272575 11:-0.39689737 
0.01 1:-0.81786489 2:0.29327131 3:-1.3443302 4:-0.4487972 5:-0.16858115 6:2.246465 7:0.226909 8:0.05842721 9:0.59474913 10:0.40746839 11:-0.67977571 
0.01 1:-0.76012022 2:-0.10140938 3:-0.933471 4:-0.30917399 5:-0.54044525 6:-1.1183214 7:-1.1152172 8:-0.46945894 9:0.26445538 10:-0.69615036 11:0.074566531 
0.01 1:0.56800722 2:-0.55247302 3:0.86403786 4:-0.4487972 5:-0.065285565 6:-0.65098997 7:-0.72749186 8:0.19173179 9:-0.19795587 10:-0.63806517 11:-0.86836127 
0.01 1:2.531326 2:0.40603722 3:1.1208248 4:0.17950724 5:-0.27187673 6:-1.0248551 7:-0.81696694 8:1.4287983 9:-1.1227784 10:-0.52189477 11:0.92320155 
0.01 1:1.8961347 2:-0.66523893 3:1.5830414 4:0.17950724 5:0.16196472 6:0.84447065 7:1.6286853 8:1.8767017 9:-1.1888371 10:-0.75423556 11:-0.39689737 
0.01 1:0.048305175 2:0.1805054 3:-1.190258 4:-0.3789856 5:-0.12726292 6:-0.55752369 7:-0.72749186 8:0.46900532 9:-0.59430837 10:-1.2770023 11:-0.77406849 
0.01 1:-0.93335423 2:0.82890938 3:-1.0361858 4:-0.099739181 5:0.017350901 6:0.096740337 7:1.0620098 8:-0.49078767 9:0.26445538 10:-0.69615036 11:-0.30260459 
0.01 1:-0.41365219 2:-0.66523893 3:1.1208248 4:-0.3789856 5:-0.0033082155 6:0.0032740485 7:-0.10116629 8:0.68229266 9:1.1232191 10:-0.11529839 11:-1.2455324 
0.01 1:0.97221991 2:-1.0035367 3:0.91539525 4:-0.029927577 5:0.079328251 6:0.3771392 7:1.2409599 8:1.3114903 9:-1.0567196 10:-1.3350875 11:-0.96265405 
0.01 1:0.10604985 2:-0.21417529 3:-0.83075621 4:-0.16955078 5:-0.085944682 6:-0.65098997 7:0.61463435 8:0.04243066 9:-0.92460212 10:-0.75423556 11:-0.96265405 
0.01 1:1.4341773 2:-1.5109832 3:0.91539525 4:0.52856526 5:-0.58176348 6:0.3771392 7:0.077783869 8:0.25571799 9:-1.1888371 10:-0.69615036 11:-0.77406849 
0.01 1:-0.41365219 2:-0.60885597 3:-0.9848284 4:0.10969563 5:-0.085944682 6:-0.090192241 7:0.047958842 8:0.04243066 9:-0.66036712 10:-0.40572438 11:-0.39689737 
0.01 1:-0.87560956 2:-0.27055824 3:-0.9848284 4:-0.51860881 5:-0.29253585 6:2.246465 7:0.52515927 8:-0.76272902 9:-1.2548959 10:-0.98657635 11:-0.77406849 
0.01 1:-1.3375669 2:-0.15779233 3:-1.3956876 4:-0.79785522 5:-0.64374083 6:-0.090192241 7:-0.60819175 8:-1.1946359 9:0.33051413 10:-1.2189171 11:-0.86836127 
0.01 1:0.97221991 2:-1.1726855 3:1.6343988 4:-0.23936239 5:-0.2305585 6:-1.2117877 7:-0.93626704 8:1.4287983 9:-0.72642587 10:0.69789437 11:-0.77406849 
0.01 1:1.2031986 2:0.63156904 3:-0.16311006 4:0.17950724 5:0.34789677 6:1.2183358 7:0.19708398 8:1.6420857 9:-0.46219087 10:0.058957202 11:-0.49119015 
0.01 1:0.27928386 2:-0.3269412 3:1.1208248 4:0.24931884 5:-0.065285565 6:0.096740337 7:1.8971105 8:0.78893632 9:-0.13189712 10:-0.34763918 11:-0.58548293 
0.01 1:-1.3375669 2:-0.15779233 3:-1.190258 4:-0.23936239 5:0.079328251 6:-0.27712482 7:-0.60819175 8:-0.13353139 9:0.99110163 10:-1.1027467 11:-0.39689737 
0.01 1:1.2031986 2:-0.49609006 3:0.76132307 4:-0.72804362 5:1.1742614 6:1.6856673 7:0.047958842 8:0.85292252 9:0.46263163 10:1.162576 11:-0.49119015 
0.01 1:-0.47139686 2:1.1108242 3:-1.190258 4:-0.72804362 5:-0.25121761 6:-0.74445626 7:-0.93626704 8:-0.87470487 9:-0.33007337 10:-0.75423556 11:-0.77406849 
0.01 1:-0.47139686 2:0.40603722 3:-1.2416154 4:-0.51860881 5:0.1413056 6:0.84447065 7:1.5690352 8:-0.91736234 9:0.26445538 10:-0.69615036 11:-0.30260459 
0.01 1:2.8200494 2:-0.83438779 3:1.4289692 4:0.10969563 5:-0.14792203 6:-1.0248551 7:-0.90644202 8:2.0686603 9:-2.1797184 10:-0.69615036 11:-0.96265405 
0.01 1:1.2031986 2:0.26507983 3:1.7371136 4:0.039884027 5:-0.25121761 6:-0.4640574 7:-0.6678418 8:1.7487293 9:-0.99066087 10:0.1751276 11:-1.3398252 
0.01 1:-0.29816285 2:-0.15779233 3:-0.933471 4:-0.23936239 5:0.55448793 6:-0.55752369 7:-0.13099132 8:0.20239616 9:-0.85854337 10:-0.23146878 11:-0.86836127 
0.01 1:1.3764326 2:-0.38332415 3:0.60725088 4:-0.3789856 5:-0.56110436 6:-0.83792255 7:-0.93626704 8:0.73561449 9:-0.85854337 10:-0.23146878 11:-0.86836127 
0.01 1:0.33702853 2:0.60337756 3:0.50453609 4:-0.58842041 5:3.6120372 6:-1.0248551 7:0.46550922 8:0.20239616 9:-2.0476009 10:2.4985355 11:-1.0569468 
0.01 1:-1.1065882 2:2.0129514 3:-1.3956876 4:-0.16955078 5:1.6081029 6:-0.93138884 7:-1.0257421 8:-0.64542099 9:1.6516891 10:-0.87040595 11:0.35744487 
0.01 1:1.3186879 2:-0.9471537 3:1.6857562 4:-0.23936239 5:1.3188752 6:-0.83792255 7:-0.84679196 8:1.0022237 9:-1.7833659 10:2.3242799 11:-0.96265405 
0.01 1:-0.87560956 2:2.1821003 3:0.093676918 4:1.5757393 5:-0.37517231 6:-0.090192241 7:-0.2204664 8:-0.50678422 9:1.4535129 10:-0.69615036 11:0.64032321 
0.01 1:-0.47139686 2:0.29327131 3:-1.2416154 4:1.0870581 5:-0.16858115 6:1.0314032 7:-0.011691212 8:-0.42680147 9:-1.9154834 10:-1.1027467 11:-1.1512396 
0.01 1:2.3003473 2:-0.77800484 3:1.8398284 4:-0.16955078 5:0.058669134 6:-0.93138884 7:-0.84679196 8:1.9620167 9:-0.99066087 10:-0.98657635 11:-0.86836127 
0.01 1:-0.9910989 2:0.57518608 3:-1.3956876 4:1.2266813 5:0.099987368 6:3.2745942 7:0.92779713 8:-0.6080957 9:-0.72642587 10:-1.2189171 11:-0.86836127 
0.01 1:-1.2220776 2:0.63156904 3:-0.933471 4:-0.029927577 5:-0.14792203 6:-0.090192241 7:-0.60819175 8:-0.71473937 9:1.7177479 10:-0.17338359 11:1.4889582 
0.01 1:-0.12492884 2:-0.83438779 3:1.0694674 4:-0.51860881 5:1.4221708 6:-1.0248551 7:-0.87661699 8:0.46900532 9:-0.06583837 10:2.2661947 11:-0.96265405 
0.01 1:-0.9910989 2:1.98476 3:-1.190258 4:-0.23936239 5:-0.45780878 6:-0.37059111 7:-0.78714191 8:-0.19218541 9:1.4535129 10:-0.57997997 11:-0.49119015 
0.01 1:-0.52914154 2:-0.9471537 3:0.093676918 4:0.039884027 5:-0.023967332 6:0.93793694 7:0.76375949 8:-0.14419576 9:0.52869038 10:0.1170424 11:0.54603043 
0.01 1:-0.29816285 2:0.011356533 3:-1.3443302 4:-0.65823201 5:-0.2305585 6:-1.2117877 7:-0.81696694 8:-0.91736234 9:-0.99066087 10:-1.1608319 11:-0.58548293 
0.01 1:-1.2798223 2:-1.0599196 3:-0.11175267 4:-0.51860881 5:-0.085944682 6:-1.1183214 7:-0.5485417 8:-1.1093209 9:0.33051413 10:-1.2770023 11:-0.30260459 
0.01 1:-0.70237555 2:-0.9471537 3:0.14503431 4:-0.65823201 5:-0.16858115 6:1.7791335 7:0.70410943 8:0.11174904 9:0.85898413 10:-0.92849115 11:-0.96265405 
0.01 1:-1.2220776 2:-0.43970711 3:-0.36853965 4:-0.65823201 5:-0.39583143 6:-1.2117877 7:-0.93626704 8:-0.49078767 9:0.66080788 10:-0.57997997 11:-1.1512396 
0.01 1:0.048305175 2:0.1805054 3:-0.9848284 4:-0.30917399 5:0.34789677 6:0.0032740485 7:-0.071341265 8:-0.49078767 9:-1.1888371 10:-0.81232076 11:0.54603043 
0.01 1:0.22153919 2:0.54699461 3:-0.57396923 4:-0.3789856 5:0.2652603 6:-0.27712482 7:0.077783869 8:-0.27750034 9:-1.1227784 10:-0.52189477 11:0.54603043 
0.01 1:4.1481768 2:0.65976052 3:1.1208248 4:1.1568697 5:0.1413056 6:-0.55752369 7:-0.69766683 8:3.4283671 9:-2.5760709 10:0.46555358 11:0.64032321 
0.01 1:-0.93335423 2:-0.27055824 3:-0.9848284 4:-0.30917399 5:-0.49912701 6:0.19020663 7:-0.36959153 8:-0.6400888 9:0.13233788 10:-0.11529839 11:-0.67977571 
-0.01 1:-0.87560956 2:0.68795199 3:-1.2929728 4:-0.30917399 5:-0.20989938 6:-0.74445626 7:-0.93626704 8:-0.9280267 9:0.26445538 10:-0.23146878 11:-0.019726249 
-0.01 1:-1.2798223 2:-0.27055824 3:-0.933471 4:-0.58842041 5:-0.20989938 6:0.19020663 7:-0.48889164 8:-1.4399163 9:0.92504288 10:-0.69615036 11:0.73461599 
-0.01 1:1.491922 2:-0.77800484 3:1.01811 4:-0.51860881 5:0.61646528 6:-0.93138884 7:-0.96609207 8:0.78893632 9:-0.06583837 10:0.52363878 11:-0.58548293 
-0.01 1:2.1271133 2:-0.77800484 3:1.9939006 4:0.31913044 5:0.099987368 6:-0.37059111 7:-0.48889164 8:1.535442 9:-0.85854337 10:-0.17338359 11:0.35744487 
-0.01 1:1.491922 2:0.011356533 3:1.1208248 4:1.4361161 5:0.61646528 6:-0.55752369 7:-0.87661699 8:1.855373 9:-1.5851896 10:-0.57997997 11:1.2060799 
-0.01 1:-0.24041818 2:0.29327131 3:-0.21446746 4:-0.16955078 5:-0.25121761 6:0.65753807 7:1.4199101 8:0.07442376 9:-0.66036712 10:-0.46380957 11:-0.86836127 
-0.01 1:0.62575189 2:-0.72162188 3:0.19639171 4:-0.23936239 5:0.038010018 6:-0.27712482 7:0.46550922 8:-0.064213006 9:-1.5851896 10:-0.17338359 11:0.074566531 
-0.01 1:-0.24041818 2:2.8868872 3:-1.1389006 4:-0.23936239 5:-0.085944682 6:-0.27712482 7:-0.51871667 8:-0.43746584 9:-0.59430837 10:-0.63806517 11:-0.49119015 
-0.01 1:1.0299646 2:-1.2290685 3:0.86403786 4:-0.16955078 5:-0.16858115 6:0.56407178 7:-0.011691212 8:1.1088673 9:0.066279129 10:0.058957202 11:-0.67977571 
-0.01 1:-0.067184167 2:1.1953986 3:-0.933471 4:-0.3789856 5:-0.43714966 6:-1.0248551 7:-1.0853922 8:-1.3546014 9:-0.19795587 10:-0.52189477 11:1.3003727 
-0.01 1:-1.1065882 2:-0.89077075 3:-0.11175267 4:-0.4487972 5:-0.29253585 6:0.47060549 7:0.077783869 8:0.36236166 9:1.7177479 10:-0.23146878 11:-0.58548293 
-0.01 1:-0.87560956 2:1.4491219 3:-1.3956876 4:-0.099739181 5:0.32723765 6:-0.18365853 7:-0.48889164 8:-0.064213006 9:1.3874541 10:-0.63806517 11:0.26315209 
-0.01 1:-1.1065882 2:0.1805054 3:-0.62532662 4:-0.51860881 5:-0.20989938 6:0.096740337 7:0.5549843 8:-2.0157921 9:0.13233788 10:-0.34763918 11:0.074566531 
-0.01 1:0.62575189 2:-0.15779233 3:0.3504639 4:0.73800007 5:-0.12726292 6:-1.0248551 7:-0.96609207 8:1.0555455 9:-0.13189712 10:-0.81232076 11:0.26315209 
-0.01 1:-0.9910989 2:1.1108242 3:-0.933471 4:2.0644205 5:0.59580617 6:-0.65098997 7:-0.87661699 8:-0.090873923 9:0.26445538 10:-0.98657635 11:0.35744487 
-0.01 1:-0.81786489 2:0.88529233 3:-1.3956876 4:-0.029927577 5:0.34789677 6:0.56407178 7:-0.28011645 8:-0.064213006 9:0.99110163 10:-0.52189477 11:0.16885931 
-0.01 1:-0.18267351 2:-0.60885597 3:-0.52261183 4:-0.3789856 5:-0.31319496 6:-0.93138884 7:-0.84679196 8:0.25571799 9:-0.13189712 10:-0.28955398 11:-1.1512396 
-0.01 1:-0.52914154 2:0.29327131 3:-1.3956876 4:-0.3789856 5:-0.49912701 6:-0.83792255 7:-1.0555672 8:-0.58676697 9:0.92504288 10:-0.46380957 11:0.82890877 
-0.01 1:-0.35590752 2:-1.5109832 3:0.14503431 4:-0.58842041 5:-0.6024226 6:0.3771392 7:-0.25029143 8:-0.97068417 9:-0.13189712 10:-1.1027467 11:0.35744487 
-0.01 1:-0.067184167 2:0.63156904 3:-0.0090378737 4:-0.3789856 5:0.1413056 6:-1.0248551 7:0.91288462 8:0.39968694 9:-1.1888371 10:-0.23146878 11:-1.2455324 
-0.01 1:-0.29816285 2:0.65976052 3:-1.3956876 4:2.0644205 5:-0.044626449 6:-1.0248551 7:-0.84679196 8:1.0022237 9:0.59474913 10:-0.63806517 11:-0.77406849 
-0.01 1:-0.58688621 2:-0.77800484 3:0.19639171 4:-0.099739181 5:-0.29253585 6:-0.65098997 7:-0.011691212 8:-0.27750034 9:0.66080788 10:-0.69615036 11:-0.96265405 
-0.01 1:-0.35590752 2:0.23688835 3:-0.31718225 4:-0.72804362 5:-0.39583143 6:-1.1183214 7:-1.1152172 8:-1.141314 9:-0.99066087 10:-0.69615036 11:-0.58548293 
-0.01 1:1.8961347 2:-0.66523893 3:1.3776118 4:-0.72804362 5:0.1413056 6:0.56407178 7:-0.16081635 8:0.33570074 9:-1.9154834 10:0.58172398 11:-0.49119015 
-0.01 1:-0.29816285 2:-1.0599196 3:0.50453609 4:-0.3789856 5:-0.12726292 6:0.75100436 7:0.34620911 8:-0.17085667 9:0.19839663 10:-0.40572438 11:-0.96265405 
-0.01 1:0.45251787 2:1.4491219 3:-1.3956876 4:0.039884027 5:0.099987368 6:-0.4640574 7:-0.5485417 8:1.4287983 9:0.33051413 10:1.162576 11:-0.96265405 
-0.01 1:-2.0882477 2:0.40603722 3:-0.52261183 4:-0.16955078 5:-0.62308171 6:0.096740337 7:1.7778104 8:-1.8771553 9:3.5673929 10:-0.34763918 11:2.3375933 
-0.01 1:-0.87560956 2:0.1805054 3:-0.26582485 4:-0.51860881 5:-0.29253585 6:-0.090192241 7:-0.6678418 8:-1.2479577 9:0.59474913 10:0.93023516 11:0.73461599 
-0.01 1:0.74124123 2:-1.1726855 3:1.01811 4:-0.79785522 5:-0.66439995 6:-0.65098997 7:-0.6678418 8:0.12241341 9:-0.59430837 10:0.93023516 11:-0.11401903 
-0.01 1:-0.64463088 2:-0.045026421 3:-1.0361858 4:-0.79785522 5:-0.29253585 6:-1.0248551 7:-0.78714191 8:0.30903983 9:0.066279129 10:0.87214996 11:-0.77406849 
-0.01 1:0.10604985 2:-1.3982173 3:1.4803266 4:-0.51860881 5:0.079328251 6:1.7791335 7:1.6883353 8:0.095752493 9:-0.06583837 10:0.52363878 11:0.074566531 
-0.01 1:0.85673057 2:-0.10140938 3:-0.41989704 4:0.45875365 5:-0.14792203 6:-0.74445626 7:-0.48889164 8:0.89557999 9:-0.52824962 10:-0.46380957 11:0.074566531 
-0.01 1:-0.58688621 2:0.74433495 3:-1.3956876 4:-0.3789856 5:-0.085944682 6:-0.93138884 7:-0.69766683 8:0.84225816 9:1.9819829 10:1.7434279 11:-0.49119015 
-0.01 1:0.27928386 2:-0.27055824 3:0.70996567 4:0.52856526 5:0.079328251 6:0.93793694 7:0.16725895 8:0.78893632 9:0.00022037948 10:-0.75423556 11:0.074566531 
-0.01 1:1.4341773 2:-0.72162188 3:0.70996567 4:-0.23936239 5:-0.085944682 6:-0.83792255 7:-0.87661699 8:0.89557999 9:-1.5191309 10:0.058957202 11:-1.0569468 
-0.01 1:-0.76012022 2:-0.55247302 3:0.45317869 4:-0.65823201 5:0.017350901 6:-0.18365853 7:-0.28011645 8:-0.30416126 9:0.19839663 10:-0.57997997 11:-1.1512396 
-0.01 1:-0.76012022 2:-0.72162188 3:0.24774911 4:0.73800007 5:-0.56110436 6:-0.65098997 7:-0.51871667 8:-1.3652657 9:-0.19795587 10:-0.98657635 11:0.82890877 
-0.01 1:-0.64463088 2:0.57518608 3:-1.3956876 4:-0.4487972 5:0.18262383 6:-0.18365853 7:-0.25029143 8:0.015769743 9:0.39657288 10:-0.46380957 11:-1.3398252 
-0.01 1:0.16379452 2:0.011356533 3:-0.26582485 4:-0.3789856 5:0.24460118 6:-0.83792255 7:-0.57836672 8:-0.010891173 9:-0.72642587 10:-0.57997997 11:-0.20831181 
-0.01 1:-0.41365219 2:-0.10140938 3:-0.62532662 4:0.17950724 5:0.45119235 6:1.592201 7:0.79358451 8:-0.65075317 9:-0.92460212 10:-0.17338359 11:-0.20831181 
-0.01 1:0.22153919 2:-0.045026421 3:-0.933471 4:-0.029927577 5:0.058669134 6:0.3771392 7:0.077783869 8:0.46900532 9:0.19839663 10:1.162576 11:0.16885931 
-0.01 1:-1.2220776 2:-0.49609006 3:0.60725088 4:-0.029927577 5:-0.2305585 6:-0.93138884 7:-0.96609207 8:-0.62409225 9:1.3213954 10:0.1751276 11:0.54603043 
-0.01 1:-0.47139686 2:0.57518608 3:-0.0090378737 4:-0.3789856 5:-0.1066038 6:0.096740337 7:1.330435 8:-0.29882907 9:-0.33007337 10:-0.46380957 11:-0.58548293 
-0.0037215620703611369 1:-0.18267351 2:-1.2854514 3:1.8398284 4:-0.65823201 5:-0.14792203 6:0.0032740485 7:-0.51871667 8:-0.4481302 9:-0.06583837 10:0.69789437 11:0.35744487 
-0.01 1:-0.18267351 2:0.99805824 3:-1.1389006 4:-0.4487972 5:-0.29253585 6:-0.74445626 7:-0.81696694 8:-0.27750034 9:0.19839663 10:1.6853427 11:0.074566531 
-0.01 1:-0.29816285 2:-0.27055824 3:2.0966154 4:-0.58842041 5:6.7522229 6:-0.18365853 7:-0.42924159 8:-0.08554174 9:-1.4530721 10:2.3242799 11:-1.2455324 
-0.01 1:-0.76012022 2:-0.55247302 3:-1.2929728 4:-0.4487972 5:-0.16858115 6:-0.090192241 7:-0.5485417 8:-0.9600198 9:0.26445538 10:0.87214996 11:0.16885931 
-0.01 1:-0.87560956 2:1.5900793 3:-1.1389006 4:-0.3789856 5:-0.37517231 6:-0.93138884 7:-0.96609207 8:-0.58676697 9:1.3213954 10:0.00087200463 11:0.35744487 
-0.01 1:0.22153919 2:0.96986677 3:-0.16311006 4:-0.029927577 5:2.8476499 6:-1.0248551 7:-0.93626704 8:1.2688328 9:0.066279129 10:-0.34763918 11:-1.3398252 
-0.01 1:-0.93335423 2:-0.38332415 3:-0.16311006 4:-0.58842041 5:-0.2305585 6:0.19020663 7:-0.36959153 8:-1.024006 9:0.52869038 10:-0.34763918 11:0.16885931 
-0.01 1:-0.87560956 2:0.1805054 3:-0.26582485 4:-0.51860881 5:-0.29253585 6:-0.090192241 7:-0.6678418 8:-1.2479577 9:0.59474913 10:0.93023516 11:0.73461599 
-0.01 1:-0.47139686 2:-0.10140938 3:-1.2929728 4:-0.58842041 5:-0.085944682 6:-0.27712482 7:-0.45906661 8:-0.71473937 9:0.33051413 10:-0.69615036 11:0.074566531 
-0.01 1:-0.76012022 2:-0.9471537 3:-0.31718225 4:-0.16955078 5:-0.044626449 6:0.3771392 7:0.5549843 8:-0.6080957 9:0.59474913 10:-0.69615036 11:-0.30260459 
-0.01 1:-1.1065882 2:0.8007179 3:-0.9848284 4:-0.30917399 5:-0.89165023 6:0.28367292 7:0.047958842 8:-0.97068417 9:1.1892779 10:-0.98657635 11:0.92320155 
-0.01 1:-1.1643329 2:0.85710086 3:-1.3443302 4:0.80781167 5:0.30657853 6:1.4987347 7:0.226909 8:-0.45879457 9:1.3213954 10:0.00087200463 11:0.82890877 
-0.01 1:-0.18267351 2:1.0544412 3:-0.26582485 4:-0.16955078 5:-0.27187673 6:-0.27712482 7:1.0321847 8:0.085088126 9:-0.46219087 10:-0.69615036 11:-0.86836127 
-0.01 1:-0.29816285 2:-0.045026421 3:-0.11175267 4:-0.4487972 5:-0.14792203 6:-0.18365853 7:-0.25029143 8:0.89557999 9:0.79292538 10:-0.057213193 11:-1.3398252 
-0.01 1:-0.52914154 2:-1.3418344 3:0.55589348 4:-0.58842041 5:-0.54044525 6:-0.65098997 7:-0.48889164 8:0.04243066 9:0.66080788 10:-0.75423556 11:-0.86836127 
-0.01 1:-1.1065882 2:0.23688835 3:-0.77939881 4:-0.16955078 5:0.65778352 6:0.84447065 7:-0.30994148 8:-0.81605085 9:1.0571604 10:0.29129799 11:0.82890877 
-0.01 1:0.56800722 2:1.3927389 3:-0.0090378737 4:0.17950724 5:-0.20989938 6:0.75100436 7:0.28655906 8:0.89557999 9:0.00022037948 10:0.058957202 11:0.16885931 
-0.01 1:-0.067184167 2:0.63156904 3:-0.0090378737 4:-0.3789856 5:0.1413056 6:-1.0248551 7:0.91288462 8:0.39968694 9:-1.1888371 10:-0.23146878 11:-1.2455324 
-0.01 1:-0.76012022 2:0.91348381 3:-0.9848284 4:-0.51860881 5:0.18262383 6:0.56407178 7:1.2707849 8:-0.43746584 9:0.19839663 10:-0.69615036 11:-1.1512396 
-0.01 1:0.97221991 2:0.1805054 3:-0.16311006 4:-0.23936239 5:-0.18924027 6:0.28367292 7:0.34620911 8:1.2688328 9:-0.85854337 10:-0.57997997 11:-0.30260459 
-0.01 1:-0.76012022 2:0.68795199 3:-1.2929728 4:-0.30917399 5:-0.45780878 6:-0.74445626 7:-0.63801678 8:0.25571799 9:1.0571604 10:0.058957202 11:-0.86836127 
-0.01 1:-0.76012022 2:0.1805054 3:-0.52261183 4:-0.58842041 5:-0.4784679 6:-0.090192241 7:-0.6678418 8:-0.84271177 9:0.85898413 10:0.1170424 11:0.12171292 
-0.01 1:-1.0488436 2:0.57518608 3:0.2991065 4:-0.51860881 5:-0.6024226 6:0.0032740485 7:-0.5485417 8:-0.75206465 9:0.33051413 10:-0.11529839 11:-0.30260459 
-0.01 1:-0.24041818 2:-1.3418344 3:1.1208248 4:-0.23936239 5:0.16196472 6:0.47060549 7:0.37603414 8:0.22372489 9:0.00022037948 10:0.058957202 11:-0.30260459 
-0.01 1:-0.87560956 2:0.34965426 3:-1.0875432 4:2.4134786 5:-0.58176348 6:-0.4640574 7:-0.84679196 8:-0.27750034 9:0.66080788 10:-0.40572438 11:0.35744487 
-0.01 1:-0.70237555 2:0.34965426 3:-1.2929728 4:-0.16955078 5:-0.12726292 6:0.75100436 7:1.4199101 8:0.38369039 9:1.5856304 10:-0.75423556 11:-0.67977571 
-0.01 1:-0.81786489 2:1.1953986 3:-1.2416154 4:-0.16955078 5:-0.70571818 6:-0.83792255 7:-0.90644202 8:-0.87470487 9:0.92504288 10:-0.17338359 11:1.0174943 
-0.01 1:1.2609433 2:-0.55247302 3:0.40182129 4:0.52856526 5:0.079328251 6:0.75100436 7:0.70410943 8:0.67162829 9:-0.66036712 10:0.1751276 11:0.074566531 
-0.01 1:0.85673057 2:-1.5673662 3:1.1208248 4:0.10969563 5:-0.0033082155 6:-0.090192241 7:-0.39941656 8:0.78893632 9:0.72686663 10:1.3949167 11:-0.39689737 
-0.01 1:-0.41365219 2:-1.3418344 3:1.1208248 4:0.10969563 5:0.079328251 6:0.84447065 7:0.40585916 8:0.20239616 9:0.00022037948 10:-0.28955398 11:-0.30260459 
-0.01 1:2.6468154 2:-0.15779233 3:1.4289692 4:0.17950724 5:-0.33385408 6:-0.83792255 7:-0.6678418 8:1.8127155 9:-1.4530721 10:0.1170424 11:0.45173765 
-0.01 1:0.74124123 2:-0.60885597 3:0.40182129 4:-0.30917399 5:-0.1066038 6:0.096740337 7:-0.25029143 8:-0.26683597 9:-0.52824962 10:0.00087200463 11:0.64032321 
-0.01 1:1.3186879 2:-0.15779233 3:0.91539525 4:0.039884027 5:0.6371244 6:1.6856673 7:0.64445938 8:0.19173179 9:-0.52824962 10:0.34938319 11:0.45173765 
-0.01 1:-0.9910989 2:1.7592281 3:-1.2416154 4:-0.16955078 5:-0.6024226 6:1.4987347 7:0.047958842 8:-0.81071867 9:1.3874541 10:-0.57997997 11:1.7718366 
-0.01 1:-1.3953116 2:0.46242017 3:-0.9848284 4:-0.30917399 5:-0.3545132 6:0.0032740485 7:-0.6678418 8:-1.5785531 9:1.6516891 10:0.63980917 11:0.64032321 
-0.01 1:-0.067184167 2:0.60337756 3:-0.8821136 4:-0.30917399 5:-0.31319496 6:0.84447065 7:0.40585916 8:-0.18152104 9:-0.13189712 10:0.52363878 11:0.45173765 
-0.01 1:-0.70237555 2:-0.38332415 3:-0.36853965 4:-0.4487972 5:-0.2305585 6:1.1248695 7:0.226909 8:-0.59743134 9:0.39657288 10:-0.11529839 11:-0.019726249 
-0.01 1:1.665156 2:0.8007179 3:1.4289692 4:-0.16955078 5:-0.085944682 6:-0.93138884 7:-0.9959171 8:1.7487293 9:-0.92460212 10:0.29129799 11:-0.86836127 
-0.01 1:-0.52914154 2:0.85710086 3:-0.57396923 4:-0.51860881 5:-0.20989938 6:-0.37059111 7:-0.2204664 8:0.52232716 9:1.2553366 10:0.23321279 11:-0.49119015 
-0.01 1:-0.24041818 2:-1.2854514 3:2.0966154 4:4.0191455 5:-0.78835465 6:2.0127993 7:6.907715 8:-1.8984841 9:-1.9815421 10:-0.87040595 11:1.7718366 
-0.01 1:-0.12492884 2:1.0826327 3:-0.933471 4:0.17950724 5:-0.085944682 6:0.19020663 7:0.077783869 8:1.4287983 9:0.79292538 10:0.34938319 11:0.64032321 
-0.01 1:-0.52914154 2:-0.89077075 3:0.81268046 4:0.039884027 5:-0.12726292 6:0.19020663 7:1.0620098 8:0.19173179 9:0.13233788 10:0.1170424 11:-0.67977571 
-0.01 1:-0.18267351 2:0.8007179 3:0.14503431 4:-0.3789856 5:-0.58176348 6:2.0595324 7:0.46550922 8:-0.49078767 9:-0.33007337 10:-0.57997997 11:-0.20831181 
-0.01 1:-0.24041818 2:0.68795199 3:-1.3443302 4:-0.029927577 5:-0.20989938 6:0.096740337 7:-0.25029143 8:-0.22417851 9:0.19839663 10:0.46555358 11:1.2060799 
-0.01 1:0.27928386 2:0.96986677 3:-1.3956876 4:-0.58842041 5:-0.39583143 6:-0.74445626 7:-0.81696694 8:0.15440651 9:0.00022037948 10:-0.75423556 11:-0.39689737 
-0.01 1:-0.64463088 2:-0.83438779 3:0.14503431 4:-0.51860881 5:-0.31319496 6:1.4052684 7:0.70410943 8:0.069091576 9:0.72686663 10:-0.40572438 11:-0.86836127 
-0.01 1:-0.067184167 2:-0.49609006 3:-0.16311006 4:-0.16955078 5:-0.51978613 6:-0.55752369 7:-0.5485417 8:-0.31482562 9:-0.39613212 10:-0.75423556 11:-0.20831181 
-0.01 1:-1.1643329 2:2.5485895 3:-1.3443302 4:-0.3789856 5:-0.64374083 6:-0.090192241 7:-0.39941656 8:-0.98134854 9:1.9159241 10:-1.1608319 11:0.73461599 
-0.01 1:1.7806453 2:0.40603722 3:1.1208248 4:0.10969563 5:-0.065285565 6:-0.55752369 7:-0.16081635 8:1.4287983 9:-1.0567196 10:-0.17338359 11:0.074566531 
-0.01 1:-0.64463088 2:0.4342287 3:-1.2929728 4:-0.4487972 5:0.16196472 6:-0.55752369 7:-0.45906661 8:-0.91736234 9:0.99110163 10:-0.75423556 11:1.3003727 
-0.01 1:-0.18267351 2:-1.1163026 3:1.3262544 4:-0.029927577 5:0.058669134 6:0.19020663 7:1.0023597 8:0.46900532 9:0.39657288 10:0.81406477 11:-0.77406849 
-0.01 1:0.3947732 2:-0.38332415 3:0.19639171 4:0.17950724 5:0.099987368 6:0.28367292 7:1.5392102 8:0.76227541 9:0.066279129 10:-0.17338359 11:-0.86836127 
-0.01 1:-0.76012022 2:-1.7365151 3:0.14503431 4:-0.51860881 5:-0.4784679 6:0.0032740485 7:-0.78714191 8:-0.0002268068 9:1.9819829 10:0.93023516 11:-0.39689737 
-0.01 1:-0.87560956 2:0.63156904 3:-1.2416154 4:-0.16955078 5:-0.27187673 6:-0.18365853 7:-0.45906661 8:-0.67741409 9:0.33051413 10:-0.46380957 11:-0.019726249 
-0.01 1:-0.35590752 2:0.57518608 3:-0.9848284 4:-0.4487972 5:-0.25121761 6:-0.090192241 7:-0.57836672 8:-0.010891173 9:0.066279129 10:-0.69615036 11:-0.86836127 
-0.01 1:2.011624 2:-0.83438779 3:1.4289692 4:-0.30917399 5:-0.3545132 6:-1.0248551 7:-0.81696694 8:1.0022237 9:-1.3209546 10:-0.23146878 11:0.35744487 
-0.01 1:-1.0488436 2:0.46242017 3:-1.3956876 4:-0.23936239 5:0.1413056 6:2.9941953 7:0.37603414 8:-0.69874282 9:1.9819829 10:0.23321279 11:1.0174943 
-0.01 1:0.33702853 2:1.2235901 3:-0.47125444 4:-0.029927577 5:-0.2305585 6:-0.090192241 7:0.047958842 8:0.35702947 9:-0.72642587 10:-1.1027467 11:-0.67977571 
-0.01 1:0.22153919 2:0.067739488 3:-0.06039527 4:-0.029927577 5:0.18262383 6:-0.83792255 7:-0.45906661 8:0.46900532 9:-0.26401462 10:-0.34763918 11:-1.0569468 
-0.01 1:0.85673057 2:-0.15779233 3:0.3504639 4:-0.16955078 5:0.12064648 6:-0.55752369 7:-0.041516238 8:1.0235524 9:-0.46219087 10:-0.34763918 11:-0.67977571 
-0.01 1:-0.29816285 2:0.095930966 3:-0.77939881 4:-0.029927577 5:-0.41649055 6:-0.4640574 7:-0.33976651 8:-0.384144 9:0.19839663 10:-0.28955398 11:1.1117871 
-0.01 1:0.16379452 2:-0.43970711 3:0.19639171 4:0.039884027 5:-0.044626449 6:0.47060549 7:0.1076089 8:0.78893632 9:0.39657288 10:1.4530019 11:-0.49119015 
-0.01 1:-0.76012022 2:0.91348381 3:-1.0361858 4:-0.029927577 5:0.058669134 6:-0.090192241 7:-0.75731688 8:-0.53344514 9:0.46263163 10:-0.34763918 11:0.82890877 
-0.01 1:-0.70237555 2:0.40603722 3:-1.3443302 4:-0.16955078 5:-0.18924027 6:0.75100436 7:-0.28011645 8:-0.84271177 9:0.59474913 10:-0.28955398 11:0.45173765 
-0.01 1:1.0877093 2:0.65976052 3:0.45317869 4:-0.51860881 5:-0.7263773 6:-1.0248551 7:-0.96609207 8:0.78893632 9:-0.92460212 10:-1.3931727 11:-0.39689737 
-0.01 1:3.8594535 2:-1.792898 3:0.86403786 4:-0.23936239 5:-0.27187673 6:-0.55752369 7:-0.6678418 8:1.7753902 9:-1.5851896 10:1.0464056 11:-1.1512396 
-0.01 1:-1.1643329 2:1.3081645 3:-1.3956876 4:0.24931884 5:-0.33385408 6:0.93793694 7:0.16725895 8:-1.5625565 9:1.3213954 10:-0.34763918 11:1.0174943 
-0.01 1:1.1454539 2:0.011356533 3:1.0694674 4:-0.029927577 5:-0.51978613 6:-0.93138884 7:-0.63801678 8:1.6420857 9:-1.2548959 10:-0.40572438 11:-1.0569468 
-0.01 1:1.0299646 2:-0.89077075 3:0.3504639 4:-0.099739181 5:-0.065285565 6:-1.0248551 7:-0.87661699 8:0.05842721 9:-0.92460212 10:-0.057213193 11:0.16885931 
-0.01 1:-0.41365219 2:-0.66523893 3:-0.67668402 4:0.31913044 5:-0.023967332 6:0.47060549 7:-0.10116629 8:-0.17085667 9:0.066279129 10:-0.52189477 11:0.074566531 
-0.01 1:0.97221991 2:-1.2290685 3:1.01811 4:0.039884027 5:-0.065285565 6:-0.18365853 7:-0.39941656 8:1.5621029 9:0.33051413 10:0.81406477 11:0.074566531 
-0.01 1:-0.70237555 2:0.34965426 3:-1.3443302 4:-0.16955078 5:-0.16858115 6:1.0314032 7:-0.10116629 8:-0.65075317 9:0.72686663 10:-0.46380957 11:0.26315209 
-0.01 1:-1.1065882 2:-1.2290685 3:-0.933471 4:-0.79785522 5:-0.45780878 6:-0.090192241 7:-0.5485417 8:-1.1359819 9:0.72686663 10:0.23321279 11:-0.39689737 
-0.01 1:-0.067184167 2:-0.60885597 3:1.1208248 4:0.039884027 5:-0.085944682 6:1.4987347 7:0.25673403 8:1.1088673 9:0.19839663 10:0.52363878 11:-1.6227035 
-0.01 1:0.56800722 2:-0.21417529 3:0.45317869 4:-0.58842041 5:-0.14792203 6:-1.2117877 7:-0.96609207 8:0.15973869 9:-0.26401462 10:0.69789437 11:0.45173765 
-0.01 1:-1.9150136 2:1.1953986 3:-1.3956876 4:-0.93747843 5:-0.9742867 6:0.0032740485 7:-0.011691212 8:-2.2077507 9:4.6243329 10:-0.40572438 11:1.9604221 
-0.01 1:-0.35590752 2:2.1821003 3:-0.77939881 4:-0.23936239 5:1.1329432 6:-0.83792255 7:-0.69766683 8:-0.17085667 9:0.26445538 10:-0.057213193 11:-0.20831181 
-0.01 1:-0.76012022 2:-0.55247302 3:0.14503431 4:-0.3789856 5:-0.065285565 6:-0.93138884 7:-0.2204664 8:-1.7385186 9:0.13233788 10:-1.1608319 11:1.3946655 
-0.01 1:1.6074113 2:-0.43970711 3:2.3534023 4:0.45875365 5:-0.45780878 6:-0.93138884 7:-0.72749186 8:1.0022237 9:-0.92460212 10:0.00087200463 11:0.73461599 
-0.01 1:-0.067184167 2:-0.72162188 3:0.86403786 4:0.17950724 5:0.017350901 6:-0.4640574 7:-0.10116629 8:0.41568349 9:1.4535129 10:-0.28955398 11:0.074566531 
-0.01 1:-0.81786489 2:0.067739488 3:0.14503431 4:-0.23936239 5:-0.0033082155 6:-0.65098997 7:1.7479854 8:0.28237891 9:-0.39613212 10:3.0213023 11:0.074566531 
-0.01 1:-0.64463088 2:0.57518608 3:-1.3956876 4:-0.4487972 5:0.18262383 6:-0.18365853 7:-0.25029143 8:0.015769743 9:0.39657288 10:-0.46380957 11:-1.3398252 
-0.01 1:1.8961347 2:-0.49609006 3:1.8911858 4:-0.30917399 5:-0.6024226 6:-1.0248551 7:-0.93626704 8:0.68229266 9:-0.66036712 10:0.058957202 11:-0.20831181 
-0.01 1:-0.81786489 2:1.7592281 3:-0.31718225 4:1.0870581 5:-0.29253585 6:0.0032740485 7:0.5549843 8:0.90624436 9:1.4535129 10:0.34938319 11:-1.1198087 
-0.01 1:0.33702853 2:-1.6237492 3:0.60725088 4:-0.65823201 5:-0.29253585 6:-1.2117877 7:-1.0853922 8:0.13840996 9:-1.2548959 10:-0.40572438 11:-0.86836127 
-0.01 1:-0.18267351 2:1.1108242 3:-0.16311006 4:0.17950724 5:-0.1066038 6:-0.55752369 7:0.46550922 8:0.069091576 9:0.26445538 10:-0.57997997 11:-0.39689737 
-0.01 1:1.4341773 2:-1.1726855 3:0.86403786 4:-0.65823201 5:-0.51978613 6:0.0032740485 7:-0.28011645 8:0.94890182 9:-0.59430837 10:0.69789437 11:-0.39689737 
-0.01 1:0.048305175 2:-0.9471537 3:0.24774911 4:-0.23936239 5:-0.14792203 6:1.4987347 7:0.97253468 8:-0.17085667 9:-0.06583837 10:0.34938319 11:0.54603043 
-0.01 1:1.83839 2:-1.200877 3:1.3776118 4:-0.30917399 5:-0.085944682 6:-1.0248551 7:-0.93626704 8:1.0555455 9:-2.1797184 10:0.23321279 11:-1.1512396 
-0.01 1:1.491922 2:0.011356533 3:1.1208248 4:1.4361161 5:0.61646528 6:-0.55752369 7:-0.87661699 8:1.855373 9:-1.5851896 10:-0.57997997 11:1.2060799 
-0.01 1:-0.12492884 2:0.095930966 3:-0.47125444 4:-0.4487972 5:-0.16858115 6:-0.27712482 7:-0.33976651 8:0.25571799 9:-0.06583837 10:-0.40572438 11:-1.3398252 
-0.01 1:1.7229006 2:-1.0599196 3:0.91539525 4:-0.3789856 5:-0.12726292 6:-0.93138884 7:-0.93626704 8:1.1088673 9:-2.4439534 10:0.00087200463 11:-1.1512396 
-0.01 1:0.45251787 2:-0.15779233 3:0.14503431 4:-0.4487972 5:-0.4784679 6:-0.74445626 7:-0.87661699 8:0.54365589 9:0.066279129 10:0.29129799 11:0.074566531 
-0.01 1:1.1454539 2:0.011356533 3:1.0694674 4:-0.029927577 5:-0.51978613 6:-0.93138884 7:-0.63801678 8:1.6420857 9:-1.2548959 10:-0.40572438 11:-1.0569468 
-0.01 1:-0.18267351 2:0.29327131 3:0.042319522 4:0.45875365 5:-0.45780878 6:0.47060549 7:2.0164106 8:0.30903983 9:-0.59430837 10:-0.69615036 11:-0.96265405 
-0.01 1:-1.4530563 2:2.7177384 3:1.9939006 4:-0.3789856 5:-1.0156049 6:-0.090192241 7:1.2409599 8:-1.6798645 9:2.3122766 10:-0.34763918 11:1.0174943 
-0.01 1:-1.684035 2:1.1953986 3:-0.933471 4:-0.58842041 5:0.017350901 6:0.0032740485 7:-0.60819175 8:-1.4399163 9:2.3783354 10:-0.57997997 11:1.1117871 
-0.01 1:-0.81786489 2:0.067739488 3:-1.190258 4:0.31913044 5:-0.2305585 6:-0.83792255 7:-0.57836672 8:1.0555455 9:2.5104529 10:1.4530019 11:-0.96265405 
-0.01 1:-1.2798223 2:-1.792898 3:0.65860827 4:-0.79785522 5:-0.45780878 6:2.2931981 7:3.537487 8:-2.943592 9:-0.39613212 10:-0.40572438 11:1.3946655 
-0.01 1:0.16379452 2:0.88529233 3:-0.8821136 4:-0.65823201 5:0.079328251 6:-1.2117877 7:-1.0257421 8:0.38902257 9:0.00022037948 10:-0.057213193 11:-0.82121488 
-0.01 1:1.83839 2:0.34965426 3:1.6343988 4:0.039884027 5:-0.023967332 6:-0.27712482 7:0.077783869 8:1.1088673 9:-0.85854337 10:-0.057213193 11:0.54603043 
-0.01 1:-0.76012022 2:0.91348381 3:-1.0361858 4:-0.029927577 5:0.058669134 6:-0.090192241 7:-0.75731688 8:-0.53344514 9:0.46263163 10:-0.34763918 11:0.82890877 
-0.01 1:-0.87560956 2:-0.66523893 3:0.19639171 4:4.3682035 5:-0.085944682 6:0.93793694 7:-0.041516238 8:0.81026506 9:0.46263163 10:-0.11529839 11:-0.30260459 
-0.01 1:0.33702853 2:-1.7365151 3:1.0694674 4:-0.51860881 5:-0.2305585 6:1.2183358 7:0.40585916 8:0.04243066 9:0.52869038 10:-0.75423556 11:-0.96265405 
-0.01 1:-0.52914154 2:1.4491219 3:-0.41989704 4:1.8549857 5:0.12064648 6:0.28367292 7:1.5392102 8:0.21839271 9:-0.99066087 10:-0.81232076 11:-0.77406849 
-0.01 1:-0.9910989 2:-0.045026421 3:-1.190258 4:-0.23936239 5:-0.39583143 6:-0.74445626 7:-0.93626704 8:-0.59743134 9:0.59474913 10:-0.17338359 11:-0.96265405 
-0.01 1:-0.18267351 2:-0.83438779 3:-1.0875432 4:-0.51860881 5:-0.20989938 6:-0.37059111 7:0.077783869 8:-0.25083942 9:0.39657288 10:-0.81232076 11:-0.49119015 
-0.01 1:2.5890707 2:0.49061165 3:1.9939006 4:2.2738554 5:-0.1066038 6:-0.83792255 7:-0.13099132 8:2.9218096 9:-1.5851896 10:0.40746839 11:-0.39689737 
-0.01 1:1.4341773 2:-0.3269412 3:0.81268046 4:-0.30917399 5:1.7113985 6:1.0314032 7:0.58480933 8:0.78893632 9:-0.92460212 10:0.58172398 11:0.35744487 
-0.01 1:-0.29816285 2:0.65976052 3:-1.3956876 4:-0.3789856 5:-0.12726292 6:-0.74445626 7:-0.90644202 8:-0.17085667 9:0.46263163 10:-0.40572438 11:-0.58548293 
-0.01 1:0.45251787 2:1.5055048 3:-1.3956876 4:0.039884027 5:0.16196472 6:-0.4640574 7:-0.60819175 8:1.4287983 9:0.26445538 10:0.98832036 11:-0.96265405 
-0.01 1:-0.64463088 2:0.57518608 3:-1.3956876 4:-0.4487972 5:0.18262383 6:-0.18365853 7:-0.25029143 8:0.015769743 9:0.39657288 10:-0.46380957 11:-1.3398252 
-0.01 1:-0.41365219 2:1.1672071 3:-1.2929728 4:-0.029927577 5:-0.3545132 6:-0.55752369 7:-0.96609207 8:-0.71473937 9:1.3213954 10:0.29129799 11:1.2060799 
-0.01 1:0.68349656 2:-0.38332415 3:1.1208248 4:2.6229134 5:-0.49912701 6:-1.0248551 7:-0.87661699 8:1.1088673 9:-0.66036712 10:0.40746839 11:0.54603043 
-0.01 1:2.8200494 2:-0.38332415 3:1.274897 4:-0.23936239 5:-0.3545132 6:-0.37059111 7:-0.33976651 8:2.0686603 9:-1.3870134 10:-0.57997997 11:-1.3398252 
-0.01 1:0.45251787 2:-1.7365151 3:-0.16311006 4:-0.30917399 5:-0.20989938 6:-1.3987203 7:-0.5485417 8:1.215511 9:0.66080788 10:1.2206611 11:-0.11401903 
-0.01 1:-0.70237555 2:0.91348381 3:-0.9848284 4:-0.30917399 5:-0.51978613 6:2.4333976 7:0.16725895 8:-0.34148654 9:0.72686663 10:-0.34763918 11:-0.20831181 
-0.01 1:-1.1643329 2:-1.2854514 3:1.0694674 4:-0.51860881 5:-0.39583143 6:0.19020663 7:0.43568419 8:-0.43746584 9:0.85898413 10:0.69789437 11:-0.11401903 
-0.01 1:-0.24041818 2:-0.72162188 3:0.093676918 4:-0.51860881 5:1.4221708 6:-1.3987203 7:-0.071341265 8:0.30903983 9:-0.06583837 10:1.5110871 11:-0.86836127 
-0.01 1:0.97221991 2:0.1805054 3:-0.16311006 4:-0.23936239 5:-0.18924027 6:0.28367292 7:0.34620911 8:1.2688328 9:-0.85854337 10:-0.57997997 11:-0.30260459 
-0.01 1:1.0299646 2:-0.43970711 3:-0.21446746 4:-0.4487972 5:-0.12726292 6:-0.55752369 7:-0.84679196 8:0.54365589 9:-0.59430837 10:-0.057213193 11:-1.0569468 
-0.01 1:0.22153919 2:-0.045026421 3:-0.933471 4:-0.029927577 5:0.058669134 6:0.3771392 7:0.077783869 8:0.46900532 9:0.19839663 10:1.162576 11:0.16885931 
-0.01 1:-0.47139686 2:0.23688835 3:-0.9848284 4:0.039884027 5:0.017350901 6:-0.18365853 7:-0.57836672 8:-0.42680147 9:-0.06583837 10:-0.40572438 11:-0.019726249 
-0.01 1:-0.52914154 2:1.4491219 3:-0.41989704 4:1.8549857 5:0.12064648 6:0.28367292 7:1.5392102 8:0.21839271 9:-0.99066087 10:-0.81232076 11:-0.80549942 
-0.01 1:-0.87560956 2:-0.66523893 3:0.19639171 4:4.3682035 5:-0.085944682 6:0.93793694 7:-0.041516238 8:0.81026506 9:0.46263163 10:-0.11529839 11:-0.30260459 
-0.01 1:0.33702853 2:-0.72162188 3:0.24774911 4:2.1342321 5:-0.023967332 6:-0.55752369 7:0.018133815 8:1.2688328 9:0.46263163 10:0.63980917 11:0.074566531 
-0.01 1:-0.0094394959 2:-0.60885597 3:0.55589348 4:-0.029927577 5:0.12064648 6:0.75100436 7:0.40585916 8:0.62897082 9:0.00022037948 10:0.23321279 11:0.35744487 
-0.01 1:-0.0094394959 2:0.74433495 3:-0.62532662 4:-0.4487972 5:-0.18924027 6:0.096740337 7:-0.13099132 8:0.25571799 9:0.00022037948 10:-0.69615036 11:-0.77406849 
-0.01 1:-1.3375669 2:-0.10140938 3:-1.3956876 4:-0.30917399 5:-0.49912701 6:2.246465 7:0.226909 8:-0.91736234 9:1.5195716 10:1.5691723 11:0.26315209 
-0.01 1:2.8200494 2:-0.38332415 3:1.274897 4:-0.23936239 5:-0.3545132 6:-0.37059111 7:-0.33976651 8:2.0686603 9:-1.3870134 10:-0.57997997 11:-1.3398252 
-0.01 1:0.62575189 2:-0.15779233 3:0.3504639 4:0.73800007 5:-0.12726292 6:-1.0248551 7:-0.96609207 8:1.0555455 9:-0.13189712 10:-0.81232076 11:0.26315209 
-0.01 1:-0.18267351 2:0.29327131 3:-0.57396923 4:-0.3789856 5:0.65778352 6:-1.2117877 7:-1.1748673 8:-1.1626428 9:-0.59430837 10:-0.46380957 11:0.73461599 
-0.01 1:-1.0488436 2:2.0975259 3:-1.3956876 4:-0.65823201 5:-0.74703641 6:-0.65098997 7:-0.87661699 8:-1.0933244 9:1.2553366 10:-0.17338359 11:0.45173765 
-0.01 1:-0.70237555 2:0.34965426 3:-1.3956876 4:-0.30917399 5:0.058669134 6:-0.65098997 7:-0.96609207 8:-0.98134854 9:0.72686663 10:-0.63806517 11:1.0174943 
-0.01 1:-0.0094394959 2:1.3081645 3:0.093676918 4:1.1568697 5:-0.27187673 6:-0.37059111 7:-0.90644202 8:-0.11753484 9:0.92504288 10:0.1170424 11:1.0174943 
-0.01 1:-0.29816285 2:0.29327131 3:-1.2929728 4:-0.3789856 5:-0.31319496 6:-0.65098997 7:-0.84679196 8:0.04243066 9:0.33051413 10:-0.52189477 11:-0.86836127 
-0.01 1:-0.87560956 2:0.1805054 3:-1.2416154 4:-0.58842041 5:-0.085944682 6:0.19020663 7:-0.33976651 8:0.04243066 9:0.85898413 10:-0.17338359 11:-0.39689737 
-0.01 1:-1.1643329 2:-0.10140938 3:-0.72804142 4:-0.16955078 5:-0.25121761 6:1.2183358 7:-0.19064137 8:-0.52278077 9:0.72686663 10:0.52363878 11:0.54603043 
-0.01 1:0.74124123 2:0.1805054 3:0.19639171 4:0.17950724 5:0.017350901 6:-0.090192241 7:-0.011691212 8:0.62897082 9:-1.3209546 10:1.5110871 11:-0.39689737 
-0.01 1:-0.76012022 2:0.68795199 3:-1.2929728 4:-0.30917399 5:-0.45780878 6:-0.74445626 7:-0.63801678 8:0.25571799 9:1.0571604 10:0.058957202 11:-0.86836127 
-0.01 1:-0.067184167 2:-0.72162188 3:0.19639171 4:-0.4487972 5:-0.12726292 6:-0.74445626 7:-0.6678418 8:-0.384144 9:-0.46219087 10:0.1751276 11:0.16885931 
-0.01 1:1.8961347 2:-0.66523893 3:1.3776118 4:-0.72804362 5:0.1413056 6:0.56407178 7:-0.16081635 8:0.33570074 9:-1.9154834 10:0.58172398 11:-0.49119015 
-0.01 1:-0.81786489 2:0.57518608 3:-1.3443302 4:-0.099739181 5:-0.25121761 6:-0.18365853 7:-0.2204664 8:-0.8000543 9:0.19839663 10:-0.75423556 11:0.35744487 
-0.01 1:-0.58688621 2:-0.72162188 3:0.14503431 4:-0.58842041 5:-0.16858115 6:1.592201 7:0.97253468 8:0.095752493 9:0.66080788 10:-0.057213193 11:-0.86836127 
-0.01 1:-0.47139686 2:-0.83438779 3:1.531684 4:-0.16955078 5:0.36855588 6:-1.0248551 7:-1.0257421 8:-0.35748309 9:0.33051413 10:-0.63806517 11:0.92320155 
-0.01 1:2.5890707 2:1.7592281 3:1.8398284 4:-0.099739181 5:-0.0033082155 6:-0.27712482 7:-0.33976651 8:1.5887638 9:-1.3870134 10:-0.34763918 11:-0.019726249 
-0.01 1:-0.81786489 2:0.4342287 3:-0.77939881 4:5.694624 5:-0.31319496 6:2.246465 7:1.0918348 8:1.3754765 9:0.92504288 10:-0.81232076 11:-0.96265405 
-0.01 1:-0.81786489 2:-0.21417529 3:-0.8821136 4:-0.16955078 5:-0.29253585 6:-0.37059111 7:-0.48889164 8:-0.43746584 9:0.72686663 10:-0.46380957 11:-0.20831181 
-0.01 1:-0.76012022 2:0.29327131 3:0.042319522 4:1.5757393 5:-0.065285565 6:-0.37059111 7:0.67428441 8:-0.20818196 9:0.066279129 10:0.23321279 11:0.54603043 
-0.01 1:-0.52914154 2:0.40603722 3:-0.06039527 4:-0.30917399 5:-0.1066038 6:0.096740337 7:1.330435 8:-0.29882907 9:-0.13189712 10:-0.57997997 11:-0.58548293 
-0.01 1:0.16379452 2:1.7028452 3:-1.3956876 4:0.17950724 5:0.1413056 6:0.096740337 7:-0.10116629 8:0.79960069 9:0.13233788 10:-0.34763918 11:-0.019726249 
-0.01 1:-1.0488436 2:0.011356533 3:-1.0875432 4:-0.3789856 5:-0.51978613 6:1.2183358 7:-0.071341265 8:-0.97601635 9:0.46263163 10:0.98832036 11:-0.11401903 
-0.01 1:-0.0094394959 2:-1.5109832 3:0.76132307 4:-0.3789856 5:-0.16858115 6:-0.4640574 7:-0.57836672 8:0.36236166 9:-0.66036712 10:0.81406477 11:-0.96265405 
-0.01 1:-0.9910989 2:1.8438026 3:-1.2929728 4:-0.099739181 5:-0.54044525 6:-0.090192241 7:-0.69766683 8:-0.24017506 9:1.5195716 10:-0.34763918 11:0.54603043 
-0.01 1:0.33702853 2:1.7592281 3:0.3504639 4:-0.79785522 5:-0.78835465 6:-1.1183214 7:-1.0853922 8:-0.62942444 9:-1.2548959 10:-1.0446615 11:-1.2455324 
-0.01 1:-0.9910989 2:2.4358236 3:-1.3956876 4:-0.51860881 5:-0.12726292 6:-1.0248551 7:-0.90644202 8:-1.663868 9:1.2553366 10:-1.2770023 11:1.3946655 
-0.01 1:-1.2220776 2:0.23688835 3:-0.8821136 4:-0.30917399 5:-0.82967288 6:-1.1183214 7:-1.0555672 8:-1.1946359 9:0.85898413 10:0.58172398 11:0.35744487 
-0.01 1:-0.47139686 2:-0.72162188 3:-0.77939881 4:0.31913044 5:0.079328251 6:1.2183358 7:0.19708398 8:-0.010891173 9:0.39657288 10:0.23321279 11:-0.11401903 
-0.01 1:2.1271133 2:-1.3982173 3:1.1208248 4:-0.4487972 5:-0.29253585 6:-0.55752369 7:-0.75731688 8:0.46900532 9:-2.1797184 10:0.00087200463 11:-0.49119015 
-0.01 1:0.74124123 2:1.3645475 3:-0.77939881 4:0.24931884 5:-0.12726292 6:1.3118021 7:0.82340954 8:1.0288846 9:-0.06583837 10:-0.11529839 11:-0.019726249 
-0.01 1:0.22153919 2:0.91348381 3:0.19639171 4:0.31913044 5:-0.044626449 6:0.65753807 7:1.0321847 8:1.855373 9:1.1232191 10:0.46555358 11:1.1117871 
-0.01 1:-0.41365219 2:1.0544412 3:-1.3956876 4:-0.30917399 5:-0.41649055 6:1.3118021 7:-0.33976651 8:-0.74140029 9:1.1232191 10:-0.057213193 11:0.92320155 
-0.01 1:1.665156 2:-1.3982173 3:1.4803266 4:-0.4487972 5:-0.27187673 6:0.096740337 7:0.40585916 8:0.68229266 9:-0.99066087 10:-0.46380957 11:-0.58548293 
-0.01 1:1.665156 2:0.74433495 3:-0.16311006 4:-0.029927577 5:-0.065285565 6:0.0032740485 7:0.19708398 8:1.3754765 9:-1.6512484 10:0.34938319 11:0.54603043 
-0.01 1:1.7806453 2:-1.5109832 3:0.86403786 4:0.73800007 5:-0.3545132 6:-0.93138884 7:-0.81696694 8:1.0022237 9:-1.2548959 10:0.93023516 11:-1.0569468 
-0.01 1:0.22153919 2:0.57518608 3:0.042319522 4:0.10969563 5:0.16196472 6:0.096740337 7:0.67428441 8:0.33036856 9:-0.33007337 10:-0.17338359 11:-0.20831181 
-0.01 1:-1.3375669 2:-1.2290685 3:1.01811 4:0.73800007 5:-0.43714966 6:0.19020663 7:-0.13099132 8:-0.65608535 9:0.52869038 10:0.00087200463 11:0.54603043 
-0.01 1:-0.76012022 2:0.12412244 3:-0.72804142 4:-0.23936239 5:-0.27187673 6:-0.090192241 7:-0.33976651 8:-0.43746584 9:0.33051413 10:-0.40572438 11:-0.67977571 
-0.01 1:-0.067184167 2:-0.83438779 3:0.24774911 4:-0.029927577 5:-0.16858115 6:0.75100436 7:0.73393446 8:-0.25617161 9:-0.26401462 10:1.1044908 11:0.54603043 
-0.01 1:-1.0488436 2:0.011356533 3:-1.0875432 4:-0.3789856 5:-0.51978613 6:1.2183358 7:-0.071341265 8:-0.97601635 9:0.46263163 10:0.98832036 11:-0.11401903 
-0.00080737612656236286 1:-1.1065882 2:-0.83438779 3:-0.67668402 4:-0.23936239 5:-1.036264 6:-0.090192241 7:-0.63801678 8:-0.84271177 9:0.85898413 10:-0.057213193 11:0.64032321 
-0.01 1:2.1271133 2:-0.83438779 3:1.4803266 4:-0.30917399 5:0.099987368 6:-0.93138884 7:-0.6678418 8:1.3488156 9:-1.1227784 10:0.29129799 11:0.45173765 
-0.01 1:0.33702853 2:-0.72162188 3:0.24774911 4:2.1342321 5:-0.023967332 6:-0.55752369 7:0.018133815 8:1.2688328 9:0.46263163 10:0.63980917 11:0.074566531 
-0.01 1:-1.1065882 2:-0.60885597 3:-0.933471 4:-0.16955078 5:-0.70571818 6:1.6856673 7:0.52515927 8:0.27704673 9:0.66080788 10:0.1170424 11:-0.019726249 
-0.01 1:1.3764326 2:0.8007179 3:-0.26582485 4:0.10969563 5:0.389215 6:0.096740337 7:-0.36959153 8:1.9620167 9:-0.19795587 10:1.8595983 11:-0.49119015 
-0.01 1:-0.24041818 2:-0.72162188 3:0.14503431 4:-0.51860881 5:1.4221708 6:-1.305254 7:-0.041516238 8:0.29304328 9:0.00022037948 10:1.4530019 11:-0.86836127 
-0.01 1:0.048305175 2:-0.9471537 3:0.24774911 4:-0.23936239 5:-0.14792203 6:1.4987347 7:0.97253468 8:-0.17085667 9:-0.06583837 10:0.34938319 11:0.54603043 
-0.01 1:-0.64463088 2:0.65976052 3:-1.3956876 4:-0.4487972 5:0.18262383 6:-0.090192241 7:-0.2204664 8:0.015769743 9:0.39657288 10:-0.46380957 11:-1.1512396 
-0.01 1:-0.35590752 2:0.29327131 3:-1.3443302 4:-0.51860881 5:-0.0033082155 6:-0.37059111 7:-0.84679196 8:-0.55477387 9:0.066279129 10:-0.57997997 11:0.074566531 
-0.01 1:-0.58688621 2:0.74433495 3:-1.3956876 4:-0.3789856 5:-0.085944682 6:-0.93138884 7:-0.69766683 8:0.84225816 9:1.9819829 10:1.7434279 11:-0.49119015 
-0.01 1:-0.64463088 2:-0.15779233 3:-0.47125444 4:-0.30917399 5:-0.3545132 6:-0.37059111 7:-0.45906661 8:0.47433751 9:1.3874541 10:0.34938319 11:-0.77406849 
-0.01 1:-0.81786489 2:0.067739488 3:-1.190258 4:0.31913044 5:-0.2305585 6:-0.83792255 7:-0.57836672 8:1.0555455 9:2.5104529 10:1.4530019 11:-0.96265405 
-0.01 1:-0.35590752 2:-1.4546003 3:2.0966154 4:0.66818846 5:5.5746533 6:-1.0248551 7:-1.0853922 8:0.25571799 9:-0.39613212 10:2.4404503 11:-0.49119015 
-0.01 1:-0.0094394959 2:-0.21417529 3:0.45317869 4:-0.51860881 5:2.7650134 6:-0.93138884 7:-0.90644202 8:0.68229266 9:-0.85854337 10:-0.34763918 11:-0.86836127 
-0.01 1:1.83839 2:0.34965426 3:1.6343988 4:0.039884027 5:-0.023967332 6:-0.27712482 7:0.077783869 8:1.1088673 9:-0.85854337 10:-0.057213193 11:0.54603043 
-0.01 1:-0.47139686 2:-0.10140938 3:-1.2929728 4:-0.58842041 5:-0.085944682 6:-0.27712482 7:-0.45906661 8:-0.71473937 9:0.33051413 10:-0.69615036 11:0.074566531 
-0.01 1:-0.76012022 2:0.23688835 3:-1.3956876 4:-0.3789856 5:2.1039217 6:-0.37059111 7:-0.041516238 8:0.021101926 9:0.00022037948 10:-0.34763918 11:-0.96265405 
-0.01 1:0.10604985 2:0.32146279 3:-0.47125444 4:-0.30917399 5:-0.20989938 6:-1.0248551 7:-0.48889164 8:-0.010891173 9:-0.72642587 10:-1.0446615 11:-0.58548293 
-0.01 1:3.8594535 2:-1.792898 3:0.86403786 4:-0.23936239 5:-0.27187673 6:-0.55752369 7:-0.6678418 8:1.7753902 9:-1.5851896 10:1.0464056 11:-1.1512396 
-0.01 1:0.7989859 2:-1.3136429 3:0.65860827 4:-0.72804362 5:-0.31319496 6:-0.18365853 7:-0.75731688 8:-0.61876007 9:-1.1227784 10:-0.87040595 11:0.45173765 
-0.01 1:1.1454539 2:-0.66523893 3:0.76132307 4:-0.099739181 5:2.5790814 6:-0.93138884 7:-0.96609207 8:1.4287983 9:-0.79248462 10:-0.23146878 11:-0.86836127 
-0.01 1:2.011624 2:-1.1163026 3:1.1208248 4:0.59837686 5:0.099987368 6:3.554993 7:1.0023597 8:1.855373 9:-0.06583837 10:0.58172398 11:0.26315209 
-0.01 1:-0.87560956 2:0.57518608 3:-1.0361858 4:-0.30917399 5:0.017350901 6:-0.4640574 7:-0.071341265 8:-0.75739684 9:1.0571604 10:-0.63806517 11:-0.019726249 
-0.01 1:-0.81786489 2:1.1953986 3:-1.2416154 4:-0.16955078 5:-0.70571818 6:-0.83792255 7:-0.90644202 8:-0.87470487 9:0.92504288 10:-0.17338359 11:1.0174943 
-0.01 1:-0.87560956 2:0.51880313 3:-0.9848284 4:-0.4487972 5:-0.41649055 6:1.1248695 7:-0.25029143 8:-0.11220266 9:0.72686663 10:0.93023516 11:-0.86836127 
-0.01 1:-0.64463088 2:0.8007179 3:-1.3956876 4:-0.23936239 5:-0.41649055 6:-0.55752369 7:-0.6678418 8:-0.59743134 9:0.72686663 10:0.34938319 11:0.64032321 
-0.01 1:2.4735814 2:-0.77800484 3:1.1208248 4:-0.029927577 5:-0.16858115 6:-0.74445626 7:-0.78714191 8:1.3221547 9:-1.5851896 10:0.93023516 11:-0.11401903 
-0.01 1:-0.76012022 2:0.91348381 3:-1.3956876 4:-0.4487972 5:0.53382882 6:-1.2117877 7:-1.0853922 8:-0.19218541 9:0.26445538 10:-0.34763918 11:-0.67977571 
-0.01 1:0.27928386 2:0.46242017 3:-0.41989704 4:1.0172465 5:0.12064648 6:1.3118021 7:0.67428441 8:0.61297427 9:-0.59430837 10:-0.92849115 11:-0.39689737 
-0.01 1:1.6074113 2:-0.49609006 3:0.76132307 4:-0.23936239 5:-0.49912701 6:-0.18365853 7:-0.81696694 8:0.45834096 9:-0.39613212 10:-0.52189477 11:-0.019726249 
